<?xml version="1.0"?>
<opencv_storage>
<opencv_ml_svm>
  <format>3</format>
  <svmType>C_SVC</svmType>
  <kernel>
    <type>LINEAR</type></kernel>
  <C>1.</C>
  <term_criteria><epsilon>1.0000000000000000e-02</epsilon>
    <iterations>1500</iterations></term_criteria>
  <var_count>1600</var_count>
  <class_count>2</class_count>
  <class_labels type_id="opencv-matrix">
    <rows>2</rows>
    <cols>1</cols>
    <dt>i</dt>
    <data>
      0 1</data></class_labels>
  <sv_total>1</sv_total>
  <support_vectors>
    <_>
      3.74229741e-04 2.62950634e-04 1.39495489e-04 8.94967670e-05
      5.95302481e-05 2.98339837e-05 2.80422464e-05 5.92434189e-05
      1.82445627e-04 7.20461685e-05 3.44725595e-05 3.54000113e-05
      -7.34517016e-05 -1.87953956e-05 -6.21022191e-05 -9.64949577e-05
      6.51886076e-05 -1.68309525e-05 -6.22848893e-05 -9.97005263e-05
      -3.06405214e-04 -4.12739028e-04 -2.53507867e-04 -3.49794835e-04
      3.69212612e-05 -2.84105423e-04 1.18343196e-04 -1.53493020e-05
      -1.67538179e-04 2.02115712e-04 -1.41681114e-04 1.85387122e-04
      -3.16346413e-05 -3.24382781e-05 7.65384757e-05 6.75926203e-05
      8.12557191e-05 -8.28728207e-06 8.36781037e-05 4.86435427e-04
      -4.87858342e-04 2.33991610e-04 1.28341388e-04 7.26481667e-05
      2.78780535e-05 3.64235384e-05 5.55584811e-05 1.34693755e-05
      1.46532155e-04 1.28919026e-04 3.24520261e-05 3.27845992e-05
      6.99110606e-05 -2.57692172e-05 7.09245387e-06 -1.12557049e-04
      -4.60879091e-05 -1.93700966e-04 6.90497327e-05 7.44443314e-05
      -3.64499772e-03 -5.76199847e-04 -9.87986423e-05 -3.20725725e-04
      -7.83096220e-06 -3.29360395e-04 1.05527499e-04 -4.36244882e-04
      -3.09682655e-04 1.02274411e-03 -8.14687301e-05 -1.27123646e-03
      -4.89703307e-05 5.32466365e-05 9.63869461e-05 8.89932999e-05
      5.34866776e-05 5.19864261e-05 -6.37237608e-05 4.38094459e-04
      -5.34046558e-05 2.88204319e-05 3.04781366e-04 3.17502476e-04
      3.47003879e-05 4.03455160e-05 7.20223215e-06 1.24467930e-04
      1.47665822e-04 1.32606743e-04 3.43287466e-05 3.48889480e-05
      7.14558046e-05 -2.98882187e-05 -2.89672316e-05 -3.49645561e-05
      9.97876705e-05 1.82232630e-04 -5.48828466e-05 3.44320579e-05
      -1.36264251e-04 2.88514886e-03 -7.22945028e-04 -7.09606567e-04
      -4.18761163e-04 -3.36152851e-04 -7.10151653e-05 -2.57621577e-04
      1.00635170e-05 -8.39361572e-04 -1.23095042e-05 2.11468316e-03
      -2.47314401e-05 -9.62035483e-05 4.79364244e-05 1.69676772e-04
      4.56959824e-05 -3.40833096e-04 3.34482000e-04 -9.41222475e-04
      -5.32381993e-04 2.23469245e-03 -1.93988337e-04 4.90974890e-06
      -7.83588621e-06 6.45731197e-05 4.58421237e-05 7.56386507e-05
      1.61444230e-04 1.33594338e-04 3.59831392e-05 3.47322493e-05
      6.94487680e-05 -2.87956009e-05 -3.46810957e-05 6.39979044e-05
      8.41372093e-05 3.82426624e-05 1.35653812e-04 1.41174256e-04
      -2.26867167e-04 2.46337004e-04 -6.66365260e-04 -8.40989931e-04
      -2.89865682e-04 -3.00201966e-04 -4.06245745e-05 -1.97348592e-04
      -1.93002285e-04 -1.01604348e-03 3.73451221e-05 8.18289845e-05
      -2.97285096e-05 -7.76671150e-05 9.89942928e-05 2.60801782e-04
      2.37952365e-04 -6.61155500e-05 -8.97263089e-05 -5.33275073e-04
      -1.58071198e-04 -1.74901809e-03 -2.11822204e-04 -2.34496358e-04
      -1.42410179e-04 -1.28685997e-06 1.79370963e-05 8.09130288e-05
      1.29366817e-04 1.33044639e-04 3.69274821e-05 3.35321020e-05
      1.01989848e-04 1.54782015e-06 -3.39940234e-05 6.60402875e-05
      -6.29938266e-04 1.38080635e-04 1.19261087e-04 -2.00844697e-05
      3.36278208e-05 -1.31006396e-04 -9.15626937e-04 -5.66514791e-04
      -8.17625114e-05 -3.96116258e-04 -5.43786045e-05 -1.46636094e-05
      -1.70662141e-04 -6.60501537e-04 -1.04112230e-04 9.08360889e-05
      -6.45225737e-05 6.29337737e-05 5.07107943e-05 3.05433758e-04
      2.38127846e-04 -1.87841011e-04 -6.99161028e-04 -1.66822644e-03
      -9.47888257e-05 -1.42517229e-05 -2.02535284e-05 -3.31756775e-04
      -2.68251984e-04 3.72578397e-05 5.32836420e-05 1.08673361e-04
      9.57084994e-05 1.30534565e-04 1.02830847e-04 7.10258391e-05
      1.31599139e-04 2.26445218e-06 6.58708232e-05 5.34071805e-05
      3.40686420e-05 1.23741425e-04 5.53660357e-05 2.48452634e-05
      -6.13478827e-04 -7.52502237e-05 -4.70843661e-04 -2.33228377e-04
      -1.17175150e-04 -5.92023775e-04 1.19332872e-04 1.37672178e-04
      2.74668681e-04 1.10024598e-03 8.19333945e-06 6.85939522e-05
      3.32864583e-05 -9.67909436e-05 7.24109486e-05 8.87370479e-05
      4.45038640e-05 -6.24593522e-05 1.19550634e-04 -1.46360699e-05
      -6.10090865e-05 6.48163026e-04 -2.12574028e-04 -2.77177052e-04
      1.11362249e-04 2.70831777e-04 5.43130909e-06 1.35441456e-04
      9.38023586e-05 1.32100700e-04 1.15513052e-04 1.17798787e-04
      1.18680990e-04 1.15684437e-04 6.34135868e-05 5.28917444e-05
      1.11937778e-04 9.49812093e-05 1.17168740e-04 6.25354878e-05
      6.57779106e-04 -2.11744569e-04 -2.05725373e-04 7.34128917e-05
      -1.66412938e-04 -2.80092470e-04 -1.26809624e-04 -3.84010855e-05
      3.74061987e-04 -2.63735797e-04 -5.97715320e-04 8.94270197e-05
      -3.19081919e-05 5.48492972e-05 1.51311702e-04 1.01048507e-04
      -1.70161031e-04 -2.55338062e-04 -1.56559283e-04 4.10397615e-06
      -5.94076628e-05 -3.27999733e-05 -9.67841421e-04 -3.12489021e-04
      6.73051763e-05 1.25884500e-04 4.66908714e-05 1.08610635e-04
      9.46232249e-05 1.26021463e-04 1.19384422e-04 1.16228606e-04
      1.16691954e-04 1.18375450e-04 1.16789262e-04 -9.44679705e-05
      4.76613131e-05 1.48940380e-04 -2.81820721e-05 -3.33785050e-04
      -3.79363104e-04 4.32331726e-04 3.08453827e-03 -3.31058895e-04
      -1.68148090e-05 -6.68489301e-05 -2.97805789e-04 3.12818040e-04
      3.14263598e-04 -1.77406328e-04 -5.70170465e-04 8.81260712e-05
      -8.76854119e-06 -6.45583132e-05 5.95860547e-05 1.45934187e-04
      -3.06321454e-04 -2.89751653e-04 -7.89622354e-05 -1.55559520e-03
      -6.10225361e-05 -3.57137687e-05 -2.83606176e-04 -3.99895391e-04
      7.57773232e-05 6.96049392e-05 3.72599497e-05 1.71276231e-04
      9.68366949e-05 1.23805890e-04 1.20226287e-04 1.17364107e-04
      1.36954521e-04 1.17654112e-04 1.20684148e-04 2.11745555e-05
      4.45095466e-05 5.95839374e-05 3.63810541e-05 -2.78085317e-05
      -3.04504920e-05 -4.44203586e-04 2.38873856e-03 -2.80150824e-04
      -2.13254316e-04 2.18802670e-04 -6.62384336e-05 -1.36580755e-04
      -1.36973424e-04 -9.32339681e-05 2.53920420e-03 1.95809480e-04
      -2.26539341e-05 -5.84986847e-05 6.76634736e-05 1.74490895e-04
      -2.20011832e-04 8.90468364e-04 5.07072196e-04 2.04371102e-03
      -1.27185718e-04 -4.05666615e-05 -9.30001916e-05 -1.61361124e-04
      8.14213490e-06 -1.76538961e-05 5.93560871e-05 2.15411477e-04
      9.67701271e-05 1.71513559e-04 1.19161545e-04 1.22821672e-04
      1.38061936e-04 1.18981108e-04 1.21326804e-04 8.27310869e-05
      7.88962425e-05 4.52011263e-05 3.00559786e-05 -6.15486124e-06
      -1.66817219e-04 -2.22805058e-04 -5.47430500e-05 -2.41642862e-04
      1.54074842e-05 3.43562366e-04 -1.68241342e-04 4.04828825e-05
      1.69502498e-04 -3.91581649e-04 -3.00860906e-04 -1.10254565e-04
      -3.69481677e-05 -4.16227813e-05 5.93541590e-05 9.71360569e-05
      -7.98616020e-05 6.73226430e-04 -2.03200398e-04 2.22428949e-04
      -2.00688169e-06 -4.07594962e-05 -6.99020602e-05 -1.26818166e-04
      5.37426095e-05 -4.35242964e-06 1.71371103e-05 1.71487918e-04
      1.26577099e-04 1.61992299e-04 1.18411226e-04 8.51729492e-05
      1.04306549e-04 1.54650945e-04 7.18556257e-05 4.96781140e-05
      4.40842050e-05 5.63648209e-05 3.72986629e-04 -2.02094307e-05
      -1.35383321e-04 -6.61662023e-04 2.28685123e-04 -1.86203833e-05
      -5.23314848e-05 8.79385771e-05 4.21288132e-04 1.52623368e-04
      1.45824335e-04 1.15766357e-04 3.42104235e-04 1.08022359e-04
      -5.27806224e-05 -4.02727856e-05 6.75791453e-05 4.14876413e-05
      -5.30666366e-05 1.79646333e-04 1.45460988e-04 8.27984695e-05
      -2.52404479e-05 7.48936827e-06 -6.49112117e-05 1.22874071e-05
      5.65032424e-05 -6.56311167e-05 4.90861494e-05 2.15204578e-04
      9.76942247e-05 1.29560736e-04 9.56792428e-05 8.26009491e-05
      1.08288790e-04 1.49875792e-04 -7.20555036e-05 -1.37973739e-05
      -1.23759484e-04 6.99986267e-05 1.08353037e-04 -1.12828064e-04
      -4.59703268e-04 -3.67819594e-04 3.47674446e-04 2.16626679e-04
      1.61496311e-04 8.08209006e-05 -6.78205339e-04 -1.76386184e-05
      2.00877781e-03 9.09087539e-05 5.48249809e-04 -7.51711195e-06
      -4.92468316e-05 -4.85242927e-05 6.55047843e-05 1.28139014e-04
      1.43649508e-04 7.90226404e-05 1.88099264e-04 8.95714547e-05
      -2.09974569e-05 5.65399788e-03 3.73512914e-04 -7.07678264e-05
      1.06540108e-04 -1.14394847e-04 8.55689941e-05 1.74242101e-04
      9.44767235e-05 1.20667552e-04 1.01287296e-04 1.08733446e-04
      1.04451996e-04 2.89935124e-05 1.50656590e-04 -1.83455471e-04
      -3.28169524e-04 -1.53559668e-04 -2.53376820e-05 -1.27117863e-04
      -4.29227279e-04 -4.71953739e-04 5.06375567e-04 -1.91266605e-04
      7.27604638e-05 -2.49395729e-04 -1.75745532e-04 -1.50330248e-04
      1.61485295e-04 -3.02569570e-05 5.43718692e-04 5.82358552e-05
      -4.88819351e-05 -4.39799333e-05 7.78316462e-05 9.55877331e-05
      9.40231039e-05 8.09241901e-05 1.48192499e-04 8.72750170e-05
      -2.81602570e-06 -1.49772832e-05 4.31518201e-05 -1.93894681e-04
      -5.86108654e-05 -1.02944046e-04 1.24607963e-04 2.74824532e-04
      9.44966014e-05 7.27381848e-05 1.46952836e-04 1.03772771e-04
      1.11881578e-04 1.28290092e-04 -3.41745690e-05 -5.12579747e-04
      2.26396194e-04 -5.77164930e-04 -1.11552690e-04 -3.65647051e-04
      -4.37125971e-04 -7.29012711e-04 4.18830110e-04 -4.15169721e-04
      2.87567789e-04 4.40674659e-04 1.18323354e-04 -4.30471155e-05
      -6.53604337e-04 -3.54212443e-06 2.26907758e-03 -1.21286057e-05
      -4.00807876e-05 -7.12648252e-05 7.96569366e-05 1.52023222e-05
      8.76081322e-05 3.78765602e-04 1.82547083e-04 6.01273277e-05
      -4.65771373e-05 -3.65843080e-05 -1.00049314e-04 -4.07336483e-04
      9.96918789e-06 -4.47370730e-05 1.62371434e-04 2.00994953e-04
      9.44062122e-05 6.90297020e-05 1.12354115e-04 1.09626206e-04
      1.00689380e-04 9.96507333e-06 -4.56620648e-04 -6.98458898e-05
      -1.83557553e-04 -2.46570475e-04 -6.44596817e-04 -4.62965836e-04
      -1.17986609e-04 -4.15349845e-04 5.34263090e-04 -6.72246737e-04
      -2.03952208e-04 -2.14912856e-04 -1.42518911e-05 -2.45098694e-04
      -9.92518253e-05 2.46657783e-05 3.02358414e-03 5.47057498e-05
      -7.37975497e-05 -1.57310478e-05 6.97220967e-05 1.00149635e-04
      -1.25181963e-04 -2.18453468e-04 1.43033511e-04 5.27700249e-05
      1.41513738e-06 -3.99596247e-05 1.13194270e-04 -4.29188862e-04
      4.30595865e-05 -9.72546422e-06 1.25081307e-04 1.71985725e-04
      9.80109253e-05 6.25356770e-05 1.46845894e-04 1.04027407e-04
      1.05047024e-04 2.99604526e-05 -6.57097204e-04 3.97654978e-04
      2.37430169e-04 -3.72876937e-04 -5.61306137e-04 9.83318023e-05
      8.58630301e-05 -3.45592096e-04 -1.58914088e-04 -4.96724562e-04
      -4.45744983e-04 -9.41173130e-05 -8.48685813e-05 2.27365090e-04
      -4.72417520e-03 -1.53723144e-04 6.61597369e-05 7.70252009e-05
      -4.32146699e-05 -3.03661163e-05 6.31492221e-05 7.52437918e-05
      9.81442427e-05 -2.34269712e-04 1.41796540e-04 5.03826559e-05
      -1.99690135e-06 -3.70934031e-05 1.21842262e-04 -2.76435632e-04
      4.49967702e-05 -2.15211970e-04 9.95968585e-05 1.71657492e-04
      3.76758544e-05 5.33907914e-05 1.44915350e-04 1.04537816e-04
      9.86617306e-06 -2.05371252e-05 -4.57582093e-04 5.13060892e-04
      3.99281998e-04 -6.14692224e-04 -9.65755771e-06 1.13488613e-05
      4.58699593e-04 -1.25334816e-04 -1.76896737e-03 -8.03725270e-05
      -4.07373533e-04 -1.47512095e-04 1.64516066e-04 1.64025289e-04
      -1.05612224e-03 3.31990159e-05 9.15308992e-05 7.38327799e-05
      -3.51077651e-05 -3.72055656e-05 6.39240825e-05 -1.94593420e-04
      3.21403902e-04 1.49488304e-04 3.14591423e-04 7.71782870e-05
      4.27902887e-06 -3.71218703e-05 9.58461678e-05 1.10900357e-04
      5.44654176e-05 -2.12028535e-04 7.90358172e-05 1.75450230e-04
      2.72663565e-05 1.07920350e-04 5.78984036e-05 9.35572898e-05
      -1.29119917e-05 -1.75818350e-04 -1.84128425e-04 4.00408055e-04
      -4.10332941e-05 1.31450142e-04 -3.57630954e-04 -2.14481370e-05
      -4.15027636e-04 -2.68912147e-04 1.52886423e-04 -2.89675285e-04
      8.58598680e-04 -2.19305657e-05 2.47262360e-04 1.66435813e-04
      1.03299399e-05 7.16697905e-05 6.48485002e-05 6.19005878e-05
      -2.43011727e-05 -1.45148457e-04 -1.09081057e-05 -8.90751035e-05
      7.67218080e-05 -2.01207513e-04 9.61521073e-05 6.85785926e-05
      -2.54171573e-06 -3.51397430e-05 -9.29108792e-05 5.30155266e-05
      2.81306602e-05 -2.13820676e-04 9.45520223e-05 1.72054759e-04
      5.20444082e-05 1.06306034e-04 4.73156506e-05 7.67065649e-05
      8.04615629e-05 -3.00989224e-04 -1.14507442e-04 -5.06688200e-04
      -1.16257099e-04 4.92739724e-04 -1.86611534e-04 1.32203582e-04
      -3.94287839e-04 -4.28769708e-04 2.09132719e-04 -4.08939610e-04
      -6.92508009e-04 -3.63693835e-04 1.77563561e-04 1.29051026e-04
      3.15591788e-05 -4.94726526e-04 9.79772885e-05 -1.93907399e-05
      2.59730208e-04 -7.64101878e-06 -6.08764567e-05 -1.70204192e-04
      2.55625957e-04 1.03049097e-04 4.82159696e-04 9.71192276e-05
      -2.80546124e-06 -3.95605093e-05 -3.65868967e-04 -2.06722234e-05
      -1.86395500e-05 -2.13617910e-04 9.97538955e-05 1.41081691e-04
      6.32569572e-05 1.03916587e-04 5.76411840e-05 8.39377026e-05
      1.63637611e-04 7.55137080e-05 -2.55905208e-04 -2.35124666e-04
      -2.49813049e-04 2.73313844e-06 -1.29410895e-04 -1.42511286e-04
      3.53281830e-05 -5.57335588e-05 1.76752263e-04 -5.66034578e-04
      -2.38806620e-04 -2.84967013e-04 -1.24739265e-04 6.74577168e-05
      7.55555957e-05 -1.04119396e-03 9.24673222e-05 7.83701034e-06
      -4.64852899e-04 -1.54164838e-04 1.07852109e-04 -6.48416899e-05
      -6.20085193e-05 2.90774013e-04 -3.01485619e-04 6.61839440e-05
      8.61523006e-07 -3.80177262e-05 -1.87190657e-04 1.30063083e-04
      2.53840044e-05 -1.64963465e-04 9.43684136e-05 9.81975536e-05
      9.08057918e-05 6.47709821e-05 5.76411912e-05 5.13227897e-05
      9.07677022e-05 1.01288671e-04 -2.31127400e-04 1.05589075e-04
      7.67932797e-05 -1.23251186e-04 -2.42756883e-04 4.87945326e-05
      -1.57000584e-04 -2.01131857e-04 9.14098520e-04 -9.77105461e-04
      -2.06776327e-04 -9.83653081e-05 -4.44178993e-04 2.91113713e-04
      2.29813645e-06 7.11230445e-04 9.28228765e-05 3.57286408e-05
      1.29551126e-03 6.92056210e-06 1.71737818e-04 7.83025916e-06
      -1.05744235e-04 5.03821706e-04 1.54064226e-04 1.23394580e-04
      -7.55987969e-07 -3.57997233e-05 -4.84908087e-05 4.48050792e-04
      9.06378627e-05 -1.21043297e-04 9.99466502e-05 1.09422850e-04
      5.59727159e-05 6.36734840e-05 5.31774240e-05 1.07844855e-04
      1.50847627e-04 -7.93563522e-05 2.77498038e-04 -5.59982582e-05
      -3.19939645e-05 -2.66516145e-04 -1.09395711e-04 -4.18829353e-04
      -4.09287430e-04 -3.62276885e-04 -1.77235412e-03 -3.36916070e-04
      1.25500941e-04 -4.59718081e-04 -6.90846500e-05 3.64691747e-04
      4.76731975e-06 8.53934151e-04 8.54880782e-05 4.56286543e-05
      1.28513458e-03 5.12922225e-06 8.76680206e-05 8.42061054e-05
      -1.20454184e-04 5.40949870e-04 3.30272378e-05 -2.94203073e-05
      1.70736837e-06 -3.81230639e-05 -3.57099671e-05 5.22569462e-04
      8.01052665e-05 -1.48003077e-04 1.44097765e-04 7.64559736e-05
      4.72473585e-05 7.34256319e-05 3.16491933e-05 7.86827819e-04
      9.45472202e-05 -1.40454911e-04 3.19089915e-04 -1.67244449e-04
      1.32662622e-04 -2.97286286e-04 2.08290425e-04 7.93963318e-06
      -3.24447668e-04 -3.29368413e-05 -9.26962530e-04 -3.42748652e-04
      1.43943739e-03 -1.54227644e-04 4.41572018e-04 1.35227310e-04
      4.29835054e-05 8.26751639e-04 7.64165234e-05 4.33176210e-05
      -3.68101452e-03 -6.93574184e-05 6.92869871e-05 4.63046046e-04
      1.09123619e-06 3.77283577e-04 -2.64810787e-05 4.63210927e-05
      1.28111185e-06 -4.17002593e-05 4.43052704e-04 6.26572815e-04
      -1.20723562e-04 -1.40218050e-04 7.83038340e-05 8.28627890e-05
      5.77299143e-05 2.10514245e-05 6.67913046e-05 1.44409976e-04
      8.95974445e-05 -2.63741167e-05 6.08154078e-05 5.94520425e-05
      4.36043658e-04 -1.26010098e-04 5.25514770e-04 -7.59827599e-05
      -2.64623144e-04 -2.42654132e-04 -9.13247815e-04 -5.69280586e-04
      3.20933148e-04 -1.89595972e-04 1.43453173e-04 -9.49027424e-04
      9.20157763e-05 -8.31880025e-04 2.84864707e-03 8.15987121e-04
      5.37073938e-03 -2.71221052e-05 -1.28081316e-04 3.82848193e-05
      -3.54300973e-05 2.43160539e-04 7.58108436e-05 4.88020451e-05
      -4.08889889e-07 -3.57445679e-05 2.08535450e-04 2.58866523e-04
      -1.19750563e-04 -8.36469844e-05 7.92395513e-05 8.38151391e-05
      5.58686588e-05 3.14133722e-05 6.57134951e-05 4.82864038e-04
      8.45584873e-05 2.67334708e-05 1.10422625e-04 7.29162639e-05
      1.07734168e-05 -4.16345756e-05 7.28760497e-04 -2.62598478e-04
      1.30550863e-04 4.73883156e-05 -5.38980472e-04 2.26832475e-04
      8.05677337e-05 -7.93757936e-05 4.62258147e-04 -1.57302560e-03
      2.41689631e-04 -3.67536268e-05 2.97054100e-07 4.16550844e-04
      4.62845340e-03 -1.02586564e-04 -9.42574625e-05 3.01134151e-05
      -3.42122948e-04 3.06657108e-04 2.08859183e-05 6.94535847e-05
      1.43513512e-06 -3.97574622e-05 3.06576054e-04 -1.46240345e-04
      -5.71741984e-05 3.03018842e-05 8.73881509e-05 8.01452843e-05
      5.34585561e-05 3.19516002e-05 9.53571798e-05 7.79164184e-05
      8.70459116e-05 2.93399680e-05 -9.54204097e-06 7.34646601e-05
      6.09327763e-05 3.96143223e-05 2.24602081e-05 -7.71341220e-05
      3.87704786e-04 1.82022573e-04 -2.24122196e-04 3.40139726e-04
      4.90617458e-06 8.76170379e-05 3.31067349e-05 -5.79037820e-04
      -3.91348804e-05 -2.66119430e-04 7.40018868e-06 1.14497007e-03
      -9.26815992e-05 -6.20691571e-05 3.76681928e-05 8.22257425e-05
      7.37981827e-05 9.33296360e-06 1.02916441e-04 1.03141592e-05
      -5.17593946e-07 -6.92004469e-05 2.82237947e-04 -3.50691262e-04
      -5.45304792e-05 3.82080070e-05 8.17727778e-05 8.35867395e-05
      5.23009403e-05 5.17842163e-05 7.42060729e-05 5.62146488e-05
      1.82264612e-05 1.72549844e-05 -1.03364082e-05 9.31522954e-05
      1.04004132e-04 7.19776508e-05 1.75416135e-05 -4.45807163e-05
      -1.86662674e-05 -9.66499210e-05 -3.56014236e-04 -2.26588585e-04
      -2.83687114e-05 -1.47064915e-04 3.03890629e-05 2.50122929e-03
      -4.09627421e-04 -4.83725307e-04 -8.69496434e-05 -2.99246203e-05
      -1.28619984e-04 -1.19111728e-05 -1.09217816e-03 1.50173681e-03
      1.91863044e-04 2.12136802e-04 1.44237274e-04 4.07618318e-05
      4.97786095e-06 -4.23911733e-05 2.38589302e-04 -2.57399457e-04
      -1.67602877e-04 3.06562106e-05 1.23128339e-04 7.78371395e-05
      5.53505270e-05 6.49326976e-05 3.70279769e-04 6.16789184e-05
      7.99444115e-06 3.39603612e-05 6.41094084e-05 6.41589431e-05
      1.03155508e-04 -2.55350710e-06 2.17574125e-05 -1.43641388e-04
      -2.08773781e-05 -1.90928531e-05 -6.28103153e-04 -3.54687509e-05
      -1.81252230e-03 4.39512405e-05 1.14430070e-04 -5.51278936e-04
      -7.52599444e-04 -6.43306063e-04 -7.34214700e-05 -9.34043492e-05
      -8.56347979e-05 -4.67884420e-05 -1.53241272e-05 -1.04602333e-03
      1.62720989e-05 1.96600104e-05 2.54627463e-04 7.10967579e-05
      -3.25985297e-06 4.08705228e-06 2.82813126e-04 -2.62140326e-04
      4.74993140e-05 1.68560247e-04 1.11603571e-04 9.03690234e-05
      5.47398195e-05 1.19878045e-04 6.23623710e-05 6.48400601e-05
      3.80170895e-05 2.72392990e-05 3.53364667e-05 3.70381495e-05
      5.82310568e-05 4.46335580e-05 -2.50672147e-05 -1.06165578e-04
      -3.84669052e-04 -1.26231689e-05 -2.26821098e-03 4.90395396e-05
      -1.05198305e-04 2.04118682e-04 2.45031872e-04 -5.99986350e-04
      -1.02754531e-03 -5.63546724e-04 -1.11780952e-04 -3.75904383e-05
      -7.01047102e-05 5.45434959e-05 -1.13892173e-04 -1.86094572e-03
      1.19113924e-04 -9.20346429e-05 -5.78896259e-04 3.82406652e-05
      -5.68712348e-05 1.19474871e-05 1.16603267e-04 -1.70038198e-04
      -7.32150729e-05 -5.99821869e-05 1.24218146e-04 7.89503611e-05
      3.47343848e-05 1.33523397e-04 5.28766323e-05 6.06614849e-05
      5.32062295e-05 2.80854492e-05 7.50783831e-04 4.49014005e-05
      -6.35798278e-05 -1.17730953e-04 -4.65707621e-04 -1.31105713e-04
      9.17381258e-04 -2.73583373e-05 6.85820996e-04 2.88789743e-05
      1.28196424e-03 2.06675322e-04 -3.02010361e-04 1.01420519e-05
      -1.49082203e-04 -4.56096343e-04 -2.44949857e-04 -3.55754637e-05
      -7.84978765e-05 -4.21534569e-05 -3.14552744e-05 2.05353917e-05
      -4.27130362e-05 -4.41841607e-04 -3.49360460e-04 3.39877042e-05
      -6.19579951e-05 3.25852375e-06 3.25120607e-04 -1.74190107e-04
      3.79533267e-05 -3.12021366e-05 1.17140138e-04 3.62773571e-05
      3.57994504e-05 1.37488794e-04 6.35745819e-05 5.61687557e-05
      3.97158547e-05 7.80276023e-05 -8.86982252e-06 -1.32430041e-05
      -1.03857477e-04 -4.21629557e-05 1.77721187e-04 -1.08994143e-04
      -5.19723399e-05 -1.36080771e-05 5.70576813e-04 -1.63093733e-04
      -6.10626477e-04 -5.29313584e-05 -2.26137869e-04 -3.41966079e-04
      -4.30209293e-05 -4.70336905e-04 -3.09352734e-04 -7.06687570e-05
      -3.48219764e-05 -8.96749043e-05 -5.19509304e-05 -4.88834805e-04
      7.11034954e-05 -4.02678561e-04 1.32357027e-05 2.07573448e-05
      -6.14703313e-05 -2.59144254e-05 6.37295481e-04 -8.12867147e-05
      1.45270869e-05 -4.22663543e-05 1.06485888e-04 1.01250793e-04
      6.72163223e-05 1.37415453e-04 5.44828872e-05 2.98483019e-06
      3.72065588e-05 7.97325629e-05 1.96360761e-05 -1.10217943e-05
      -9.68855311e-05 -6.73209797e-05 -1.47855681e-04 -1.37359166e-04
      -3.60720333e-05 2.34076415e-05 -9.32009971e-06 1.39596988e-03
      -9.43607010e-05 6.72215901e-05 -1.97816596e-04 -8.30435078e-04
      2.06855452e-03 3.31446691e-03 7.71097955e-04 -7.44255522e-05
      -7.70395127e-05 -7.92451028e-05 -4.57169554e-05 -4.81153402e-04
      -1.49716405e-04 -2.50441644e-05 1.06711443e-04 1.86420875e-05
      -6.38022539e-05 -4.23599158e-06 3.15726851e-04 -3.17711820e-05
      -3.77480865e-05 -4.35027287e-05 8.92599419e-05 1.08386696e-04
      4.87001635e-05 1.76168905e-04 6.96780335e-05 5.28047349e-05
      5.27609736e-05 8.06504031e-05 1.16454677e-04 -1.25531678e-05
      -8.95894336e-05 -1.04396437e-04 -9.19631639e-05 -6.45350156e-05
      -4.28922394e-05 -2.11677998e-05 -9.17875150e-05 9.98253468e-04
      -2.51611549e-04 -2.35180763e-04 -3.01957509e-04 -1.15772084e-04
      -3.59438680e-04 1.06541753e-04 2.44600093e-03 -2.18467321e-03
      1.76481565e-03 -8.25777970e-05 4.22598823e-05 8.85054578e-06
      -8.72173187e-05 2.49447330e-04 1.91584244e-04 2.79598262e-05
      -5.93575678e-05 -7.58456081e-05 1.08245775e-04 -2.87704825e-05
      -1.61766093e-05 -5.46177216e-05 7.53303175e-05 5.55964943e-05
      1.26096624e-04 2.55060010e-03 2.76525498e-05 3.89835441e-05
      1.46348480e-04 5.89375159e-05 7.98461624e-05 -9.67584583e-06
      -1.37024748e-04 -7.39034585e-05 -8.59055435e-05 -1.38472707e-04
      -1.76661542e-05 -6.19548227e-05 -1.50694425e-04 -1.41537073e-03
      8.20717651e-06 -1.89342085e-04 2.18937625e-04 -2.59838445e-04
      -1.22796890e-04 -3.27271147e-04 -1.17459174e-04 1.15362671e-03
      5.38956083e-04 -6.73662144e-05 -2.24669362e-04 -2.20940259e-04
      -1.46763210e-04 1.61506337e-04 3.22772423e-04 4.01160323e-05
      -7.88952675e-05 -1.17117110e-04 -7.21591787e-05 -2.12909741e-04
      -4.23558049e-05 -4.06365434e-05 5.88138064e-05 8.44365131e-05
      1.17997530e-04 -3.52956995e-04 9.83689606e-05 6.86127096e-05
      4.63426368e-05 9.84066646e-05 7.28125015e-05 -6.09954732e-05
      -1.04402010e-04 -5.50706027e-05 -5.18391134e-05 -1.27616004e-04
      2.04222124e-05 -4.25106882e-05 -1.56461727e-04 -3.74632014e-04
      4.88747282e-05 1.61162243e-05 2.02929150e-04 1.18467011e-04
      4.91921819e-05 -4.46393271e-04 -7.44846038e-05 3.90576279e-05
      1.23324781e-03 -5.37288543e-05 -3.01171422e-05 1.07345695e-03
      9.57539160e-05 2.52293801e-04 4.21492092e-04 -1.07813248e-05
      -4.43091521e-05 -4.41242264e-05 -5.31167607e-04 1.68006761e-06
      -1.84097178e-06 -3.15595717e-05 7.10390013e-05 5.31170408e-05
      8.70924268e-05 1.40014483e-04 -3.91627918e-06 1.62216835e-04
      8.64552567e-05 1.05056941e-04 8.62890738e-06 -8.10217316e-05
      -1.40344462e-04 -9.77538948e-05 -1.10020068e-04 4.49494428e-06
      2.65219769e-05 1.28918891e-05 -1.10438479e-04 -2.36317675e-04
      -1.89112674e-04 1.61994089e-04 -2.65723036e-04 2.04192271e-04
      4.58886243e-05 -2.68537202e-04 -1.00876576e-04 1.37793347e-06
      -6.23103697e-04 -5.57432359e-05 3.21855792e-03 1.15001190e-03
      4.12546156e-04 3.00365855e-06 -5.06724609e-05 3.36178564e-05
      -5.09349093e-06 -1.95776829e-05 -2.48694938e-04 -1.25220598e-04
      -6.88689215e-06 6.95759154e-05 1.27060863e-04 1.26588537e-04
      1.68388098e-04 1.89982515e-04 7.93873623e-05 2.11524952e-04
      -1.94251243e-05 8.63639070e-05 -1.41103137e-05 -6.91734604e-05
      -1.22276193e-04 -1.24096594e-04 -1.06127824e-04 -5.25509950e-06
      6.67377535e-05 1.39634867e-04 -6.33798163e-06 -3.32602649e-04
      -2.58375105e-04 3.55547345e-05 -6.48211397e-04 3.35738208e-04
      5.04533709e-05 -7.43371202e-05 -4.22542143e-05 3.94729977e-05
      -1.61505784e-04 -5.26737640e-05 3.67741589e-03 1.79557555e-05
      2.24616510e-04 5.48952703e-05 -7.24269630e-05 4.64717014e-05
      2.25617993e-03 3.13098019e-04 6.23191181e-06 7.62867567e-05
      -5.87526083e-05 7.60449548e-05 9.67486121e-05 1.28025844e-04
      1.39695971e-04 1.06986205e-04 1.04628612e-04 4.74614417e-03
      -2.19628291e-05 -7.66910380e-05 3.40593106e-05 8.23820592e-05
      2.74852555e-05 3.44405009e-04 -3.41506825e-06 6.20728679e-05
      1.61448887e-04 1.86924575e-04 -4.92304825e-05 -1.12084170e-04
      -1.13448063e-04 -4.37423936e-04 -2.53164471e-04 -8.24380622e-05
      1.28107888e-04 -8.18610861e-05 -4.57941496e-05 -2.18768423e-06
      6.08125469e-04 -7.07486251e-05 1.35230622e-03 2.79240321e-05
      5.38602399e-05 3.22349188e-05 1.47832252e-04 7.23329198e-04
      1.93531974e-04 5.47028903e-04 2.21204158e-04 3.65349115e-04
      9.74136492e-05 7.28768791e-05 8.18954504e-05 1.76150366e-04
      1.32941976e-04 8.14259329e-05 -1.08654273e-03 3.04106594e-04
      1.18128199e-03 -1.68285231e-04 4.72801221e-05 2.78674524e-05
      -1.01315083e-04 -4.02871927e-04 -3.36023440e-05 9.15821292e-05
      -1.91925574e-04 1.75653782e-04 -9.45832653e-05 -3.69642541e-04
      4.00856225e-05 3.06825823e-05 5.79429907e-04 -2.95417791e-04
      -2.20084723e-04 -1.75089881e-05 -9.07358408e-05 3.60978956e-05
      -6.38979371e-04 -4.24014070e-05 6.58198376e-04 2.79531760e-05
      6.61359736e-05 2.36625478e-04 3.76461918e-04 7.14096706e-04
      -2.05910590e-04 1.89201012e-06 -1.21479090e-04 9.41656981e-05
      7.28416198e-05 7.99614791e-05 6.64963445e-05 1.66793106e-04
      1.46967723e-04 3.09280222e-05 -1.28896982e-05 -7.40000323e-05
      -2.84592039e-04 3.01794987e-03 -2.51428923e-04 -1.69470237e-04
      -1.60504977e-04 -2.47503805e-04 -5.67591924e-05 -1.15063274e-04
      -4.39641917e-05 -6.13611919e-05 -5.56840503e-04 -5.01644565e-04
      -3.60753824e-04 -2.52212281e-04 4.78163602e-05 -1.14689901e-04
      -2.34281164e-04 1.86367994e-04 -7.41887779e-05 5.04003874e-05
      -1.98129611e-03 -5.79514526e-05 4.64597542e-05 3.45145672e-05
      8.46592666e-05 7.85821394e-05 4.16237599e-04 6.95582072e-04</_></support_vectors>
  <uncompressed_sv_total>157</uncompressed_sv_total>
  <uncompressed_support_vectors>
    <_>
      0. 1. 2. 0. 0. 1. 0. 0. 0. 0. 0. 0. 0. 0. 0. 0. 0. 0. 2. 0. 2.
      254. 255. 254. 0. 1. 2. 0. 0. 0. 255. 255. 254. 255. 0. 0. 0. 1.
      0. 3. 0. 0. 0. 1. 2. 0. 0. 5. 0. 0. 0. 0. 0. 0. 0. 0. 0. 2. 1. 0.
      0. 255. 255. 255. 2. 0. 0. 1. 0. 5. 253. 255. 255. 250. 0. 0. 1.
      1. 1. 0. 255. 0. 3. 1. 0. 1. 1. 0. 0. 0. 0. 0. 0. 0. 0. 0. 0. 1.
      0. 1. 4. 254. 254. 255. 0. 0. 2. 0. 1. 0. 255. 0. 254. 255. 2. 2.
      0. 3. 0. 1. 255. 0. 2. 1. 1. 0. 3. 2. 0. 0. 0. 0. 0. 0. 0. 0. 2.
      0. 2. 1. 0. 0. 255. 252. 0. 1. 0. 2. 0. 2. 254. 0. 255. 255. 0. 0.
      0. 0. 3. 0. 254. 2. 0. 0. 0. 2. 0. 1. 0. 0. 0. 0. 0. 0. 0. 0. 3.
      0. 0. 0. 1. 2. 255. 255. 0. 0. 0. 0. 1. 0. 255. 0. 253. 255. 0. 1.
      1. 0. 1. 255. 255. 0. 2. 0. 2. 0. 4. 1. 0. 0. 0. 0. 0. 0. 0. 0. 0.
      1. 4. 0. 0. 0. 255. 255. 0. 3. 0. 0. 0. 0. 254. 1. 255. 255. 0. 4.
      0. 0. 2. 253. 255. 0. 0. 0. 0. 1. 0. 0. 0. 0. 0. 0. 0. 0. 0. 0. 4.
      0. 0. 0. 0. 3. 1. 255. 0. 0. 0. 2. 0. 255. 255. 0. 255. 252. 0. 0.
      2. 0. 0. 255. 255. 0. 0. 2. 0. 0. 2. 1. 0. 0. 0. 0. 0. 0. 0. 0. 0.
      0. 1. 0. 1. 1. 0. 255. 3. 0. 1. 0. 0. 254. 255. 0. 254. 255. 0. 0.
      1. 0. 2. 0. 255. 0. 0. 0. 0. 0. 0. 0. 0. 0. 0. 0. 0. 0. 0. 0. 0.
      0. 0. 0. 0. 0. 0. 255. 1. 0. 0. 4. 0. 255. 254. 0. 255. 255. 0. 1.
      0. 0. 0. 0. 255. 0. 0. 0. 0. 0. 0. 0. 0. 0. 0. 0. 0. 0. 0. 0. 0.
      0. 0. 0. 0. 0. 0. 255. 0. 1. 0. 0. 0. 255. 255. 0. 255. 255. 0. 1.
      0. 0. 0. 0. 255. 0. 0. 0. 0. 0. 0. 0. 0. 0. 0. 0. 0. 0. 0. 0. 0.
      0. 0. 0. 0. 0. 0. 255. 4. 0. 2. 0. 2. 254. 253. 3. 255. 255. 0. 1.
      0. 0. 0. 0. 255. 0. 0. 0. 0. 0. 0. 0. 0. 0. 0. 0. 0. 0. 0. 0. 0.
      0. 0. 0. 0. 0. 0. 255. 0. 0. 0. 1. 0. 255. 3. 0. 255. 255. 0. 1.
      0. 0. 0. 0. 255. 0. 0. 0. 0. 0. 0. 0. 0. 0. 0. 0. 0. 0. 0. 0. 0.
      0. 0. 0. 0. 0. 0. 255. 3. 1. 0. 1. 0. 254. 255. 0. 255. 255. 0. 1.
      0. 0. 0. 0. 255. 0. 0. 0. 0. 0. 0. 0. 0. 0. 0. 0. 0. 0. 0. 0. 0.
      0. 0. 0. 0. 0. 0. 255. 0. 0. 2. 0. 3. 255. 251. 2. 255. 255. 0. 1.
      0. 0. 0. 0. 255. 0. 0. 0. 0. 0. 0. 0. 0. 0. 0. 0. 0. 0. 0. 0. 0.
      0. 0. 0. 0. 0. 0. 255. 0. 2. 1. 0. 0. 255. 0. 2. 255. 255. 0. 1.
      0. 0. 0. 0. 255. 0. 0. 0. 0. 0. 0. 0. 0. 0. 0. 0. 0. 0. 0. 0. 0.
      0. 0. 0. 0. 0. 0. 255. 0. 0. 0. 0. 255. 255. 1. 0. 255. 255. 0. 1.
      0. 0. 0. 0. 255. 0. 0. 0. 0. 0. 0. 0. 0. 0. 0. 0. 0. 0. 0. 0. 0.
      0. 0. 0. 0. 0. 0. 255. 2. 0. 1. 2. 255. 255. 0. 0. 255. 255. 0. 0.
      0. 0. 1. 0. 255. 0. 0. 0. 0. 0. 0. 0. 0. 0. 0. 0. 0. 0. 0. 0. 0.
      0. 0. 0. 0. 0. 0. 255. 255. 5. 0. 0. 255. 255. 0. 3. 254. 255. 4.
      0. 1. 3. 0. 0. 255. 0. 0. 0. 0. 0. 0. 0. 0. 0. 0. 0. 0. 0. 0. 0.
      0. 0. 0. 0. 0. 0. 0. 255. 0. 0. 0. 0. 255. 254. 0. 0. 255. 253. 0.
      0. 1. 0. 0. 3. 255. 0. 0. 0. 0. 0. 0. 0. 0. 0. 0. 0. 0. 0. 0. 0.
      0. 0. 0. 0. 0. 0. 0. 255. 0. 1. 1. 0. 254. 254. 2. 2. 0. 255. 1.
      0. 1. 0. 0. 1. 255. 0. 0. 0. 0. 0. 0. 0. 0. 0. 0. 0. 0. 0. 0. 0.
      0. 0. 0. 0. 0. 0. 0. 255. 0. 1. 0. 0. 255. 255. 0. 0. 2. 251. 0.
      0. 0. 1. 4. 0. 255. 0. 0. 0. 0. 0. 0. 0. 0. 0. 0. 0. 0. 0. 0. 0.
      0. 0. 0. 0. 0. 0. 0. 255. 0. 0. 0. 0. 255. 254. 2. 1. 0. 255. 0.
      3. 0. 1. 0. 3. 255. 0. 0. 0. 0. 0. 0. 0. 0. 0. 0. 0. 0. 0. 0. 0.
      0. 0. 0. 0. 0. 0. 0. 255. 255. 1. 1. 0. 254. 255. 0. 0. 0. 255. 0.
      0. 4. 0. 4. 0. 255. 0. 0. 0. 0. 0. 0. 0. 0. 0. 0. 0. 0. 0. 0. 0.
      0. 0. 0. 0. 0. 0. 0. 255. 255. 0. 0. 0. 255. 251. 255. 0. 0. 255.
      1. 0. 0. 1. 0. 0. 255. 0. 0. 0. 0. 0. 0. 0. 0. 0. 0. 0. 0. 0. 0.
      0. 0. 2. 0. 0. 1. 0. 0. 255. 0. 0. 0. 1. 255. 255. 255. 255. 0.
      255. 0. 0. 2. 0. 3. 0. 255. 0. 0. 0. 0. 0. 0. 0. 0. 0. 0. 0. 0. 0.
      0. 0. 4. 0. 1. 0. 1. 0. 0. 255. 1. 0. 2. 0. 255. 255. 252. 255.
      255. 255. 255. 0. 1. 0. 0. 3. 255. 0. 0. 0. 0. 0. 0. 0. 0. 0. 0.
      0. 0. 0. 0. 0. 0. 4. 0. 1. 3. 0. 1. 253. 0. 0. 1. 2. 255. 252.
      254. 255. 255. 252. 255. 0. 0. 3. 2. 0. 255. 0. 0. 0. 0. 0. 0. 0.
      0. 0. 0. 0. 0. 0. 0. 0. 0. 1. 0. 0. 0. 2. 3. 255. 255. 0. 0. 0.
      255. 255. 255. 253. 255. 255. 253. 255. 0. 0. 0. 1. 255. 0. 0. 0.
      0. 0. 0. 0. 0. 0. 0. 0. 0. 0. 0. 0. 1. 0. 0. 0. 1. 0. 0. 255. 255.
      0. 0. 0. 255. 255. 255. 253. 255. 250. 255. 254. 0. 0. 0. 0. 255.
      0. 0. 0. 0. 0. 0. 0. 0. 0. 0. 0. 0. 0. 0. 0. 1. 0. 1. 3. 0. 3. 1.
      255. 0. 0. 1. 2. 255. 252. 254. 255. 255. 255. 255. 255. 0. 1. 3.
      0. 255. 0. 0. 0. 0. 0. 0. 0. 0. 0. 0. 0. 0. 0. 0. 0. 1. 0. 0. 0.
      3. 0. 0. 254. 1. 0. 2. 0. 255. 255. 252. 255. 255. 252. 254. 255.
      0. 1. 1. 0. 255. 0. 0. 0. 0. 0. 0. 0. 0. 0. 0. 0. 0. 0. 0. 0. 0.
      3. 0. 0. 1. 0. 1. 0. 0. 0. 0. 1. 255. 255. 255. 255. 255. 255.
      255. 254. 5. 0. 0. 1. 255. 0. 0. 2. 0. 0. 2. 1. 0. 0. 0. 0. 0. 0.
      0. 0. 0. 0. 0. 0. 0. 0. 0. 0. 1. 0. 0. 2. 0. 0. 1. 255. 255. 255.
      255. 255. 0. 0. 1. 0. 255. 0. 0. 0. 0. 1. 0. 0. 0. 0. 0. 0. 0. 0.
      0. 0. 0. 0. 0. 0. 0. 0. 0. 0. 0. 3. 1. 0. 0. 0. 1. 1. 1. 255. 254.
      255. 2. 0. 1. 0. 255. 0. 2. 0. 2. 0. 4. 1. 0. 0. 0. 0. 0. 0. 0. 0.
      0. 0. 0. 0. 0. 0. 0. 0. 0. 2. 0. 0. 4. 0. 0. 0. 0. 255. 254. 255.
      0. 0. 0. 0. 254. 2. 0. 0. 0. 2. 0. 1. 0. 0. 0. 0. 0. 0. 0. 0. 0.
      0. 0. 0. 0. 0. 0. 0. 0. 0. 0. 1. 0. 2. 1. 1. 2. 254. 255. 0. 0. 0.
      3. 1. 255. 0. 2. 1. 1. 0. 3. 2. 0. 0. 0. 0. 0. 0. 0. 0. 0. 0. 0.
      0. 0. 0. 0. 0. 2. 0. 0. 0. 2. 0. 0. 0. 0. 255. 255. 0. 3. 0. 0. 0.
      255. 0. 3. 1. 0. 1. 1. 0. 0. 0. 0. 0. 0. 0. 0. 0. 0. 0. 0. 0. 0.
      0. 0. 0. 2. 0. 1. 0. 0. 1. 1. 2. 3. 255. 255. 0. 0. 5. 0. 0. 0. 0.
      0. 1. 2. 0. 0. 5. 0. 0. 0. 0. 0. 0. 0. 0. 0. 0. 0. 0. 0. 0. 0. 0.
      0. 5. 0. 3. 0. 0. 2. 0. 0. 253. 254. 2. 0. 0. 0. 3. 0. 1. 2. 0. 0.
      1. 0. 0. 0. 0. 0. 0. 0. 0. 0. 0. 0. 0. 0. 0. 0. 0. 0. 0. 1. 0. 1.
      0. 0. 0. 3. 0. 1. 254. 255. 0. 1. 0. 3. 0.</_>
    <_>
      0. 0. 0. 0. 1. 2. 0. 0. 0. 0. 0. 0. 0. 0. 0. 0. 0. 0. 0. 1. 2. 0.
      253. 255. 255. 255. 252. 0. 0. 1. 0. 0. 0. 0. 1. 0. 0. 0. 1. 254.
      2. 0. 3. 0. 0. 0. 3. 0. 0. 0. 0. 0. 0. 0. 0. 0. 0. 3. 0. 0. 1. 0.
      255. 255. 254. 250. 255. 255. 1. 0. 2. 0. 0. 2. 0. 0. 1. 3. 0.
      255. 0. 0. 0. 3. 0. 0. 0. 1. 0. 0. 0. 0. 0. 0. 0. 0. 1. 0. 0. 1.
      2. 0. 255. 251. 255. 255. 255. 254. 0. 7. 1. 1. 0. 0. 1. 3. 0. 0.
      0. 255. 255. 3. 0. 0. 0. 1. 0. 0. 0. 0. 0. 0. 0. 0. 0. 0. 0. 0. 1.
      0. 0. 0. 1. 255. 253. 255. 254. 255. 0. 0. 0. 0. 0. 1. 1. 0. 3. 2.
      0. 254. 255. 0. 3. 0. 0. 2. 0. 1. 0. 0. 0. 0. 0. 0. 0. 0. 2. 0. 0.
      0. 2. 3. 0. 255. 255. 255. 252. 254. 0. 2. 0. 3. 1. 0. 2. 1. 0. 0.
      0. 255. 255. 253. 0. 2. 1. 0. 2. 0. 0. 0. 0. 0. 0. 0. 0. 0. 1. 0.
      0. 0. 0. 0. 255. 253. 255. 254. 255. 0. 1. 1. 0. 0. 1. 0. 0. 2. 0.
      255. 254. 255. 255. 255. 0. 0. 1. 1. 0. 0. 0. 0. 0. 0. 0. 0. 0. 0.
      0. 2. 0. 1. 0. 3. 254. 254. 254. 255. 255. 1. 0. 0. 0. 0. 0. 2. 2.
      0. 1. 255. 254. 253. 254. 255. 0. 0. 2. 0. 2. 0. 0. 0. 0. 0. 0. 0.
      0. 0. 0. 0. 1. 0. 1. 255. 255. 255. 255. 255. 253. 255. 1. 0. 0.
      3. 0. 0. 0. 2. 0. 255. 255. 255. 255. 255. 0. 2. 2. 0. 0. 0. 0. 2.
      0. 0. 3. 0. 0. 0. 1. 1. 0. 1. 0. 0. 255. 0. 252. 255. 255. 255. 0.
      0. 0. 0. 0. 1. 0. 0. 0. 255. 255. 255. 253. 255. 0. 0. 0. 2. 0. 0.
      1. 0. 0. 0. 0. 2. 0. 1. 0. 0. 4. 0. 4. 0. 253. 0. 255. 252. 0. 0.
      2. 2. 3. 0. 0. 0. 0. 3. 2. 1. 252. 255. 255. 250. 255. 0. 3. 0. 0.
      0. 2. 0. 0. 2. 1. 0. 1. 0. 0. 2. 0. 3. 0. 0. 0. 255. 255. 255. 1.
      1. 0. 0. 0. 3. 2. 0. 0. 0. 0. 0. 255. 254. 255. 255. 255. 0. 0. 0.
      4. 0. 0. 4. 0. 1. 0. 2. 1. 0. 0. 1. 0. 0. 255. 255. 255. 252. 254.
      254. 0. 0. 0. 2. 0. 0. 0. 3. 0. 1. 3. 2. 252. 255. 253. 255. 253.
      0. 1. 0. 0. 2. 0. 0. 2. 0. 0. 1. 0. 2. 0. 2. 0. 254. 254. 252. 0.
      255. 255. 255. 1. 0. 1. 0. 0. 4. 0. 3. 0. 1. 0. 0. 255. 255. 255.
      253. 255. 3. 0. 0. 1. 0. 0. 1. 3. 0. 2. 0. 1. 254. 255. 0. 4. 255.
      254. 255. 5. 254. 255. 0. 0. 0. 3. 0. 0. 0. 1. 0. 1. 1. 0. 0. 255.
      251. 255. 255. 252. 0. 3. 0. 1. 0. 2. 0. 0. 1. 0. 1. 252. 255.
      254. 0. 255. 253. 255. 254. 251. 2. 255. 1. 3. 0. 0. 1. 0. 1. 0.
      1. 0. 0. 3. 0. 255. 255. 255. 254. 255. 0. 0. 2. 0. 1. 0. 3. 0. 0.
      1. 0. 255. 255. 255. 1. 255. 252. 2. 255. 254. 1. 255. 0. 0. 0. 0.
      0. 1. 0. 0. 1. 0. 1. 0. 0. 254. 255. 255. 255. 255. 0. 0. 2. 0. 0.
      0. 4. 0. 1. 0. 255. 255. 254. 255. 254. 254. 254. 0. 255. 0. 0. 0.
      0. 0. 1. 0. 3. 0. 0. 0. 0. 1. 0. 0. 2. 254. 255. 255. 249. 255. 2.
      3. 0. 1. 0. 2. 0. 0. 0. 1. 255. 252. 255. 255. 255. 254. 255. 255.
      0. 1. 2. 1. 4. 1. 0. 0. 0. 5. 0. 2. 0. 0. 0. 0. 250. 255. 254.
      255. 255. 0. 0. 0. 1. 0. 0. 0. 3. 0. 0. 1. 253. 255. 254. 0. 255.
      255. 254. 255. 253. 251. 2. 0. 0. 0. 1. 0. 1. 0. 2. 0. 0. 0. 3. 0.
      255. 255. 253. 253. 255. 0. 0. 1. 1. 0. 3. 0. 1. 0. 1. 0. 255. 2.
      255. 0. 255. 253. 255. 1. 255. 255. 0. 255. 2. 1. 0. 0. 0. 0. 0.
      1. 2. 2. 0. 0. 255. 251. 255. 255. 253. 3. 2. 0. 0. 2. 0. 1. 1. 1.
      2. 0. 251. 0. 255. 253. 255. 254. 255. 0. 255. 254. 253. 255. 0.
      0. 0. 1. 0. 0. 0. 0. 0. 0. 3. 0. 254. 254. 255. 254. 255. 0. 0. 3.
      1. 0. 0. 0. 0. 0. 0. 2. 255. 255. 254. 255. 254. 255. 252. 1. 253.
      255. 255. 255. 255. 1. 0. 0. 0. 0. 1. 0. 1. 0. 0. 254. 255. 255.
      252. 255. 254. 4. 0. 0. 2. 0. 1. 0. 2. 0. 0. 0. 255. 250. 3. 255.
      255. 255. 255. 0. 255. 255. 254. 255. 250. 255. 3. 0. 0. 1. 0. 2.
      0. 1. 0. 255. 255. 253. 255. 255. 255. 0. 0. 2. 0. 1. 0. 0. 0. 2.
      1. 0. 0. 3. 0. 255. 254. 0. 0. 3. 253. 255. 255. 254. 255. 254. 0.
      0. 1. 1. 0. 0. 0. 0. 1. 253. 254. 255. 255. 255. 255. 0. 1. 0. 0.
      0. 0. 0. 0. 0. 0. 0. 0. 0. 0. 2. 0. 0. 2. 0. 255. 254. 255. 255.
      254. 254. 1. 0. 0. 0. 2. 1. 0. 0. 0. 255. 254. 255. 255. 255. 255.
      0. 1. 0. 0. 0. 0. 0. 0. 0. 0. 0. 0. 0. 0. 0. 5. 0. 0. 0. 255. 255.
      253. 254. 254. 255. 0. 1. 0. 0. 0. 0. 1. 4. 0. 0. 255. 255. 255.
      255. 255. 0. 1. 0. 0. 0. 0. 0. 0. 0. 0. 0. 0. 0. 0. 1. 0. 0. 3. 0.
      0. 254. 255. 255. 255. 254. 255. 0. 1. 2. 0. 0. 1. 0. 1. 0. 255.
      253. 255. 255. 255. 0. 1. 0. 0. 0. 0. 0. 0. 0. 0. 0. 0. 0. 0. 0.
      2. 0. 0. 0. 1. 255. 255. 255. 254. 255. 254. 0. 0. 0. 0. 1. 2. 0.
      0. 1. 255. 255. 255. 255. 255. 0. 1. 0. 0. 0. 0. 0. 0. 0. 0. 0. 0.
      0. 0. 1. 0. 0. 0. 4. 0. 2. 251. 255. 255. 255. 255. 1. 0. 1. 0. 2.
      0. 5. 2. 0. 0. 255. 255. 255. 255. 0. 1. 0. 0. 0. 0. 0. 0. 0. 0.
      0. 0. 0. 0. 0. 3. 3. 0. 0. 1. 0. 3. 255. 253. 254. 255. 0. 1. 0.
      0. 0. 3. 0. 0. 3. 3. 252. 255. 255. 255. 0. 1. 0. 0. 0. 0. 0. 0.
      0. 0. 0. 0. 0. 0. 0. 0. 0. 0. 3. 0. 1. 0. 255. 255. 255. 254. 255.
      0. 1. 1. 0. 0. 4. 0. 0. 2. 252. 255. 255. 255. 0. 1. 0. 0. 0. 0.
      0. 0. 0. 0. 0. 0. 0. 0. 2. 0. 3. 2. 0. 1. 0. 1. 253. 255. 255.
      255. 254. 1. 1. 0. 0. 0. 0. 1. 0. 0. 255. 255. 254. 254. 0. 0. 0.
      0. 2. 0. 0. 0. 0. 0. 0. 0. 0. 0. 2. 0. 0. 0. 0. 2. 0. 0. 1. 253.
      254. 255. 255. 4. 0. 3. 0. 2. 1. 0. 1. 0. 255. 253. 254. 255. 0.
      0. 3. 0. 0. 1. 0. 0. 0. 0. 0. 0. 0. 0. 0. 1. 3. 0. 0. 0. 0. 255.
      255. 255. 255. 254. 254. 0. 4. 0. 4. 0. 0. 1. 1. 0. 255. 255. 255.
      255. 0. 0. 0. 0. 3. 0. 0. 0. 0. 0. 0. 0. 0. 0. 0. 3. 0. 0. 4. 0.
      0. 255. 255. 253. 255. 255. 255. 0. 0. 2. 0. 0. 3. 0. 0. 2. 1.
      253. 254. 255. 3. 0. 1. 1. 0. 0. 0. 0. 0. 0. 0. 0. 0. 0. 1. 0. 0.
      1. 0. 2. 0. 255. 255. 255. 253. 255. 0. 3. 4. 0. 0. 1. 0. 2. 0. 0.
      0. 255. 255. 0. 0. 0. 0. 0. 0. 3. 0. 0. 0. 0. 0. 0. 0. 0. 1. 0. 0.
      1. 0. 2. 0. 255. 255. 255. 254. 255. 1. 0. 0. 0. 2. 0. 0. 0. 2. 1.
      3. 255. 255. 0. 6. 0. 0. 0. 1. 0. 0. 0. 0. 0. 0. 0. 0. 0. 0. 3. 0.
      0. 4. 0. 0. 255. 254. 255. 255. 255. 2. 0. 0. 2. 0. 1. 1. 0. 0. 0.
      0. 255. 0. 0. 0. 1. 0. 3. 0. 2. 0. 0. 0. 0. 0. 0. 0. 0. 0. 1. 3.
      0. 0. 0. 0. 255. 255. 0. 255. 255. 0. 3. 0. 0. 0. 2. 0. 0. 1. 0.
      2. 253. 0. 4. 0. 1. 0. 0. 0. 0. 0. 0. 0. 0. 0. 0. 0. 0. 2. 0. 0.
      0. 0. 2. 0. 0. 255. 1. 254. 255. 0. 0. 0. 1. 1. 0. 2. 0. 0. 0. 0.
      255.</_>
    <_>
      0. 0. 0. 1. 1. 0. 0. 1. 0. 0. 0. 0. 0. 0. 0. 0. 1. 0. 0. 0. 2. 0.
      0. 255. 255. 255. 255. 255. 0. 0. 0. 0. 0. 0. 0. 0. 1. 0. 0. 0. 0.
      2. 0. 1. 0. 0. 3. 0. 0. 0. 0. 0. 0. 0. 0. 0. 0. 0. 1. 1. 0. 1. 1.
      254. 255. 255. 255. 255. 0. 0. 0. 0. 0. 1. 0. 1. 0. 0. 1. 253.
      255. 2. 2. 0. 2. 0. 0. 1. 0. 0. 0. 0. 0. 0. 0. 0. 2. 1. 0. 2. 0.
      1. 1. 255. 255. 255. 255. 255. 0. 0. 0. 0. 0. 1. 0. 0. 2. 0. 2.
      255. 255. 0. 0. 0. 0. 2. 1. 0. 0. 0. 0. 0. 0. 0. 0. 0. 0. 0. 1. 0.
      3. 0. 0. 255. 255. 255. 255. 255. 0. 0. 0. 0. 0. 1. 0. 0. 4. 0.
      250. 255. 255. 3. 1. 2. 0. 1. 0. 1. 0. 0. 0. 0. 0. 0. 0. 0. 3. 0.
      0. 0. 0. 0. 2. 254. 255. 255. 255. 255. 0. 0. 0. 0. 0. 2. 0. 0. 0.
      0. 255. 255. 254. 0. 0. 0. 2. 2. 0. 0. 0. 0. 0. 0. 0. 0. 0. 0. 0.
      1. 0. 0. 4. 0. 0. 255. 255. 255. 255. 255. 0. 0. 0. 0. 0. 0. 0. 0.
      0. 1. 255. 253. 255. 254. 0. 2. 0. 1. 0. 1. 0. 0. 0. 0. 0. 0. 0.
      0. 0. 5. 0. 0. 0. 255. 255. 255. 255. 255. 255. 255. 0. 0. 0. 0.
      1. 0. 6. 0. 1. 0. 254. 255. 255. 255. 0. 0. 2. 0. 0. 0. 0. 0. 0.
      0. 0. 0. 0. 0. 0. 0. 0. 4. 0. 1. 255. 254. 255. 255. 255. 255. 0.
      0. 0. 0. 0. 1. 0. 0. 0. 3. 254. 255. 254. 255. 0. 0. 1. 2. 0. 4.
      0. 3. 0. 1. 0. 0. 1. 1. 3. 0. 2. 0. 0. 2. 0. 1. 253. 255. 253. 1.
      0. 3. 0. 2. 0. 2. 0. 0. 1. 0. 254. 255. 255. 252. 3. 0. 0. 0. 3.
      0. 0. 0. 1. 0. 4. 0. 2. 0. 0. 2. 0. 1. 2. 0. 2. 0. 255. 255. 254.
      0. 1. 0. 1. 0. 2. 2. 0. 0. 0. 0. 255. 251. 252. 255. 0. 0. 0. 0.
      1. 0. 2. 1. 0. 3. 0. 0. 2. 2. 2. 0. 0. 1. 2. 255. 253. 255. 255.
      250. 255. 1. 0. 3. 2. 0. 0. 0. 1. 0. 1. 0. 254. 255. 255. 254. 0.
      1. 0. 0. 1. 0. 1. 0. 2. 0. 0. 2. 0. 0. 0. 0. 0. 2. 0. 255. 255. 0.
      255. 255. 255. 0. 2. 3. 0. 0. 0. 0. 1. 1. 0. 1. 253. 255. 253.
      255. 0. 1. 1. 1. 0. 1. 0. 5. 1. 0. 2. 1. 0. 1. 0. 1. 3. 1. 2. 253.
      255. 0. 254. 254. 0. 0. 0. 0. 1. 3. 0. 1. 0. 0. 0. 255. 255. 255.
      254. 255. 255. 0. 0. 0. 0. 0. 0. 0. 0. 0. 0. 0. 255. 0. 2. 0. 0.
      255. 0. 254. 255. 253. 0. 0. 1. 0. 1. 4. 2. 0. 0. 2. 0. 3. 4. 1.
      254. 255. 255. 255. 252. 2. 2. 1. 1. 0. 4. 0. 2. 0. 1. 255. 255.
      0. 255. 254. 4. 255. 3. 254. 255. 255. 0. 255. 0. 0. 0. 0. 0. 0.
      2. 0. 1. 0. 0. 1. 255. 254. 254. 254. 255. 1. 0. 0. 0. 1. 0. 0. 2.
      0. 0. 0. 0. 255. 253. 255. 0. 252. 255. 255. 255. 0. 2. 0. 0. 1.
      1. 1. 1. 0. 0. 3. 0. 2. 0. 0. 255. 255. 255. 254. 255. 0. 0. 2. 0.
      1. 0. 1. 0. 2. 0. 0. 1. 254. 255. 255. 1. 254. 255. 0. 0. 0. 0. 1.
      0. 1. 0. 2. 0. 2. 0. 0. 1. 0. 0. 255. 255. 255. 255. 255. 252. 0.
      3. 0. 1. 0. 0. 1. 0. 0. 1. 0. 255. 0. 255. 250. 3. 255. 254. 2. 2.
      0. 0. 0. 0. 0. 0. 0. 5. 0. 0. 0. 1. 0. 0. 255. 255. 255. 255. 253.
      255. 3. 0. 0. 1. 0. 2. 0. 0. 1. 0. 2. 254. 255. 252. 255. 0. 255.
      255. 255. 0. 0. 1. 2. 1. 1. 0. 1. 0. 0. 0. 0. 1. 0. 0. 255. 255.
      255. 253. 255. 253. 0. 1. 0. 0. 2. 0. 2. 0. 0. 0. 0. 255. 255.
      255. 254. 0. 0. 1. 254. 0. 255. 255. 0. 0. 0. 0. 0. 0. 2. 0. 0. 1.
      0. 0. 255. 255. 255. 255. 255. 255. 0. 0. 0. 4. 0. 0. 0. 2. 4. 1.
      0. 0. 253. 1. 255. 0. 6. 253. 1. 255. 253. 252. 255. 2. 1. 1. 1.
      0. 1. 0. 0. 1. 0. 0. 255. 255. 255. 255. 250. 255. 0. 3. 0. 0. 0.
      0. 0. 0. 0. 0. 0. 4. 254. 0. 255. 255. 255. 254. 254. 253. 255.
      255. 254. 0. 0. 0. 4. 1. 0. 0. 0. 1. 0. 0. 255. 255. 255. 253.
      255. 0. 0. 0. 2. 0. 0. 0. 2. 0. 2. 1. 1. 0. 2. 2. 0. 255. 252.
      255. 255. 255. 254. 253. 255. 254. 255. 1. 0. 0. 1. 0. 0. 1. 0. 0.
      255. 255. 255. 255. 255. 0. 2. 2. 0. 0. 0. 0. 0. 3. 0. 0. 0. 0. 0.
      0. 2. 0. 1. 255. 252. 0. 255. 255. 253. 255. 255. 0. 0. 1. 0. 0.
      0. 1. 0. 0. 255. 255. 255. 255. 255. 0. 2. 2. 0. 0. 0. 0. 0. 0. 0.
      0. 0. 0. 0. 1. 0. 0. 0. 3. 255. 1. 254. 255. 252. 1. 255. 0. 2. 0.
      0. 0. 2. 0. 1. 0. 254. 255. 255. 253. 255. 0. 0. 0. 2. 0. 0. 0. 0.
      0. 0. 0. 0. 0. 0. 0. 3. 1. 0. 0. 254. 0. 2. 253. 255. 1. 255. 0.
      0. 0. 3. 0. 0. 1. 0. 0. 255. 255. 253. 255. 250. 255. 0. 3. 0. 0.
      0. 0. 0. 0. 0. 0. 0. 0. 0. 0. 4. 0. 0. 1. 3. 0. 0. 1. 253. 254.
      253. 2. 2. 0. 0. 1. 0. 1. 1. 0. 255. 255. 254. 255. 255. 255. 0.
      0. 0. 4. 0. 0. 0. 0. 0. 0. 0. 0. 0. 2. 0. 0. 1. 0. 1. 0. 1. 1.
      255. 254. 255. 0. 0. 3. 0. 0. 2. 0. 1. 0. 254. 253. 255. 253. 255.
      253. 0. 1. 0. 0. 2. 0. 0. 0. 0. 0. 0. 0. 0. 1. 0. 0. 0. 0. 0. 2.
      0. 0. 2. 255. 252. 0. 0. 1. 0. 0. 0. 2. 0. 2. 0. 255. 252. 255.
      253. 255. 3. 0. 0. 1. 0. 0. 0. 0. 0. 0. 0. 0. 0. 0. 4. 0. 1. 1. 1.
      0. 1. 1. 0. 254. 255. 254. 1. 0. 2. 0. 1. 0. 0. 1. 0. 254. 255.
      255. 255. 252. 0. 3. 0. 1. 0. 0. 0. 0. 0. 0. 0. 0. 0. 3. 0. 0. 0.
      0. 0. 4. 0. 0. 255. 0. 254. 252. 6. 0. 0. 1. 1. 0. 0. 1. 0. 255.
      255. 255. 254. 255. 0. 0. 2. 0. 1. 0. 0. 0. 0. 0. 0. 0. 0. 0. 0.
      0. 2. 1. 0. 0. 0. 255. 255. 0. 255. 254. 0. 1. 0. 1. 0. 1. 0. 1.
      0. 255. 254. 255. 254. 255. 0. 0. 0. 0. 0. 0. 0. 0. 0. 0. 0. 0. 0.
      2. 0. 0. 2. 0. 2. 1. 0. 255. 251. 255. 255. 255. 0. 1. 0. 2. 0. 1.
      0. 0. 1. 255. 255. 255. 251. 3. 0. 0. 0. 2. 0. 0. 0. 0. 0. 0. 0.
      0. 0. 0. 3. 2. 0. 0. 0. 0. 255. 252. 255. 252. 252. 255. 1. 3. 0.
      0. 0. 0. 2. 0. 0. 255. 255. 255. 255. 0. 0. 0. 4. 0. 1. 0. 0. 0.
      0. 0. 0. 0. 0. 1. 0. 1. 0. 2. 0. 0. 255. 255. 254. 255. 255. 254.
      253. 0. 1. 1. 3. 2. 0. 2. 0. 0. 255. 254. 253. 0. 1. 2. 0. 1. 1.
      0. 0. 0. 0. 0. 0. 0. 0. 0. 0. 0. 4. 0. 0. 0. 0. 255. 255. 252.
      255. 253. 3. 1. 1. 0. 0. 2. 1. 1. 0. 0. 255. 255. 255. 0. 1. 0. 2.
      2. 0. 0. 0. 0. 0. 0. 0. 0. 0. 3. 0. 1. 0. 0. 4. 1. 0. 1. 254. 1.
      255. 255. 1. 0. 0. 0. 2. 0. 4. 0. 1. 2. 253. 254. 255. 0. 0. 0. 1.
      0. 4. 0. 0. 0. 0. 0. 0. 0. 0. 0. 4. 0. 2. 0. 0. 0. 0. 0. 255. 2.
      253. 250. 0. 4. 0. 3. 0. 0. 0. 1. 0. 0. 1. 255. 254. 1. 0. 1. 2.
      1. 0. 0. 0. 0. 0. 0. 0. 0. 0. 0. 2. 0. 0. 2. 0. 1. 0. 255. 3. 0.
      255. 255. 4. 0. 1. 0. 2. 1. 1. 0. 1. 1. 0. 255. 0. 2. 0. 0. 0. 1.
      0. 0. 0. 0. 0. 0. 0. 0. 0. 1. 0. 1. 0. 1. 1. 0. 0. 255. 1. 0. 255.
      255. 0. 0. 1. 3. 0. 0. 0. 3. 0. 0. 1.</_>
    <_>
      255. 0. 1. 0. 1. 0. 0. 2. 0. 0. 0. 0. 0. 0. 0. 0. 0. 1. 2. 0. 1.
      0. 255. 0. 255. 254. 255. 254. 0. 1. 0. 0. 0. 0. 0. 0. 1. 0. 255.
      255. 253. 0. 4. 0. 0. 1. 4. 0. 0. 0. 0. 0. 0. 0. 0. 0. 2. 0. 0. 0.
      3. 254. 253. 1. 255. 255. 0. 254. 1. 4. 0. 1. 0. 0. 0. 0. 1. 0.
      255. 255. 255. 254. 0. 0. 0. 0. 0. 1. 0. 0. 0. 0. 0. 0. 0. 0. 0.
      3. 0. 0. 0. 255. 252. 255. 254. 254. 1. 255. 2. 0. 0. 0. 0. 0. 0.
      0. 1. 0. 255. 255. 254. 255. 2. 0. 0. 2. 0. 1. 0. 0. 0. 0. 0. 0.
      0. 0. 1. 0. 1. 1. 0. 0. 255. 255. 253. 254. 255. 0. 0. 3. 0. 2. 0.
      0. 0. 0. 1. 0. 255. 255. 255. 251. 0. 0. 2. 1. 1. 0. 0. 0. 0. 0.
      0. 0. 0. 0. 0. 1. 1. 0. 1. 0. 254. 255. 255. 255. 255. 0. 2. 0. 0.
      0. 0. 0. 0. 0. 1. 0. 255. 255. 254. 255. 0. 0. 1. 0. 0. 2. 0. 0.
      0. 0. 0. 0. 0. 0. 0. 2. 0. 0. 0. 3. 0. 255. 255. 250. 255. 2. 0.
      0. 2. 0. 0. 0. 0. 0. 1. 0. 255. 255. 255. 252. 0. 0. 0. 2. 0. 0.
      0. 0. 0. 0. 0. 0. 0. 0. 1. 0. 2. 2. 0. 0. 1. 254. 255. 255. 255.
      0. 0. 4. 0. 0. 0. 0. 0. 0. 1. 0. 255. 255. 255. 255. 0. 2. 0. 0.
      3. 0. 0. 0. 0. 0. 0. 0. 0. 0. 0. 2. 0. 1. 1. 0. 255. 254. 254.
      255. 254. 0. 1. 0. 0. 1. 0. 0. 0. 0. 1. 0. 255. 255. 255. 255. 0.
      0. 2. 0. 1. 0. 0. 2. 0. 0. 2. 0. 0. 0. 0. 3. 0. 0. 3. 1. 252. 255.
      254. 254. 0. 0. 2. 0. 0. 1. 0. 0. 1. 0. 0. 255. 255. 255. 255.
      254. 4. 0. 0. 2. 0. 1. 0. 0. 1. 2. 0. 0. 0. 1. 1. 0. 0. 3. 0. 1.
      255. 251. 255. 253. 1. 0. 0. 0. 0. 0. 0. 0. 1. 0. 0. 255. 255.
      255. 254. 255. 0. 0. 3. 1. 0. 0. 0. 0. 1. 0. 2. 0. 0. 0. 0. 0. 1.
      0. 255. 251. 255. 255. 254. 255. 0. 0. 0. 0. 5. 0. 0. 0. 1. 0. 0.
      255. 255. 255. 255. 253. 3. 2. 0. 0. 2. 0. 0. 1. 2. 0. 0. 0. 2. 1.
      255. 0. 252. 1. 255. 254. 255. 253. 252. 255. 0. 0. 4. 0. 0. 0. 0.
      0. 1. 0. 0. 255. 255. 255. 253. 255. 0. 0. 1. 1. 0. 3. 0. 0. 0. 1.
      2. 1. 253. 0. 252. 3. 255. 0. 255. 255. 255. 255. 255. 0. 1. 0. 0.
      0. 0. 3. 0. 0. 1. 0. 0. 255. 255. 255. 255. 255. 0. 0. 0. 1. 0. 0.
      0. 1. 0. 1. 0. 1. 255. 1. 255. 0. 254. 254. 254. 255. 0. 255. 1.
      0. 3. 0. 3. 0. 3. 0. 0. 0. 1. 0. 0. 255. 255. 255. 255. 249. 255.
      2. 3. 0. 1. 0. 0. 1. 0. 0. 1. 0. 255. 0. 255. 0. 255. 1. 255. 255.
      0. 255. 0. 1. 0. 0. 0. 1. 0. 2. 0. 0. 1. 0. 0. 255. 255. 255. 255.
      255. 255. 0. 0. 2. 0. 0. 1. 0. 2. 1. 0. 1. 255. 0. 255. 255. 255.
      1. 0. 251. 2. 0. 1. 0. 2. 2. 0. 0. 0. 1. 0. 0. 1. 0. 0. 255. 255.
      255. 255. 255. 255. 0. 0. 1. 0. 0. 0. 3. 0. 0. 3. 0. 255. 0. 255.
      255. 255. 0. 0. 0. 1. 0. 0. 0. 0. 1. 0. 1. 1. 0. 0. 0. 1. 0. 0.
      255. 255. 255. 252. 255. 255. 0. 1. 0. 0. 0. 3. 0. 0. 3. 0. 252.
      252. 4. 252. 255. 253. 3. 0. 254. 2. 0. 2. 0. 2. 0. 0. 0. 2. 0. 0.
      0. 1. 0. 0. 255. 255. 255. 255. 254. 255. 0. 0. 0. 2. 0. 0. 0. 2.
      1. 0. 255. 3. 253. 255. 255. 252. 0. 255. 255. 1. 3. 0. 1. 0. 0.
      0. 3. 0. 2. 0. 0. 1. 0. 0. 255. 255. 255. 254. 252. 255. 4. 0. 0.
      0. 3. 0. 3. 0. 2. 0. 0. 0. 255. 255. 251. 255. 255. 252. 254. 255.
      0. 0. 2. 0. 2. 1. 0. 2. 0. 0. 0. 1. 0. 0. 255. 255. 255. 254. 255.
      253. 0. 0. 1. 0. 1. 1. 1. 0. 0. 2. 1. 4. 253. 254. 255. 255. 254.
      2. 254. 255. 1. 0. 0. 5. 0. 0. 0. 0. 1. 0. 0. 1. 0. 0. 255. 255.
      255. 255. 255. 255. 3. 1. 1. 3. 0. 0. 0. 0. 0. 0. 255. 0. 255.
      255. 0. 255. 252. 0. 255. 249. 255. 255. 253. 1. 0. 1. 2. 0. 0. 0.
      0. 1. 0. 0. 255. 255. 255. 255. 255. 254. 0. 0. 0. 1. 0. 0. 4. 0.
      1. 0. 255. 0. 0. 0. 2. 254. 255. 0. 255. 255. 255. 255. 255. 0. 0.
      1. 0. 0. 0. 0. 0. 1. 0. 0. 255. 255. 255. 254. 255. 0. 2. 2. 0. 0.
      0. 0. 0. 0. 1. 0. 1. 0. 0. 0. 1. 0. 255. 0. 255. 254. 254. 254.
      255. 0. 2. 0. 0. 4. 0. 0. 0. 1. 0. 0. 255. 255. 255. 255. 255. 0.
      1. 0. 0. 0. 0. 0. 0. 0. 0. 0. 0. 0. 0. 3. 1. 0. 254. 2. 1. 254.
      255. 255. 255. 0. 1. 1. 0. 1. 0. 0. 0. 1. 0. 0. 255. 255. 255.
      255. 255. 0. 1. 0. 0. 0. 0. 0. 0. 0. 0. 0. 0. 0. 0. 0. 0. 3. 2. 0.
      2. 250. 255. 254. 255. 255. 0. 0. 4. 0. 3. 0. 0. 1. 0. 0. 255.
      255. 255. 255. 255. 0. 1. 0. 0. 0. 0. 0. 0. 0. 0. 0. 0. 0. 0. 3.
      1. 3. 0. 0. 2. 3. 253. 255. 255. 255. 254. 0. 0. 0. 0. 0. 0. 1. 0.
      0. 255. 255. 255. 255. 255. 0. 1. 0. 0. 0. 0. 0. 0. 0. 0. 0. 0. 0.
      0. 0. 2. 0. 0. 3. 0. 0. 255. 253. 0. 254. 255. 2. 0. 2. 0. 0. 0.
      1. 0. 0. 255. 255. 255. 255. 255. 0. 1. 0. 0. 0. 0. 0. 0. 0. 0. 0.
      0. 0. 0. 0. 2. 0. 3. 0. 1. 0. 0. 255. 0. 255. 249. 255. 3. 0. 0.
      0. 0. 1. 0. 0. 255. 255. 255. 255. 255. 0. 1. 0. 0. 0. 0. 0. 0. 0.
      0. 0. 0. 0. 0. 2. 0. 4. 0. 0. 0. 0. 1. 255. 252. 255. 255. 253. 0.
      3. 0. 0. 0. 1. 0. 0. 255. 255. 255. 255. 255. 0. 1. 0. 0. 0. 0. 0.
      0. 0. 0. 0. 0. 0. 0. 0. 0. 0. 1. 1. 0. 3. 0. 3. 255. 253. 252.
      255. 0. 0. 0. 0. 0. 1. 0. 0. 255. 255. 255. 255. 255. 0. 1. 0. 0.
      0. 0. 0. 0. 0. 0. 0. 0. 0. 0. 1. 0. 0. 0. 0. 0. 0. 2. 0. 2. 253.
      254. 255. 0. 0. 1. 0. 0. 1. 0. 0. 255. 255. 255. 255. 253. 0. 1.
      0. 0. 3. 0. 0. 0. 0. 0. 0. 0. 0. 0. 1. 2. 0. 0. 2. 0. 0. 255. 255.
      0. 255. 254. 254. 2. 0. 0. 0. 2. 1. 0. 1. 0. 255. 253. 254. 252.
      3. 0. 0. 0. 0. 2. 0. 0. 0. 0. 0. 0. 0. 0. 0. 0. 1. 0. 0. 0. 0.
      255. 254. 255. 251. 255. 255. 0. 0. 0. 4. 0. 0. 1. 1. 0. 255. 255.
      255. 255. 0. 0. 4. 1. 1. 0. 0. 0. 0. 0. 0. 0. 0. 0. 1. 4. 0. 2. 0.
      2. 0. 255. 255. 255. 255. 254. 255. 1. 1. 0. 0. 0. 3. 0. 0. 2. 1.
      253. 255. 255. 1. 0. 0. 1. 0. 0. 0. 0. 0. 0. 0. 0. 0. 0. 1. 0. 2.
      0. 0. 0. 2. 254. 254. 255. 253. 255. 251. 0. 2. 0. 0. 1. 0. 2. 0.
      0. 0. 255. 255. 0. 0. 0. 0. 0. 5. 0. 0. 0. 0. 0. 0. 0. 0. 0. 2. 3.
      0. 1. 1. 2. 0. 255. 253. 255. 254. 255. 255. 1. 0. 0. 2. 0. 0. 0.
      2. 1. 3. 255. 255. 0. 3. 0. 1. 0. 1. 0. 0. 0. 0. 0. 0. 0. 0. 0. 0.
      1. 1. 0. 1. 3. 0. 255. 255. 253. 0. 255. 255. 0. 3. 0. 0. 1. 1. 0.
      0. 0. 0. 255. 255. 0. 0. 2. 0. 0. 0. 2. 0. 0. 0. 0. 0. 0. 0. 0. 5.
      0. 0. 2. 1. 0. 0. 0. 0. 253. 0. 255. 253. 3. 0. 1. 0. 2. 0. 0. 1.
      0. 2. 253. 0. 0. 2. 0. 0. 0. 2. 0. 0. 0. 0. 0. 0. 0. 0. 0. 0. 0.
      1. 0. 0. 2. 1. 0. 1. 255. 0. 255. 0. 1. 0. 0. 1. 0. 2. 0. 0. 0. 0.
      255.</_>
    <_>
      0. 0. 0. 0. 1. 2. 0. 0. 0. 0. 0. 0. 0. 0. 0. 0. 1. 0. 1. 1. 0. 1.
      255. 255. 255. 253. 255. 255. 0. 1. 0. 1. 0. 2. 0. 0. 2. 0. 0.
      255. 2. 0. 3. 0. 0. 0. 3. 0. 0. 0. 0. 0. 0. 0. 0. 0. 0. 1. 0. 0.
      1. 0. 255. 254. 255. 255. 255. 255. 0. 0. 2. 0. 0. 0. 0. 3. 0. 0.
      0. 255. 0. 0. 0. 3. 0. 0. 0. 1. 0. 0. 0. 0. 0. 0. 0. 0. 0. 2. 0.
      2. 0. 0. 255. 255. 1. 255. 250. 255. 0. 0. 0. 1. 0. 0. 0. 0. 2. 0.
      0. 254. 255. 3. 0. 0. 0. 1. 0. 0. 0. 0. 0. 0. 0. 0. 0. 0. 0. 0. 0.
      1. 2. 1. 253. 254. 0. 255. 255. 252. 0. 1. 0. 0. 0. 1. 1. 0. 0. 0.
      2. 255. 255. 0. 3. 0. 0. 2. 0. 1. 0. 0. 0. 0. 0. 0. 0. 0. 0. 1. 1.
      0. 0. 0. 2. 255. 255. 255. 251. 255. 0. 0. 2. 0. 0. 0. 0. 1. 2. 1.
      253. 254. 255. 253. 0. 2. 1. 0. 2. 0. 0. 0. 0. 0. 0. 0. 0. 0. 0.
      0. 0. 0. 2. 0. 0. 254. 253. 255. 255. 254. 1. 2. 0. 2. 0. 2. 0. 2.
      0. 0. 255. 255. 255. 255. 0. 0. 1. 1. 0. 0. 0. 0. 0. 0. 0. 0. 0.
      0. 0. 0. 0. 3. 0. 0. 0. 255. 255. 255. 255. 253. 0. 0. 2. 0. 0. 1.
      0. 0. 1. 0. 255. 254. 254. 255. 0. 0. 2. 0. 2. 0. 0. 0. 0. 0. 0.
      0. 0. 0. 0. 2. 0. 0. 2. 0. 0. 255. 255. 255. 254. 255. 0. 0. 0. 0.
      1. 0. 1. 1. 0. 1. 255. 255. 255. 255. 0. 2. 2. 0. 0. 0. 1. 0. 0.
      2. 1. 0. 2. 0. 1. 1. 0. 1. 1. 0. 0. 255. 253. 255. 255. 0. 0. 2.
      0. 0. 0. 1. 0. 0. 0. 255. 255. 255. 253. 255. 0. 0. 0. 2. 0. 0. 1.
      0. 0. 0. 0. 3. 0. 3. 0. 2. 0. 1. 0. 2. 3. 252. 255. 251. 255. 0.
      0. 0. 0. 0. 0. 0. 0. 3. 2. 1. 252. 255. 255. 250. 255. 0. 3. 0. 0.
      0. 0. 2. 0. 0. 2. 0. 3. 1. 4. 0. 1. 0. 1. 0. 253. 255. 254. 255.
      252. 0. 4. 0. 0. 2. 2. 0. 0. 0. 0. 0. 255. 254. 255. 255. 255. 0.
      0. 0. 4. 0. 1. 0. 0. 3. 0. 6. 0. 0. 0. 3. 0. 2. 255. 255. 255.
      254. 254. 254. 255. 0. 2. 0. 2. 0. 0. 3. 0. 1. 3. 2. 252. 255.
      253. 255. 253. 0. 1. 0. 0. 2. 1. 0. 2. 0. 0. 0. 0. 4. 0. 0. 255.
      255. 252. 255. 250. 255. 255. 253. 255. 1. 0. 0. 0. 0. 0. 3. 0. 1.
      0. 0. 255. 255. 255. 253. 255. 3. 0. 0. 1. 0. 0. 3. 2. 0. 0. 1. 1.
      0. 255. 0. 254. 252. 1. 255. 252. 255. 1. 0. 0. 2. 3. 0. 2. 0. 1.
      0. 1. 1. 0. 0. 255. 251. 255. 255. 252. 0. 3. 0. 1. 0. 0. 1. 0. 0.
      0. 0. 255. 0. 255. 255. 0. 255. 0. 253. 1. 0. 0. 3. 0. 1. 0. 0. 1.
      0. 0. 1. 0. 0. 3. 0. 255. 255. 255. 254. 255. 0. 0. 2. 0. 1. 1. 0.
      2. 0. 3. 0. 254. 255. 254. 255. 1. 255. 0. 255. 0. 1. 0. 0. 3. 0.
      2. 0. 0. 1. 0. 1. 0. 1. 0. 0. 254. 255. 255. 254. 255. 0. 0. 0. 6.
      0. 0. 1. 0. 0. 0. 1. 0. 255. 254. 1. 0. 255. 0. 254. 1. 1. 0. 0.
      0. 0. 0. 0. 0. 2. 0. 0. 1. 0. 0. 255. 255. 255. 252. 255. 253. 0.
      1. 1. 0. 2. 0. 0. 0. 0. 0. 4. 0. 255. 4. 0. 0. 0. 1. 253. 3. 0. 0.
      6. 0. 0. 0. 3. 0. 0. 0. 0. 1. 0. 0. 255. 255. 255. 255. 252. 255.
      0. 1. 0. 0. 0. 1. 0. 3. 2. 0. 0. 255. 254. 0. 254. 255. 0. 0. 255.
      255. 1. 2. 0. 0. 2. 0. 0. 4. 0. 0. 0. 1. 0. 0. 255. 255. 255. 254.
      255. 255. 0. 0. 1. 0. 1. 0. 3. 0. 0. 2. 0. 253. 255. 255. 255.
      252. 255. 254. 255. 252. 1. 255. 2. 0. 3. 0. 0. 2. 0. 0. 0. 1. 0.
      0. 255. 255. 255. 255. 254. 255. 0. 0. 0. 2. 0. 1. 0. 1. 0. 0. 4.
      255. 253. 253. 254. 255. 252. 255. 255. 254. 253. 253. 1. 253. 2.
      0. 1. 0. 0. 0. 0. 1. 0. 0. 255. 255. 255. 255. 254. 0. 4. 1. 0. 0.
      0. 0. 2. 0. 2. 0. 0. 0. 255. 255. 255. 253. 4. 252. 1. 255. 255.
      255. 255. 255. 0. 0. 4. 0. 1. 0. 0. 1. 0. 0. 255. 255. 255. 254.
      253. 5. 0. 0. 0. 0. 2. 0. 0. 3. 0. 1. 2. 0. 253. 255. 0. 253. 0.
      255. 0. 0. 255. 255. 253. 253. 1. 1. 0. 0. 0. 0. 0. 1. 0. 0. 255.
      255. 255. 255. 255. 0. 0. 2. 1. 0. 0. 1. 0. 0. 0. 3. 0. 0. 1. 0.
      3. 254. 2. 253. 1. 1. 255. 1. 253. 255. 0. 0. 0. 0. 3. 0. 0. 1. 0.
      0. 255. 255. 255. 255. 255. 255. 0. 0. 2. 0. 0. 0. 0. 0. 0. 0. 0.
      0. 0. 3. 0. 1. 1. 255. 0. 255. 255. 1. 254. 254. 255. 0. 0. 3. 0.
      0. 0. 0. 0. 1. 0. 255. 255. 255. 249. 255. 2. 3. 0. 1. 0. 0. 0. 0.
      0. 0. 0. 0. 0. 0. 0. 0. 0. 1. 3. 255. 252. 253. 255. 255. 255. 1.
      1. 0. 0. 0. 0. 0. 0. 1. 0. 255. 255. 255. 255. 0. 0. 0. 1. 0. 0.
      0. 0. 0. 0. 0. 0. 0. 0. 2. 1. 0. 0. 0. 4. 0. 3. 255. 254. 255.
      253. 252. 1. 1. 0. 0. 0. 0. 0. 1. 0. 255. 255. 253. 255. 0. 0. 1.
      1. 0. 3. 0. 0. 0. 0. 0. 0. 0. 0. 1. 0. 1. 0. 1. 0. 2. 0. 0. 1.
      252. 255. 255. 0. 0. 2. 0. 0. 0. 0. 1. 0. 255. 255. 255. 253. 3.
      2. 0. 0. 2. 0. 0. 0. 0. 0. 0. 0. 0. 0. 1. 0. 0. 3. 1. 1. 0. 4. 0.
      1. 0. 255. 254. 0. 0. 0. 0. 0. 0. 0. 1. 0. 255. 255. 254. 255. 0.
      0. 3. 1. 0. 0. 0. 0. 0. 0. 0. 0. 0. 0. 1. 1. 0. 0. 1. 1. 0. 1. 0.
      3. 0. 254. 255. 3. 0. 0. 0. 0. 0. 0. 1. 0. 255. 255. 255. 254. 4.
      0. 0. 2. 0. 1. 0. 0. 0. 0. 0. 0. 0. 0. 0. 1. 1. 0. 0. 0. 1. 0. 2.
      0. 255. 252. 255. 0. 0. 2. 0. 0. 0. 0. 1. 0. 255. 255. 255. 255.
      0. 0. 2. 0. 1. 0. 0. 0. 0. 0. 0. 0. 0. 0. 0. 1. 0. 0. 2. 0. 2. 0.
      254. 255. 253. 255. 255. 255. 0. 0. 0. 0. 0. 0. 1. 0. 255. 255.
      255. 255. 0. 0. 0. 0. 2. 0. 0. 0. 0. 0. 0. 0. 0. 0. 1. 0. 0. 0. 1.
      1. 0. 1. 254. 255. 255. 253. 255. 255. 0. 1. 1. 0. 1. 0. 2. 0.
      253. 255. 255. 253. 2. 0. 0. 3. 0. 0. 0. 0. 0. 0. 0. 0. 0. 0. 2.
      0. 0. 0. 1. 0. 2. 254. 255. 255. 253. 255. 255. 254. 0. 1. 0. 0.
      0. 3. 0. 0. 255. 253. 254. 253. 0. 0. 0. 0. 3. 1. 0. 0. 0. 0. 0.
      0. 0. 0. 0. 2. 3. 2. 1. 0. 0. 255. 255. 255. 253. 252. 255. 255.
      2. 0. 4. 0. 0. 0. 2. 3. 0. 254. 255. 255. 3. 1. 0. 2. 0. 1. 0. 0.
      0. 0. 0. 0. 0. 0. 2. 0. 0. 0. 0. 0. 4. 253. 0. 0. 255. 255. 253.
      0. 0. 3. 0. 1. 1. 0. 0. 0. 0. 255. 255. 252. 0. 0. 2. 2. 0. 0. 0.
      0. 0. 0. 0. 0. 0. 0. 0. 1. 1. 1. 0. 1. 0. 0. 2. 0. 255. 255. 254.
      3. 0. 1. 0. 3. 0. 3. 0. 5. 0. 252. 255. 255. 2. 0. 0. 0. 2. 2. 0.
      0. 0. 0. 0. 0. 0. 0. 0. 3. 0. 2. 0. 0. 3. 255. 255. 0. 254. 255.
      255. 0. 1. 0. 3. 0. 0. 0. 3. 0. 0. 255. 0. 1. 0. 0. 2. 0. 0. 0. 0.
      0. 0. 0. 0. 0. 0. 0. 2. 0. 0. 0. 4. 0. 0. 255. 255. 255. 255. 255.
      250. 2. 1. 0. 0. 0. 1. 1. 0. 3. 0. 255. 0. 0. 1. 1. 0. 0. 1. 1. 0.
      0. 0. 0. 0. 0. 0. 0. 0. 1. 0. 1. 0. 1. 0. 0. 0. 255. 254. 253. 4.
      0. 0. 0. 0. 1. 0. 0. 0. 0. 1. 0.</_>
    <_>
      1. 0. 2. 0. 0. 1. 0. 0. 0. 0. 0. 0. 0. 0. 0. 0. 1. 2. 0. 0. 2. 0.
      0. 255. 255. 255. 255. 255. 0. 0. 2. 0. 0. 1. 0. 0. 0. 4. 0. 0. 0.
      0. 0. 2. 1. 0. 1. 0. 0. 0. 0. 0. 0. 0. 0. 0. 0. 0. 1. 0. 0. 0. 0.
      255. 253. 255. 250. 255. 1. 7. 0. 1. 3. 0. 1. 2. 0. 0. 2. 254.
      255. 2. 3. 0. 0. 0. 0. 0. 0. 0. 0. 0. 0. 0. 0. 0. 1. 4. 0. 2. 0.
      2. 0. 255. 255. 255. 255. 255. 0. 0. 1. 1. 0. 0. 0. 0. 0. 3. 0.
      255. 255. 255. 0. 0. 3. 3. 0. 3. 0. 0. 0. 0. 0. 0. 0. 0. 1. 0. 2.
      0. 0. 0. 2. 254. 254. 254. 254. 254. 255. 0. 2. 1. 0. 4. 0. 0. 0.
      0. 1. 255. 254. 252. 3. 0. 0. 0. 2. 0. 0. 0. 0. 0. 0. 0. 0. 0. 2.
      3. 0. 1. 1. 2. 0. 255. 255. 254. 255. 255. 254. 0. 0. 0. 1. 0. 0.
      1. 1. 0. 255. 255. 255. 255. 255. 0. 0. 0. 2. 0. 0. 0. 0. 0. 0. 0.
      0. 0. 0. 1. 1. 0. 1. 3. 0. 255. 254. 255. 255. 253. 255. 2. 0. 1.
      0. 2. 2. 2. 0. 0. 1. 253. 253. 254. 255. 1. 3. 0. 1. 0. 0. 0. 0.
      0. 0. 0. 0. 0. 5. 0. 0. 2. 1. 0. 0. 0. 253. 255. 252. 255. 255. 0.
      1. 0. 0. 0. 0. 0. 1. 0. 254. 255. 255. 255. 255. 0. 0. 0. 0. 1. 0.
      0. 0. 0. 0. 0. 0. 0. 0. 0. 1. 0. 0. 2. 1. 0. 255. 255. 254. 255.
      255. 0. 0. 1. 0. 2. 0. 0. 2. 1. 253. 255. 255. 255. 255. 0. 0. 0.
      1. 0. 1. 0. 0. 2. 0. 2. 0. 0. 0. 4. 0. 0. 1. 0. 2. 254. 255. 255.
      255. 255. 0. 1. 0. 0. 0. 1. 0. 2. 0. 0. 255. 255. 255. 252. 255.
      2. 1. 0. 3. 0. 0. 0. 2. 1. 2. 0. 0. 3. 1. 0. 0. 0. 0. 1. 0. 255.
      253. 255. 255. 254. 1. 1. 0. 2. 1. 0. 2. 0. 0. 4. 254. 255. 253.
      255. 253. 0. 2. 0. 1. 0. 2. 0. 0. 0. 0. 2. 1. 0. 0. 6. 0. 1. 0. 0.
      255. 4. 255. 255. 255. 0. 0. 2. 0. 0. 0. 0. 1. 3. 0. 0. 255. 254.
      255. 255. 255. 0. 0. 0. 0. 1. 0. 0. 6. 0. 0. 0. 0. 0. 0. 0. 2. 1.
      0. 4. 251. 0. 255. 253. 254. 1. 1. 0. 2. 0. 0. 2. 0. 0. 2. 3. 253.
      255. 255. 252. 0. 5. 1. 0. 0. 0. 0. 2. 0. 0. 0. 1. 0. 4. 4. 0. 2.
      1. 0. 0. 255. 253. 254. 255. 255. 0. 1. 0. 1. 1. 3. 0. 1. 1. 0. 0.
      255. 253. 255. 255. 0. 0. 0. 2. 0. 0. 0. 1. 0. 0. 2. 0. 0. 0. 0.
      3. 0. 255. 4. 0. 253. 255. 254. 253. 255. 0. 3. 3. 0. 0. 0. 0. 1.
      0. 0. 0. 255. 255. 255. 251. 255. 1. 0. 2. 0. 2. 2. 0. 0. 0. 0. 0.
      3. 3. 0. 255. 0. 254. 0. 255. 255. 253. 255. 255. 1. 0. 0. 0. 1.
      2. 0. 1. 0. 3. 2. 255. 249. 255. 254. 255. 255. 0. 1. 0. 2. 0. 0.
      2. 1. 1. 0. 1. 254. 0. 0. 255. 2. 253. 1. 254. 255. 255. 0. 0. 0.
      1. 0. 1. 1. 0. 0. 0. 2. 0. 0. 255. 255. 255. 255. 255. 255. 0. 0.
      1. 0. 0. 2. 0. 1. 0. 2. 0. 252. 3. 255. 255. 0. 254. 0. 255. 254.
      254. 0. 0. 0. 3. 0. 0. 2. 0. 0. 0. 1. 0. 0. 255. 255. 255. 255.
      255. 255. 0. 0. 1. 0. 0. 0. 0. 1. 2. 0. 3. 254. 255. 255. 249. 0.
      255. 254. 255. 255. 254. 1. 4. 0. 0. 1. 1. 0. 0. 0. 0. 1. 0. 0.
      255. 255. 255. 255. 255. 255. 0. 0. 1. 0. 0. 4. 1. 0. 0. 1. 1. 1.
      255. 255. 255. 255. 251. 255. 253. 255. 2. 0. 0. 0. 1. 0. 1. 1. 1.
      0. 0. 1. 0. 0. 255. 255. 255. 255. 255. 255. 0. 0. 1. 0. 0. 0. 4.
      1. 1. 1. 0. 0. 1. 252. 255. 253. 1. 254. 255. 252. 1. 0. 1. 1. 0.
      1. 1. 0. 0. 0. 0. 1. 0. 0. 255. 255. 255. 255. 255. 255. 0. 0. 1.
      0. 0. 0. 0. 0. 3. 0. 3. 0. 255. 255. 255. 255. 0. 255. 255. 254.
      254. 0. 0. 0. 1. 2. 0. 0. 0. 0. 0. 1. 0. 0. 255. 255. 255. 255.
      255. 255. 0. 0. 1. 0. 0. 0. 3. 1. 0. 1. 0. 255. 1. 255. 253. 254.
      255. 253. 254. 255. 255. 254. 255. 1. 0. 0. 0. 0. 1. 0. 0. 1. 0.
      0. 255. 255. 255. 255. 255. 255. 0. 0. 1. 0. 0. 0. 1. 0. 3. 0. 0.
      255. 0. 255. 0. 255. 254. 254. 255. 252. 253. 255. 250. 254. 0. 4.
      2. 0. 1. 0. 0. 1. 0. 0. 255. 255. 255. 255. 255. 255. 0. 0. 1. 0.
      0. 0. 0. 1. 0. 1. 1. 0. 1. 0. 2. 0. 1. 255. 252. 255. 0. 253. 255.
      253. 2. 0. 0. 5. 0. 0. 0. 1. 0. 0. 255. 255. 255. 255. 255. 0. 0.
      2. 0. 1. 0. 0. 0. 0. 0. 0. 0. 0. 0. 2. 0. 1. 0. 255. 253. 255. 0.
      255. 253. 255. 255. 0. 0. 0. 1. 0. 0. 1. 0. 0. 255. 255. 255. 255.
      254. 4. 0. 0. 2. 0. 1. 0. 0. 0. 0. 0. 0. 0. 0. 0. 2. 1. 0. 0. 255.
      254. 0. 255. 255. 252. 255. 0. 2. 0. 0. 0. 0. 1. 0. 0. 255. 255.
      255. 254. 255. 0. 0. 3. 1. 0. 0. 0. 0. 0. 0. 0. 0. 0. 0. 0. 1. 0.
      0. 2. 5. 0. 5. 253. 255. 255. 251. 0. 4. 0. 2. 0. 0. 1. 0. 0. 255.
      255. 255. 255. 253. 3. 2. 0. 0. 2. 0. 0. 0. 0. 0. 0. 0. 0. 0. 1.
      1. 0. 0. 0. 0. 0. 0. 255. 253. 255. 255. 0. 0. 1. 0. 0. 0. 1. 0.
      0. 255. 255. 255. 253. 255. 0. 0. 1. 1. 0. 3. 0. 0. 0. 0. 0. 0. 0.
      0. 1. 0. 0. 1. 2. 0. 1. 1. 255. 250. 253. 255. 253. 2. 1. 1. 0. 0.
      1. 0. 0. 255. 255. 255. 255. 255. 0. 0. 0. 1. 0. 0. 0. 0. 0. 0. 0.
      0. 0. 0. 0. 2. 0. 4. 0. 1. 0. 0. 0. 255. 255. 255. 255. 2. 0. 0.
      0. 0. 1. 0. 0. 255. 255. 255. 255. 249. 255. 2. 3. 0. 1. 0. 0. 0.
      0. 0. 0. 0. 0. 0. 2. 0. 3. 0. 0. 2. 0. 0. 0. 252. 255. 255. 251.
      0. 0. 0. 0. 0. 1. 0. 0. 255. 255. 255. 255. 255. 255. 0. 0. 2. 0.
      0. 0. 0. 0. 0. 0. 0. 0. 0. 1. 0. 0. 2. 0. 0. 0. 1. 0. 1. 253. 255.
      255. 254. 0. 1. 0. 0. 1. 0. 0. 255. 255. 255. 254. 255. 254. 2. 0.
      2. 0. 0. 0. 0. 0. 0. 0. 0. 0. 0. 0. 0. 0. 0. 0. 0. 0. 0. 0. 1.
      254. 255. 255. 255. 0. 1. 1. 0. 1. 1. 0. 1. 255. 255. 255. 255.
      255. 0. 0. 1. 2. 0. 0. 0. 0. 0. 0. 0. 0. 0. 0. 0. 0. 0. 0. 0. 0.
      0. 252. 255. 255. 254. 254. 0. 3. 0. 0. 1. 0. 0. 1. 0. 255. 254.
      255. 254. 254. 4. 1. 0. 1. 0. 0. 0. 0. 0. 0. 0. 0. 0. 0. 0. 0. 0.
      0. 0. 0. 0. 255. 255. 253. 255. 255. 2. 0. 4. 0. 2. 0. 2. 0. 0.
      255. 255. 252. 255. 0. 0. 1. 2. 0. 2. 0. 0. 0. 0. 0. 0. 0. 0. 0.
      0. 0. 0. 0. 0. 0. 0. 252. 253. 255. 255. 253. 1. 0. 0. 0. 0. 0. 1.
      2. 1. 253. 254. 255. 255. 2. 1. 0. 0. 0. 3. 0. 0. 0. 0. 0. 0. 0.
      0. 0. 0. 0. 0. 0. 0. 0. 0. 255. 254. 252. 254. 255. 255. 0. 2. 0.
      1. 1. 0. 0. 0. 2. 255. 255. 255. 0. 0. 0. 4. 1. 0. 0. 0. 0. 0. 0.
      0. 0. 0. 0. 0. 0. 0. 0. 0. 0. 0. 253. 255. 255. 255. 255. 253. 2.
      0. 0. 0. 0. 0. 2. 0. 0. 254. 255. 1. 3. 0. 0. 0. 0. 4. 0. 0. 0. 0.
      0. 0. 0. 0. 0. 0. 0. 0. 0. 0. 0. 0. 254. 255. 255. 254. 255. 255.
      0. 0. 0. 0. 0. 3. 0. 0. 0. 255. 255. 0. 1. 1. 0. 1. 0. 0. 0. 0. 0.
      0. 0. 0. 0. 0. 0. 0. 0. 0. 0. 0. 0. 0. 255. 0. 253. 255. 253. 0.
      2. 0. 0. 2. 0. 0. 2. 0. 0. 255.</_>
    <_>
      0. 2. 0. 1. 0. 0. 2. 0. 1. 0. 0. 0. 255. 0. 0. 1. 0. 2. 0. 0. 3.
      0. 0. 255. 255. 255. 253. 255. 0. 0. 0. 0. 1. 0. 1. 0. 0. 2. 0. 1.
      0. 0. 1. 0. 2. 0. 0. 1. 0. 1. 3. 1. 0. 1. 0. 0. 1. 0. 0. 1. 0. 0.
      1. 0. 255. 253. 255. 255. 1. 1. 0. 1. 1. 0. 1. 0. 0. 0. 1. 0. 1.
      0. 2. 3. 0. 1. 0. 0. 0. 0. 0. 0. 0. 6. 0. 0. 0. 0. 0. 4. 0. 0. 0.
      0. 253. 255. 252. 255. 1. 0. 0. 2. 0. 0. 3. 0. 0. 0. 1. 255. 0. 1.
      0. 0. 1. 0. 1. 0. 0. 0. 2. 1. 0. 0. 3. 2. 2. 2. 0. 0. 1. 3. 1.
      255. 255. 255. 255. 251. 2. 0. 1. 0. 4. 0. 0. 1. 2. 1. 1. 253.
      255. 0. 2. 3. 1. 0. 1. 1. 4. 0. 0. 2. 0. 0. 0. 0. 0. 1. 0. 2. 2.
      0. 0. 255. 255. 251. 254. 254. 0. 2. 0. 0. 0. 0. 2. 0. 0. 0. 2.
      254. 254. 0. 2. 0. 3. 1. 2. 0. 0. 2. 0. 1. 3. 1. 0. 0. 3. 0. 2. 0.
      0. 2. 0. 255. 255. 255. 4. 255. 0. 0. 0. 1. 0. 0. 0. 0. 2. 0. 253.
      255. 255. 255. 0. 1. 1. 0. 0. 2. 2. 0. 5. 0. 0. 3. 0. 1. 0. 0. 3.
      1. 0. 1. 0. 255. 255. 251. 253. 255. 0. 3. 0. 2. 0. 0. 2. 0. 0. 5.
      255. 255. 254. 253. 4. 0. 1. 2. 0. 0. 1. 0. 0. 1. 0. 0. 2. 0. 1.
      1. 0. 1. 1. 1. 1. 254. 255. 255. 255. 254. 0. 0. 2. 0. 1. 1. 0. 0.
      3. 0. 254. 255. 254. 255. 0. 2. 2. 0. 0. 0. 0. 0. 0. 0. 0. 0. 0.
      0. 0. 0. 2. 0. 1. 1. 2. 254. 254. 255. 254. 253. 255. 0. 1. 0. 0.
      0. 0. 0. 1. 0. 255. 255. 255. 255. 254. 0. 0. 0. 1. 0. 0. 0. 0. 0.
      0. 0. 0. 0. 2. 2. 0. 0. 1. 0. 252. 255. 2. 251. 255. 255. 252. 0.
      0. 1. 0. 0. 0. 0. 1. 0. 255. 255. 255. 255. 255. 3. 1. 1. 3. 0. 0.
      0. 0. 0. 0. 0. 0. 0. 0. 0. 2. 3. 0. 0. 255. 254. 252. 255. 255.
      255. 255. 0. 2. 0. 0. 0. 0. 0. 1. 0. 255. 255. 254. 255. 253. 0.
      0. 1. 0. 1. 0. 0. 0. 0. 0. 0. 0. 0. 3. 0. 0. 0. 0. 0. 255. 255.
      255. 253. 254. 0. 0. 0. 0. 3. 0. 0. 0. 0. 1. 0. 255. 255. 254.
      252. 255. 4. 0. 0. 0. 3. 0. 0. 0. 0. 0. 0. 0. 0. 1. 0. 0. 0. 0. 5.
      253. 254. 255. 255. 255. 0. 0. 2. 0. 0. 0. 0. 0. 0. 1. 0. 255.
      255. 255. 254. 255. 0. 0. 0. 2. 0. 0. 0. 0. 0. 0. 0. 0. 0. 0. 0.
      3. 0. 2. 0. 254. 255. 253. 253. 255. 1. 0. 0. 2. 1. 0. 0. 0. 0. 1.
      0. 255. 255. 252. 255. 255. 0. 1. 0. 0. 0. 0. 0. 0. 0. 0. 0. 0. 0.
      1. 1. 0. 255. 255. 0. 255. 254. 255. 252. 255. 0. 1. 0. 2. 0. 0.
      0. 0. 0. 1. 0. 255. 255. 255. 255. 255. 0. 0. 1. 0. 0. 0. 0. 0. 0.
      0. 0. 0. 0. 0. 0. 255. 252. 255. 254. 254. 255. 254. 255. 0. 1. 0.
      1. 1. 0. 0. 0. 0. 0. 1. 0. 255. 255. 255. 255. 253. 2. 0. 0. 1. 0.
      0. 0. 0. 2. 0. 0. 0. 0. 0. 0. 255. 255. 0. 255. 255. 255. 255. 0.
      0. 1. 0. 1. 0. 0. 0. 0. 2. 0. 0. 1. 255. 255. 255. 253. 255. 0. 1.
      1. 0. 0. 3. 0. 0. 0. 0. 0. 2. 0. 0. 0. 255. 255. 3. 251. 255. 0.
      252. 4. 0. 2. 1. 0. 0. 1. 3. 0. 0. 2. 0. 253. 255. 254. 253. 255.
      252. 1. 1. 0. 0. 2. 0. 0. 3. 0. 1. 0. 255. 255. 255. 1. 255. 255.
      253. 251. 255. 2. 0. 1. 3. 0. 0. 0. 0. 1. 0. 0. 1. 0. 3. 255. 252.
      255. 255. 255. 255. 0. 2. 0. 2. 0. 1. 2. 0. 0. 1. 1. 253. 255.
      254. 0. 254. 255. 255. 2. 255. 0. 3. 0. 0. 2. 1. 2. 0. 0. 1. 3. 0.
      2. 0. 254. 253. 255. 255. 252. 254. 0. 0. 2. 1. 0. 0. 0. 2. 0. 0.
      0. 255. 251. 254. 6. 254. 0. 255. 0. 254. 255. 0. 0. 1. 0. 0. 2.
      0. 2. 0. 0. 2. 0. 0. 255. 255. 254. 255. 255. 4. 2. 0. 0. 1. 1. 3.
      1. 0. 5. 0. 0. 253. 255. 255. 254. 255. 1. 255. 255. 254. 255. 1.
      255. 0. 4. 0. 0. 1. 0. 3. 0. 0. 1. 0. 0. 252. 255. 255. 252. 253.
      1. 0. 3. 0. 2. 0. 3. 0. 0. 0. 1. 3. 254. 255. 255. 255. 252. 255.
      254. 255. 255. 254. 254. 2. 253. 0. 0. 1. 0. 0. 1. 0. 1. 1. 255.
      255. 255. 255. 255. 255. 0. 0. 0. 3. 0. 1. 2. 0. 1. 2. 0. 0. 255.
      0. 0. 255. 255. 253. 254. 255. 254. 255. 0. 255. 255. 0. 0. 0. 1.
      1. 2. 0. 0. 1. 254. 254. 255. 254. 254. 255. 1. 0. 0. 0. 1. 0. 0.
      0. 0. 0. 0. 0. 0. 1. 0. 2. 0. 252. 255. 254. 254. 255. 0. 255.
      254. 3. 0. 0. 1. 0. 0. 1. 1. 0. 0. 255. 255. 255. 255. 252. 2. 2.
      1. 1. 0. 0. 0. 0. 0. 0. 0. 0. 0. 1. 4. 0. 0. 4. 0. 255. 255. 250.
      255. 252. 253. 0. 0. 0. 0. 1. 0. 4. 0. 0. 0. 255. 254. 254. 255.
      255. 0. 0. 0. 0. 0. 0. 0. 0. 0. 0. 0. 0. 0. 0. 0. 1. 2. 0. 1. 0.
      253. 255. 252. 255. 255. 1. 2. 0. 0. 0. 0. 1. 0. 0. 3. 253. 255.
      253. 255. 0. 1. 1. 1. 0. 1. 0. 0. 0. 0. 0. 0. 0. 0. 1. 0. 1. 0. 0.
      0. 0. 2. 253. 253. 254. 255. 0. 0. 0. 1. 0. 2. 0. 1. 2. 0. 254.
      255. 255. 254. 0. 1. 0. 0. 1. 0. 0. 0. 0. 0. 0. 0. 0. 0. 0. 1. 0.
      0. 0. 1. 2. 0. 255. 255. 255. 254. 255. 0. 0. 1. 0. 0. 0. 0. 0.
      255. 255. 255. 252. 255. 0. 0. 0. 0. 1. 0. 0. 0. 0. 0. 0. 0. 0. 0.
      1. 0. 2. 0. 0. 0. 0. 1. 0. 0. 253. 255. 255. 1. 0. 0. 0. 1. 0. 2.
      3. 255. 250. 255. 255. 252. 3. 0. 0. 0. 3. 0. 0. 0. 0. 0. 0. 0. 0.
      0. 1. 0. 1. 3. 0. 0. 0. 0. 0. 4. 253. 255. 253. 0. 0. 1. 0. 2. 0.
      1. 0. 0. 255. 255. 254. 255. 0. 0. 1. 2. 0. 4. 0. 0. 0. 0. 0. 0.
      0. 0. 1. 0. 1. 0. 0. 1. 0. 2. 255. 0. 255. 255. 255. 255. 2. 0. 1.
      0. 1. 0. 2. 1. 253. 255. 255. 255. 0. 1. 0. 0. 0. 0. 0. 0. 0. 0.
      0. 0. 0. 0. 0. 0. 0. 0. 0. 0. 0. 0. 255. 0. 255. 254. 255. 255. 0.
      2. 0. 2. 0. 0. 1. 0. 255. 255. 255. 255. 0. 1. 0. 0. 0. 0. 0. 0.
      0. 0. 0. 0. 0. 0. 0. 0. 0. 0. 0. 0. 0. 0. 0. 255. 255. 253. 252.
      0. 0. 0. 1. 0. 0. 2. 0. 3. 255. 255. 255. 255. 0. 1. 0. 0. 0. 0.
      0. 0. 0. 0. 0. 0. 0. 0. 0. 0. 0. 0. 0. 0. 0. 0. 4. 254. 251. 255.
      255. 0. 4. 0. 2. 1. 0. 0. 1. 0. 253. 254. 255. 255. 0. 1. 0. 0. 0.
      0. 0. 0. 0. 0. 0. 0. 0. 0. 0. 0. 0. 0. 0. 0. 0. 0. 0. 0. 255. 254.
      255. 0. 0. 2. 0. 0. 4. 0. 0. 0. 255. 255. 255. 255. 0. 1. 0. 0. 0.
      0. 0. 0. 0. 0. 0. 0. 0. 0. 0. 0. 0. 0. 0. 0. 0. 0. 0. 255. 255. 0.
      255. 0. 1. 1. 1. 0. 0. 1. 1. 2. 255. 254. 255. 255. 0. 1. 0. 0. 0.
      0. 0. 0. 0. 0. 0. 0. 0. 0. 0. 0. 0. 0. 0. 0. 0. 0. 254. 255. 255.
      1. 254. 3. 0. 0. 0. 0. 1. 0. 0. 0. 0. 255. 255. 255. 0. 1. 0. 0.
      0. 0. 0. 0. 0. 0. 0. 0. 0. 0. 0. 0. 0. 0. 0. 0. 0. 0. 254. 254.
      253. 255. 254. 253. 6. 0. 3. 0. 0. 2. 3. 0. 2. 0. 255. 255. 0. 1.
      0. 0. 0. 0. 0. 0. 0. 0. 0. 0. 0. 0. 0. 0. 0. 0. 0. 0. 0. 0. 255.
      255. 255. 255. 254. 255. 0. 0. 0. 0. 2. 0. 0. 3. 0. 0.</_>
    <_>
      0. 0. 1. 1. 0. 0. 1. 1. 0. 0. 0. 0. 0. 0. 0. 0. 0. 0. 3. 0. 0. 2.
      255. 255. 255. 254. 253. 255. 0. 1. 3. 0. 0. 2. 2. 0. 1. 0. 0.
      255. 0. 1. 0. 0. 2. 0. 0. 0. 0. 0. 0. 0. 0. 0. 0. 0. 1. 1. 0. 0.
      0. 0. 252. 255. 0. 255. 255. 255. 0. 0. 0. 2. 1. 1. 0. 0. 0. 1. 2.
      250. 255. 255. 2. 0. 0. 0. 2. 2. 0. 0. 0. 0. 0. 0. 0. 0. 0. 0. 0.
      0. 3. 0. 255. 255. 0. 255. 255. 254. 3. 0. 0. 0. 2. 0. 1. 1. 0. 0.
      0. 255. 255. 252. 0. 0. 2. 2. 0. 0. 0. 0. 0. 0. 0. 0. 0. 0. 0. 2.
      0. 3. 0. 1. 255. 254. 255. 255. 255. 255. 0. 1. 2. 1. 0. 0. 0. 0.
      0. 1. 255. 254. 255. 255. 3. 1. 0. 2. 0. 1. 0. 0. 0. 0. 0. 0. 0.
      0. 0. 0. 0. 0. 0. 1. 255. 254. 255. 254. 251. 255. 2. 0. 1. 0. 0.
      2. 0. 3. 0. 1. 255. 254. 254. 253. 0. 0. 0. 0. 3. 1. 0. 0. 0. 0.
      0. 0. 0. 0. 2. 0. 1. 1. 0. 0. 0. 255. 255. 254. 255. 255. 0. 1. 0.
      3. 0. 0. 0. 0. 3. 0. 255. 255. 255. 253. 2. 0. 0. 3. 0. 0. 0. 0.
      0. 0. 0. 0. 0. 0. 1. 1. 0. 0. 0. 1. 2. 250. 255. 254. 255. 254. 0.
      2. 0. 0. 1. 1. 0. 0. 0. 0. 252. 255. 255. 255. 0. 0. 0. 0. 2. 0.
      0. 0. 0. 0. 0. 0. 0. 0. 0. 2. 2. 0. 1. 0. 0. 255. 255. 255. 254.
      255. 1. 0. 1. 0. 0. 0. 3. 0. 0. 2. 255. 255. 255. 255. 0. 0. 2. 1.
      0. 0. 1. 0. 1. 0. 0. 0. 2. 0. 0. 0. 1. 0. 2. 0. 0. 255. 255. 253.
      255. 1. 0. 1. 1. 0. 0. 1. 0. 0. 0. 255. 255. 255. 254. 253. 5. 0.
      0. 0. 0. 2. 0. 1. 1. 3. 0. 3. 1. 0. 0. 1. 0. 0. 0. 1. 0. 254. 255.
      252. 255. 1. 0. 1. 0. 1. 0. 0. 0. 3. 2. 1. 252. 255. 255. 254. 0.
      4. 1. 0. 0. 0. 2. 0. 0. 0. 1. 0. 1. 0. 2. 0. 2. 0. 2. 254. 255.
      255. 252. 255. 0. 0. 3. 1. 0. 0. 2. 0. 0. 0. 0. 0. 255. 254. 255.
      254. 255. 0. 0. 0. 2. 0. 0. 0. 0. 1. 4. 3. 0. 1. 0. 2. 0. 255.
      255. 254. 254. 254. 255. 254. 0. 4. 1. 0. 2. 0. 0. 3. 0. 1. 3. 2.
      252. 255. 254. 255. 255. 0. 0. 1. 0. 1. 0. 2. 1. 0. 0. 0. 0. 2.
      255. 253. 1. 254. 255. 0. 255. 254. 255. 254. 3. 0. 1. 0. 0. 0. 0.
      3. 0. 1. 0. 0. 255. 255. 255. 252. 255. 0. 1. 0. 0. 0. 1. 0. 0. 0.
      0. 3. 255. 254. 255. 252. 1. 255. 251. 0. 255. 255. 253. 2. 0. 1.
      0. 0. 3. 2. 1. 0. 1. 1. 0. 0. 255. 251. 252. 255. 253. 0. 1. 1. 0.
      2. 0. 5. 0. 1. 1. 0. 255. 253. 254. 255. 0. 255. 255. 0. 254. 255.
      255. 0. 1. 1. 1. 2. 0. 0. 0. 1. 0. 0. 3. 0. 255. 255. 255. 254.
      255. 0. 0. 0. 6. 0. 1. 0. 1. 0. 0. 1. 0. 255. 255. 255. 255. 253.
      255. 0. 255. 0. 0. 2. 1. 0. 0. 0. 1. 1. 0. 1. 0. 1. 0. 0. 254.
      255. 255. 255. 255. 0. 0. 1. 0. 0. 0. 1. 0. 0. 0. 1. 0. 255. 255.
      0. 255. 255. 253. 255. 0. 0. 0. 3. 0. 0. 1. 1. 0. 0. 0. 0. 1. 0.
      0. 255. 255. 255. 255. 255. 255. 0. 0. 1. 0. 0. 0. 0. 2. 2. 1. 1.
      254. 253. 255. 2. 253. 253. 255. 253. 1. 2. 0. 3. 1. 0. 4. 0. 2.
      0. 0. 0. 1. 0. 0. 255. 255. 255. 255. 255. 255. 0. 0. 1. 0. 0. 0.
      2. 0. 0. 0. 0. 255. 255. 0. 255. 255. 255. 255. 255. 254. 0. 0. 0.
      0. 2. 0. 1. 0. 1. 0. 0. 1. 0. 0. 255. 255. 255. 255. 255. 255. 0.
      0. 1. 0. 0. 2. 0. 0. 5. 0. 0. 255. 254. 2. 252. 0. 255. 252. 255.
      255. 255. 0. 0. 1. 0. 0. 0. 3. 0. 0. 0. 1. 0. 0. 255. 255. 255.
      255. 255. 255. 0. 0. 1. 0. 0. 0. 1. 0. 0. 0. 0. 255. 254. 253. 3.
      1. 255. 253. 255. 2. 255. 2. 255. 254. 2. 0. 0. 2. 0. 0. 0. 1. 0.
      0. 255. 255. 255. 255. 255. 255. 0. 0. 1. 0. 0. 1. 0. 2. 0. 6. 1.
      0. 255. 255. 0. 254. 0. 255. 252. 2. 252. 253. 255. 253. 0. 0. 0.
      0. 3. 0. 0. 1. 0. 0. 255. 255. 255. 255. 255. 255. 0. 0. 1. 0. 0.
      0. 2. 0. 4. 0. 0. 3. 0. 1. 0. 255. 3. 255. 255. 251. 255. 255.
      253. 255. 1. 2. 4. 0. 0. 0. 0. 1. 0. 0. 255. 255. 255. 255. 255.
      255. 0. 0. 1. 0. 0. 0. 0. 0. 0. 4. 0. 0. 0. 0. 1. 2. 0. 255. 255.
      0. 255. 255. 255. 255. 0. 0. 0. 2. 0. 0. 0. 1. 0. 0. 255. 255.
      255. 253. 255. 0. 0. 2. 1. 0. 1. 0. 0. 0. 0. 0. 0. 0. 0. 1. 0. 0.
      2. 0. 0. 1. 255. 255. 254. 255. 254. 0. 0. 2. 0. 0. 0. 2. 0. 0.
      255. 255. 255. 255. 254. 253. 0. 0. 0. 1. 0. 0. 0. 0. 0. 0. 0. 0.
      0. 0. 3. 1. 0. 0. 0. 1. 1. 254. 253. 255. 253. 255. 3. 0. 0. 0. 1.
      0. 3. 2. 255. 249. 255. 251. 255. 255. 2. 0. 4. 0. 1. 0. 0. 0. 0.
      0. 0. 0. 0. 0. 2. 0. 0. 4. 0. 0. 0. 255. 253. 252. 255. 255. 0. 0.
      0. 0. 0. 1. 0. 0. 0. 255. 255. 255. 255. 255. 0. 0. 1. 1. 0. 0. 0.
      0. 0. 0. 0. 0. 0. 0. 0. 0. 1. 0. 2. 1. 1. 0. 255. 255. 252. 255.
      2. 0. 0. 3. 0. 1. 1. 0. 0. 255. 253. 255. 255. 255. 2. 2. 1. 0. 2.
      0. 0. 0. 0. 0. 0. 0. 0. 2. 0. 0. 0. 2. 0. 0. 0. 0. 0. 255. 255.
      255. 0. 0. 1. 0. 2. 0. 0. 2. 3. 253. 255. 252. 255. 0. 0. 3. 0. 3.
      0. 0. 0. 0. 0. 0. 0. 0. 0. 2. 0. 1. 0. 0. 1. 1. 2. 2. 0. 255. 251.
      255. 2. 0. 0. 0. 0. 1. 3. 0. 0. 255. 254. 255. 255. 0. 1. 0. 1. 0.
      1. 0. 0. 0. 0. 0. 0. 0. 0. 0. 5. 0. 3. 0. 0. 2. 0. 0. 0. 0. 255.
      254. 0. 2. 2. 1. 0. 2. 0. 0. 4. 254. 255. 254. 255. 0. 0. 1. 0. 2.
      0. 0. 0. 0. 0. 0. 0. 0. 0. 1. 0. 1. 0. 0. 0. 3. 0. 0. 2. 0. 250.
      255. 254. 0. 0. 0. 1. 0. 2. 0. 0. 255. 255. 255. 254. 3. 0. 0. 0.
      1. 0. 0. 0. 0. 0. 0. 0. 0. 0. 0. 1. 0. 0. 1. 0. 2. 0. 255. 254.
      255. 254. 253. 255. 0. 2. 0. 3. 0. 0. 1. 0. 253. 255. 255. 254. 0.
      1. 0. 6. 0. 1. 0. 0. 0. 0. 0. 0. 0. 0. 3. 0. 0. 0. 3. 0. 0. 255.
      253. 255. 252. 255. 255. 254. 0. 0. 2. 0. 0. 0. 0. 3. 252. 254.
      253. 255. 1. 0. 0. 0. 0. 0. 0. 0. 0. 0. 0. 0. 0. 0. 0. 1. 0. 3. 0.
      0. 2. 253. 1. 255. 253. 254. 253. 255. 3. 0. 0. 1. 1. 4. 0. 0.
      255. 255. 255. 255. 0. 0. 0. 0. 2. 0. 0. 0. 0. 0. 0. 0. 0. 0. 0.
      2. 0. 0. 2. 0. 1. 255. 0. 254. 255. 255. 255. 0. 0. 1. 0. 0. 1. 0.
      0. 1. 255. 255. 255. 250. 0. 4. 0. 0. 1. 0. 0. 0. 0. 0. 0. 0. 0.
      0. 1. 0. 0. 0. 0. 0. 3. 0. 0. 255. 250. 254. 253. 1. 2. 2. 0. 5.
      0. 0. 0. 0. 0. 255. 255. 2. 0. 2. 0. 0. 1. 0. 0. 0. 0. 0. 0. 0. 0.
      0. 0. 1. 2. 1. 1. 3. 0. 2. 2. 254. 255. 255. 255. 0. 0. 0. 0. 1.
      0. 1. 0. 3. 0. 255. 253. 1. 0. 0. 1. 0. 1. 0. 0. 0. 0. 0. 0. 0. 0.
      0. 2. 0. 0. 0. 2. 0. 1. 0. 0. 255. 253. 255. 255. 0. 2. 0. 2. 0.
      0. 0. 2. 0. 0. 255. 0. 0. 0. 1. 0. 0. 0. 0. 0. 0. 0. 0. 0. 0. 0.
      0. 0. 4. 0. 0. 1. 0. 0. 3. 0. 254. 255. 255. 0. 0. 0. 2. 0. 2. 0.
      0. 0. 2. 0. 0.</_>
    <_>
      0. 0. 3. 0. 2. 0. 0. 1. 0. 0. 0. 0. 0. 0. 0. 0. 0. 0. 0. 0. 0. 0.
      0. 0. 255. 253. 255. 252. 0. 3. 0. 2. 0. 0. 2. 1. 0. 0. 0. 0. 0.
      3. 0. 1. 0. 0. 1. 0. 0. 0. 0. 0. 0. 0. 0. 0. 0. 0. 0. 0. 0. 0. 0.
      0. 255. 253. 254. 255. 0. 0. 2. 0. 0. 3. 0. 0. 0. 3. 0. 2. 1. 0.
      0. 2. 3. 0. 2. 0. 0. 0. 0. 0. 0. 0. 0. 0. 0. 0. 0. 0. 0. 0. 0. 0.
      254. 255. 255. 255. 255. 0. 3. 0. 1. 0. 0. 0. 3. 0. 0. 0. 255.
      253. 255. 1. 0. 0. 0. 0. 0. 0. 0. 0. 0. 0. 0. 0. 0. 0. 0. 0. 0. 0.
      0. 0. 255. 253. 254. 255. 252. 1. 0. 0. 0. 0. 1. 0. 0. 0. 3. 255.
      254. 254. 255. 0. 2. 0. 2. 0. 0. 0. 0. 0. 0. 0. 0. 0. 0. 0. 0. 0.
      0. 0. 0. 0. 253. 255. 252. 255. 255. 2. 0. 0. 1. 0. 2. 0. 0. 3. 0.
      255. 254. 255. 252. 0. 4. 0. 0. 2. 0. 0. 0. 0. 0. 0. 0. 0. 0. 0.
      0. 0. 0. 0. 0. 0. 255. 252. 255. 253. 2. 0. 0. 0. 0. 2. 0. 1. 2.
      0. 253. 255. 255. 251. 255. 0. 0. 0. 0. 0. 0. 0. 0. 0. 0. 0. 0. 0.
      0. 0. 0. 0. 0. 0. 0. 0. 255. 255. 253. 255. 0. 2. 3. 0. 0. 0. 1.
      1. 0. 0. 255. 255. 253. 255. 255. 0. 0. 2. 0. 0. 0. 0. 0. 0. 0. 0.
      0. 0. 0. 0. 0. 0. 0. 0. 0. 0. 0. 255. 255. 254. 0. 1. 0. 0. 0. 2.
      0. 2. 0. 0. 255. 254. 254. 255. 255. 0. 0. 1. 0. 0. 0. 0. 0. 0. 0.
      0. 0. 0. 2. 0. 1. 0. 0. 0. 1. 0. 254. 0. 254. 255. 0. 2. 1. 0. 0.
      1. 0. 2. 0. 0. 255. 255. 255. 254. 255. 0. 0. 3. 0. 2. 0. 0. 0. 0.
      0. 0. 0. 0. 0. 0. 1. 1. 0. 1. 0. 0. 255. 255. 253. 255. 1. 0. 0.
      0. 1. 0. 2. 0. 0. 4. 254. 255. 254. 255. 253. 0. 2. 0. 0. 1. 0. 0.
      0. 0. 0. 0. 0. 0. 4. 1. 0. 0. 2. 2. 1. 255. 253. 255. 253. 255. 1.
      0. 2. 3. 0. 0. 1. 3. 0. 0. 255. 254. 255. 255. 255. 1. 0. 0. 1. 0.
      0. 0. 0. 0. 0. 0. 0. 0. 0. 3. 0. 1. 0. 0. 0. 255. 1. 254. 255. 0.
      0. 4. 0. 0. 0. 2. 0. 0. 2. 3. 253. 255. 254. 253. 255. 0. 1. 1. 1.
      1. 0. 0. 0. 0. 0. 0. 0. 0. 3. 0. 0. 2. 0. 255. 255. 255. 0. 255.
      254. 255. 2. 1. 2. 0. 3. 0. 1. 1. 0. 0. 255. 253. 254. 254. 255.
      255. 0. 0. 0. 0. 0. 0. 0. 0. 0. 0. 0. 0. 0. 2. 253. 255. 253. 255.
      255. 255. 255. 255. 253. 255. 0. 0. 0. 1. 0. 0. 1. 0. 0. 0. 255.
      255. 254. 255. 248. 254. 0. 5. 0. 2. 0. 0. 0. 0. 0. 0. 0. 0. 255.
      0. 255. 255. 1. 0. 255. 254. 254. 255. 0. 3. 0. 3. 0. 0. 0. 1. 0.
      3. 2. 255. 249. 255. 255. 253. 255. 255. 0. 0. 0. 0. 0. 0. 0. 0.
      0. 0. 0. 0. 254. 253. 1. 0. 0. 4. 253. 255. 255. 1. 0. 0. 1. 0. 0.
      0. 0. 0. 2. 0. 0. 255. 255. 255. 255. 254. 255. 255. 0. 1. 0. 0.
      0. 0. 0. 0. 0. 0. 0. 0. 254. 253. 2. 0. 0. 255. 1. 254. 254. 0. 1.
      0. 0. 3. 0. 0. 0. 2. 0. 1. 0. 254. 255. 255. 255. 255. 255. 255.
      0. 0. 0. 0. 0. 0. 0. 0. 0. 0. 0. 0. 255. 255. 0. 254. 0. 255. 254.
      0. 0. 2. 1. 0. 0. 1. 0. 0. 0. 0. 1. 0. 0. 255. 255. 253. 254. 254.
      255. 254. 2. 2. 0. 1. 0. 0. 0. 0. 0. 0. 0. 0. 0. 254. 0. 255. 0.
      255. 255. 1. 2. 0. 0. 1. 3. 0. 0. 3. 1. 0. 1. 1. 0. 255. 255. 254.
      255. 254. 254. 255. 0. 0. 1. 0. 0. 0. 0. 0. 0. 0. 0. 0. 4. 254.
      254. 255. 0. 0. 255. 252. 255. 0. 0. 0. 0. 0. 3. 0. 0. 2. 0. 1. 0.
      254. 253. 255. 253. 254. 253. 255. 0. 0. 1. 3. 0. 0. 0. 0. 0. 0.
      0. 0. 0. 255. 255. 0. 255. 1. 254. 255. 255. 0. 1. 1. 0. 1. 2. 0.
      0. 0. 2. 0. 2. 0. 255. 252. 255. 255. 255. 253. 0. 0. 2. 0. 0. 0.
      0. 0. 0. 0. 0. 0. 0. 1. 254. 1. 255. 0. 254. 254. 252. 255. 255.
      0. 3. 0. 0. 2. 0. 1. 0. 0. 1. 0. 254. 255. 255. 252. 253. 4. 0. 0.
      0. 1. 0. 0. 0. 0. 0. 0. 0. 0. 0. 0. 3. 0. 252. 2. 0. 254. 255.
      255. 255. 2. 0. 3. 0. 0. 1. 1. 0. 0. 1. 0. 255. 255. 254. 255.
      255. 0. 1. 0. 0. 0. 0. 0. 0. 0. 0. 0. 0. 0. 1. 0. 0. 1. 0. 2. 0.
      255. 2. 0. 255. 0. 2. 0. 1. 0. 1. 0. 1. 0. 1. 0. 255. 254. 254.
      255. 254. 0. 0. 2. 0. 2. 0. 0. 0. 0. 0. 0. 0. 0. 0. 0. 0. 0. 0. 0.
      0. 0. 0. 2. 255. 254. 255. 0. 2. 0. 0. 0. 2. 0. 0. 255. 255. 255.
      255. 255. 254. 2. 0. 1. 2. 0. 0. 0. 0. 0. 0. 0. 0. 0. 0. 0. 0. 0.
      0. 0. 0. 0. 3. 0. 255. 255. 255. 0. 2. 0. 0. 1. 0. 3. 2. 255. 249.
      255. 253. 251. 255. 254. 0. 0. 0. 0. 0. 0. 0. 0. 0. 0. 0. 0. 0. 0.
      0. 0. 0. 0. 0. 0. 0. 4. 0. 255. 253. 0. 0. 0. 0. 0. 1. 0. 0. 0.
      255. 255. 255. 255. 254. 255. 1. 0. 0. 0. 0. 0. 0. 0. 0. 0. 0. 0.
      0. 0. 0. 0. 0. 0. 0. 0. 0. 2. 0. 254. 255. 0. 0. 5. 3. 0. 1. 1. 0.
      0. 255. 253. 251. 255. 252. 254. 1. 0. 1. 0. 0. 0. 0. 0. 0. 0. 0.
      0. 0. 0. 0. 0. 0. 0. 0. 0. 1. 0. 255. 255. 255. 255. 0. 0. 0. 2.
      0. 0. 2. 3. 253. 255. 255. 252. 255. 2. 0. 0. 1. 1. 0. 0. 0. 0. 0.
      0. 0. 0. 0. 0. 0. 0. 0. 0. 0. 0. 0. 2. 253. 250. 255. 255. 0. 1.
      0. 0. 1. 3. 0. 0. 255. 254. 254. 255. 255. 0. 2. 1. 0. 0. 0. 0. 0.
      0. 0. 0. 0. 0. 0. 0. 0. 0. 0. 0. 0. 0. 0. 0. 255. 255. 254. 254.
      0. 0. 1. 0. 2. 0. 0. 4. 254. 255. 255. 255. 251. 1. 0. 0. 0. 3. 0.
      0. 0. 0. 0. 0. 0. 0. 0. 0. 0. 0. 0. 0. 0. 0. 1. 0. 255. 252. 255.
      255. 0. 0. 0. 1. 0. 2. 0. 0. 255. 255. 255. 253. 255. 0. 0. 0. 0.
      1. 0. 0. 0. 0. 0. 0. 0. 0. 1. 0. 1. 0. 0. 0. 3. 0. 0. 255. 255.
      252. 255. 255. 0. 0. 2. 0. 1. 0. 0. 1. 255. 255. 254. 254. 255. 0.
      5. 0. 1. 0. 0. 0. 0. 0. 0. 0. 0. 0. 0. 5. 0. 3. 0. 0. 2. 0. 0. 0.
      255. 255. 254. 252. 2. 0. 0. 0. 0. 2. 0. 0. 255. 255. 255. 255.
      255. 0. 0. 1. 0. 0. 0. 0. 0. 0. 0. 0. 0. 0. 2. 0. 1. 0. 0. 1. 1.
      2. 0. 2. 255. 0. 254. 254. 0. 3. 1. 3. 2. 0. 2. 0. 0. 255. 252.
      255. 252. 5. 0. 0. 2. 1. 0. 0. 0. 0. 0. 0. 0. 0. 2. 0. 0. 0. 2. 0.
      0. 0. 0. 255. 0. 0. 254. 2. 4. 0. 0. 0. 2. 1. 1. 0. 0. 255. 255.
      3. 1. 0. 2. 0. 1. 0. 0. 0. 0. 0. 0. 0. 0. 0. 0. 0. 0. 1. 0. 2. 1.
      1. 0. 254. 253. 255. 0. 0. 0. 0. 0. 2. 0. 4. 0. 1. 2. 253. 255.
      252. 0. 1. 0. 4. 1. 0. 0. 0. 0. 0. 0. 0. 0. 0. 0. 2. 0. 0. 4. 0.
      0. 0. 1. 254. 255. 251. 2. 1. 1. 1. 3. 0. 0. 0. 1. 0. 0. 1. 0. 2.
      0. 0. 2. 0. 1. 0. 0. 0. 0. 0. 0. 0. 0. 0. 0. 3. 1. 0. 0. 0. 1. 1.
      0. 255. 255. 0. 0. 0. 0. 0. 0. 2. 1. 1. 0. 1. 1. 0. 0. 1. 0. 0. 0.
      0. 0. 1. 0. 0. 0. 0. 0. 0. 0. 0. 1. 0. 0. 2. 0. 0. 1. 255. 255.
      255. 255. 0. 255. 1. 0. 1. 3. 0. 0. 0. 3. 0. 0. 1.</_>
    <_>
      0. 0. 0. 0. 1. 0. 3. 0. 0. 0. 0. 0. 0. 0. 0. 0. 1. 0. 0. 3. 0. 1.
      0. 255. 255. 254. 255. 255. 0. 1. 0. 0. 0. 0. 1. 0. 2. 3. 0. 0. 2.
      254. 1. 1. 0. 1. 0. 0. 0. 0. 0. 0. 0. 0. 0. 0. 0. 0. 1. 2. 2. 0.
      0. 255. 255. 255. 255. 255. 0. 0. 0. 0. 2. 0. 1. 5. 0. 0. 255.
      255. 253. 255. 0. 0. 0. 0. 1. 2. 0. 0. 0. 0. 0. 0. 0. 0. 2. 0. 0.
      1. 0. 1. 1. 253. 254. 254. 255. 254. 2. 2. 0. 1. 1. 0. 0. 0. 0. 1.
      255. 253. 255. 255. 254. 1. 0. 2. 0. 0. 0. 0. 0. 0. 0. 0. 0. 0. 0.
      0. 5. 0. 0. 0. 0. 255. 255. 254. 254. 255. 0. 0. 1. 0. 0. 1. 0. 1.
      1. 0. 255. 255. 255. 252. 255. 0. 0. 0. 3. 1. 0. 0. 0. 0. 0. 0. 0.
      0. 0. 2. 0. 0. 0. 0. 0. 255. 253. 254. 253. 255. 0. 0. 1. 3. 0. 1.
      0. 0. 2. 0. 253. 252. 255. 254. 255. 0. 0. 0. 0. 2. 0. 0. 0. 0. 0.
      0. 0. 0. 0. 2. 0. 0. 2. 0. 0. 252. 255. 255. 255. 253. 0. 0. 2. 0.
      0. 0. 0. 0. 0. 1. 255. 255. 255. 255. 254. 0. 1. 2. 2. 0. 0. 0. 0.
      0. 0. 0. 0. 0. 2. 0. 0. 1. 0. 0. 3. 255. 255. 252. 253. 4. 0. 0.
      0. 1. 0. 0. 4. 0. 2. 0. 251. 254. 254. 255. 255. 1. 2. 0. 1. 0. 0.
      0. 0. 0. 0. 0. 0. 0. 0. 2. 0. 2. 0. 0. 255. 254. 254. 255. 255. 0.
      1. 0. 0. 0. 0. 1. 0. 2. 0. 0. 255. 254. 255. 255. 255. 0. 0. 1. 0.
      0. 0. 2. 0. 1. 0. 0. 2. 0. 1. 0. 1. 0. 0. 1. 255. 253. 255. 253.
      255. 1. 0. 1. 1. 0. 1. 0. 0. 2. 0. 0. 255. 254. 255. 255. 255. 0.
      0. 1. 0. 0. 1. 0. 1. 0. 1. 0. 0. 0. 0. 4. 0. 0. 2. 0. 255. 255.
      255. 252. 255. 1. 0. 1. 0. 1. 0. 0. 0. 1. 3. 2. 253. 254. 255.
      255. 255. 0. 0. 1. 0. 0. 0. 0. 3. 0. 0. 0. 1. 1. 2. 0. 2. 0. 2.
      255. 255. 255. 252. 255. 0. 0. 3. 1. 0. 0. 0. 2. 1. 0. 0. 255.
      253. 255. 255. 255. 255. 0. 0. 1. 0. 0. 1. 1. 0. 2. 0. 3. 0. 0. 0.
      2. 0. 3. 0. 251. 255. 255. 255. 254. 0. 4. 1. 0. 2. 0. 0. 0. 0. 0.
      0. 255. 254. 253. 255. 255. 255. 0. 0. 1. 0. 0. 0. 0. 0. 0. 3. 1.
      0. 5. 0. 0. 254. 0. 255. 254. 255. 255. 255. 254. 3. 0. 1. 0. 0.
      0. 3. 2. 0. 1. 3. 254. 252. 255. 255. 255. 255. 0. 0. 1. 0. 0. 1.
      0. 2. 3. 0. 0. 0. 253. 255. 255. 255. 0. 255. 255. 251. 255. 253.
      2. 0. 1. 0. 0. 3. 2. 0. 1. 0. 0. 0. 255. 255. 254. 255. 255. 255.
      0. 0. 1. 0. 0. 0. 2. 0. 0. 0. 0. 3. 255. 255. 253. 255. 255. 250.
      255. 254. 255. 255. 0. 1. 1. 1. 2. 0. 0. 0. 5. 0. 1. 1. 254. 255.
      255. 255. 255. 255. 0. 0. 1. 0. 0. 0. 0. 1. 0. 3. 0. 254. 255.
      254. 255. 255. 255. 255. 255. 255. 254. 0. 2. 1. 0. 0. 0. 1. 1. 1.
      0. 1. 0. 2. 1. 254. 255. 254. 255. 255. 0. 1. 0. 1. 0. 0. 2. 0. 2.
      0. 0. 255. 255. 255. 255. 255. 255. 254. 253. 255. 254. 1. 0. 0.
      0. 0. 1. 1. 0. 0. 0. 0. 2. 2. 0. 255. 255. 255. 255. 254. 255. 0.
      0. 0. 2. 0. 0. 4. 0. 1. 1. 0. 255. 1. 0. 252. 252. 255. 255. 0. 0.
      0. 2. 0. 1. 0. 3. 1. 2. 0. 0. 2. 0. 0. 0. 255. 253. 255. 255. 250.
      255. 1. 3. 0. 0. 0. 0. 0. 1. 2. 0. 1. 255. 0. 2. 254. 255. 253.
      255. 0. 0. 0. 0. 2. 0. 0. 0. 0. 0. 0. 0. 0. 3. 0. 255. 250. 255.
      253. 252. 255. 255. 0. 0. 0. 0. 0. 0. 1. 0. 1. 0. 0. 254. 255.
      255. 255. 255. 251. 254. 255. 251. 1. 0. 0. 3. 0. 0. 3. 0. 0. 4.
      0. 0. 0. 255. 255. 255. 255. 255. 255. 255. 0. 1. 2. 0. 0. 0. 0.
      0. 0. 1. 3. 255. 255. 255. 252. 253. 255. 254. 255. 255. 0. 0. 4.
      0. 0. 2. 1. 0. 2. 0. 0. 1. 0. 253. 255. 253. 255. 255. 255. 251.
      0. 3. 0. 3. 2. 0. 0. 0. 3. 0. 0. 251. 254. 0. 255. 255. 253. 255.
      250. 255. 255. 255. 0. 0. 2. 0. 0. 3. 0. 1. 0. 0. 3. 255. 253.
      255. 254. 255. 253. 255. 3. 0. 2. 0. 0. 0. 1. 3. 0. 1. 4. 255.
      255. 2. 0. 0. 255. 254. 255. 255. 254. 255. 0. 255. 1. 1. 0. 0. 0.
      1. 0. 3. 0. 252. 255. 255. 255. 253. 255. 255. 0. 0. 2. 0. 0. 0.
      0. 0. 3. 2. 0. 1. 0. 0. 0. 1. 255. 254. 255. 255. 255. 253. 255.
      252. 0. 1. 0. 1. 1. 0. 2. 0. 0. 255. 254. 255. 255. 253. 255. 255.
      0. 2. 0. 1. 0. 0. 0. 0. 0. 0. 0. 0. 1. 0. 0. 1. 0. 0. 255. 255.
      255. 255. 255. 254. 2. 0. 0. 1. 0. 2. 0. 1. 0. 254. 255. 255. 255.
      253. 254. 255. 0. 0. 0. 0. 0. 0. 0. 0. 0. 0. 0. 0. 0. 2. 0. 0. 7.
      0. 0. 0. 255. 253. 255. 255. 1. 0. 5. 0. 0. 0. 1. 0. 0. 255. 255.
      253. 254. 255. 255. 255. 2. 1. 0. 1. 0. 0. 0. 0. 0. 0. 0. 0. 0. 1.
      0. 1. 0. 0. 1. 2. 255. 255. 253. 254. 253. 0. 0. 1. 1. 0. 1. 1. 0.
      255. 255. 254. 255. 254. 255. 254. 0. 0. 0. 0. 0. 0. 0. 0. 0. 0.
      0. 0. 1. 0. 2. 0. 0. 1. 0. 0. 0. 0. 254. 255. 255. 2. 0. 0. 0. 2.
      0. 1. 0. 254. 253. 255. 255. 255. 251. 1. 1. 1. 1. 1. 0. 0. 0. 0.
      0. 0. 0. 0. 1. 0. 0. 2. 0. 3. 2. 2. 1. 0. 255. 253. 251. 0. 6. 0.
      0. 0. 2. 0. 2. 0. 255. 252. 255. 253. 255. 0. 0. 0. 0. 0. 0. 0. 0.
      0. 0. 0. 0. 0. 1. 0. 1. 0. 1. 0. 0. 0. 1. 255. 255. 254. 255. 2.
      0. 2. 0. 1. 0. 0. 1. 0. 254. 255. 253. 255. 255. 0. 1. 1. 0. 1. 0.
      0. 0. 0. 0. 0. 0. 0. 0. 1. 0. 3. 0. 0. 5. 0. 1. 251. 255. 254.
      255. 254. 0. 0. 1. 1. 0. 0. 1. 0. 255. 255. 254. 255. 255. 0. 1.
      0. 1. 0. 0. 0. 0. 0. 0. 0. 0. 0. 0. 0. 3. 0. 1. 0. 0. 1. 255. 255.
      252. 255. 255. 254. 1. 0. 1. 0. 1. 0. 1. 0. 255. 254. 255. 254.
      255. 0. 0. 0. 6. 0. 0. 0. 0. 0. 0. 0. 0. 0. 1. 0. 1. 0. 0. 0. 3.
      0. 255. 253. 255. 254. 255. 0. 0. 1. 0. 1. 2. 0. 3. 0. 255. 255.
      252. 255. 253. 0. 1. 1. 0. 2. 0. 0. 0. 0. 0. 0. 0. 0. 0. 5. 0. 3.
      0. 0. 2. 0. 253. 255. 253. 255. 254. 0. 4. 0. 0. 1. 0. 0. 0. 0.
      255. 253. 255. 252. 255. 0. 1. 0. 0. 0. 0. 0. 0. 0. 0. 0. 0. 0. 2.
      0. 1. 0. 0. 1. 1. 2. 255. 255. 253. 255. 255. 255. 0. 0. 0. 0. 3.
      0. 3. 0. 254. 255. 254. 255. 255. 0. 0. 1. 0. 1. 0. 0. 0. 0. 0. 0.
      0. 0. 2. 0. 0. 0. 2. 0. 0. 0. 255. 255. 255. 254. 250. 255. 3. 0.
      3. 2. 0. 2. 1. 0. 255. 255. 255. 254. 255. 0. 0. 0. 2. 0. 0. 0. 0.
      0. 0. 0. 0. 0. 0. 0. 0. 1. 0. 2. 1. 1. 254. 255. 255. 255. 255. 0.
      0. 0. 0. 0. 0. 0. 0. 0. 255. 252. 255. 254. 0. 4. 1. 0. 0. 0. 0.
      0. 0. 0. 0. 0. 0. 0. 0. 2. 0. 0. 4. 0. 0. 0. 255. 254. 255. 253.
      255. 2. 0. 2. 1. 0. 2. 1. 0. 0. 255. 255. 254. 253. 5. 0. 0. 0. 0.
      2. 0. 0. 0. 0. 0. 0. 0. 0. 0. 3. 1. 0. 0. 0. 1. 1. 255. 252. 255.
      254. 253. 0. 3. 0. 0. 2. 2. 0. 1. 2. 252. 253. 255. 255. 0. 0. 2.
      1. 0. 0. 0. 0. 0. 0. 0. 0. 0. 0. 1. 0. 0. 2. 0. 0. 1. 255. 255.
      254. 255. 255. 255. 0. 0. 0. 2. 0. 0. 0. 2. 0. 1. 255.</_>
    <_>
      0. 0. 0. 3. 0. 1. 0. 0. 0. 0. 0. 0. 0. 0. 0. 0. 0. 2. 0. 0. 1. 0.
      0. 255. 255. 254. 255. 255. 255. 0. 0. 0. 0. 0. 2. 1. 0. 0. 0. 0.
      1. 2. 0. 0. 0. 0. 0. 0. 0. 0. 0. 0. 0. 0. 0. 0. 4. 0. 1. 0. 1. 0.
      0. 255. 255. 252. 255. 254. 253. 0. 3. 0. 0. 3. 0. 0. 0. 3. 0. 2.
      254. 0. 0. 6. 0. 0. 0. 3. 0. 0. 0. 0. 0. 0. 0. 0. 0. 4. 0. 1. 3.
      0. 1. 253. 255. 254. 255. 253. 255. 2. 0. 2. 1. 0. 0. 0. 3. 0. 0.
      0. 255. 254. 0. 0. 0. 2. 0. 0. 0. 0. 0. 0. 0. 0. 0. 0. 0. 1. 0. 0.
      0. 2. 3. 255. 254. 255. 255. 255. 255. 0. 0. 0. 0. 0. 1. 0. 0. 0.
      3. 255. 255. 255. 3. 0. 0. 3. 0. 0. 0. 0. 0. 0. 0. 0. 0. 0. 1. 0.
      0. 0. 1. 0. 0. 255. 255. 255. 255. 254. 250. 255. 3. 0. 1. 0. 2.
      0. 0. 3. 0. 255. 254. 255. 0. 1. 1. 0. 0. 1. 0. 0. 0. 0. 0. 0. 0.
      0. 1. 0. 1. 3. 0. 3. 1. 255. 255. 255. 253. 255. 255. 255. 0. 0.
      0. 2. 0. 1. 2. 0. 253. 255. 255. 251. 255. 1. 0. 1. 1. 0. 0. 0. 0.
      0. 0. 0. 0. 0. 1. 0. 0. 0. 3. 0. 0. 254. 253. 255. 253. 255. 254.
      0. 4. 0. 0. 0. 1. 1. 0. 0. 255. 255. 255. 255. 255. 1. 0. 0. 1. 0.
      0. 0. 0. 0. 0. 0. 0. 0. 0. 3. 0. 0. 1. 0. 1. 0. 255. 253. 255.
      254. 255. 0. 0. 1. 0. 2. 0. 2. 0. 0. 255. 254. 255. 255. 255. 0.
      0. 1. 0. 0. 0. 0. 1. 0. 0. 2. 0. 2. 0. 0. 0. 2. 0. 3. 254. 254.
      255. 254. 254. 255. 0. 0. 0. 0. 1. 0. 1. 0. 1. 0. 255. 254. 255.
      255. 255. 0. 0. 1. 0. 0. 2. 1. 0. 0. 0. 1. 1. 0. 1. 2. 0. 0. 0. 0.
      255. 255. 255. 254. 255. 254. 1. 0. 3. 0. 1. 1. 0. 0. 1. 0. 255.
      255. 255. 255. 255. 0. 0. 1. 0. 0. 0. 0. 0. 1. 0. 0. 1. 1. 0. 0.
      0. 2. 2. 255. 254. 254. 255. 255. 252. 255. 254. 0. 0. 1. 0. 1. 0.
      0. 1. 0. 254. 255. 255. 255. 255. 0. 0. 1. 0. 0. 3. 0. 2. 0. 1. 0.
      0. 0. 3. 0. 1. 0. 0. 0. 255. 251. 255. 255. 255. 255. 255. 0. 0.
      2. 0. 0. 2. 0. 2. 0. 255. 252. 255. 255. 255. 0. 0. 1. 0. 0. 0. 2.
      0. 0. 0. 1. 1. 255. 254. 0. 0. 0. 255. 252. 255. 255. 255. 255.
      251. 0. 0. 0. 5. 0. 0. 2. 0. 1. 0. 254. 253. 255. 255. 255. 255.
      0. 0. 1. 0. 0. 3. 1. 1. 0. 1. 0. 0. 255. 254. 255. 253. 254. 255.
      255. 254. 255. 253. 255. 255. 1. 0. 2. 0. 1. 1. 0. 1. 1. 0. 255.
      255. 254. 255. 255. 255. 0. 0. 1. 0. 0. 0. 0. 0. 0. 1. 0. 0. 255.
      252. 255. 253. 255. 255. 252. 255. 255. 255. 255. 0. 0. 0. 0. 1.
      0. 0. 0. 1. 0. 0. 255. 255. 253. 255. 255. 255. 0. 0. 1. 0. 0. 1.
      0. 0. 1. 0. 0. 3. 253. 255. 253. 255. 253. 255. 255. 253. 255.
      254. 254. 4. 0. 1. 2. 0. 0. 0. 2. 0. 1. 0. 254. 255. 255. 255.
      254. 254. 1. 0. 0. 0. 0. 0. 2. 0. 0. 1. 0. 0. 255. 255. 255. 254.
      255. 253. 255. 255. 253. 2. 0. 0. 1. 2. 0. 1. 0. 0. 0. 1. 0. 0.
      255. 255. 255. 254. 255. 255. 0. 0. 0. 0. 0. 4. 0. 1. 0. 1. 0. 0.
      255. 253. 255. 251. 255. 255. 254. 254. 255. 0. 0. 2. 2. 0. 0. 4.
      0. 0. 0. 1. 0. 0. 255. 255. 255. 255. 253. 255. 255. 0. 2. 0. 0.
      0. 4. 0. 1. 3. 0. 1. 253. 255. 253. 255. 255. 249. 255. 253. 255.
      255. 255. 1. 0. 3. 4. 0. 1. 0. 0. 1. 0. 0. 255. 255. 255. 255.
      255. 255. 253. 0. 0. 0. 0. 0. 1. 0. 0. 0. 2. 3. 255. 253. 255.
      254. 255. 255. 255. 253. 255. 254. 255. 253. 0. 1. 0. 3. 1. 0. 0.
      1. 0. 0. 255. 255. 255. 255. 255. 255. 253. 0. 0. 0. 0. 1. 0. 0.
      0. 1. 0. 0. 255. 255. 252. 255. 254. 255. 255. 255. 251. 254. 255.
      255. 255. 1. 1. 0. 0. 0. 0. 1. 0. 0. 255. 255. 255. 255. 253. 255.
      255. 0. 2. 0. 0. 1. 0. 1. 3. 0. 3. 1. 255. 253. 255. 252. 255.
      255. 252. 255. 255. 255. 254. 252. 255. 0. 0. 0. 3. 0. 0. 1. 0. 0.
      255. 255. 255. 254. 255. 255. 0. 0. 0. 0. 0. 1. 0. 0. 0. 3. 0. 0.
      254. 254. 2. 0. 250. 255. 254. 255. 255. 253. 255. 255. 254. 255.
      0. 1. 0. 0. 0. 1. 0. 0. 255. 255. 255. 255. 254. 254. 1. 0. 0. 0.
      0. 0. 3. 0. 0. 1. 0. 1. 0. 0. 2. 0. 0. 0. 255. 253. 255. 255. 255.
      255. 255. 253. 255. 0. 2. 0. 0. 1. 0. 0. 255. 255. 255. 255. 255.
      255. 0. 0. 1. 0. 0. 0. 0. 0. 0. 0. 0. 0. 0. 1. 0. 0. 2. 0. 0. 1.
      255. 255. 255. 255. 253. 253. 255. 3. 0. 0. 1. 0. 0. 0. 255. 255.
      255. 255. 255. 255. 0. 0. 1. 0. 0. 0. 0. 0. 0. 0. 0. 0. 0. 0. 3.
      1. 0. 0. 0. 1. 1. 255. 255. 254. 254. 255. 255. 0. 2. 0. 0. 0. 3.
      2. 1. 252. 255. 255. 255. 255. 0. 0. 1. 0. 0. 0. 0. 0. 0. 0. 0. 0.
      0. 0. 2. 0. 0. 4. 0. 0. 0. 255. 254. 255. 255. 252. 255. 1. 0. 2.
      0. 0. 0. 0. 0. 255. 254. 255. 255. 255. 0. 0. 1. 0. 0. 0. 0. 0. 0.
      0. 0. 0. 0. 0. 0. 0. 1. 0. 2. 1. 1. 1. 255. 250. 255. 255. 255. 2.
      0. 0. 3. 0. 1. 3. 2. 252. 255. 255. 255. 255. 0. 0. 1. 0. 0. 0. 0.
      0. 0. 0. 0. 0. 0. 2. 0. 0. 0. 2. 0. 0. 0. 0. 255. 255. 254. 253.
      254. 0. 0. 0. 3. 0. 1. 0. 0. 255. 255. 255. 255. 255. 0. 0. 1. 0.
      0. 0. 0. 0. 0. 0. 0. 0. 0. 2. 0. 1. 0. 0. 1. 1. 2. 2. 251. 255.
      255. 255. 255. 0. 2. 1. 0. 1. 1. 0. 0. 255. 251. 255. 255. 255. 0.
      0. 1. 0. 0. 0. 0. 0. 0. 0. 0. 0. 0. 0. 5. 0. 3. 0. 0. 2. 0. 254.
      255. 253. 255. 255. 253. 0. 0. 0. 1. 0. 0. 3. 0. 255. 255. 255.
      255. 255. 0. 0. 1. 0. 0. 0. 0. 0. 0. 0. 0. 0. 0. 1. 0. 1. 0. 0. 0.
      3. 0. 255. 252. 255. 254. 255. 255. 1. 0. 0. 1. 0. 1. 0. 0. 254.
      255. 254. 255. 255. 1. 0. 0. 0. 0. 0. 3. 0. 0. 0. 0. 1. 1. 0. 2.
      0. 1. 0. 0. 2. 0. 255. 253. 255. 255. 254. 253. 3. 1. 2. 0. 1. 0.
      0. 1. 255. 255. 255. 254. 1. 0. 0. 2. 2. 0. 2. 0. 2. 0. 3. 0. 0.
      0. 1. 0. 1. 0. 1. 0. 0. 0. 253. 255. 255. 255. 255. 255. 0. 0. 0.
      0. 0. 2. 0. 0. 255. 255. 254. 254. 2. 3. 0. 0. 1. 0. 0. 0. 1. 0.
      0. 0. 3. 0. 0. 0. 3. 0. 0. 0. 1. 1. 255. 255. 253. 254. 255. 254.
      255. 2. 1. 3. 2. 0. 2. 0. 0. 255. 255. 255. 252. 0. 4. 0. 0. 0. 1.
      0. 0. 1. 0. 0. 0. 0. 1. 1. 0. 2. 0. 3. 0. 0. 255. 252. 255. 255.
      252. 255. 253. 0. 0. 0. 2. 1. 1. 0. 0. 255. 252. 255. 0. 3. 0. 0.
      1. 0. 0. 0. 0. 255. 0. 4. 0. 0. 0. 0. 0. 0. 3. 1. 0. 5. 254. 255.
      255. 253. 255. 255. 255. 2. 0. 2. 0. 4. 0. 1. 2. 253. 255. 0. 2.
      0. 0. 0. 0. 0. 0. 0. 0. 255. 2. 0. 1. 0. 1. 0. 2. 3. 0. 0. 0. 253.
      254. 255. 253. 252. 255. 255. 0. 0. 3. 0. 0. 0. 1. 0. 0. 1. 255.
      0. 1. 0. 1. 1. 0. 2. 0. 2. 0. 255. 252. 0. 2. 0. 0. 2. 0. 0. 0. 0.
      3. 255. 254. 254. 254. 255. 251. 255. 0. 4. 0. 2. 1. 1. 0. 1. 1.
      0. 0. 0. 1. 0. 4. 0. 0. 0. 1. 0. 0. 255. 255. 255. 255. 0. 0. 0.
      1. 0. 3. 0. 254. 255. 255. 254. 255. 254. 255. 1. 0. 0. 3. 0. 0.
      0. 3. 0. 0. 1.</_>
    <_>
      255. 0. 0. 1. 0. 2. 2. 0. 0. 0. 0. 0. 0. 0. 0. 0. 0. 253. 255.
      254. 253. 255. 255. 252. 255. 0. 0. 0. 0. 0. 0. 0. 1. 0. 0. 1. 1.
      0. 0. 0. 250. 2. 1. 0. 0. 0. 1. 1. 0. 0. 0. 0. 0. 0. 0. 0. 0. 255.
      255. 255. 255. 254. 254. 255. 255. 0. 0. 0. 0. 0. 0. 0. 0. 3. 0.
      0. 1. 0. 2. 0. 255. 0. 0. 0. 1. 1. 0. 2. 0. 0. 0. 0. 0. 0. 0. 0.
      1. 253. 253. 253. 254. 255. 253. 255. 255. 0. 0. 0. 0. 0. 0. 0. 1.
      0. 0. 2. 0. 2. 2. 255. 254. 255. 1. 0. 0. 0. 0. 0. 0. 0. 0. 0. 0.
      0. 0. 0. 0. 255. 255. 255. 255. 253. 255. 254. 255. 0. 0. 0. 0. 0.
      0. 0. 0. 1. 2. 0. 0. 0. 0. 255. 254. 255. 1. 0. 3. 0. 2. 0. 0. 0.
      0. 0. 0. 0. 0. 0. 254. 251. 255. 254. 254. 255. 255. 253. 255. 0.
      0. 0. 0. 0. 0. 0. 1. 0. 1. 0. 2. 1. 3. 255. 255. 255. 0. 3. 0. 0.
      0. 0. 0. 0. 0. 0. 0. 0. 0. 0. 255. 254. 253. 254. 255. 253. 254.
      255. 255. 0. 0. 0. 0. 0. 0. 0. 0. 0. 2. 2. 0. 0. 0. 254. 255. 252.
      0. 0. 0. 0. 1. 1. 0. 0. 0. 0. 0. 0. 0. 0. 253. 255. 253. 254. 0.
      255. 255. 255. 255. 0. 0. 0. 0. 0. 0. 0. 1. 0. 1. 0. 2. 0. 254.
      255. 255. 255. 2. 0. 0. 3. 0. 0. 0. 0. 0. 0. 0. 0. 0. 0. 255. 252.
      255. 0. 2. 255. 251. 255. 255. 0. 0. 0. 0. 0. 0. 0. 0. 0. 0. 2. 0.
      0. 255. 255. 255. 255. 255. 0. 0. 2. 0. 0. 0. 2. 0. 0. 2. 0. 0.
      255. 254. 255. 255. 0. 2. 255. 252. 255. 255. 0. 0. 0. 0. 0. 0. 0.
      0. 2. 0. 2. 0. 0. 255. 254. 255. 249. 255. 2. 3. 0. 1. 0. 0. 0. 0.
      3. 0. 0. 0. 255. 254. 255. 254. 0. 0. 255. 255. 254. 255. 0. 0. 0.
      0. 0. 0. 0. 2. 0. 0. 1. 0. 0. 3. 255. 255. 255. 0. 0. 0. 1. 0. 0.
      0. 0. 0. 0. 2. 0. 0. 254. 255. 254. 254. 1. 4. 252. 254. 255. 255.
      0. 0. 0. 0. 0. 0. 0. 0. 2. 0. 0. 2. 0. 0. 252. 253. 255. 0. 0. 1.
      1. 0. 3. 0. 1. 1. 0. 0. 0. 2. 255. 254. 255. 255. 0. 0. 253. 253.
      255. 255. 0. 0. 0. 0. 0. 0. 0. 0. 2. 0. 0. 0. 0. 0. 255. 255. 253.
      3. 2. 0. 0. 2. 0. 0. 0. 0. 1. 2. 1. 253. 254. 254. 253. 1. 0. 4.
      255. 255. 255. 255. 0. 0. 0. 0. 0. 0. 0. 0. 0. 5. 0. 0. 0. 0. 255.
      254. 255. 0. 0. 3. 1. 0. 0. 0. 2. 0. 2. 0. 0. 255. 255. 255. 251.
      3. 0. 0. 255. 254. 253. 255. 0. 0. 0. 0. 0. 0. 0. 2. 0. 0. 1. 0.
      1. 1. 253. 255. 254. 4. 0. 0. 2. 0. 1. 0. 1. 0. 0. 1. 0. 255. 254.
      253. 255. 0. 5. 255. 255. 255. 254. 255. 0. 0. 0. 0. 0. 0. 0. 0.
      0. 1. 2. 2. 0. 0. 255. 255. 255. 0. 0. 2. 0. 1. 0. 1. 0. 1. 1. 0.
      1. 255. 255. 255. 0. 0. 0. 2. 252. 255. 255. 255. 0. 0. 0. 0. 0.
      0. 0. 1. 0. 0. 3. 0. 1. 0. 255. 255. 255. 0. 4. 0. 0. 0. 1. 0. 0.
      0. 1. 0. 253. 255. 253. 255. 0. 2. 0. 254. 253. 255. 254. 255. 0.
      0. 0. 1. 0. 0. 0. 0. 1. 0. 3. 0. 0. 255. 255. 255. 255. 254. 0. 1.
      1. 4. 0. 1. 0. 2. 1. 1. 254. 254. 255. 255. 0. 0. 0. 255. 255.
      251. 255. 254. 0. 5. 0. 0. 3. 0. 0. 3. 0. 1. 0. 0. 0. 255. 255.
      253. 255. 2. 0. 0. 0. 2. 0. 0. 1. 0. 1. 0. 255. 253. 255. 255. 2.
      2. 2. 0. 255. 255. 255. 255. 254. 0. 0. 2. 0. 0. 0. 0. 1. 0. 2. 1.
      1. 252. 255. 255. 252. 0. 0. 2. 0. 1. 3. 0. 1. 1. 0. 2. 254. 254.
      255. 0. 2. 0. 0. 3. 252. 255. 255. 255. 0. 1. 0. 0. 1. 0. 1. 2. 0.
      0. 0. 0. 0. 0. 254. 252. 255. 3. 0. 1. 1. 0. 0. 2. 0. 3. 1. 251.
      255. 255. 253. 1. 0. 0. 3. 0. 255. 255. 254. 255. 0. 0. 1. 1. 0.
      0. 1. 0. 1. 0. 2. 1. 0. 253. 255. 255. 255. 0. 0. 0. 0. 4. 0. 0.
      1. 0. 0. 255. 255. 255. 254. 0. 0. 0. 1. 1. 255. 254. 255. 254. 1.
      0. 0. 3. 0. 3. 0. 0. 0. 3. 0. 0. 2. 0. 254. 255. 250. 1. 0. 0. 1.
      0. 0. 0. 4. 0. 255. 254. 255. 255. 254. 0. 3. 1. 0. 2. 253. 253.
      255. 255. 0. 0. 2. 0. 1. 0. 0. 0. 0. 0. 4. 2. 0. 255. 255. 254.
      255. 0. 0. 2. 0. 1. 0. 0. 0. 0. 1. 255. 254. 254. 1. 2. 0. 1. 0.
      0. 255. 255. 254. 253. 2. 0. 0. 0. 0. 1. 1. 0. 0. 5. 0. 0. 1. 254.
      254. 255. 255. 0. 0. 2. 0. 3. 0. 2. 0. 0. 255. 253. 255. 254. 1.
      0. 2. 0. 1. 0. 255. 253. 255. 255. 0. 0. 1. 0. 0. 0. 3. 0. 0. 3.
      0. 0. 2. 255. 255. 254. 255. 1. 0. 0. 1. 0. 2. 0. 3. 0. 255. 255.
      255. 254. 0. 1. 0. 0. 0. 2. 255. 255. 252. 255. 0. 0. 2. 0. 0. 1.
      0. 1. 1. 0. 0. 0. 0. 252. 255. 255. 254. 1. 4. 3. 0. 2. 0. 2. 0.
      2. 254. 253. 255. 255. 0. 2. 0. 3. 0. 0. 254. 255. 253. 254. 2. 1.
      0. 0. 2. 0. 2. 0. 0. 0. 0. 3. 0. 255. 255. 255. 255. 255. 0. 0. 0.
      1. 0. 0. 0. 0. 252. 255. 254. 0. 1. 1. 0. 0. 2. 0. 255. 254. 255.
      254. 0. 0. 0. 4. 0. 1. 0. 0. 2. 0. 3. 0. 1. 255. 254. 255. 253. 1.
      0. 1. 1. 0. 0. 2. 3. 254. 255. 255. 254. 1. 0. 0. 2. 1. 0. 2. 253.
      253. 255. 254. 3. 0. 1. 0. 0. 1. 2. 0. 0. 0. 0. 0. 1. 255. 254.
      255. 254. 0. 1. 0. 1. 0. 0. 0. 1. 255. 254. 253. 255. 1. 2. 1. 0.
      255. 1. 0. 255. 255. 252. 254. 254. 4. 0. 0. 1. 0. 0. 2. 0. 1. 1.
      0. 0. 0. 255. 251. 255. 0. 0. 0. 0. 2. 2. 0. 0. 255. 255. 255.
      254. 254. 254. 255. 255. 253. 254. 255. 251. 255. 255. 255. 255.
      252. 254. 4. 0. 0. 0. 1. 1. 0. 0. 0. 1. 2. 250. 255. 254. 0. 1. 0.
      0. 2. 0. 2. 0. 254. 254. 254. 254. 255. 255. 255. 253. 255. 255.
      254. 255. 255. 253. 255. 255. 255. 255. 0. 0. 0. 1. 0. 2. 2. 0. 1.
