<?xml version="1.0"?>
<opencv_storage>
<opencv_ml_svm>
  <format>3</format>
  <svmType>C_SVC</svmType>
  <kernel>
    <type>LINEAR</type></kernel>
  <C>10.</C>
  <term_criteria><epsilon>1.0000000000000000e-02</epsilon>
    <iterations>1000</iterations></term_criteria>
  <var_count>1600</var_count>
  <class_count>2</class_count>
  <class_labels type_id="opencv-matrix">
    <rows>2</rows>
    <cols>1</cols>
    <dt>i</dt>
    <data>
      0 1</data></class_labels>
  <sv_total>1</sv_total>
  <support_vectors>
    <_>
      -3.64756997e-04 -1.17281488e-04 -1.24000639e-04 -1.35786890e-04
      -7.89899932e-05 -4.93819462e-05 -4.48852152e-05 -6.58622448e-05
      -5.24433271e-05 -5.32099075e-05 -5.31321966e-05 -5.40793480e-05
      5.91456082e-05 -4.26287370e-05 3.87039290e-06 4.57390888e-05
      -5.49785400e-05 -1.56687718e-04 7.98777137e-07 2.92894711e-05
      3.49888043e-03 3.34450633e-05 -7.66694429e-05 8.24598901e-05
      -7.00934334e-06 1.29061329e-04 -1.35083770e-04 -1.32795802e-04
      3.27863498e-04 7.37065740e-04 3.81857644e-05 -1.07487768e-03
      -3.01014211e-06 -1.20868872e-05 -3.01318905e-05 -3.87820819e-07
      -1.06648156e-06 6.70275622e-05 2.58398250e-05 -3.13678145e-04
      3.31764633e-04 -1.56411974e-04 -1.59783609e-04 -1.18739270e-04
      -3.98267257e-05 -5.40884757e-05 -9.24330234e-05 -3.69419195e-06
      -5.39755856e-05 -4.74905137e-05 -5.14715903e-05 -5.02592702e-05
      -5.35506333e-05 -2.16456119e-05 -8.51994355e-06 1.06856387e-04
      5.29815661e-05 3.70530393e-06 1.00321718e-04 -9.10693052e-05
      -8.87455302e-04 1.68549246e-04 -6.99347729e-05 1.75086549e-04
      7.35012945e-05 1.96478300e-04 -7.13602058e-05 1.18797790e-04
      2.64715258e-04 -9.57236392e-04 -9.20460152e-05 4.33892198e-03
      1.34582069e-05 -1.57159506e-04 -1.99481365e-05 -2.87875064e-05
      1.52797747e-05 -2.23326260e-05 1.41030159e-05 -2.32023769e-04
      -7.60555922e-05 3.71152782e-05 -2.73015845e-04 -3.35395365e-04
      -5.69350232e-05 -4.57617498e-05 -2.60681663e-05 -7.64536235e-05
      -5.20427784e-05 -5.41478657e-05 -5.26088443e-05 -5.34289284e-05
      -5.45998701e-05 3.79586236e-05 3.51381677e-05 3.65803207e-05
      -3.10917530e-04 -1.21655707e-04 1.32033965e-04 -1.68471979e-05
      -8.10446800e-05 -1.65320511e-04 3.63763043e-04 4.95440559e-04
      1.75336885e-04 3.99470853e-04 -1.57529921e-05 2.69020617e-04
      6.77392891e-05 -4.17315838e-04 4.78020120e-05 -2.41795997e-03
      1.17947675e-05 6.01232387e-05 6.60056030e-05 -1.69467210e-04
      1.80964835e-05 3.75979755e-04 -2.01194984e-04 1.27542892e-03
      2.46433658e-04 -1.83936674e-03 2.22337781e-04 -1.02580540e-04
      -1.70804833e-05 -6.28312700e-05 -5.94259691e-05 -4.79114642e-05
      -5.21984148e-05 -5.37201231e-05 -5.32257945e-05 -5.45791991e-05
      -5.13635387e-05 3.46078705e-05 3.43309111e-05 -5.29871431e-05
      1.18746910e-04 8.84874898e-05 -2.27973069e-04 -2.54706883e-05
      2.33025363e-04 8.90225871e-04 2.73357786e-04 9.16142249e-04
      5.49268152e-05 3.28067894e-04 -9.26991925e-05 2.63688504e-04
      2.40540729e-04 2.08601588e-03 -9.46606524e-05 1.02649035e-03
      -2.89086529e-05 9.89923283e-05 -4.06400941e-05 -2.41015572e-04
      -1.73810098e-04 1.77028978e-05 8.18436602e-05 -8.33408034e-04
      9.29637026e-05 1.64921733e-03 3.86235552e-05 1.47453349e-04
      2.19595633e-04 -1.44617252e-05 -4.81167990e-05 -5.12868428e-05
      -5.23478957e-05 -5.36393745e-05 -5.49838151e-05 -5.16648288e-05
      -5.44823815e-05 3.42198473e-05 3.55371449e-05 -5.37528613e-05
      4.63280099e-04 -9.72472117e-05 2.16480999e-04 7.58244496e-05
      -1.84959761e-04 1.54901336e-05 -2.19277150e-04 5.76048915e-04
      -3.35603036e-05 3.91848356e-04 -4.10322937e-05 1.12134301e-04
      3.02651140e-04 8.16493179e-04 1.52346227e-04 3.15034937e-04
      7.90097765e-05 -1.28119951e-04 8.37684547e-06 -2.93199788e-04
      -1.77372975e-04 2.27012933e-04 8.55510763e-04 9.65027371e-04
      7.60153562e-05 9.50370813e-05 -7.94713196e-05 3.22751468e-04
      3.12637916e-04 -4.93492880e-05 -6.02542750e-05 -6.07730144e-05
      -5.37462620e-05 -5.08682715e-05 -5.36153020e-05 -9.76043229e-05
      -9.14222182e-05 3.44083783e-05 -5.36843618e-05 -5.44993163e-05
      1.43360390e-04 2.30752921e-04 -8.79925865e-05 -8.71907323e-05
      5.06382319e-04 -4.22361591e-05 -6.34953394e-05 4.92973813e-05
      1.11765192e-04 3.88109213e-04 -1.66631056e-04 -1.11352834e-04
      -8.83447428e-05 -5.80622465e-04 -3.85128842e-05 2.01633065e-05
      -7.99377667e-05 6.75705305e-05 -2.43516115e-05 5.38605163e-05
      -1.78251619e-04 -5.49666438e-05 -2.49432545e-04 -6.55282856e-05
      1.87839692e-06 -1.57885195e-03 -3.94418348e-05 1.86055942e-04
      -1.92051139e-05 -2.19563561e-04 -3.21691696e-05 -6.90653687e-05
      -5.29536155e-05 -5.08532612e-05 -8.70499207e-05 -1.37148891e-04
      -1.35745911e-04 -8.94837794e-05 -5.29453609e-05 -5.20623071e-05
      -2.10847968e-04 -3.46620254e-05 6.21561194e-05 -2.81043001e-04
      -7.83436059e-04 -9.47025139e-04 -1.00941118e-03 -3.31985910e-04
      1.53161251e-04 2.56005296e-04 3.41557388e-05 -4.98331101e-05
      -2.75461207e-04 -3.10297241e-04 6.92846603e-04 3.22775886e-04
      3.59616643e-05 -1.71645050e-04 -1.32449873e-04 -1.02552011e-04
      1.83340831e-04 2.86392722e-04 -9.02309966e-06 8.57596478e-06
      2.76190417e-06 -2.02958217e-05 1.00067095e-03 1.25135281e-04
      -5.96522841e-05 -3.40966726e-05 -5.88152252e-05 -5.76384082e-05
      -5.26292606e-05 -5.41327827e-05 -9.05618726e-05 -1.32779314e-04
      -1.35049981e-04 -9.11630268e-05 -8.92747557e-05 2.23949828e-04
      1.24571743e-04 -1.96275345e-04 9.10851159e-05 6.52090239e-05
      -1.08124468e-05 -1.41273369e-03 3.62475723e-04 -1.78484435e-04
      6.58031786e-04 1.94555672e-04 1.53117478e-04 -1.66951300e-04
      -2.31846236e-04 4.32018132e-05 6.53625175e-04 2.04914013e-05
      -2.68438653e-05 4.66546298e-05 2.49680920e-06 -1.21062010e-04
      2.56571977e-04 1.49017229e-04 3.51786548e-05 4.98082780e-04
      -4.51651601e-07 -1.36479439e-05 1.13179427e-04 2.57937849e-04
      -1.26367231e-05 -9.68115201e-05 -5.74956830e-05 -5.34070423e-05
      -5.52862803e-05 -5.42005218e-05 -8.89159055e-05 -1.35302820e-04
      -1.35196708e-04 -9.18391161e-05 -9.12783653e-05 -1.14631810e-04
      -6.99423254e-05 1.69196264e-05 -1.05453764e-05 -1.88288450e-05
      -7.16739160e-05 3.96463834e-03 1.69472361e-04 -3.95290735e-05
      1.00767771e-04 2.62030353e-05 -1.31444958e-05 1.15337330e-04
      1.71020103e-04 -2.06234472e-05 -3.77668720e-03 -1.11883324e-04
      1.24867329e-05 2.71581393e-06 -1.05956099e-06 -1.33043897e-04
      1.62757511e-04 -5.94330952e-04 -4.78932576e-04 3.24827328e-04
      2.16234712e-05 -1.02780041e-05 1.26226776e-04 5.59234868e-05
      -1.00585130e-05 -8.48966083e-05 -6.50715883e-05 -6.47812267e-05
      -5.44426584e-05 -5.88450384e-05 -9.11142852e-05 -1.40037140e-04
      -1.34480782e-04 -9.07293943e-05 -8.91453019e-05 -7.44155113e-05
      -8.39356217e-05 -9.26150915e-06 -6.09829885e-06 2.30973455e-05
      7.13671625e-06 2.35015773e-06 -2.74654740e-04 2.61201378e-04
      -1.46421764e-04 -3.12984688e-04 -1.79161623e-06 6.78120330e-07
      -6.97632786e-04 3.45082488e-04 6.90212473e-04 -5.17947010e-05
      1.40190959e-05 1.21642524e-05 -7.50484901e-07 -5.39100147e-05
      5.56117484e-05 -4.09503817e-04 1.34764632e-04 -1.96131645e-04
      2.96692156e-06 -1.27196636e-05 1.08991480e-04 3.13883393e-05
      -2.38184257e-05 -8.84383262e-05 -4.65408302e-05 -5.86564274e-05
      -5.26683143e-05 -5.28875244e-05 -8.98638464e-05 -9.10952076e-05
      -9.01462554e-05 -1.36903051e-04 -9.12017131e-05 -7.29238163e-05
      -3.66876557e-05 2.12335249e-06 -1.41923185e-04 2.42335118e-05
      1.29780483e-05 1.80195479e-04 -2.98898871e-04 -1.03663784e-04
      2.45443691e-04 -1.80213508e-04 -2.24376214e-04 -5.73516409e-05
      -2.98777613e-05 -2.27736120e-04 1.82714150e-03 -3.14466306e-05
      1.10989022e-04 7.43832379e-06 -5.76209777e-06 -1.07336346e-05
      5.11979160e-05 -1.33338617e-04 -6.04528977e-05 -1.10246165e-05
      6.90811976e-06 -2.86140363e-04 1.00492776e-04 -1.73850232e-04
      -7.72696658e-05 -4.78478360e-05 -5.87329778e-05 -6.39830541e-05
      -5.55688566e-05 -5.81184686e-05 -5.23252420e-05 -8.93332763e-05
      -9.31076429e-05 -1.30089989e-04 9.03271575e-05 -7.10341337e-05
      7.84397416e-05 1.07142747e-04 -9.16465942e-05 4.03471422e-05
      2.24854462e-04 1.30995206e-04 -2.34642386e-04 -2.23340277e-04
      -2.78556719e-04 -2.27913930e-04 8.13781633e-04 1.06667088e-04
      -1.33041595e-03 2.22811010e-04 2.04462139e-03 5.90508389e-05
      8.63885634e-06 1.54507288e-05 -8.89152943e-07 -2.24461561e-04
      -1.01564539e-04 -4.61199706e-05 -6.83174803e-05 -1.00667385e-05
      5.84914960e-06 -1.60753168e-03 -8.52380181e-05 -1.20951900e-05
      -9.87172461e-05 -2.56360563e-05 -6.66986743e-05 -5.82393186e-05
      -5.32948943e-05 -4.98408081e-05 -5.29306453e-05 -5.66846065e-05
      -9.31623363e-05 -7.05199054e-05 -2.76403269e-04 1.78847586e-05
      1.75174107e-04 1.24115075e-04 6.77280477e-05 1.01141537e-04
      1.97102607e-04 1.35051698e-04 -2.38331690e-04 -8.15771491e-05
      1.19899240e-04 3.90861416e-04 3.64959415e-04 9.57763259e-05
      -2.42145674e-04 -9.24432698e-06 -1.94095250e-04 -6.26064430e-05
      1.28219299e-05 1.58887124e-05 -1.32107880e-05 -1.99462360e-04
      -8.98629696e-06 -1.04277518e-04 -2.10220587e-05 -1.48929457e-05
      1.38013365e-06 -1.83968477e-05 8.45390387e-05 1.12752074e-04
      2.58432538e-05 4.79218616e-05 -1.36502989e-04 -7.56057707e-05
      -5.23447852e-05 -6.10588104e-05 -5.45303665e-05 -5.63512112e-05
      -9.39658130e-05 -6.91722889e-05 -1.75213310e-04 2.21671769e-04
      -2.26873235e-04 1.76296584e-04 -5.64431939e-05 3.25333356e-04
      3.26573878e-04 5.30036341e-04 -1.94544700e-04 1.43660189e-04
      -2.99021685e-05 4.88532351e-05 2.95702339e-04 1.59607880e-04
      1.71915992e-04 1.93218977e-04 -7.02841207e-04 1.91900428e-04
      8.50315337e-06 1.06092402e-05 -2.85915985e-06 -1.06210173e-04
      -2.81762823e-05 -2.34885490e-04 -2.46932432e-05 4.12144618e-05
      1.69228369e-05 -1.11573145e-05 1.60067924e-04 3.15141107e-04
      1.68291845e-05 6.07518959e-05 -1.47060069e-04 -5.69308650e-05
      -5.33167877e-05 -5.72841891e-05 -5.37473206e-05 -5.80627711e-05
      -8.63550886e-05 2.60491584e-06 1.61200689e-04 -1.40317046e-04
      -6.90972738e-05 2.43332368e-04 5.35299478e-04 3.23710730e-04
      6.12394288e-05 3.38597514e-04 -1.73243709e-04 4.07947664e-04
      3.28594353e-04 2.97626219e-04 2.13524545e-04 -9.25232380e-05
      -1.26826100e-03 -1.67467209e-04 -2.81681446e-03 -4.81032803e-05
      2.66230840e-04 1.11940517e-05 -6.17730166e-06 -1.77389462e-04
      5.66086928e-05 2.41430331e-04 -1.98452399e-05 2.68591702e-05
      -1.49555206e-06 -1.06542939e-05 2.29640591e-05 3.55372060e-04
      -3.60137201e-05 7.44637437e-05 -1.44094200e-04 -5.40521833e-05
      -5.64944166e-05 -5.30581165e-05 -5.26424446e-05 -5.69381809e-05
      -9.16564240e-05 -3.16994701e-05 3.01744352e-04 -2.90579279e-04
      -2.03793577e-04 2.38139473e-04 3.38239159e-04 -9.82069905e-05
      1.38285264e-04 4.92733321e-04 3.61639017e-04 6.61082799e-04
      4.08383348e-04 -1.26283267e-04 2.35116619e-04 -5.47454038e-05
      2.54486600e-04 2.18271554e-04 -3.24468601e-05 5.72928548e-05
      -3.05542453e-05 1.14589020e-05 -1.88766114e-06 -1.58229392e-04
      -1.98876238e-04 3.18396866e-04 -4.91210267e-06 3.09475472e-05
      1.13174956e-07 -1.32624955e-05 1.09187122e-05 2.54376326e-04
      -5.79017324e-05 2.14316955e-04 -5.33309831e-05 -5.29413410e-05
      -5.51159792e-05 -4.25129547e-05 -5.12746337e-05 -5.87973809e-05
      -1.48163263e-05 4.82392097e-05 2.43335468e-04 -3.60417966e-04
      -2.78579799e-04 3.22576263e-04 -2.13202642e-04 -1.12398002e-05
      -5.71907440e-04 9.01679014e-05 1.16551772e-03 -9.86754603e-05
      1.62369644e-04 1.08897941e-04 9.72203707e-05 -7.14260968e-05
      1.16661936e-03 3.81429527e-05 -3.63992804e-05 -1.14648501e-05
      -3.39393482e-05 2.67287960e-05 -7.61451247e-06 1.17447737e-04
      -2.74585269e-04 -1.68563420e-04 -6.80867597e-05 -8.07266042e-06
      -3.52869461e-06 -1.22414103e-05 -5.75297854e-05 1.63528748e-05
      -1.06937994e-04 2.10936749e-04 -5.37358574e-05 -5.51287412e-05
      -4.93599655e-05 -5.28595301e-05 -9.76255833e-05 -9.71727859e-05
      -2.45875181e-05 3.20928484e-05 2.50361973e-05 -3.52104515e-04
      6.76890922e-05 -3.73950461e-05 2.36139400e-04 3.10337018e-05
      5.51727659e-04 -6.19103448e-05 -1.50567293e-03 9.59123827e-06
      -8.65348964e-04 8.66421105e-05 -3.02623012e-05 -6.05866844e-05
      -1.65307982e-04 -3.33778416e-06 -5.18685056e-06 -9.62319882e-06
      -4.53330613e-05 8.89633375e-05 5.98525039e-05 3.07452283e-05
      2.20403817e-05 1.68270126e-04 -1.01859754e-04 -4.46695776e-05
      1.65226527e-06 -1.46208486e-05 -1.40304510e-05 1.13708957e-05
      -6.81239471e-05 2.17057182e-04 -5.42497801e-05 -5.25670512e-05
      -5.21440197e-05 -5.34485443e-05 -8.86712296e-05 -7.40814503e-05
      -2.23889219e-05 4.16096809e-05 -1.21540934e-05 1.50757958e-04
      -2.91934994e-04 -3.24806751e-04 2.17223525e-04 -1.04668667e-04
      4.42032208e-04 2.37978456e-04 2.49417120e-04 2.59710883e-04
      6.10187242e-04 5.04057622e-04 -5.72798417e-05 -1.25579572e-05
      -5.29757344e-05 5.18443936e-04 1.88997165e-05 6.40960616e-06
      1.25276361e-04 -2.30775422e-05 -9.19549377e-04 5.99843588e-05
      -5.13357845e-05 -1.45908576e-04 -5.79164131e-04 -1.97722165e-05
      5.89764625e-07 -1.14693921e-05 1.42295801e-04 1.13551250e-04
      -2.25185377e-05 2.13614214e-04 -5.79481130e-05 -5.35837971e-05
      -5.52919155e-05 -5.25839459e-05 -9.60295947e-05 -8.87209972e-05
      -8.34267557e-05 -1.53845787e-04 1.18268334e-04 1.01810430e-04
      1.51508983e-04 3.39546386e-05 2.60980538e-04 4.74428307e-05
      8.01524220e-05 1.28220945e-05 -1.73289084e-03 3.18543287e-04
      3.93192982e-04 8.55531107e-05 1.45610902e-04 -1.26019404e-06
      -1.68254937e-05 -1.22235750e-03 -6.58988984e-06 -1.79461731e-05
      7.38297997e-04 8.83516550e-05 -5.23905437e-05 -1.14800845e-04
      6.44495740e-05 -2.51229008e-04 1.39686555e-04 7.80015944e-06
      9.93655817e-07 -1.37465559e-05 1.18467207e-04 2.45073679e-05
      -1.83050561e-05 2.55233754e-04 -5.17421140e-05 -5.15661450e-05
      -6.38997590e-05 -4.92279469e-05 -1.02239443e-04 -9.05943962e-05
      -5.50665900e-05 -1.46880935e-04 1.40316552e-04 6.22805164e-05
      9.93442518e-05 1.25637773e-04 2.40555455e-04 -1.72063141e-04
      1.10593253e-04 2.22177841e-04 -7.74090644e-04 6.34356518e-04
      1.83532116e-04 1.14311282e-04 3.11152980e-04 -7.06022780e-04
      -2.72383495e-05 -3.15431302e-04 -1.86548259e-05 3.98504244e-06
      -6.00524014e-04 -6.22718217e-05 -3.26826004e-04 -1.34078233e-04
      1.75058783e-04 -4.03462909e-04 -3.12724704e-04 -4.86498830e-05
      -1.71949341e-06 -1.19361957e-05 -7.78455142e-05 -3.30167473e-04
      -4.14927745e-05 1.73598630e-04 -5.74719488e-05 -5.56966079e-05
      -5.18407360e-05 -5.63415888e-05 -8.66854898e-05 -8.81084634e-05
      -1.09960951e-04 2.20200182e-05 -2.56881118e-04 1.13721944e-04
      1.54317895e-04 1.60371550e-04 -8.75409000e-07 1.68905943e-04
      4.09336877e-04 2.42827286e-04 -9.71622067e-04 2.35434884e-04
      -9.75490912e-05 2.55442370e-04 -6.02008913e-05 -3.91314999e-04
      -1.99535407e-05 -7.30920146e-05 -6.80728726e-06 -1.60274758e-05
      -6.06573303e-04 -4.55073532e-05 -2.88742103e-05 -1.00931065e-04
      1.83419455e-04 -3.75813164e-04 -3.00795491e-05 9.69214088e-05
      -2.02769388e-06 -1.30352864e-05 -2.67709602e-05 -4.49114334e-04
      -9.36953074e-05 1.58252602e-04 -5.39730208e-05 -5.07851910e-05
      -3.86680949e-05 -6.75380143e-05 -4.83543117e-05 -1.09265139e-03
      -6.41664301e-05 9.62882609e-07 -2.13502062e-04 8.47501069e-05
      -8.33988015e-05 -4.69934275e-05 -1.89701153e-04 -8.04091978e-05
      5.89817297e-04 4.16569674e-05 4.47277533e-04 3.68630543e-04
      -9.38980025e-04 2.71960889e-04 -4.07977379e-04 -1.15066541e-04
      -1.02420738e-04 -9.11759562e-05 5.14389285e-06 -4.64187451e-06
      3.35935783e-03 7.89955993e-06 3.32000491e-04 -4.44707664e-04
      6.29264978e-05 -2.37317421e-04 1.66431764e-05 2.23554471e-05
      -1.80127370e-06 -9.89219643e-06 -4.06661304e-04 -5.27988013e-04
      6.58650097e-05 1.51574961e-04 -5.03782503e-05 -5.48033677e-05
      -5.47125419e-05 -3.76682437e-05 -5.25127252e-05 -3.69634290e-05
      -4.01065445e-05 -2.21544833e-05 -8.53805104e-05 3.54043368e-05
      -1.75639070e-04 6.18154372e-05 -1.80195988e-04 -8.76901395e-05
      3.51947354e-04 2.37337779e-04 5.25051728e-04 4.36856120e-04
      -6.21919113e-04 3.33102536e-04 -1.09025896e-04 3.10045405e-04
      -5.83535730e-05 7.10944994e-04 1.48381250e-05 5.10829035e-04
      -2.36657541e-03 -1.30412245e-05 2.05531993e-04 -7.37996379e-05
      7.22204786e-05 -2.00083567e-04 -5.57833118e-05 3.30394105e-05
      -6.65063340e-07 -1.39665117e-05 -1.77216105e-04 -1.93152329e-04
      6.39841310e-05 1.14829141e-04 -5.44589275e-05 -5.39980829e-05
      -5.51176418e-05 -4.82155956e-05 -5.37887208e-05 -6.12553733e-04
      -3.06237162e-05 -3.61941129e-05 -1.29914421e-04 -5.28534474e-05
      -6.02537548e-05 -4.46074046e-05 -4.98864625e-04 8.97100472e-05
      4.29023494e-05 2.27184326e-04 1.51079817e-04 -6.54027681e-05
      3.29044378e-05 1.15941104e-04 -3.12438584e-04 9.52458649e-04
      -2.28941310e-04 3.62710962e-05 1.62943743e-05 -6.39576814e-04
      -2.26685870e-03 -8.78365881e-06 1.58294511e-04 -1.55477610e-04
      1.89670856e-04 -2.29002850e-04 2.31446556e-05 1.32273544e-06
      -7.54931477e-07 -1.12997623e-05 -2.39909234e-04 2.01230359e-04
      3.74060655e-05 -2.80578138e-06 -5.82936336e-05 -5.23869312e-05
      -5.07784207e-05 -4.91029205e-05 -5.43138012e-05 -3.25491201e-05
      -3.61954844e-05 -3.82764993e-05 -3.74131487e-05 -5.38648528e-05
      -1.47585279e-05 -5.83129658e-05 -5.94626836e-05 3.81429563e-05
      -1.49227038e-04 -6.77936332e-05 -4.46695776e-04 -2.60620494e-04
      1.50820939e-04 2.47457519e-05 6.62827588e-05 1.09062203e-05
      3.15946440e-04 2.51848687e-04 -7.12867113e-05 -7.28780287e-04
      -4.76570904e-06 2.97238075e-05 3.15898302e-04 -1.12665977e-04
      -1.79859795e-04 6.11900541e-05 -2.62500289e-05 6.44305692e-05
      -8.33781655e-07 -6.67920040e-06 -2.62296293e-04 2.36163411e-04
      7.01400568e-05 -1.09345974e-05 -5.30642064e-05 -5.62156602e-05
      -4.91453975e-05 -7.79470502e-05 -4.84660850e-05 -3.23265376e-05
      -4.38552925e-05 -2.22338131e-05 -7.61367410e-05 -5.38277345e-05
      -5.20396061e-05 -2.43561990e-05 3.51816125e-05 1.56083315e-05
      8.76388513e-05 1.32187590e-04 -1.34753223e-04 3.14241071e-04
      6.94045448e-05 5.61559609e-05 7.96763779e-05 -3.58088734e-03
      2.52648082e-04 2.51909631e-04 1.22506302e-04 5.33350722e-05
      5.94092235e-05 -3.05394133e-05 3.20116145e-04 1.11459789e-03
      -2.83793634e-04 -1.64459911e-04 -2.07434005e-05 1.07402769e-07
      -3.86585361e-06 -1.11200670e-05 -2.28614575e-04 1.34944450e-04
      1.13453636e-04 -5.69512531e-06 -5.99650557e-05 -4.92179279e-05
      -5.36916632e-05 -5.16863001e-05 -4.38866846e-04 -3.88284498e-05
      -3.50115624e-05 -4.40757394e-05 -1.34575421e-05 -6.26585534e-05
      -5.24922907e-05 -5.46544543e-05 3.59695841e-05 6.14598466e-05
      9.14295924e-06 6.74592666e-05 1.74903951e-04 4.05882560e-07
      1.08583353e-03 -1.66671070e-05 3.62608189e-05 1.13512280e-04
      3.06942326e-04 3.85166757e-04 3.21049583e-06 -5.56467130e-05
      2.35134758e-05 5.92334582e-05 1.03210996e-05 1.19525776e-03
      -1.72901899e-04 4.83126996e-06 -8.32773367e-05 9.78410899e-05
      1.38768917e-06 -1.34804841e-05 -2.56808737e-04 4.83217445e-05
      -3.95682582e-05 -1.10272471e-04 -2.74842678e-05 -6.23660526e-05
      -5.11911821e-05 -4.84683187e-05 -3.88999033e-05 -4.24023856e-05
      -2.60291854e-05 -3.62070568e-05 1.02317754e-05 -5.35106446e-05
      -4.14810165e-05 2.41302350e-05 3.67985813e-05 3.31465199e-05
      1.31006338e-04 6.51343871e-05 1.99471554e-03 9.74513841e-06
      -3.90053669e-04 -3.72111914e-04 -2.54904036e-04 1.56333233e-04
      5.97945531e-04 2.33754705e-04 2.29521218e-04 2.68643471e-05
      2.96406452e-05 -4.57329843e-05 1.34424496e-04 2.19306094e-03
      -3.08760646e-04 -3.46033339e-05 7.94106571e-04 -3.11354015e-05
      -2.51870051e-06 -1.90190985e-05 -1.00082361e-04 -2.28852641e-05
      -1.78558439e-05 9.30188326e-05 -3.46004090e-05 -2.89903310e-05
      -5.44124632e-05 -6.52358358e-05 -2.64185946e-05 -3.66905588e-05
      -4.65839476e-05 -3.81273312e-05 -9.69968212e-04 -6.46881890e-05
      2.18617788e-05 1.48862979e-04 4.74307977e-04 5.38048880e-05
      -1.25483365e-03 8.03254152e-05 -4.72872052e-04 8.84393921e-06
      1.37043209e-03 -6.64142950e-04 2.55491585e-04 -6.70371868e-04
      -8.50761498e-05 9.44657368e-05 1.12368252e-04 6.67400454e-05
      5.56285886e-05 2.20030870e-05 7.76504658e-06 -6.41196850e-04
      4.20262295e-05 1.65569203e-04 2.74165097e-04 -5.30596844e-05
      2.25150006e-06 -1.11432137e-05 -3.21388332e-04 2.65502276e-05
      -3.31376395e-05 8.89517178e-05 -2.88775973e-05 -3.27003363e-05
      -5.33047896e-05 -5.31830192e-05 -4.16768380e-05 -3.12137781e-05
      -3.52809584e-05 -3.62167848e-05 -3.62782739e-05 -2.87863113e-05
      6.02837281e-05 5.89890442e-05 -8.93151155e-05 -1.61060216e-05
      7.43252313e-05 1.35116177e-04 -3.84552812e-04 4.06838844e-05
      3.11525946e-04 -1.27849577e-04 3.21560685e-04 -1.57336966e-04
      1.50133725e-04 9.61320475e-05 1.01866381e-05 9.04334865e-06
      -1.29694781e-05 -2.98305476e-05 4.60786869e-05 3.86308093e-04
      -4.28438543e-05 2.18253772e-04 1.05174204e-05 -3.34881929e-06
      -1.44323280e-07 -1.18885573e-05 -4.97386092e-04 1.75192166e-04
      -2.97950301e-05 9.47394947e-05 -3.40851948e-05 -2.59581884e-05
      -5.78370637e-05 -5.35935651e-05 -2.81241319e-05 -4.06917025e-05
      -3.19573664e-05 -4.05391802e-05 -2.62779904e-05 -3.51393392e-05
      5.46942174e-05 7.59969116e-05 7.18408555e-05 5.11870167e-05
      5.43191090e-05 2.21464416e-05 5.79791849e-05 -1.56984769e-03
      1.24973201e-04 -1.23325663e-04 2.03193922e-04 8.91343399e-04
      9.86302621e-04 3.62552179e-04 1.77565118e-04 3.01670982e-04
      4.86993813e-05 3.57675053e-05 3.88627086e-05 3.39929247e-04
      6.45529799e-05 1.42853358e-04 1.72070231e-05 -1.59394222e-05
      5.49630840e-07 -1.10541268e-05 -3.30980896e-04 7.62324344e-05
      -2.65152121e-05 8.85216214e-05 -4.13627349e-05 -3.14494464e-05
      -3.53594587e-05 1.27670576e-03 -2.67148080e-05 -5.27806405e-05
      -8.59720458e-05 -5.98284059e-05 -6.62764651e-05 -8.91470700e-05
      5.35131985e-05 6.08216542e-05 5.14990788e-05 5.31188271e-05
      6.17275000e-05 3.08149247e-05 4.79691917e-05 3.77201941e-04
      1.54379613e-05 1.88633494e-04 3.15134297e-04 3.45661712e-04
      1.14065968e-03 -1.55369472e-03 -1.77497487e-03 -1.70142902e-03
      -7.17129325e-04 4.62773241e-05 -6.92598405e-05 -5.98139486e-05
      -2.67833366e-05 -8.48507989e-05 -4.53130560e-05 -6.60787700e-05
      -1.12323642e-06 -7.68692371e-06 -2.13535197e-04 1.16913776e-04
      -1.12831316e-04 9.66080988e-05 -3.16317819e-05 -2.32350194e-05
      -3.44412765e-05 -2.51910370e-03 -2.16949673e-04 -8.52802114e-05
      -1.72008426e-04 -1.24420665e-04 -1.52801193e-04 -5.75938320e-05
      6.32421870e-05 5.17686640e-05 5.14085914e-05 5.07301775e-05
      -3.05648246e-05 5.49542092e-05 5.53447135e-05 5.96841041e-04
      8.73657482e-05 3.72140639e-05 -1.74266213e-04 1.49081403e-04
      8.33288650e-05 1.86029749e-04 4.97995825e-05 -1.64568622e-03
      -5.96512342e-04 1.42503477e-05 2.00033071e-04 3.23828390e-05
      9.90380286e-05 -1.13451686e-04 -1.48723455e-04 -4.25542821e-05
      -1.49041273e-06 2.28565277e-05 -1.54862282e-04 2.00068913e-04
      -4.27972882e-05 8.67328708e-05 -2.20112142e-05 -4.08590786e-05
      -9.49356690e-05 4.89736500e-04 -2.46062293e-04 -8.50320430e-05
      -1.46867780e-04 -3.06257920e-04 -1.36507806e-04 1.71298729e-04
      1.28072961e-05 2.00378745e-05 5.48768185e-06 2.53591243e-05
      -3.60268241e-05 4.95583881e-05 5.04304517e-05 6.16913530e-05
      -5.09028432e-05 -8.03778385e-05 -1.59894160e-04 4.24106038e-05
      -2.21579103e-05 3.10590927e-04 6.92853573e-05 -2.15606051e-05
      8.83523258e-04 3.33474345e-05 5.26924450e-05 -1.72497254e-04
      -8.63767491e-05 -1.49284300e-04 -1.54324414e-04 4.21124896e-05
      -5.65486371e-05 9.72050657e-06 2.56078492e-04 -7.99583286e-05
      -9.26739449e-05 7.74879736e-05 -3.05496869e-05 -1.64268040e-05
      -1.16893541e-04 -9.65393265e-05 2.87832754e-05 -9.58968070e-04
      -1.04353785e-04 6.80400899e-06 -7.71893319e-05 -8.40947978e-05
      8.41189012e-06 5.97229382e-06 1.04332439e-05 -1.88666345e-05
      -8.66687187e-05 2.71515273e-06 3.77733377e-05 -3.28305964e-06
      4.36620030e-05 -5.67708339e-05 4.66468628e-05 7.00888631e-05
      6.10020434e-05 2.74582824e-04 3.47361783e-05 9.28546069e-06
      7.39143361e-05 5.58838765e-05 -1.25391339e-03 -8.54456390e-04
      -4.79834678e-04 1.01258893e-05 7.96753520e-05 9.75586227e-05
      -5.66155759e-05 -3.65611922e-05 3.86633154e-04 1.12997484e-04
      -1.51827298e-05 -1.39551621e-05 -5.18542620e-05 -4.85559685e-05
      -1.04989185e-05 -2.31204773e-04 -3.17678459e-05 1.45490558e-04
      -7.19276650e-05 -1.99740331e-04 3.55824704e-05 -8.40791981e-05
      8.53262554e-06 1.81489177e-05 1.28711945e-05 -7.97158282e-05
      -7.88289253e-05 -6.27369300e-05 5.34255241e-06 1.94779132e-04
      -7.39139807e-07 4.93668176e-06 2.21969924e-04 -1.61033371e-04
      -1.58158131e-04 -1.96814708e-05 3.21430816e-05 6.27684494e-06
      -2.26892662e-04 -2.69719403e-05 -2.90575158e-03 3.57851313e-05
      -2.86522903e-04 6.36115374e-06 2.68164586e-04 4.55213885e-05
      -1.74928596e-03 -2.69873446e-04 2.20351751e-04 -4.50967345e-05
      6.72982060e-05 -3.52042625e-05 -2.54234310e-05 -2.67914929e-05
      -7.21230390e-06 -5.46875162e-05 -1.80640563e-04 1.17754668e-03
      -8.99946099e-05 -1.43212397e-04 -4.02191872e-05 6.41867655e-06
      -8.44661336e-05 -5.37505839e-04 7.93783784e-06 -1.20208075e-04
      -1.29712746e-04 -1.47008497e-04 -6.05881542e-05 6.57460259e-05
      -4.43746794e-05 2.61223729e-04 1.81476003e-04 2.51921920e-05
      -1.64589714e-04 -4.12854315e-05 3.76922217e-05 -4.40656413e-06
      3.53920535e-04 2.21463033e-05 -2.72377627e-03 -2.00455233e-05
      -7.87847530e-05 1.21644167e-04 -1.25224487e-05 -5.54491649e-04
      -2.53618637e-04 -6.12356700e-04 -1.97609668e-04 -3.78093333e-04
      -4.72820866e-05 -3.22673259e-05 -1.74928700e-05 -6.51193259e-05
      -5.93956611e-05 2.21315167e-05 1.01563951e-03 -5.10505750e-04
      -1.33205671e-03 2.17010558e-04 1.38683390e-04 -3.07347636e-06
      -8.16085503e-06 3.79151839e-04 1.91168830e-04 -6.95788331e-05
      8.49511125e-05 -1.35834984e-04 -3.29846480e-05 1.41507684e-04
      1.77202910e-05 -1.34336049e-04 -4.97622124e-04 1.88268124e-04
      1.71281048e-04 6.84156839e-05 4.59520561e-05 1.74997567e-05
      3.84462073e-05 -3.55970656e-06 -5.53924110e-05 -3.23896461e-06
      2.95251648e-05 -1.71305983e-05 -2.09018544e-04 -5.08850906e-04
      2.17501278e-04 4.10842404e-05 1.60651209e-04 -6.52045564e-05
      -3.35092627e-05 -3.40328043e-05 -2.89965537e-05 -3.17948870e-05
      -2.13406656e-05 -5.42741000e-05 -1.03103586e-04 1.45276630e-04
      1.82369200e-04 -5.94646612e-04 -6.27651070e-06 -3.47399073e-05
      2.03217114e-05 1.34720991e-04 5.02713519e-05 -8.21397407e-06
      -1.41309283e-05 -4.27208033e-05 2.33559520e-04 2.36839565e-04
      2.88405980e-04 1.88438833e-04 1.64503770e-04 -1.62769811e-05
      3.23685090e-04 4.12988375e-05 1.02509366e-04 -1.56634942e-05
      2.64583714e-03 7.72386993e-05 1.80795716e-04 -3.42401690e-05
      3.28888455e-05 2.92103450e-05 -3.46007349e-04 -5.34208899e-04</_></support_vectors>
  <uncompressed_sv_total>182</uncompressed_sv_total>
  <uncompressed_support_vectors>
    <_>
      0. 0. 0. 1. 0. 1. 0. 0. 0. 0. 0. 0. 0. 0. 0. 0. 0. 0. 0. 0. 0. 0.
      0. 0. 255. 255. 254. 255. 0. 0. 3. 0. 0. 0. 0. 0. 0. 0. 0. 0. 0.
      0. 2. 0. 2. 0. 0. 2. 0. 0. 0. 0. 0. 0. 0. 0. 0. 0. 0. 0. 0. 0. 0.
      0. 1. 0. 255. 253. 255. 2. 0. 0. 0. 0. 0. 0. 0. 0. 0. 0. 255. 255.
      255. 255. 0. 0. 0. 0. 0. 0. 0. 0. 0. 0. 0. 0. 0. 0. 0. 0. 0. 0. 0.
      0. 0. 2. 254. 255. 254. 0. 2. 0. 0. 0. 0. 0. 0. 0. 0. 0. 254. 253.
      255. 255. 0. 0. 2. 1. 0. 0. 0. 0. 0. 0. 0. 0. 0. 0. 0. 0. 0. 0. 0.
      0. 0. 0. 253. 253. 255. 0. 0. 1. 0. 0. 0. 0. 0. 0. 0. 0. 254. 255.
      255. 252. 2. 0. 0. 0. 0. 0. 0. 0. 0. 0. 0. 0. 0. 0. 0. 0. 0. 0. 0.
      0. 2. 255. 3. 0. 254. 0. 2. 0. 0. 0. 0. 0. 0. 0. 0. 0. 255. 255.
      254. 255. 0. 2. 1. 0. 0. 0. 0. 0. 0. 0. 0. 0. 0. 0. 0. 0. 0. 0. 0.
      0. 0. 251. 0. 1. 254. 2. 1. 0. 0. 0. 0. 0. 0. 0. 0. 0. 253. 254.
      254. 255. 0. 0. 0. 0. 0. 0. 0. 0. 0. 0. 0. 0. 0. 0. 0. 0. 0. 0. 0.
      0. 0. 0. 255. 253. 255. 0. 0. 0. 0. 0. 0. 0. 0. 0. 0. 0. 255. 253.
      255. 255. 0. 0. 2. 0. 0. 0. 0. 0. 0. 0. 0. 0. 0. 0. 0. 0. 0. 0. 0.
      0. 1. 0. 255. 255. 254. 254. 0. 0. 0. 0. 0. 0. 0. 0. 0. 0. 255.
      255. 254. 0. 0. 0. 0. 0. 0. 0. 0. 0. 0. 0. 0. 0. 0. 0. 1. 0. 0. 3.
      0. 1. 1. 1. 255. 255. 254. 255. 0. 0. 1. 1. 0. 0. 1. 1. 0. 0. 253.
      255. 254. 1. 0. 0. 3. 0. 0. 0. 0. 0. 0. 0. 0. 0. 0. 2. 0. 0. 0. 0.
      5. 0. 0. 255. 255. 254. 254. 0. 2. 0. 0. 0. 0. 2. 0. 0. 1. 0. 255.
      255. 253. 0. 0. 0. 0. 2. 0. 0. 0. 0. 0. 0. 0. 0. 0. 1. 0. 0. 4. 0.
      0. 1. 1. 255. 253. 252. 255. 0. 0. 0. 2. 2. 0. 0. 0. 2. 255. 255.
      254. 252. 255. 255. 255. 2. 0. 0. 0. 0. 0. 0. 0. 0. 0. 0. 1. 0. 2.
      0. 0. 2. 4. 0. 0. 251. 254. 255. 255. 0. 0. 1. 0. 0. 2. 2. 0. 0.
      252. 255. 255. 255. 255. 253. 252. 1. 1. 1. 0. 0. 0. 0. 0. 0. 0.
      0. 1. 0. 4. 2. 0. 0. 0. 1. 4. 253. 255. 251. 253. 0. 0. 1. 1. 0.
      2. 0. 1. 3. 255. 255. 255. 253. 255. 255. 255. 1. 0. 2. 0. 0. 0.
      0. 0. 0. 0. 0. 0. 0. 0. 0. 2. 0. 2. 2. 0. 255. 254. 255. 255. 2.
      0. 0. 1. 3. 0. 0. 0. 0. 253. 254. 253. 255. 253. 255. 255. 0. 2.
      0. 0. 0. 0. 0. 0. 0. 0. 0. 0. 5. 0. 1. 0. 3. 0. 0. 0. 255. 255.
      255. 253. 0. 2. 0. 0. 0. 3. 0. 0. 2. 253. 255. 255. 255. 255. 255.
      255. 1. 0. 1. 0. 0. 0. 0. 0. 0. 0. 0. 1. 254. 255. 0. 2. 0. 255.
      255. 255. 0. 0. 0. 0. 1. 0. 0. 0. 2. 0. 0. 0. 0. 255. 255. 255.
      255. 254. 255. 255. 0. 0. 0. 0. 0. 0. 0. 0. 0. 0. 0. 1. 252. 255.
      1. 1. 0. 253. 255. 255. 0. 0. 3. 0. 0. 2. 0. 0. 0. 0. 0. 1. 0.
      255. 255. 255. 255. 254. 255. 255. 0. 0. 0. 0. 0. 0. 0. 0. 0. 0.
      0. 1. 0. 0. 0. 2. 0. 255. 253. 255. 0. 1. 0. 0. 3. 0. 0. 0. 0. 0.
      0. 1. 0. 255. 255. 255. 255. 254. 255. 255. 0. 0. 0. 0. 0. 0. 0.
      0. 0. 0. 0. 1. 1. 1. 2. 252. 255. 255. 254. 0. 5. 0. 0. 3. 0. 0.
      0. 0. 0. 0. 0. 1. 0. 255. 255. 255. 255. 254. 255. 255. 0. 0. 0.
      0. 0. 0. 0. 0. 0. 0. 0. 0. 0. 0. 0. 255. 250. 255. 255. 0. 0. 0.
      2. 0. 0. 3. 0. 0. 0. 0. 0. 1. 0. 255. 255. 255. 255. 254. 255.
      255. 0. 0. 0. 0. 0. 0. 0. 0. 0. 0. 0. 0. 255. 255. 255. 0. 3. 253.
      0. 255. 253. 255. 0. 2. 1. 0. 0. 0. 0. 0. 0. 1. 0. 255. 255. 255.
      255. 254. 255. 255. 0. 0. 0. 0. 0. 0. 0. 0. 0. 0. 0. 0. 255. 255.
      253. 0. 0. 253. 2. 252. 255. 253. 1. 0. 0. 1. 0. 0. 0. 0. 0. 1. 0.
      255. 255. 255. 255. 254. 255. 255. 0. 0. 0. 0. 0. 0. 0. 0. 0. 0.
      0. 2. 250. 254. 255. 0. 255. 255. 0. 255. 254. 255. 0. 1. 0. 0. 3.
      0. 0. 0. 0. 1. 0. 255. 255. 255. 255. 254. 255. 255. 0. 0. 0. 0.
      0. 0. 0. 0. 0. 0. 0. 0. 1. 1. 0. 1. 0. 0. 2. 0. 0. 255. 255. 255.
      3. 0. 1. 0. 0. 0. 0. 1. 0. 255. 255. 255. 255. 255. 254. 255. 0.
      0. 1. 0. 0. 0. 0. 0. 0. 0. 0. 0. 0. 0. 0. 0. 0. 0. 0. 1. 0. 252.
      255. 0. 0. 1. 0. 0. 0. 3. 0. 0. 2. 255. 255. 254. 255. 255. 255.
      251. 2. 3. 0. 0. 0. 0. 0. 0. 0. 0. 0. 0. 0. 0. 0. 0. 0. 0. 0. 1.
      0. 253. 255. 1. 2. 2. 0. 1. 1. 0. 0. 0. 0. 252. 255. 255. 253.
      255. 255. 2. 0. 0. 0. 0. 0. 0. 0. 0. 0. 0. 0. 0. 0. 0. 0. 0. 0. 0.
      0. 0. 2. 3. 0. 252. 255. 0. 2. 0. 0. 0. 0. 3. 0. 255. 255. 252.
      254. 255. 255. 0. 2. 1. 2. 0. 0. 0. 0. 0. 0. 0. 0. 0. 0. 0. 0. 0.
      0. 0. 0. 3. 0. 0. 0. 255. 255. 1. 0. 0. 2. 0. 3. 0. 1. 255. 254.
      255. 254. 255. 255. 0. 1. 1. 0. 0. 0. 0. 0. 0. 0. 0. 0. 0. 0. 0.
      0. 0. 0. 0. 0. 1. 1. 0. 0. 255. 254. 1. 1. 0. 0. 0. 0. 0. 1. 255.
      254. 254. 255. 253. 253. 1. 0. 1. 1. 0. 0. 0. 0. 0. 0. 0. 0. 0. 0.
      0. 0. 0. 0. 0. 0. 0. 1. 0. 1. 253. 255. 255. 0. 2. 0. 1. 1. 0. 0.
      0. 255. 255. 255. 255. 255. 0. 0. 0. 0. 0. 0. 0. 0. 0. 0. 0. 0. 0.
      0. 0. 0. 0. 0. 0. 0. 1. 0. 3. 0. 255. 254. 254. 2. 1. 1. 0. 0. 0.
      1. 2. 250. 255. 255. 254. 255. 0. 0. 1. 0. 0. 0. 0. 0. 0. 0. 0. 0.
      0. 0. 0. 0. 0. 0. 0. 0. 0. 1. 0. 0. 255. 255. 254. 0. 0. 2. 2. 0.
      1. 0. 0. 255. 254. 255. 255. 253. 0. 0. 0. 0. 0. 0. 0. 0. 0. 0. 0.
      0. 0. 0. 0. 0. 0. 0. 0. 0. 0. 255. 252. 255. 1. 0. 253. 2. 1. 0.
      0. 1. 1. 0. 0. 255. 255. 254. 255. 255. 0. 1. 0. 0. 0. 0. 0. 0. 0.
      0. 0. 0. 0. 0. 0. 0. 0. 0. 0. 0. 0. 255. 255. 255. 0. 0. 255. 0.
      1. 0. 2. 0. 2. 1. 0. 255. 255. 253. 253. 255. 0. 0. 2. 0. 0. 0. 0.
      0. 0. 0. 0. 0. 0. 0. 0. 0. 0. 0. 0. 0. 0. 254. 255. 253. 255. 255.
      255. 2. 0. 5. 0. 4. 0. 0. 1. 255. 255. 255. 255. 0. 0. 0. 1. 0. 0.
      0. 0. 0. 0. 0. 0. 0. 0. 0. 0. 0. 0. 0. 0. 0. 1. 0. 1. 0. 255. 255.
      251. 0. 3. 0. 0. 2. 1. 0. 4. 252. 252. 255. 2. 0. 1. 0. 0. 3. 0.
      0. 0. 0. 0. 0. 0. 0. 0. 0. 0. 0. 0. 0. 0. 0. 0. 0. 0. 4. 253. 255.
      255. 2. 0. 0. 2. 0. 0. 0. 0. 255. 255. 253. 0. 5. 0. 4. 0. 1. 0.
      0. 0. 0. 0. 0. 0. 0. 0. 0. 0. 0. 0. 0. 0. 0. 3. 254. 255. 253. 0.
      253. 255. 0. 0. 2. 1. 0. 2. 1. 2. 0. 254. 255. 2. 0. 1. 0. 0. 0.
      0. 0. 0. 0. 0. 0. 0. 0. 0. 0. 0. 0. 0. 0. 0. 0. 0. 255. 253. 255.
      3. 255. 254. 0. 1. 2. 0. 0. 0. 0. 0. 0. 0. 1. 0. 0. 2. 0. 2. 0. 0.
      0. 0. 0. 0. 0. 0. 0. 0. 0. 0. 0. 0. 0. 0. 0. 0. 255. 254. 255. 0.
      255. 253. 2. 0. 0. 1. 0. 1. 1. 1. 0.</_>
    <_>
      0. 0. 0. 0. 0. 1. 1. 0. 0. 0. 0. 0. 0. 0. 0. 0. 0. 0. 0. 0. 0. 0.
      0. 255. 253. 255. 255. 254. 0. 2. 0. 0. 2. 0. 0. 1. 0. 1. 0. 255.
      1. 252. 0. 4. 0. 0. 0. 0. 0. 0. 0. 0. 0. 0. 0. 0. 0. 0. 0. 0. 0.
      0. 0. 255. 255. 255. 255. 255. 3. 0. 0. 2. 0. 4. 1. 0. 0. 4. 0.
      253. 254. 255. 1. 0. 0. 0. 3. 0. 0. 0. 0. 0. 0. 0. 0. 0. 0. 0. 0.
      0. 0. 0. 0. 255. 255. 253. 255. 254. 254. 0. 1. 0. 1. 0. 0. 0. 0.
      0. 254. 255. 255. 255. 0. 2. 0. 2. 0. 0. 0. 0. 0. 0. 0. 0. 0. 0.
      0. 0. 0. 0. 0. 0. 0. 255. 255. 254. 255. 254. 0. 4. 0. 3. 1. 0. 2.
      0. 0. 2. 255. 254. 254. 254. 0. 0. 0. 0. 1. 2. 0. 0. 0. 0. 0. 0.
      0. 0. 0. 0. 0. 0. 0. 0. 0. 255. 255. 255. 255. 255. 0. 1. 1. 0. 0.
      1. 1. 2. 0. 0. 251. 255. 255. 255. 255. 1. 0. 0. 0. 0. 0. 0. 0. 0.
      0. 0. 0. 0. 0. 0. 0. 0. 0. 0. 0. 255. 255. 253. 255. 255. 2. 0. 3.
      0. 2. 0. 0. 1. 0. 0. 255. 254. 253. 254. 253. 0. 3. 0. 3. 1. 0. 0.
      0. 0. 0. 0. 0. 0. 0. 0. 0. 0. 0. 0. 0. 255. 255. 253. 255. 255. 0.
      0. 0. 1. 0. 0. 2. 0. 0. 0. 252. 255. 254. 255. 255. 0. 0. 1. 0. 0.
      0. 0. 0. 0. 0. 0. 0. 0. 0. 0. 0. 0. 0. 0. 0. 255. 254. 255. 253.
      255. 3. 0. 0. 0. 0. 3. 0. 0. 2. 0. 255. 255. 255. 255. 255. 0. 0.
      1. 0. 0. 0. 0. 0. 0. 0. 0. 0. 0. 1. 0. 0. 0. 0. 1. 0. 255. 255.
      254. 255. 255. 0. 1. 0. 1. 0. 0. 0. 0. 1. 0. 255. 255. 255. 255.
      255. 0. 0. 1. 0. 0. 0. 0. 0. 0. 0. 0. 0. 0. 1. 0. 2. 0. 1. 0. 0.
      255. 255. 254. 255. 253. 1. 0. 1. 0. 0. 0. 0. 0. 1. 0. 255. 255.
      255. 255. 255. 0. 0. 1. 0. 0. 0. 0. 0. 0. 0. 0. 0. 0. 0. 0. 0. 2.
      0. 1. 2. 252. 251. 255. 255. 255. 5. 0. 0. 1. 0. 0. 0. 0. 1. 0.
      255. 255. 255. 255. 255. 0. 0. 1. 0. 0. 0. 0. 0. 0. 0. 0. 0. 0. 2.
      1. 1. 0. 0. 0. 0. 255. 255. 255. 255. 0. 0. 4. 0. 3. 0. 0. 0. 0.
      1. 0. 255. 255. 255. 255. 255. 0. 0. 1. 0. 0. 0. 0. 0. 0. 0. 0. 0.
      0. 0. 0. 1. 0. 1. 0. 0. 253. 255. 249. 0. 5. 0. 0. 0. 0. 0. 0. 0.
      0. 1. 0. 255. 255. 255. 255. 255. 0. 0. 1. 0. 0. 0. 0. 0. 0. 0. 0.
      0. 0. 0. 5. 0. 2. 0. 2. 255. 255. 255. 2. 2. 0. 3. 0. 2. 1. 0. 0.
      0. 0. 1. 0. 255. 255. 255. 255. 255. 0. 0. 1. 0. 0. 0. 0. 0. 0. 0.
      0. 0. 0. 2. 0. 0. 0. 0. 0. 255. 253. 0. 2. 0. 1. 0. 1. 0. 0. 0. 0.
      0. 0. 1. 0. 255. 255. 255. 255. 255. 0. 0. 1. 0. 0. 0. 0. 0. 0. 0.
      0. 0. 0. 0. 2. 1. 0. 2. 1. 0. 1. 0. 0. 0. 0. 0. 0. 1. 0. 0. 0. 0.
      0. 1. 0. 255. 255. 255. 255. 255. 0. 0. 1. 0. 0. 0. 0. 0. 0. 0. 0.
      0. 0. 0. 1. 0. 1. 0. 255. 255. 254. 254. 1. 1. 0. 3. 0. 2. 0. 0.
      0. 1. 0. 0. 255. 255. 255. 255. 255. 255. 0. 0. 1. 0. 0. 0. 0. 0.
      0. 0. 0. 0. 0. 4. 0. 0. 0. 253. 255. 255. 253. 255. 0. 0. 1. 0. 1.
      1. 0. 0. 0. 1. 0. 0. 255. 255. 255. 255. 255. 255. 0. 0. 1. 0. 0.
      0. 0. 0. 0. 0. 0. 0. 0. 0. 0. 0. 255. 2. 248. 3. 0. 0. 0. 3. 0. 4.
      0. 0. 1. 0. 0. 1. 0. 0. 255. 255. 255. 255. 255. 255. 0. 0. 1. 0.
      0. 0. 0. 0. 0. 0. 0. 0. 0. 0. 1. 2. 252. 0. 255. 0. 0. 0. 0. 0. 1.
      0. 1. 1. 0. 0. 0. 1. 0. 0. 255. 255. 255. 255. 255. 255. 0. 0. 1.
      0. 0. 0. 0. 0. 0. 0. 0. 0. 0. 0. 0. 0. 0. 0. 4. 0. 255. 255. 0. 0.
      2. 1. 0. 2. 2. 0. 0. 1. 0. 0. 255. 255. 255. 255. 255. 255. 0. 0.
      1. 0. 0. 0. 0. 0. 0. 0. 0. 0. 0. 3. 0. 3. 2. 0. 0. 2. 255. 251.
      255. 255. 0. 2. 0. 0. 0. 0. 0. 1. 0. 0. 255. 255. 255. 255. 255.
      255. 0. 0. 1. 0. 0. 0. 0. 0. 0. 0. 0. 0. 0. 0. 1. 0. 0. 1. 0. 0.
      1. 253. 255. 255. 0. 1. 2. 1. 1. 0. 0. 1. 0. 0. 255. 255. 255.
      255. 255. 255. 0. 0. 1. 0. 0. 0. 0. 0. 0. 0. 0. 0. 0. 0. 0. 0. 3.
      0. 1. 0. 0. 255. 255. 252. 255. 1. 0. 0. 0. 0. 0. 1. 0. 0. 255.
      255. 255. 255. 255. 0. 0. 2. 0. 1. 0. 0. 0. 0. 0. 0. 0. 0. 0. 0.
      0. 0. 0. 0. 0. 0. 0. 254. 255. 254. 255. 255. 1. 0. 3. 1. 0. 2. 0.
      0. 255. 254. 255. 255. 254. 4. 0. 0. 2. 0. 1. 0. 0. 0. 0. 0. 0. 0.
      0. 0. 0. 0. 0. 0. 0. 0. 0. 1. 254. 254. 255. 255. 0. 2. 0. 0. 1.
      0. 3. 0. 252. 255. 255. 254. 255. 0. 0. 3. 1. 0. 0. 0. 0. 0. 0. 0.
      0. 0. 0. 0. 0. 0. 0. 0. 0. 0. 0. 0. 2. 254. 255. 253. 3. 4. 0. 0.
      1. 0. 0. 3. 255. 253. 255. 255. 253. 3. 2. 0. 0. 2. 0. 0. 0. 0. 0.
      0. 0. 0. 0. 0. 0. 0. 0. 0. 0. 0. 0. 1. 0. 254. 253. 252. 1. 0. 1.
      2. 0. 0. 1. 0. 253. 255. 253. 253. 255. 0. 0. 1. 1. 0. 3. 0. 0. 0.
      0. 0. 0. 0. 0. 0. 0. 0. 0. 0. 0. 0. 0. 0. 254. 255. 255. 255. 255.
      0. 1. 0. 4. 0. 0. 0. 255. 255. 255. 255. 255. 0. 0. 0. 1. 0. 0. 0.
      0. 0. 0. 0. 0. 0. 0. 0. 0. 0. 0. 0. 0. 0. 0. 0. 255. 252. 255.
      255. 253. 2. 0. 0. 0. 0. 3. 0. 255. 250. 255. 255. 249. 255. 2. 3.
      0. 1. 0. 0. 0. 0. 0. 0. 0. 0. 0. 0. 0. 0. 0. 0. 0. 0. 0. 1. 253.
      255. 252. 253. 255. 0. 1. 0. 0. 2. 0. 0. 0. 255. 253. 255. 255.
      255. 0. 0. 2. 0. 0. 0. 0. 0. 0. 0. 0. 0. 0. 0. 0. 0. 0. 0. 0. 0.
      0. 0. 255. 253. 255. 255. 254. 1. 0. 0. 0. 0. 2. 2. 0. 255. 255.
      254. 255. 254. 0. 1. 0. 3. 0. 0. 0. 0. 0. 0. 0. 0. 0. 1. 0. 1. 0.
      0. 0. 3. 0. 255. 251. 255. 255. 255. 255. 0. 0. 3. 0. 0. 1. 0. 2.
      255. 252. 255. 251. 1. 0. 0. 2. 0. 2. 0. 0. 0. 0. 0. 0. 0. 0. 0.
      5. 0. 3. 0. 0. 2. 0. 251. 255. 255. 253. 255. 252. 4. 0. 0. 0. 4.
      0. 0. 0. 252. 255. 254. 255. 0. 0. 1. 0. 0. 1. 0. 0. 0. 0. 0. 0.
      0. 0. 2. 0. 1. 0. 0. 1. 1. 2. 255. 255. 252. 255. 255. 255. 0. 1.
      0. 1. 0. 0. 1. 1. 255. 252. 255. 252. 0. 1. 0. 1. 0. 0. 0. 0. 0.
      0. 0. 0. 0. 0. 2. 0. 0. 0. 2. 0. 0. 0. 253. 253. 255. 255. 254. 0.
      3. 0. 1. 1. 1. 0. 0. 0. 0. 255. 254. 255. 2. 0. 0. 0. 3. 2. 0. 0.
      0. 0. 0. 0. 0. 0. 0. 0. 0. 1. 0. 2. 1. 1. 255. 255. 255. 253. 255.
      0. 0. 0. 1. 0. 1. 0. 3. 0. 0. 255. 252. 255. 0. 0. 3. 1. 0. 0. 0.
      0. 0. 0. 0. 0. 0. 0. 0. 2. 0. 0. 4. 0. 0. 0. 253. 255. 255. 253.
      253. 0. 0. 0. 0. 0. 2. 0. 0. 2. 0. 254. 0. 1. 0. 2. 0. 0. 0. 5. 0.
      0. 0. 0. 0. 0. 0. 0. 0. 3. 1. 0. 0. 0. 1. 1. 254. 255. 255. 255.
      0. 1. 2. 1. 0. 0. 1. 1. 1. 0. 3. 255. 1. 0. 0. 0. 1. 1. 0. 0. 0.
      0. 0. 0. 0. 0. 0. 0. 1. 0. 0. 2. 0. 0. 1. 255. 255. 255. 252. 255.
      2. 0. 1. 0. 0. 2. 0. 1. 2. 0. 0. 255.</_>
    <_>
      0. 1. 1. 1. 0. 0. 0. 0. 0. 0. 0. 0. 0. 0. 0. 0. 1. 0. 0. 0. 2. 0.
      255. 253. 255. 255. 255. 255. 0. 0. 0. 0. 2. 0. 0. 1. 3. 0. 2. 0.
      0. 0. 0. 0. 4. 0. 0. 3. 0. 0. 0. 0. 0. 0. 0. 0. 0. 0. 4. 0. 0. 2.
      249. 255. 255. 255. 255. 255. 0. 0. 0. 0. 0. 2. 1. 0. 0. 0. 0. 3.
      255. 0. 5. 1. 0. 0. 3. 0. 0. 0. 0. 0. 0. 0. 0. 0. 2. 0. 0. 0. 1.
      0. 255. 253. 255. 255. 255. 255. 0. 0. 0. 0. 0. 1. 0. 2. 0. 3.
      255. 255. 255. 0. 0. 0. 0. 0. 0. 2. 0. 0. 0. 0. 0. 0. 0. 0. 1. 0.
      1. 0. 0. 0. 0. 0. 255. 255. 255. 255. 0. 0. 0. 0. 3. 0. 2. 0. 1.
      0. 252. 255. 255. 255. 255. 0. 0. 1. 0. 0. 0. 0. 0. 0. 0. 0. 0. 0.
      0. 3. 0. 0. 1. 2. 0. 2. 255. 255. 255. 255. 0. 0. 0. 0. 2. 0. 0.
      1. 0. 2. 255. 254. 254. 255. 255. 0. 1. 0. 0. 1. 0. 0. 0. 0. 0. 0.
      0. 0. 0. 0. 2. 2. 0. 0. 0. 0. 255. 255. 255. 255. 0. 0. 0. 0. 0.
      2. 2. 0. 0. 252. 255. 254. 253. 255. 253. 3. 0. 2. 0. 0. 0. 0. 0.
      0. 0. 0. 0. 0. 1. 0. 1. 0. 0. 0. 255. 255. 255. 255. 255. 255. 0.
      0. 0. 0. 3. 0. 0. 0. 1. 255. 254. 255. 255. 255. 255. 0. 1. 0. 1.
      0. 0. 0. 0. 0. 0. 0. 0. 0. 0. 0. 1. 0. 3. 0. 254. 254. 255. 255.
      255. 255. 0. 0. 0. 0. 0. 1. 1. 0. 1. 255. 253. 255. 255. 255. 255.
      0. 0. 1. 0. 0. 0. 0. 2. 1. 0. 1. 0. 1. 0. 2. 1. 0. 0. 0. 255. 255.
      255. 253. 255. 255. 1. 0. 0. 1. 0. 0. 1. 0. 0. 255. 255. 255. 255.
      255. 255. 0. 0. 1. 0. 0. 2. 0. 0. 0. 1. 1. 0. 0. 5. 0. 2. 0. 0. 0.
      253. 255. 255. 255. 253. 253. 0. 2. 3. 0. 0. 0. 1. 0. 0. 255. 255.
      255. 255. 255. 255. 0. 0. 1. 0. 0. 0. 0. 2. 0. 2. 0. 1. 0. 0. 1.
      0. 0. 1. 1. 255. 255. 255. 255. 255. 255. 0. 0. 1. 0. 0. 0. 1. 0.
      0. 255. 255. 255. 255. 255. 255. 0. 0. 1. 0. 0. 0. 5. 0. 0. 2. 2.
      0. 1. 4. 0. 1. 0. 1. 254. 255. 254. 254. 0. 4. 0. 2. 0. 0. 1. 0.
      0. 1. 0. 0. 255. 255. 255. 255. 255. 255. 0. 0. 1. 0. 0. 0. 0. 1.
      0. 0. 0. 5. 0. 0. 4. 0. 1. 0. 255. 254. 255. 255. 0. 0. 2. 1. 2.
      0. 0. 0. 0. 1. 0. 0. 255. 255. 255. 255. 255. 255. 0. 0. 1. 0. 0.
      4. 0. 0. 4. 0. 0. 0. 0. 3. 0. 0. 2. 1. 255. 255. 254. 252. 2. 0.
      0. 1. 0. 2. 0. 0. 0. 1. 0. 0. 255. 255. 255. 255. 255. 255. 0. 0.
      1. 0. 0. 0. 4. 0. 0. 0. 5. 0. 255. 255. 252. 255. 254. 0. 0. 2. 0.
      1. 3. 1. 0. 2. 2. 0. 1. 0. 0. 1. 0. 0. 255. 255. 255. 255. 255.
      255. 0. 0. 1. 0. 0. 2. 0. 0. 0. 2. 0. 0. 255. 255. 255. 255. 254.
      0. 2. 0. 1. 0. 0. 0. 3. 0. 0. 3. 0. 0. 0. 1. 0. 0. 255. 255. 255.
      255. 255. 255. 0. 0. 1. 0. 0. 1. 0. 0. 1. 0. 0. 3. 253. 255. 254.
      255. 254. 2. 1. 0. 1. 0. 1. 0. 0. 3. 0. 1. 0. 0. 0. 1. 0. 0. 255.
      255. 255. 255. 255. 255. 0. 0. 1. 0. 0. 0. 0. 0. 0. 1. 0. 0. 255.
      254. 255. 254. 255. 0. 0. 2. 0. 0. 0. 4. 0. 0. 1. 0. 1. 0. 0. 1.
      0. 0. 255. 255. 255. 255. 255. 255. 0. 0. 1. 0. 0. 3. 1. 1. 0. 1.
      0. 0. 255. 255. 252. 254. 255. 1. 3. 0. 0. 0. 1. 0. 0. 4. 1. 0. 0.
      0. 0. 1. 0. 0. 255. 255. 255. 255. 255. 255. 0. 0. 1. 0. 0. 0. 2.
      0. 0. 0. 1. 1. 255. 253. 255. 255. 255. 0. 0. 4. 252. 3. 0. 3. 1.
      0. 0. 2. 0. 0. 0. 1. 0. 0. 255. 255. 255. 255. 255. 255. 0. 0. 1.
      0. 0. 3. 0. 2. 0. 1. 0. 0. 0. 1. 255. 249. 255. 252. 254. 255.
      255. 0. 0. 0. 0. 2. 1. 0. 3. 0. 0. 1. 0. 0. 255. 255. 255. 255.
      255. 255. 0. 0. 1. 0. 0. 0. 0. 0. 1. 0. 0. 1. 1. 2. 255. 255. 255.
      255. 255. 255. 254. 0. 5. 0. 0. 0. 0. 0. 0. 0. 0. 1. 0. 0. 255.
      255. 255. 255. 255. 255. 0. 0. 1. 0. 0. 2. 1. 0. 0. 0. 1. 1. 0. 0.
      255. 0. 0. 1. 0. 0. 255. 2. 0. 255. 2. 4. 0. 1. 0. 0. 0. 1. 0. 0.
      255. 255. 255. 255. 255. 255. 0. 0. 1. 0. 0. 0. 0. 1. 0. 0. 2. 0.
      2. 2. 0. 0. 2. 0. 1. 1. 254. 0. 0. 255. 0. 0. 1. 0. 0. 0. 0. 1. 0.
      0. 255. 255. 255. 255. 255. 255. 0. 0. 1. 0. 0. 0. 0. 0. 0. 0. 0.
      0. 0. 1. 0. 0. 2. 0. 0. 1. 255. 0. 0. 255. 0. 2. 3. 0. 2. 1. 0. 2.
      0. 0. 255. 254. 255. 255. 255. 255. 0. 0. 1. 0. 0. 0. 0. 0. 0. 0.
      0. 0. 0. 0. 3. 1. 0. 0. 0. 1. 1. 0. 2. 0. 255. 0. 0. 1. 0. 0. 1.
      0. 3. 0. 252. 255. 255. 255. 255. 255. 0. 0. 1. 0. 0. 0. 0. 0. 0.
      0. 0. 0. 0. 0. 2. 0. 0. 4. 0. 0. 0. 3. 0. 1. 255. 255. 2. 0. 1. 0.
      1. 0. 0. 3. 255. 253. 255. 255. 255. 255. 0. 0. 1. 0. 0. 0. 0. 0.
      0. 0. 0. 0. 0. 0. 0. 0. 1. 0. 2. 1. 1. 0. 0. 0. 255. 255. 0. 1. 0.
      2. 0. 0. 1. 0. 253. 255. 253. 255. 255. 255. 0. 0. 1. 0. 0. 0. 0.
      0. 0. 0. 0. 0. 0. 2. 0. 0. 0. 2. 0. 0. 0. 0. 2. 252. 255. 255. 3.
      0. 0. 0. 4. 0. 0. 0. 255. 255. 255. 255. 255. 255. 0. 0. 1. 0. 0.
      0. 0. 0. 0. 0. 0. 0. 0. 2. 0. 1. 0. 0. 1. 1. 2. 0. 1. 255. 252.
      254. 0. 1. 2. 0. 0. 0. 3. 0. 255. 250. 255. 255. 255. 255. 0. 0.
      1. 0. 0. 0. 0. 0. 0. 0. 0. 0. 0. 0. 5. 0. 3. 0. 0. 2. 0. 1. 0.
      255. 255. 255. 0. 1. 0. 0. 0. 2. 0. 0. 0. 255. 253. 255. 255. 255.
      0. 0. 1. 0. 0. 0. 0. 0. 0. 0. 0. 0. 0. 1. 0. 1. 0. 0. 0. 3. 0. 0.
      0. 255. 252. 255. 2. 0. 1. 0. 0. 0. 2. 2. 0. 255. 255. 255. 255.
      255. 0. 1. 0. 1. 0. 0. 0. 0. 0. 0. 0. 0. 0. 1. 0. 1. 0. 0. 0. 3.
      0. 0. 0. 255. 255. 254. 0. 0. 1. 0. 3. 0. 0. 1. 0. 253. 255. 255.
      253. 255. 0. 0. 0. 0. 3. 0. 0. 0. 0. 0. 0. 0. 0. 0. 5. 0. 3. 0. 0.
      2. 0. 0. 3. 254. 253. 255. 0. 3. 0. 2. 0. 0. 0. 0. 3. 252. 254.
      253. 255. 254. 0. 5. 0. 3. 0. 0. 0. 0. 0. 0. 0. 0. 0. 2. 0. 1. 0.
      0. 1. 1. 2. 4. 0. 255. 253. 255. 1. 0. 4. 0. 1. 1. 4. 0. 0. 255.
      255. 255. 255. 255. 0. 0. 0. 1. 0. 0. 0. 0. 0. 0. 0. 0. 0. 2. 0.
      0. 0. 2. 0. 0. 0. 0. 0. 255. 255. 255. 2. 0. 0. 0. 0. 1. 0. 0. 1.
      255. 255. 255. 2. 0. 0. 1. 1. 0. 1. 0. 0. 0. 0. 0. 0. 0. 0. 0. 0.
      0. 1. 0. 2. 1. 1. 255. 255. 252. 255. 253. 0. 0. 3. 0. 5. 0. 0. 0.
      0. 0. 255. 255. 0. 3. 0. 1. 0. 0. 0. 0. 0. 0. 0. 0. 0. 0. 0. 0. 2.
      0. 0. 4. 0. 0. 0. 254. 254. 255. 255. 254. 0. 0. 0. 0. 1. 0. 1. 0.
      3. 0. 255. 252. 1. 0. 3. 0. 0. 0. 2. 0. 0. 0. 0. 0. 0. 0. 0. 0. 3.
      1. 0. 0. 0. 1. 1. 254. 255. 254. 254. 255. 4. 0. 0. 2. 0. 0. 0. 2.
      0. 0. 255. 2. 0. 0. 0. 0. 0. 4. 0. 0. 0. 0. 0. 0. 0. 0. 0. 1. 0.
      0. 2. 0. 0. 1. 255. 1. 0. 255. 0. 1. 0. 0. 1. 0. 2. 0. 0. 0. 2. 0.
      0.</_>
    <_>
      0. 1. 2. 0. 0. 1. 0. 0. 0. 0. 0. 0. 0. 0. 0. 0. 0. 5. 0. 0. 255.
      255. 255. 255. 0. 0. 0. 2. 2. 0. 254. 0. 254. 255. 1. 0. 0. 1. 2.
      0. 0. 0. 0. 1. 2. 0. 0. 5. 0. 0. 0. 0. 0. 0. 0. 0. 2. 0. 0. 2. 1.
      255. 253. 253. 0. 1. 0. 0. 0. 254. 255. 0. 255. 251. 1. 1. 1. 0.
      0. 0. 255. 0. 3. 1. 0. 1. 1. 0. 0. 0. 0. 0. 0. 0. 0. 0. 0. 2. 0.
      0. 0. 253. 255. 255. 0. 2. 2. 1. 3. 255. 254. 1. 252. 255. 2. 0.
      2. 3. 0. 255. 255. 0. 2. 1. 1. 0. 3. 2. 0. 0. 0. 0. 0. 0. 0. 0. 3.
      0. 1. 1. 0. 0. 252. 254. 1. 0. 1. 0. 0. 254. 255. 0. 255. 255. 0.
      1. 2. 1. 0. 255. 254. 2. 0. 0. 0. 2. 0. 1. 0. 0. 0. 0. 0. 0. 0. 0.
      0. 2. 0. 0. 2. 1. 255. 255. 3. 0. 0. 0. 4. 255. 252. 0. 255. 250.
      3. 0. 0. 0. 2. 254. 255. 0. 2. 0. 2. 0. 4. 1. 0. 0. 0. 0. 0. 0. 0.
      0. 0. 3. 0. 1. 0. 0. 253. 255. 0. 1. 0. 0. 0. 255. 254. 4. 255.
      255. 0. 2. 0. 2. 0. 255. 255. 0. 0. 0. 0. 1. 0. 0. 0. 0. 0. 0. 0.
      0. 0. 0. 3. 0. 4. 0. 0. 255. 255. 254. 0. 0. 0. 1. 0. 255. 255. 0.
      253. 254. 2. 0. 0. 0. 1. 255. 255. 0. 0. 2. 0. 0. 2. 1. 0. 0. 0.
      0. 0. 0. 0. 0. 0. 0. 1. 0. 0. 255. 254. 255. 0. 0. 1. 0. 1. 255.
      255. 0. 255. 255. 0. 0. 2. 0. 1. 255. 255. 0. 0. 0. 0. 0. 0. 0. 0.
      0. 0. 0. 0. 0. 0. 0. 0. 0. 0. 0. 1. 0. 255. 255. 2. 0. 0. 0. 1.
      254. 255. 0. 255. 253. 0. 2. 0. 0. 0. 255. 255. 0. 0. 0. 0. 0. 0.
      0. 0. 0. 0. 0. 0. 0. 0. 0. 0. 0. 0. 0. 1. 0. 255. 255. 0. 5. 0. 2.
      0. 253. 0. 1. 254. 255. 0. 0. 0. 1. 1. 1. 255. 0. 0. 0. 0. 0. 0.
      0. 0. 0. 0. 0. 0. 0. 0. 0. 0. 0. 0. 0. 1. 0. 255. 255. 0. 0. 0. 0.
      0. 255. 0. 1. 254. 255. 0. 0. 4. 0. 0. 0. 255. 0. 0. 0. 0. 0. 0.
      0. 0. 0. 0. 0. 0. 0. 0. 0. 0. 0. 0. 0. 1. 0. 255. 255. 2. 2. 2. 0.
      255. 255. 0. 0. 254. 255. 0. 1. 0. 3. 0. 1. 255. 0. 0. 0. 0. 0. 0.
      0. 0. 0. 0. 0. 0. 0. 0. 0. 0. 0. 0. 0. 1. 0. 255. 255. 0. 0. 0. 0.
      255. 255. 3. 0. 255. 255. 0. 0. 2. 0. 0. 0. 255. 0. 0. 0. 0. 0. 0.
      0. 0. 0. 0. 0. 0. 0. 0. 0. 0. 0. 0. 0. 1. 0. 255. 255. 2. 0. 0. 2.
      255. 253. 0. 2. 255. 252. 1. 0. 0. 1. 0. 2. 255. 0. 0. 0. 0. 0. 0.
      0. 0. 0. 0. 0. 0. 0. 0. 0. 0. 0. 0. 0. 1. 0. 255. 255. 0. 1. 2. 0.
      255. 255. 0. 0. 251. 255. 0. 3. 0. 0. 2. 0. 255. 0. 0. 0. 0. 0. 0.
      0. 0. 0. 0. 0. 0. 0. 0. 0. 0. 0. 0. 0. 1. 0. 255. 255. 0. 1. 0. 2.
      253. 253. 4. 0. 255. 253. 0. 0. 0. 0. 2. 0. 255. 0. 0. 0. 0. 0. 0.
      0. 0. 0. 0. 0. 0. 0. 0. 0. 0. 0. 0. 0. 1. 0. 255. 255. 1. 1. 0. 0.
      255. 253. 0. 2. 255. 255. 0. 1. 0. 0. 0. 0. 255. 0. 0. 0. 0. 0. 0.
      0. 0. 0. 0. 0. 0. 0. 0. 0. 0. 0. 0. 0. 1. 0. 255. 255. 0. 0. 0. 2.
      254. 255. 3. 0. 255. 255. 0. 1. 0. 0. 0. 0. 255. 0. 0. 0. 0. 0. 0.
      0. 0. 0. 0. 0. 0. 0. 0. 0. 0. 0. 0. 0. 1. 0. 255. 255. 0. 0. 3. 0.
      255. 251. 3. 0. 255. 255. 0. 1. 0. 0. 0. 0. 255. 0. 0. 0. 0. 0. 0.
      0. 0. 0. 0. 0. 0. 0. 0. 0. 0. 0. 0. 0. 1. 0. 255. 255. 0. 1. 0. 2.
      255. 1. 0. 3. 255. 255. 0. 1. 0. 0. 0. 0. 255. 0. 0. 0. 0. 0. 0.
      0. 0. 0. 0. 0. 0. 0. 0. 0. 0. 0. 0. 0. 1. 0. 255. 255. 1. 0. 0. 0.
      255. 253. 3. 0. 255. 255. 0. 1. 0. 0. 0. 0. 255. 0. 0. 0. 0. 0. 0.
      0. 0. 0. 0. 0. 0. 0. 0. 0. 0. 0. 0. 0. 1. 0. 255. 255. 0. 0. 3. 4.
      255. 0. 2. 0. 255. 255. 0. 1. 0. 0. 0. 0. 255. 0. 0. 0. 0. 0. 0.
      0. 0. 0. 0. 0. 0. 0. 0. 0. 0. 0. 0. 0. 1. 0. 255. 255. 2. 0. 3. 0.
      254. 4. 0. 1. 255. 255. 0. 1. 0. 0. 0. 0. 255. 0. 0. 0. 0. 0. 0.
      0. 0. 0. 0. 0. 0. 0. 0. 0. 0. 0. 0. 0. 1. 0. 255. 255. 0. 1. 0.
      255. 255. 0. 0. 0. 255. 255. 0. 1. 0. 0. 0. 0. 255. 0. 0. 0. 0. 0.
      0. 0. 0. 0. 0. 0. 0. 0. 0. 0. 1. 0. 1. 1. 0. 1. 255. 255. 1. 0. 1.
      255. 255. 255. 255. 255. 254. 255. 0. 1. 0. 0. 1. 0. 255. 0. 0. 0.
      0. 0. 0. 0. 0. 0. 0. 0. 0. 0. 0. 0. 0. 1. 0. 0. 1. 0. 255. 254. 0.
      0. 0. 255. 255. 251. 255. 254. 255. 255. 0. 1. 0. 0. 0. 1. 255. 0.
      0. 0. 0. 0. 0. 0. 0. 0. 0. 0. 0. 0. 0. 0. 0. 2. 0. 2. 0. 0. 255.
      255. 1. 0. 0. 251. 255. 255. 252. 255. 253. 255. 0. 0. 1. 0. 2. 0.
      255. 0. 0. 0. 0. 0. 0. 0. 0. 0. 0. 0. 0. 0. 0. 0. 0. 0. 0. 1. 2.
      1. 253. 254. 2. 1. 2. 255. 254. 255. 255. 252. 255. 253. 255. 0.
      0. 0. 0. 1. 255. 0. 0. 0. 0. 0. 0. 0. 0. 0. 0. 0. 0. 0. 0. 0. 0.
      1. 1. 0. 0. 0. 2. 255. 0. 0. 2. 255. 255. 253. 254. 255. 254. 255.
      248. 2. 0. 3. 2. 1. 255. 0. 0. 0. 0. 0. 0. 0. 0. 0. 0. 0. 0. 0. 0.
      0. 0. 0. 0. 0. 2. 0. 0. 254. 0. 6. 0. 255. 255. 255. 254. 255.
      254. 255. 255. 255. 0. 0. 2. 0. 255. 0. 0. 0. 0. 0. 0. 0. 0. 0. 0.
      0. 0. 0. 0. 0. 0. 0. 0. 3. 0. 0. 0. 255. 0. 0. 0. 255. 255. 253.
      253. 255. 255. 250. 253. 255. 0. 2. 2. 1. 255. 0. 0. 0. 0. 0. 0.
      0. 0. 0. 0. 0. 0. 0. 0. 0. 0. 2. 0. 0. 2. 0. 0. 255. 0. 0. 2. 0.
      255. 255. 255. 254. 254. 255. 255. 253. 2. 2. 0. 1. 255. 0. 0. 2.
      0. 0. 2. 1. 0. 0. 0. 0. 0. 0. 0. 0. 1. 0. 0. 2. 0. 0. 1. 255. 0.
      3. 0. 0. 0. 255. 252. 255. 254. 255. 255. 255. 0. 0. 2. 0. 255. 0.
      0. 0. 0. 1. 0. 0. 0. 0. 0. 0. 0. 0. 0. 0. 0. 3. 1. 0. 0. 0. 1. 1.
      2. 0. 1. 0. 2. 0. 2. 254. 254. 255. 255. 255. 0. 1. 0. 0. 255. 0.
      2. 0. 2. 0. 4. 1. 0. 0. 0. 0. 0. 0. 0. 0. 0. 2. 0. 0. 4. 0. 0. 0.
      0. 3. 2. 0. 0. 0. 0. 1. 254. 255. 255. 254. 2. 0. 4. 0. 254. 2. 0.
      0. 0. 2. 0. 1. 0. 0. 0. 0. 0. 0. 0. 0. 0. 0. 0. 1. 0. 2. 1. 1. 0.
      1. 0. 1. 0. 4. 1. 0. 255. 254. 253. 255. 0. 1. 0. 2. 255. 0. 2. 1.
      1. 0. 3. 2. 0. 0. 0. 0. 0. 0. 0. 0. 2. 0. 0. 0. 2. 0. 0. 0. 1. 2.
      0. 2. 0. 0. 0. 0. 254. 254. 3. 3. 0. 0. 0. 0. 255. 0. 3. 1. 0. 1.
      1. 0. 0. 0. 0. 0. 0. 0. 0. 0. 2. 0. 1. 0. 0. 1. 1. 2. 0. 0. 2. 0.
      1. 1. 1. 1. 2. 255. 0. 1. 0. 3. 0. 0. 0. 0. 0. 1. 2. 0. 0. 5. 0.
      0. 0. 0. 0. 0. 0. 0. 0. 5. 0. 3. 0. 0. 2. 0. 1. 0. 0. 0. 0. 1. 0.
      0. 255. 255. 2. 1. 0. 0. 7. 0. 0. 1. 2. 0. 0. 1. 0. 0. 0. 0. 0. 0.
      0. 0. 0. 0. 1. 0. 1. 0. 0. 0. 3. 0. 1. 0. 4. 0. 0. 0. 0. 0. 254.
      255. 0. 0. 3. 1. 0. 1.</_>
    <_>
      0. 0. 0. 1. 0. 1. 1. 0. 0. 0. 1. 0. 0. 255. 2. 1. 1. 0. 0. 1. 0.
      1. 255. 254. 255. 0. 0. 1. 0. 0. 0. 2. 1. 0. 1. 0. 2. 0. 0. 255.
      2. 0. 2. 0. 0. 0. 2. 0. 0. 0. 0. 3. 2. 1. 0. 0. 0. 2. 0. 0. 4. 0.
      255. 254. 255. 0. 4. 0. 0. 0. 4. 0. 1. 0. 2. 1. 0. 1. 255. 253. 0.
      1. 0. 0. 0. 3. 0. 2. 2. 0. 0. 0. 0. 0. 1. 0. 0. 1. 3. 0. 0. 0.
      255. 255. 0. 0. 0. 0. 4. 0. 0. 3. 0. 0. 1. 0. 1. 1. 254. 255. 0.
      2. 0. 2. 1. 0. 2. 0. 0. 3. 0. 0. 3. 1. 0. 1. 2. 0. 0. 0. 0. 1.
      255. 0. 0. 5. 0. 0. 0. 1. 0. 0. 2. 4. 0. 2. 0. 0. 255. 254. 0. 0.
      5. 0. 0. 0. 0. 1. 0. 2. 0. 0. 0. 0. 4. 0. 2. 0. 0. 0. 0. 1. 255.
      0. 1. 0. 1. 2. 0. 0. 5. 0. 1. 0. 0. 1. 255. 255. 255. 254. 255.
      253. 1. 0. 1. 2. 0. 0. 2. 0. 1. 0. 1. 0. 2. 0. 0. 1. 3. 0. 0. 0.
      255. 255. 0. 1. 0. 1. 0. 3. 0. 0. 2. 0. 4. 2. 254. 253. 255. 255.
      255. 255. 0. 0. 1. 0. 0. 0. 0. 0. 0. 0. 4. 0. 1. 3. 0. 2. 0. 0. 4.
      0. 255. 254. 1. 0. 1. 1. 0. 0. 0. 2. 0. 2. 0. 0. 255. 255. 252.
      253. 254. 255. 0. 2. 0. 0. 4. 0. 0. 0. 0. 1. 0. 0. 0. 0. 1. 0. 0.
      1. 0. 1. 255. 254. 1. 0. 1. 0. 1. 2. 0. 0. 0. 0. 1. 0. 255. 255.
      255. 255. 255. 255. 255. 0. 0. 1. 0. 0. 0. 0. 0. 0. 0. 0. 0. 0. 0.
      2. 0. 0. 2. 0. 255. 253. 255. 0. 0. 0. 1. 0. 2. 0. 1. 0. 0. 0.
      255. 254. 255. 255. 255. 255. 255. 0. 0. 1. 0. 0. 0. 0. 0. 0. 0.
      0. 0. 0. 1. 0. 2. 2. 0. 5. 255. 255. 255. 0. 4. 0. 0. 3. 0. 0. 0.
      1. 3. 0. 0. 255. 255. 255. 255. 255. 255. 0. 0. 1. 0. 0. 0. 0. 0.
      0. 0. 0. 0. 0. 0. 0. 1. 0. 3. 0. 253. 255. 255. 0. 0. 0. 2. 1. 1.
      2. 1. 1. 0. 255. 255. 255. 249. 255. 255. 255. 255. 0. 0. 1. 0. 0.
      0. 0. 0. 0. 0. 0. 0. 0. 0. 0. 0. 0. 1. 1. 255. 255. 253. 255. 2.
      0. 2. 0. 0. 2. 0. 0. 2. 255. 255. 253. 255. 255. 255. 255. 255. 0.
      0. 1. 0. 0. 0. 0. 0. 0. 0. 0. 0. 0. 0. 1. 1. 0. 250. 255. 255.
      252. 255. 254. 1. 0. 0. 1. 1. 0. 4. 1. 0. 255. 254. 254. 255. 255.
      255. 255. 255. 0. 0. 1. 0. 0. 0. 0. 0. 0. 0. 0. 0. 0. 0. 0. 0. 2.
      255. 254. 254. 255. 1. 0. 0. 4. 0. 2. 0. 2. 0. 1. 0. 255. 255.
      255. 253. 254. 255. 255. 255. 0. 0. 1. 0. 0. 0. 0. 0. 0. 0. 0. 0.
      0. 1. 1. 0. 1. 253. 253. 255. 0. 0. 0. 0. 0. 2. 0. 2. 0. 1. 0. 3.
      254. 254. 255. 255. 255. 255. 255. 255. 0. 0. 1. 0. 0. 0. 0. 0. 0.
      0. 0. 0. 0. 0. 255. 255. 254. 255. 255. 254. 0. 0. 3. 1. 0. 0. 0.
      0. 0. 2. 0. 0. 255. 255. 254. 255. 255. 254. 255. 255. 0. 1. 0. 1.
      0. 1. 0. 0. 0. 0. 1. 255. 255. 255. 253. 255. 255. 253. 255. 254.
      0. 1. 0. 0. 2. 0. 0. 0. 2. 0. 0. 0. 0. 255. 255. 255. 255. 253.
      255. 255. 0. 1. 1. 0. 1. 0. 0. 2. 1. 0. 0. 255. 254. 254. 255.
      255. 255. 255. 255. 0. 0. 0. 0. 1. 0. 1. 1. 0. 1. 0. 0. 0. 0. 255.
      255. 255. 255. 255. 253. 255. 0. 0. 0. 0. 0. 0. 2. 0. 0. 1. 0.
      254. 255. 254. 255. 251. 255. 253. 254. 0. 5. 1. 1. 2. 2. 0. 1. 3.
      0. 0. 0. 0. 0. 255. 255. 255. 255. 255. 255. 251. 1. 1. 1. 1. 1.
      2. 0. 3. 0. 0. 2. 253. 255. 255. 253. 255. 255. 255. 255. 255. 0.
      0. 0. 0. 1. 0. 0. 0. 0. 0. 0. 0. 0. 255. 255. 255. 255. 255. 254.
      255. 254. 0. 0. 0. 0. 0. 0. 1. 0. 1. 0. 255. 255. 255. 254. 255.
      255. 252. 255. 254. 2. 0. 0. 2. 0. 0. 0. 0. 3. 0. 0. 0. 0. 255.
      255. 255. 255. 254. 255. 255. 255. 2. 1. 0. 1. 0. 0. 0. 0. 3. 0.
      2. 0. 0. 255. 254. 254. 255. 255. 255. 0. 1. 255. 0. 0. 0. 1. 1.
      0. 0. 0. 0. 0. 255. 255. 255. 255. 255. 253. 254. 255. 0. 0. 0. 0.
      1. 2. 0. 0. 0. 1. 0. 0. 0. 1. 255. 255. 253. 254. 255. 254. 255.
      249. 255. 1. 0. 3. 0. 0. 0. 0. 0. 0. 255. 255. 255. 255. 255. 253.
      255. 255. 0. 2. 0. 1. 0. 0. 3. 0. 0. 2. 0. 1. 2. 0. 0. 0. 1. 254.
      255. 254. 255. 255. 255. 0. 0. 0. 1. 0. 0. 0. 0. 0. 255. 255. 255.
      255. 255. 254. 255. 255. 0. 1. 0. 0. 0. 0. 0. 0. 0. 0. 0. 0. 0. 3.
      0. 0. 0. 255. 254. 255. 255. 255. 255. 0. 0. 0. 2. 0. 0. 0. 0. 0.
      255. 255. 253. 255. 255. 255. 255. 255. 0. 0. 0. 0. 0. 0. 0. 0. 0.
      0. 0. 0. 2. 0. 0. 1. 0. 0. 1. 1. 253. 252. 255. 2. 0. 0. 0. 3. 2.
      0. 5. 0. 254. 248. 255. 254. 254. 254. 255. 254. 2. 2. 0. 1. 0. 0.
      0. 0. 0. 0. 0. 0. 0. 4. 0. 1. 0. 0. 0. 1. 255. 255. 254. 0. 4. 0.
      0. 1. 0. 0. 0. 0. 255. 255. 254. 254. 255. 254. 254. 255. 0. 0. 1.
      0. 0. 0. 0. 0. 0. 0. 0. 0. 3. 0. 0. 2. 0. 1. 2. 0. 0. 255. 255. 3.
      0. 3. 0. 1. 1. 1. 1. 1. 0. 255. 253. 254. 253. 254. 253. 255. 0.
      0. 1. 3. 0. 0. 0. 0. 0. 0. 0. 0. 0. 3. 2. 1. 0. 2. 0. 0. 2. 0.
      253. 0. 0. 0. 3. 0. 0. 1. 0. 0. 1. 255. 255. 255. 255. 255. 255.
      253. 0. 0. 2. 0. 0. 0. 0. 0. 0. 0. 0. 0. 0. 0. 1. 0. 0. 1. 0. 2.
      0. 2. 254. 5. 3. 0. 0. 1. 1. 0. 0. 2. 0. 253. 255. 254. 255. 252.
      253. 4. 0. 0. 0. 1. 0. 0. 0. 0. 0. 0. 0. 0. 0. 2. 0. 7. 0. 0. 2.
      0. 255. 253. 255. 0. 0. 3. 0. 0. 2. 0. 3. 0. 0. 255. 254. 255.
      254. 255. 255. 0. 1. 0. 0. 0. 0. 0. 0. 0. 0. 0. 0. 0. 0. 0. 0. 1.
      0. 1. 0. 0. 255. 254. 255. 1. 0. 0. 2. 0. 0. 0. 1. 0. 0. 255. 255.
      254. 253. 255. 253. 0. 2. 0. 0. 1. 0. 0. 1. 0. 0. 1. 1. 0. 1. 0.
      0. 2. 0. 0. 1. 0. 255. 254. 255. 0. 0. 0. 0. 1. 0. 1. 1. 0. 0.
      253. 255. 254. 254. 254. 255. 0. 0. 0. 2. 0. 2. 0. 0. 3. 0. 2. 0.
      0. 0. 0. 0. 0. 0. 1. 0. 2. 255. 251. 255. 0. 0. 3. 0. 1. 0. 1. 0.
      1. 0. 255. 253. 255. 255. 254. 255. 0. 1. 0. 0. 1. 0. 2. 0. 1. 1.
      0. 0. 2. 0. 3. 0. 0. 2. 0. 1. 0. 255. 255. 255. 255. 0. 0. 0. 0.
      1. 1. 0. 1. 1. 253. 254. 255. 253. 2. 0. 1. 0. 0. 0. 1. 2. 3. 0.
      0. 2. 1. 1. 0. 0. 0. 3. 0. 0. 0. 1. 1. 255. 255. 250. 255. 0. 0.
      1. 1. 0. 1. 0. 0. 0. 4. 0. 254. 1. 0. 0. 1. 0. 4. 0. 0. 0. 0. 0.
      2. 0. 0. 1. 0. 1. 1. 3. 0. 0. 0. 0. 255. 253. 255. 255. 252. 0. 1.
      0. 2. 3. 0. 3. 2. 0. 0. 2. 255. 1. 0. 0. 0. 4. 0. 0. 0. 0. 2. 2.
      0. 0. 2. 0. 3. 0. 1. 0. 2. 0. 3. 0. 253. 253. 255. 255. 0. 2. 2.
      1. 0. 1. 0. 0. 0. 0. 2. 0. 254. 0. 0. 0. 1. 0. 1. 2. 1. 1. 0. 0.
      255. 255. 0. 0. 1. 2. 0. 0. 2. 1. 0. 0. 255. 255. 251. 3. 2. 0. 0.
      1. 2. 0. 1. 0. 0. 0. 0. 0. 1. 2. 0. 2. 0. 0. 0. 0. 0. 1. 1. 255.
      254. 254. 1. 0. 0. 0. 3. 253. 255. 253. 255. 254. 255. 255. 255.
      0. 0. 3. 0. 0. 0. 0. 0. 1. 0. 1. 0. 0. 0.</_>
    <_>
      0. 1. 2. 0. 0. 1. 0. 0. 0. 0. 0. 0. 0. 0. 0. 0. 0. 0. 0. 0. 1.
      255. 255. 255. 0. 3. 0. 0. 1. 0. 255. 255. 254. 255. 0. 0. 0. 2.
      0. 2. 0. 0. 0. 1. 2. 0. 0. 5. 0. 0. 0. 0. 0. 0. 0. 0. 1. 0. 2. 1.
      0. 253. 255. 254. 5. 0. 1. 1. 1. 0. 255. 254. 255. 255. 0. 1. 0.
      2. 1. 0. 255. 0. 3. 1. 0. 1. 1. 0. 0. 0. 0. 0. 0. 0. 0. 0. 0. 3.
      0. 0. 1. 254. 255. 253. 0. 0. 0. 0. 0. 4. 255. 253. 253. 254. 0.
      2. 0. 0. 1. 0. 255. 0. 2. 1. 1. 0. 3. 2. 0. 0. 0. 0. 0. 0. 0. 0.
      4. 1. 0. 3. 0. 2. 254. 255. 0. 0. 4. 0. 1. 0. 254. 1. 255. 252. 2.
      1. 1. 0. 0. 0. 254. 2. 0. 0. 0. 2. 0. 1. 0. 0. 0. 0. 0. 0. 0. 0.
      0. 0. 5. 0. 0. 0. 255. 254. 0. 3. 0. 0. 0. 1. 255. 0. 253. 255. 0.
      1. 0. 1. 1. 255. 255. 0. 2. 0. 2. 0. 4. 1. 0. 0. 0. 0. 0. 0. 0. 0.
      2. 6. 0. 0. 0. 0. 254. 255. 0. 1. 0. 1. 4. 0. 253. 1. 255. 255. 1.
      0. 1. 1. 0. 255. 255. 0. 0. 0. 0. 1. 0. 0. 0. 0. 0. 0. 0. 0. 0. 0.
      0. 0. 0. 0. 2. 1. 1. 254. 0. 0. 1. 0. 0. 253. 255. 0. 254. 254. 0.
      1. 0. 0. 0. 255. 255. 0. 0. 2. 0. 0. 2. 1. 0. 0. 0. 0. 0. 0. 0. 0.
      1. 0. 1. 0. 0. 0. 255. 255. 0. 2. 1. 0. 2. 253. 255. 0. 255. 255.
      0. 2. 0. 0. 3. 253. 255. 0. 0. 0. 0. 0. 0. 0. 0. 0. 0. 0. 0. 0. 0.
      0. 0. 0. 0. 0. 0. 0. 0. 255. 1. 1. 0. 1. 0. 255. 255. 0. 255. 255.
      0. 1. 0. 0. 0. 0. 255. 0. 0. 0. 0. 0. 0. 0. 0. 0. 0. 0. 0. 0. 0.
      0. 0. 0. 0. 0. 0. 0. 0. 255. 0. 0. 1. 1. 0. 253. 255. 0. 255. 255.
      0. 1. 0. 0. 0. 0. 255. 0. 0. 0. 0. 0. 0. 0. 0. 0. 0. 0. 0. 0. 0.
      0. 0. 0. 0. 0. 0. 0. 0. 255. 0. 4. 1. 0. 3. 255. 253. 2. 255. 255.
      0. 1. 0. 0. 0. 0. 255. 0. 0. 0. 0. 0. 0. 0. 0. 0. 0. 0. 0. 0. 0.
      0. 0. 0. 0. 0. 0. 0. 0. 255. 0. 1. 0. 0. 0. 253. 255. 0. 255. 255.
      0. 1. 0. 0. 0. 0. 255. 0. 0. 0. 0. 0. 0. 0. 0. 0. 0. 0. 0. 0. 0.
      0. 0. 0. 0. 0. 0. 0. 0. 255. 3. 0. 0. 1. 4. 255. 255. 0. 255. 255.
      0. 1. 0. 0. 0. 0. 255. 0. 0. 0. 0. 0. 0. 0. 0. 0. 0. 0. 0. 0. 0.
      0. 0. 0. 0. 0. 0. 0. 0. 255. 0. 3. 3. 1. 0. 254. 254. 0. 255. 255.
      0. 1. 0. 0. 0. 0. 255. 0. 0. 0. 0. 0. 0. 0. 0. 0. 0. 0. 0. 0. 0.
      0. 0. 0. 0. 0. 0. 0. 0. 255. 0. 0. 0. 1. 255. 255. 255. 0. 255.
      255. 0. 1. 0. 0. 0. 0. 255. 0. 0. 0. 0. 0. 0. 0. 0. 0. 0. 0. 0. 0.
      0. 0. 0. 0. 0. 0. 0. 0. 0. 255. 0. 3. 0. 1. 255. 253. 0. 0. 255.
      255. 0. 1. 0. 0. 0. 0. 255. 0. 0. 0. 0. 0. 0. 0. 0. 0. 0. 0. 0. 0.
      0. 0. 0. 0. 0. 0. 0. 0. 0. 255. 0. 1. 0. 0. 254. 255. 0. 1. 255.
      255. 0. 0. 0. 0. 1. 0. 255. 0. 0. 0. 0. 0. 0. 0. 0. 0. 0. 0. 0. 0.
      0. 0. 0. 0. 0. 0. 0. 0. 0. 255. 0. 1. 0. 0. 255. 255. 5. 0. 254.
      255. 4. 0. 1. 3. 0. 0. 255. 0. 0. 0. 0. 0. 0. 0. 0. 0. 0. 0. 0. 0.
      0. 0. 0. 0. 0. 0. 0. 0. 0. 255. 2. 0. 1. 0. 253. 255. 0. 2. 255.
      253. 0. 0. 1. 0. 0. 3. 255. 0. 0. 0. 0. 0. 0. 0. 0. 0. 0. 0. 0. 0.
      0. 0. 0. 0. 0. 0. 0. 0. 0. 255. 0. 0. 0. 2. 254. 255. 0. 2. 0.
      255. 1. 0. 1. 0. 0. 1. 255. 0. 0. 0. 0. 0. 0. 0. 0. 0. 0. 0. 0. 0.
      0. 0. 0. 0. 0. 0. 0. 0. 0. 255. 1. 0. 3. 0. 255. 255. 0. 0. 2.
      251. 0. 0. 0. 1. 4. 0. 255. 0. 0. 0. 0. 0. 0. 0. 0. 0. 0. 0. 0. 0.
      0. 0. 0. 0. 0. 0. 0. 0. 0. 255. 0. 0. 0. 4. 251. 254. 2. 0. 0.
      255. 0. 3. 0. 1. 0. 3. 255. 0. 0. 0. 0. 0. 0. 0. 0. 0. 0. 0. 0. 0.
      0. 0. 0. 0. 0. 0. 0. 0. 0. 255. 1. 0. 1. 0. 254. 255. 2. 0. 0.
      255. 0. 0. 4. 0. 4. 0. 255. 0. 0. 0. 0. 0. 0. 0. 0. 0. 0. 0. 0. 0.
      0. 0. 0. 0. 0. 0. 0. 0. 0. 255. 255. 0. 0. 0. 255. 255. 0. 1. 0.
      255. 1. 0. 0. 1. 0. 0. 255. 0. 0. 0. 0. 0. 0. 0. 0. 0. 0. 0. 0. 0.
      0. 0. 0. 0. 0. 0. 0. 0. 0. 255. 0. 0. 1. 0. 255. 255. 255. 255. 0.
      255. 0. 0. 2. 0. 3. 0. 255. 0. 0. 0. 0. 0. 0. 0. 0. 0. 0. 0. 0. 0.
      0. 0. 0. 0. 0. 0. 0. 0. 0. 255. 0. 0. 0. 2. 255. 255. 253. 255.
      255. 255. 255. 0. 1. 0. 0. 3. 255. 0. 0. 0. 0. 0. 0. 0. 0. 0. 0.
      0. 0. 0. 0. 0. 0. 0. 0. 0. 0. 0. 0. 255. 2. 0. 0. 1. 254. 253.
      255. 253. 255. 252. 255. 0. 0. 3. 2. 0. 255. 0. 0. 0. 0. 0. 0. 0.
      0. 0. 0. 0. 0. 0. 0. 0. 0. 0. 0. 0. 0. 0. 0. 255. 0. 0. 4. 0. 255.
      255. 253. 255. 255. 255. 253. 255. 0. 0. 0. 1. 255. 0. 0. 0. 0. 0.
      0. 0. 0. 0. 0. 0. 0. 0. 0. 0. 0. 0. 0. 0. 0. 0. 0. 255. 255. 0. 0.
      3. 255. 254. 255. 255. 255. 250. 255. 254. 0. 0. 0. 0. 255. 0. 0.
      0. 0. 0. 0. 0. 0. 0. 0. 0. 0. 0. 0. 0. 0. 0. 0. 0. 0. 0. 0. 255.
      254. 0. 5. 0. 255. 255. 255. 254. 255. 255. 255. 255. 0. 1. 3. 0.
      255. 0. 0. 0. 0. 0. 0. 0. 0. 0. 0. 0. 0. 0. 0. 0. 0. 0. 0. 0. 0.
      0. 0. 255. 0. 0. 0. 0. 255. 255. 253. 255. 255. 252. 254. 255. 0.
      1. 1. 0. 255. 0. 0. 0. 0. 0. 0. 0. 0. 0. 0. 0. 0. 0. 0. 0. 0. 0.
      0. 0. 0. 0. 0. 255. 0. 2. 0. 0. 255. 254. 255. 254. 255. 255. 255.
      254. 5. 0. 0. 1. 255. 0. 0. 2. 0. 0. 2. 1. 0. 0. 0. 0. 0. 0. 0. 0.
      0. 0. 0. 0. 0. 0. 0. 0. 1. 0. 0. 2. 0. 0. 1. 255. 255. 255. 255.
      255. 0. 0. 1. 0. 255. 0. 0. 0. 0. 1. 0. 0. 0. 0. 0. 0. 0. 0. 0. 0.
      0. 0. 0. 0. 0. 0. 0. 0. 0. 3. 1. 0. 0. 0. 1. 1. 1. 255. 254. 255.
      2. 0. 1. 0. 255. 0. 2. 0. 2. 0. 4. 1. 0. 0. 0. 0. 0. 0. 0. 0. 0.
      0. 0. 0. 0. 0. 0. 0. 0. 2. 0. 0. 4. 0. 0. 0. 0. 255. 254. 255. 0.
      0. 0. 0. 254. 2. 0. 0. 0. 2. 0. 1. 0. 0. 0. 0. 0. 0. 0. 0. 0. 0.
      0. 0. 0. 0. 0. 0. 0. 0. 0. 1. 0. 2. 1. 1. 2. 254. 255. 0. 0. 0. 3.
      1. 255. 0. 2. 1. 1. 0. 3. 2. 0. 0. 0. 0. 0. 0. 0. 0. 0. 0. 0. 0.
      0. 0. 0. 0. 2. 0. 0. 0. 2. 0. 0. 0. 0. 255. 255. 0. 3. 0. 0. 0.
      255. 0. 3. 1. 0. 1. 1. 0. 0. 0. 0. 0. 0. 0. 0. 0. 0. 0. 0. 0. 0.
      0. 0. 0. 2. 0. 1. 0. 0. 1. 1. 2. 3. 255. 255. 0. 0. 5. 0. 0. 0. 0.
      0. 1. 2. 0. 0. 5. 0. 0. 0. 0. 0. 0. 0. 0. 0. 0. 0. 0. 0. 0. 0. 0.
      0. 5. 0. 3. 0. 0. 2. 0. 0. 253. 254. 2. 0. 0. 0. 3. 0. 1. 2. 0. 0.
      1. 0. 0. 0. 0. 0. 0. 0. 0. 0. 0. 0. 0. 0. 0. 0. 0. 0. 0. 1. 0. 1.
      0. 0. 0. 3. 0. 1. 254. 255. 0. 1. 0. 3. 0.</_>
    <_>
      0. 1. 2. 0. 0. 1. 0. 0. 0. 0. 0. 0. 0. 0. 0. 0. 1. 1. 0. 0. 0.
      255. 254. 255. 0. 0. 0. 2. 2. 0. 254. 0. 255. 254. 0. 0. 1. 2. 0.
      0. 0. 0. 0. 1. 2. 0. 0. 5. 0. 0. 0. 0. 0. 0. 0. 0. 0. 0. 1. 1. 1.
      255. 253. 255. 0. 1. 0. 0. 0. 254. 255. 0. 255. 255. 0. 0. 0. 0.
      0. 1. 255. 0. 3. 1. 0. 1. 1. 0. 0. 0. 0. 0. 0. 0. 0. 0. 4. 0. 1.
      0. 0. 255. 255. 251. 0. 2. 2. 1. 3. 255. 254. 1. 252. 255. 0. 0.
      2. 1. 2. 0. 255. 0. 2. 1. 1. 0. 3. 2. 0. 0. 0. 0. 0. 0. 0. 0. 0.
      3. 2. 3. 0. 255. 255. 255. 1. 0. 1. 0. 0. 254. 255. 0. 254. 255.
      2. 0. 0. 0. 0. 255. 254. 2. 0. 0. 0. 2. 0. 1. 0. 0. 0. 0. 0. 0. 0.
      0. 0. 2. 0. 0. 0. 2. 253. 255. 3. 0. 0. 0. 4. 255. 252. 0. 255.
      251. 0. 2. 1. 0. 3. 253. 255. 0. 2. 0. 2. 0. 4. 1. 0. 0. 0. 0. 0.
      0. 0. 0. 0. 1. 0. 2. 0. 1. 254. 254. 0. 1. 0. 0. 0. 255. 254. 4.
      252. 255. 0. 4. 0. 0. 0. 255. 255. 0. 0. 0. 0. 1. 0. 0. 0. 0. 0.
      0. 0. 0. 0. 0. 1. 1. 0. 0. 3. 0. 253. 255. 0. 0. 0. 1. 0. 255.
      255. 0. 255. 251. 2. 0. 2. 2. 0. 255. 255. 0. 0. 2. 0. 0. 2. 1. 0.
      0. 0. 0. 0. 0. 0. 0. 0. 1. 0. 0. 0. 255. 255. 255. 0. 0. 1. 0. 1.
      255. 255. 0. 255. 255. 0. 1. 1. 0. 0. 255. 255. 0. 0. 0. 0. 0. 0.
      0. 0. 0. 0. 0. 0. 0. 0. 0. 0. 0. 0. 0. 1. 0. 255. 255. 2. 0. 0. 0.
      1. 254. 255. 0. 255. 253. 0. 2. 0. 0. 0. 255. 255. 0. 0. 0. 0. 0.
      0. 0. 0. 0. 0. 0. 0. 0. 0. 0. 0. 0. 0. 0. 1. 0. 255. 255. 0. 5. 0.
      2. 0. 253. 0. 1. 254. 255. 0. 0. 0. 1. 1. 1. 255. 0. 0. 0. 0. 0.
      0. 0. 0. 0. 0. 0. 0. 0. 0. 0. 0. 0. 0. 0. 1. 0. 255. 255. 0. 0. 0.
      0. 0. 255. 0. 1. 254. 255. 0. 0. 4. 0. 0. 0. 255. 0. 0. 0. 0. 0.
      0. 0. 0. 0. 0. 0. 0. 0. 0. 0. 0. 0. 0. 0. 1. 0. 255. 255. 2. 2. 2.
      0. 255. 255. 0. 0. 254. 255. 0. 1. 0. 3. 0. 1. 255. 0. 0. 0. 0. 0.
      0. 0. 0. 0. 0. 0. 0. 0. 0. 0. 0. 0. 0. 0. 1. 0. 255. 255. 0. 0. 0.
      0. 255. 255. 3. 0. 255. 255. 0. 0. 2. 0. 0. 0. 255. 0. 0. 0. 0. 0.
      0. 0. 0. 0. 0. 0. 0. 0. 0. 0. 0. 0. 0. 0. 1. 0. 255. 255. 2. 0. 0.
      2. 255. 253. 0. 2. 255. 252. 1. 0. 0. 1. 0. 2. 255. 0. 0. 0. 0. 0.
      0. 0. 0. 0. 0. 0. 0. 0. 0. 0. 0. 0. 0. 0. 1. 0. 255. 255. 0. 1. 2.
      0. 255. 255. 0. 0. 251. 255. 0. 3. 0. 0. 2. 0. 255. 0. 0. 0. 0. 0.
      0. 0. 0. 0. 0. 0. 0. 0. 0. 0. 0. 0. 0. 0. 1. 0. 255. 255. 0. 1. 0.
      2. 253. 253. 4. 0. 255. 253. 0. 0. 0. 0. 2. 0. 255. 0. 0. 0. 0. 0.
      0. 0. 0. 0. 0. 0. 0. 0. 0. 0. 0. 0. 0. 0. 1. 0. 255. 255. 1. 0. 2.
      0. 254. 255. 0. 0. 255. 255. 0. 1. 0. 0. 0. 0. 255. 0. 0. 0. 0. 0.
      0. 0. 0. 0. 0. 0. 0. 0. 0. 0. 0. 0. 0. 0. 1. 0. 255. 255. 0. 0. 0.
      0. 253. 255. 1. 1. 255. 255. 0. 1. 0. 0. 0. 0. 255. 0. 0. 0. 0. 0.
      0. 0. 0. 0. 0. 0. 0. 0. 0. 0. 0. 0. 0. 0. 1. 0. 255. 255. 1. 1. 2.
      0. 255. 255. 0. 1. 255. 255. 0. 1. 0. 0. 0. 0. 255. 0. 0. 0. 0. 0.
      0. 0. 0. 0. 0. 0. 0. 0. 0. 0. 0. 0. 0. 0. 1. 0. 255. 255. 0. 0. 0.
      5. 251. 0. 1. 1. 255. 255. 0. 1. 0. 0. 0. 0. 255. 0. 0. 0. 0. 0.
      0. 0. 0. 0. 0. 0. 0. 0. 0. 0. 0. 0. 0. 0. 1. 0. 255. 255. 0. 0. 0.
      0. 255. 254. 3. 0. 255. 255. 0. 1. 0. 0. 0. 0. 255. 0. 0. 0. 0. 0.
      0. 0. 0. 0. 0. 0. 0. 0. 0. 0. 0. 0. 0. 0. 1. 0. 255. 255. 0. 1. 0.
      0. 254. 0. 0. 1. 255. 255. 0. 1. 0. 0. 0. 0. 255. 0. 0. 0. 0. 0.
      0. 0. 0. 0. 0. 0. 0. 0. 0. 0. 0. 0. 0. 0. 1. 0. 255. 255. 0. 0. 0.
      0. 253. 5. 0. 2. 255. 255. 0. 1. 0. 0. 0. 0. 255. 0. 0. 0. 0. 0.
      0. 0. 0. 0. 0. 0. 0. 0. 0. 0. 0. 0. 0. 0. 1. 0. 255. 255. 0. 1. 0.
      255. 255. 253. 0. 0. 255. 255. 0. 1. 0. 0. 0. 0. 255. 0. 0. 0. 0.
      0. 0. 0. 0. 0. 0. 0. 0. 0. 0. 0. 1. 0. 1. 1. 0. 1. 255. 255. 0. 0.
      2. 254. 255. 254. 255. 1. 254. 255. 0. 1. 0. 0. 1. 0. 255. 0. 0.
      0. 0. 0. 0. 0. 0. 0. 0. 0. 0. 0. 0. 0. 0. 1. 0. 0. 1. 0. 255. 254.
      2. 0. 0. 255. 255. 254. 255. 251. 255. 255. 0. 1. 0. 0. 0. 1. 255.
      0. 0. 0. 0. 0. 0. 0. 0. 0. 0. 0. 0. 0. 0. 0. 0. 2. 0. 2. 0. 0.
      255. 255. 0. 1. 0. 0. 255. 255. 255. 255. 253. 255. 0. 0. 1. 0. 2.
      0. 255. 0. 0. 0. 0. 0. 0. 0. 0. 0. 0. 0. 0. 0. 0. 0. 0. 0. 0. 1.
      2. 1. 253. 254. 0. 2. 0. 255. 255. 255. 254. 251. 255. 253. 255.
      0. 0. 0. 0. 1. 255. 0. 0. 0. 0. 0. 0. 0. 0. 0. 0. 0. 0. 0. 0. 0.
      0. 1. 1. 0. 0. 0. 2. 255. 0. 2. 0. 255. 255. 254. 254. 255. 254.
      255. 248. 2. 0. 3. 2. 1. 255. 0. 0. 0. 0. 0. 0. 0. 0. 0. 0. 0. 0.
      0. 0. 0. 0. 0. 0. 0. 2. 0. 0. 254. 0. 0. 3. 253. 255. 255. 254.
      253. 254. 255. 255. 255. 0. 0. 2. 0. 255. 0. 0. 0. 0. 0. 0. 0. 0.
      0. 0. 0. 0. 0. 0. 0. 0. 0. 0. 3. 0. 0. 0. 255. 3. 0. 0. 255. 255.
      255. 253. 255. 255. 250. 253. 255. 0. 2. 2. 1. 255. 0. 0. 0. 0. 0.
      0. 0. 0. 0. 0. 0. 0. 0. 0. 0. 0. 2. 0. 0. 2. 0. 0. 255. 0. 2. 2.
      0. 255. 255. 255. 255. 254. 255. 255. 253. 2. 2. 0. 1. 255. 0. 0.
      2. 0. 0. 2. 1. 0. 0. 0. 1. 0. 1. 1. 0. 1. 0. 0. 2. 0. 0. 1. 255.
      0. 2. 0. 2. 254. 254. 255. 253. 254. 255. 254. 255. 0. 0. 0. 1.
      255. 0. 0. 0. 0. 1. 0. 0. 1. 255. 0. 2. 0. 0. 0. 5. 0. 3. 1. 0. 0.
      0. 1. 1. 2. 0. 1. 0. 4. 0. 2. 255. 255. 255. 255. 254. 2. 0. 0. 0.
      255. 0. 2. 0. 2. 0. 4. 1. 0. 0. 3. 0. 0. 0. 0. 0. 0. 2. 0. 0. 4.
      0. 0. 0. 1. 0. 0. 2. 0. 1. 0. 1. 254. 253. 254. 255. 0. 0. 1. 0.
      254. 2. 0. 0. 0. 2. 0. 1. 0. 3. 0. 2. 3. 0. 3. 0. 0. 0. 0. 1. 0.
      2. 1. 1. 1. 3. 2. 0. 1. 1. 1. 0. 255. 255. 255. 253. 0. 0. 0. 1.
      255. 0. 2. 1. 1. 0. 3. 2. 2. 0. 1. 0. 0. 0. 4. 0. 2. 0. 0. 0. 2.
      0. 0. 0. 0. 0. 0. 0. 0. 0. 0. 3. 252. 255. 0. 1. 0. 0. 1. 0. 255.
      0. 3. 1. 0. 1. 1. 0. 0. 1. 0. 0. 2. 2. 0. 2. 2. 0. 1. 0. 0. 1. 1.
      2. 0. 0. 0. 3. 1. 0. 1. 0. 255. 255. 0. 0. 2. 0. 0. 2. 0. 0. 0. 1.
      2. 0. 0. 5. 0. 3. 0. 1. 0. 1. 1. 0. 0. 5. 0. 3. 0. 0. 2. 0. 0. 3.
      1. 0. 0. 4. 0. 2. 254. 255. 0. 1. 0. 0. 1. 0. 0. 1. 2. 0. 0. 1. 0.
      0. 2. 0. 0. 1. 255. 0. 1. 0. 1. 0. 1. 0. 0. 0. 3. 0. 1. 0. 0. 2.
      0. 1. 3. 0. 255. 254. 0. 0. 1. 0. 2. 0.</_>
    <_>
      0. 0. 2. 0. 2. 0. 0. 2. 0. 0. 0. 0. 0. 0. 0. 0. 0. 0. 2. 0. 2.
      254. 255. 254. 0. 1. 2. 0. 0. 0. 255. 255. 254. 255. 0. 0. 0. 1.
      0. 3. 1. 1. 0. 0. 0. 0. 5. 0. 0. 0. 0. 0. 0. 0. 0. 0. 0. 2. 1. 0.
      0. 255. 255. 255. 2. 0. 0. 1. 0. 5. 253. 255. 255. 250. 0. 0. 1.
      1. 1. 0. 254. 0. 3. 4. 1. 2. 0. 1. 0. 0. 0. 0. 0. 0. 0. 0. 0. 1.
      0. 1. 4. 254. 254. 255. 0. 0. 2. 0. 1. 0. 255. 0. 254. 255. 2. 2.
      0. 3. 0. 1. 255. 0. 0. 0. 2. 0. 2. 1. 0. 0. 0. 0. 0. 0. 0. 0. 2.
      0. 2. 1. 0. 0. 255. 252. 0. 1. 0. 2. 0. 2. 254. 0. 255. 255. 0. 0.
      0. 0. 3. 0. 254. 0. 1. 3. 0. 0. 2. 0. 0. 0. 0. 0. 0. 0. 0. 0. 3.
      0. 0. 0. 1. 2. 255. 255. 0. 0. 0. 0. 1. 0. 255. 0. 253. 255. 0. 1.
      1. 0. 1. 255. 255. 0. 2. 0. 3. 0. 1. 3. 0. 0. 0. 0. 0. 0. 0. 0. 0.
      1. 4. 0. 0. 0. 255. 255. 0. 3. 0. 0. 0. 0. 254. 1. 255. 255. 0. 4.
      0. 0. 2. 253. 255. 255. 1. 0. 0. 1. 1. 0. 0. 0. 0. 0. 0. 0. 0. 0.
      4. 0. 0. 0. 0. 3. 1. 255. 0. 0. 0. 2. 0. 255. 255. 0. 255. 252. 0.
      0. 2. 0. 0. 255. 254. 1. 0. 3. 1. 0. 1. 2. 0. 0. 0. 0. 0. 0. 0. 0.
      0. 0. 1. 0. 1. 1. 0. 255. 3. 0. 1. 0. 0. 254. 255. 0. 254. 255. 0.
      0. 1. 0. 2. 0. 255. 0. 0. 0. 0. 0. 0. 0. 0. 0. 0. 0. 0. 0. 0. 0.
      0. 0. 0. 0. 0. 0. 0. 255. 0. 0. 0. 1. 0. 255. 253. 2. 255. 255. 0.
      1. 0. 0. 0. 0. 255. 0. 0. 0. 0. 0. 0. 0. 0. 0. 0. 0. 0. 0. 0. 0.
      0. 0. 0. 0. 0. 0. 0. 255. 1. 3. 0. 2. 3. 252. 255. 0. 255. 255. 0.
      1. 0. 0. 0. 0. 255. 0. 0. 0. 0. 0. 0. 0. 0. 0. 0. 0. 0. 0. 0. 0.
      0. 0. 0. 0. 0. 0. 0. 255. 0. 0. 0. 2. 0. 255. 252. 1. 255. 255. 0.
      1. 0. 0. 0. 0. 255. 0. 0. 0. 0. 0. 0. 0. 0. 0. 0. 0. 0. 0. 0. 0.
      0. 0. 0. 0. 0. 0. 0. 255. 2. 3. 0. 0. 0. 253. 255. 0. 255. 255. 0.
      1. 0. 0. 0. 0. 255. 0. 0. 0. 0. 0. 0. 0. 0. 0. 0. 0. 0. 0. 0. 0.
      0. 0. 0. 0. 0. 0. 0. 255. 1. 0. 0. 4. 2. 252. 255. 0. 255. 255. 0.
      1. 0. 0. 0. 0. 255. 0. 0. 0. 0. 0. 0. 0. 0. 0. 0. 0. 0. 0. 0. 0.
      0. 0. 0. 0. 0. 0. 0. 255. 0. 3. 1. 0. 0. 255. 253. 2. 255. 255. 0.
      1. 0. 0. 0. 0. 255. 0. 0. 0. 0. 0. 0. 0. 0. 0. 0. 0. 0. 0. 0. 0.
      0. 0. 0. 0. 0. 0. 0. 255. 0. 0. 0. 0. 1. 255. 0. 1. 255. 255. 0.
      1. 0. 0. 0. 0. 255. 0. 0. 0. 0. 0. 0. 0. 0. 0. 0. 0. 0. 0. 0. 0.
      0. 0. 0. 0. 0. 0. 0. 255. 1. 0. 1. 0. 255. 252. 1. 0. 255. 255. 0.
      1. 0. 0. 0. 0. 255. 0. 0. 0. 0. 0. 0. 0. 0. 0. 0. 0. 0. 0. 0. 0.
      0. 0. 0. 0. 0. 0. 0. 255. 0. 2. 1. 0. 253. 255. 2. 0. 255. 253. 0.
      1. 0. 0. 1. 2. 255. 0. 0. 0. 0. 0. 0. 0. 0. 0. 0. 0. 0. 0. 0. 0.
      0. 0. 0. 0. 0. 0. 0. 255. 254. 0. 0. 0. 255. 254. 0. 1. 255. 255.
      5. 0. 0. 0. 4. 0. 255. 0. 0. 0. 0. 0. 0. 0. 0. 0. 0. 0. 0. 0. 0.
      0. 0. 0. 0. 0. 0. 0. 0. 255. 1. 1. 3. 0. 255. 255. 0. 2. 0. 255.
      0. 0. 4. 0. 0. 3. 255. 0. 0. 0. 0. 0. 0. 0. 0. 0. 0. 0. 0. 0. 0.
      0. 0. 0. 0. 0. 0. 0. 0. 255. 0. 0. 0. 1. 254. 255. 1. 2. 0. 255.
      0. 0. 0. 0. 0. 0. 255. 0. 0. 0. 0. 0. 0. 0. 0. 0. 0. 0. 0. 0. 0.
      0. 0. 0. 0. 0. 0. 0. 0. 255. 0. 3. 0. 0. 255. 255. 1. 0. 1. 253.
      2. 1. 1. 0. 5. 0. 255. 0. 0. 0. 0. 0. 0. 0. 0. 0. 0. 0. 0. 0. 0.
      0. 0. 0. 0. 0. 0. 0. 0. 255. 0. 1. 0. 6. 253. 254. 2. 0. 0. 255.
      0. 1. 0. 2. 0. 0. 255. 0. 0. 0. 0. 0. 0. 0. 0. 0. 0. 0. 0. 0. 0.
      0. 0. 0. 0. 0. 0. 0. 0. 255. 255. 0. 0. 0. 255. 255. 0. 3. 0. 254.
      1. 0. 0. 0. 1. 2. 255. 0. 0. 0. 0. 0. 0. 0. 0. 0. 0. 0. 0. 0. 0.
      0. 0. 0. 0. 0. 0. 0. 0. 255. 255. 0. 0. 0. 255. 254. 2. 0. 0. 254.
      1. 0. 1. 1. 0. 0. 255. 0. 0. 0. 0. 0. 0. 0. 0. 0. 0. 0. 0. 0. 0.
      0. 0. 0. 0. 0. 0. 0. 0. 255. 0. 0. 0. 1. 255. 255. 255. 255. 255.
      254. 1. 3. 0. 0. 1. 0. 255. 0. 0. 0. 0. 0. 0. 0. 0. 0. 0. 0. 0. 0.
      0. 0. 0. 0. 0. 0. 0. 0. 0. 255. 1. 0. 2. 0. 255. 255. 252. 255.
      254. 255. 251. 0. 3. 0. 0. 0. 255. 0. 0. 0. 0. 0. 0. 0. 0. 0. 0.
      0. 0. 0. 0. 0. 0. 0. 0. 0. 0. 0. 0. 255. 0. 0. 1. 2. 255. 252.
      254. 255. 255. 255. 255. 0. 0. 2. 0. 0. 255. 0. 0. 0. 0. 0. 0. 0.
      0. 0. 0. 0. 0. 0. 0. 0. 0. 0. 0. 0. 0. 0. 0. 255. 255. 0. 0. 0.
      255. 255. 255. 253. 255. 252. 255. 254. 0. 1. 2. 0. 255. 0. 0. 0.
      0. 0. 0. 0. 0. 0. 0. 0. 0. 0. 0. 0. 0. 0. 0. 0. 0. 0. 0. 255. 255.
      0. 0. 0. 255. 255. 255. 253. 255. 255. 255. 255. 4. 0. 0. 0. 255.
      0. 0. 0. 0. 0. 0. 0. 0. 0. 0. 0. 0. 0. 0. 0. 0. 0. 0. 0. 0. 0. 0.
      255. 0. 0. 1. 2. 255. 252. 254. 255. 254. 253. 254. 255. 0. 1. 0.
      2. 255. 0. 0. 0. 0. 0. 0. 0. 0. 0. 0. 0. 0. 0. 0. 0. 0. 0. 0. 0.
      0. 0. 0. 255. 1. 0. 2. 0. 255. 255. 252. 255. 255. 255. 255. 255.
      0. 1. 0. 0. 255. 0. 0. 0. 0. 0. 0. 0. 0. 0. 0. 0. 0. 0. 0. 0. 0.
      0. 0. 0. 0. 0. 0. 255. 0. 0. 0. 1. 255. 255. 255. 255. 254. 255.
      253. 255. 0. 0. 2. 0. 255. 0. 0. 2. 0. 0. 2. 1. 0. 1. 0. 0. 1. 1.
      0. 2. 0. 0. 0. 0. 0. 0. 0. 0. 0. 0. 0. 0. 0. 0. 0. 0. 255. 255.
      255. 255. 0. 0. 1. 0. 255. 0. 0. 0. 0. 1. 0. 0. 0. 0. 3. 1. 0. 0.
      0. 0. 0. 0. 0. 0. 0. 0. 0. 0. 0. 0. 0. 0. 0. 0. 0. 0. 1. 255. 254.
      255. 2. 0. 1. 0. 255. 0. 2. 0. 2. 0. 4. 1. 1. 0. 3. 0. 0. 6. 0. 0.
      0. 0. 0. 0. 0. 0. 0. 0. 0. 0. 0. 0. 0. 0. 0. 0. 0. 255. 254. 255.
      0. 0. 0. 0. 254. 2. 0. 0. 0. 2. 0. 1. 1. 1. 1. 1. 0. 0. 0. 1. 0.
      0. 0. 0. 0. 0. 0. 0. 0. 0. 0. 0. 0. 0. 0. 0. 2. 254. 255. 0. 0. 0.
      3. 1. 255. 0. 2. 1. 1. 0. 3. 2. 0. 1. 0. 253. 2. 1. 0. 2. 0. 0. 0.
      0. 0. 0. 0. 0. 0. 0. 0. 0. 0. 0. 0. 0. 0. 255. 255. 0. 3. 0. 0. 0.
      255. 0. 3. 1. 0. 1. 1. 0. 0. 3. 1. 0. 0. 1. 0. 1. 0. 0. 0. 0. 0.
      0. 0. 0. 0. 0. 0. 0. 0. 0. 0. 0. 3. 255. 255. 0. 0. 5. 0. 0. 0. 0.
      0. 1. 2. 0. 0. 5. 0. 0. 4. 0. 1. 0. 3. 0. 0. 0. 0. 0. 0. 0. 0. 0.
      0. 0. 0. 0. 0. 0. 0. 0. 0. 253. 254. 2. 0. 0. 0. 3. 0. 1. 2. 0. 0.
      1. 0. 0. 1. 1. 0. 0. 2. 0. 0. 1. 0. 0. 0. 0. 0. 0. 0. 0. 0. 0. 0.
      0. 0. 0. 0. 0. 1. 254. 255. 0. 1. 0. 3. 0.</_>
    <_>
      0. 1. 2. 0. 0. 1. 0. 0. 0. 0. 0. 0. 0. 0. 0. 0. 1. 0. 3. 0. 0.
      254. 255. 254. 2. 0. 0. 1. 0. 3. 255. 255. 254. 255. 0. 0. 0. 1.
      0. 3. 0. 0. 0. 1. 2. 0. 0. 5. 0. 0. 0. 0. 0. 0. 0. 0. 0. 0. 0. 0.
      0. 255. 254. 255. 0. 2. 1. 0. 1. 0. 255. 255. 255. 250. 0. 0. 1.
      1. 1. 0. 255. 0. 3. 1. 0. 1. 1. 0. 0. 0. 0. 0. 0. 0. 0. 0. 3. 0.
      3. 0. 5. 0. 255. 254. 3. 0. 0. 2. 0. 0. 255. 253. 254. 255. 2. 2.
      0. 3. 0. 1. 255. 0. 2. 1. 1. 0. 3. 2. 0. 0. 0. 0. 0. 0. 0. 0. 0.
      0. 1. 0. 0. 2. 255. 255. 0. 1. 1. 0. 0. 0. 255. 1. 255. 255. 0. 0.
      0. 0. 3. 0. 254. 2. 0. 0. 0. 2. 0. 1. 0. 0. 0. 0. 0. 0. 0. 0. 0.
      3. 1. 1. 1. 0. 254. 255. 0. 0. 2. 0. 2. 2. 254. 0. 253. 255. 0. 1.
      1. 0. 1. 255. 255. 0. 2. 0. 2. 0. 4. 1. 0. 0. 0. 0. 0. 0. 0. 0. 1.
      0. 0. 1. 0. 1. 5. 250. 0. 2. 0. 0. 0. 0. 255. 0. 255. 255. 0. 4.
      0. 0. 2. 253. 255. 0. 0. 0. 0. 1. 0. 0. 0. 0. 0. 0. 0. 0. 0. 0. 2.
      0. 0. 0. 2. 0. 0. 255. 255. 0. 2. 0. 0. 255. 254. 3. 255. 252. 0.
      0. 2. 0. 0. 255. 255. 0. 0. 2. 0. 0. 2. 1. 0. 0. 0. 0. 0. 0. 0. 0.
      0. 0. 2. 1. 0. 1. 1. 254. 2. 0. 0. 0. 0. 255. 253. 0. 254. 255. 0.
      0. 1. 0. 2. 0. 255. 0. 1. 0. 0. 3. 1. 0. 0. 0. 0. 0. 0. 0. 0. 0.
      0. 0. 0. 0. 0. 0. 0. 255. 0. 0. 1. 2. 0. 255. 252. 2. 254. 255. 0.
      2. 0. 0. 2. 1. 253. 0. 0. 0. 1. 0. 2. 0. 0. 0. 0. 0. 0. 0. 0. 0.
      0. 0. 0. 0. 0. 0. 0. 255. 0. 3. 0. 0. 0. 255. 255. 0. 254. 255. 0.
      0. 0. 2. 0. 0. 255. 1. 0. 0. 0. 1. 0. 3. 0. 0. 0. 0. 0. 0. 0. 0.
      0. 0. 0. 0. 0. 0. 0. 255. 1. 0. 2. 2. 0. 255. 253. 3. 255. 254. 2.
      0. 1. 0. 3. 1. 254. 252. 4. 0. 4. 0. 1. 0. 0. 0. 0. 0. 0. 0. 0. 0.
      0. 0. 0. 0. 0. 0. 0. 255. 255. 0. 1. 0. 2. 254. 255. 2. 254. 255.
      0. 0. 0. 2. 0. 1. 254. 2. 0. 0. 0. 0. 1. 2. 0. 0. 0. 0. 0. 0. 0.
      0. 0. 0. 0. 0. 0. 0. 0. 255. 255. 2. 0. 4. 3. 255. 254. 0. 255.
      250. 1. 1. 1. 0. 2. 1. 255. 0. 0. 2. 2. 0. 0. 0. 0. 0. 0. 0. 0. 0.
      0. 0. 0. 0. 0. 0. 0. 0. 0. 255. 254. 0. 0. 1. 0. 255. 255. 0. 255.
      255. 2. 1. 0. 1. 0. 0. 252. 0. 3. 0. 0. 0. 1. 2. 0. 0. 0. 0. 0. 0.
      0. 0. 0. 0. 0. 0. 0. 0. 0. 255. 255. 2. 0. 0. 3. 254. 1. 0. 0.
      255. 0. 1. 2. 1. 0. 5. 255. 0. 0. 0. 0. 1. 0. 0. 0. 0. 0. 0. 0. 0.
      0. 0. 0. 0. 0. 0. 0. 0. 0. 255. 254. 0. 0. 2. 0. 255. 0. 1. 0.
      255. 1. 0. 0. 1. 0. 0. 255. 0. 0. 0. 0. 0. 0. 0. 0. 0. 0. 0. 0. 0.
      0. 0. 0. 0. 0. 0. 0. 0. 0. 255. 255. 0. 4. 0. 0. 255. 0. 0. 2.
      254. 0. 3. 1. 0. 0. 0. 255. 0. 0. 0. 0. 0. 0. 0. 0. 0. 0. 0. 0. 0.
      0. 0. 0. 0. 0. 0. 0. 0. 0. 255. 255. 0. 0. 3. 1. 253. 2. 0. 0.
      254. 6. 0. 0. 0. 0. 1. 255. 0. 0. 0. 0. 0. 0. 0. 0. 0. 0. 0. 0. 0.
      0. 0. 0. 0. 0. 0. 0. 0. 0. 255. 253. 2. 3. 0. 255. 255. 0. 0. 0.
      255. 250. 3. 1. 0. 0. 3. 255. 0. 0. 0. 0. 0. 0. 0. 0. 0. 0. 0. 0.
      0. 0. 0. 0. 0. 0. 0. 0. 0. 0. 255. 255. 0. 0. 0. 255. 253. 0. 2.
      0. 255. 2. 0. 0. 1. 1. 0. 255. 0. 0. 0. 0. 0. 0. 0. 0. 0. 0. 0. 0.
      0. 0. 0. 0. 0. 0. 0. 0. 0. 0. 255. 255. 0. 1. 1. 254. 255. 1. 0.
      0. 255. 255. 0. 0. 1. 0. 2. 255. 0. 0. 0. 0. 0. 0. 0. 0. 0. 0. 0.
      0. 0. 0. 0. 0. 0. 0. 0. 0. 0. 0. 255. 254. 4. 0. 0. 255. 255. 0.
      2. 0. 255. 0. 0. 1. 0. 2. 1. 255. 0. 0. 0. 0. 0. 0. 0. 0. 0. 0. 0.
      0. 0. 0. 0. 0. 0. 0. 0. 0. 0. 0. 255. 255. 0. 2. 0. 255. 254. 2.
      0. 1. 254. 0. 0. 1. 0. 0. 0. 255. 0. 0. 0. 0. 0. 0. 0. 0. 0. 0. 0.
      0. 0. 0. 0. 0. 0. 0. 0. 0. 0. 0. 255. 255. 0. 0. 0. 254. 254. 255.
      255. 254. 254. 255. 0. 1. 0. 0. 1. 255. 0. 0. 0. 0. 0. 0. 0. 0. 0.
      0. 0. 0. 0. 0. 0. 1. 2. 0. 0. 2. 0. 0. 255. 254. 4. 0. 0. 255.
      255. 253. 255. 254. 255. 255. 0. 1. 0. 0. 0. 255. 0. 0. 0. 0. 0.
      0. 0. 0. 0. 0. 0. 0. 0. 0. 0. 0. 0. 1. 0. 0. 0. 0. 255. 254. 0. 3.
      0. 255. 253. 255. 254. 255. 252. 253. 4. 0. 0. 0. 1. 255. 0. 0. 0.
      0. 0. 0. 0. 0. 0. 0. 0. 0. 0. 0. 0. 1. 4. 0. 2. 0. 2. 0. 255. 255.
      1. 0. 2. 254. 255. 255. 255. 255. 255. 255. 253. 0. 0. 2. 0. 255.
      0. 0. 0. 0. 0. 0. 0. 0. 0. 0. 0. 0. 0. 0. 0. 1. 0. 2. 0. 0. 0. 2.
      254. 255. 1. 1. 0. 255. 255. 252. 255. 253. 254. 253. 255. 0. 0.
      1. 3. 255. 0. 0. 0. 0. 0. 0. 0. 0. 0. 0. 0. 0. 0. 0. 0. 2. 3. 0.
      1. 1. 2. 0. 255. 255. 0. 3. 0. 255. 252. 254. 255. 255. 254. 254.
      255. 0. 0. 1. 0. 255. 0. 0. 0. 0. 0. 0. 0. 0. 0. 0. 0. 0. 0. 0. 0.
      0. 1. 1. 0. 1. 3. 0. 255. 255. 0. 2. 0. 253. 255. 255. 252. 254.
      254. 255. 254. 2. 2. 0. 1. 255. 0. 0. 0. 0. 0. 0. 0. 0. 0. 0. 0.
      0. 0. 0. 0. 5. 0. 0. 2. 1. 0. 0. 0. 3. 0. 0. 2. 255. 253. 253.
      255. 255. 255. 255. 255. 0. 0. 0. 0. 255. 0. 0. 0. 0. 0. 0. 0. 0.
      0. 0. 0. 0. 0. 0. 0. 0. 0. 1. 0. 0. 2. 1. 0. 0. 0. 1. 0. 0. 1. 0.
      0. 255. 254. 255. 255. 0. 1. 0. 0. 255. 0. 0. 2. 0. 0. 2. 1. 0. 0.
      0. 1. 0. 0. 0. 0. 0. 0. 0. 0. 0. 0. 0. 0. 0. 0. 0. 0. 0. 0. 0. 0.
      1. 253. 253. 255. 0. 0. 0. 0. 255. 0. 0. 0. 0. 1. 0. 0. 0. 0. 0.
      0. 4. 0. 1. 3. 0. 0. 0. 0. 0. 0. 0. 0. 0. 0. 0. 0. 0. 0. 0. 0. 0.
      255. 255. 251. 0. 1. 1. 0. 255. 0. 2. 0. 2. 0. 4. 1. 2. 0. 1. 0.
      1. 0. 2. 0. 0. 0. 0. 0. 0. 0. 0. 0. 0. 0. 0. 0. 0. 0. 0. 0. 1.
      253. 254. 2. 0. 0. 0. 2. 254. 2. 0. 0. 0. 2. 0. 1. 0. 2. 0. 0. 0.
      0. 4. 0. 0. 0. 0. 0. 0. 0. 0. 0. 0. 0. 0. 0. 0. 0. 0. 0. 2. 255.
      255. 0. 1. 0. 0. 0. 255. 0. 2. 1. 1. 0. 3. 2. 0. 3. 0. 0. 3. 1. 0.
      1. 0. 0. 0. 0. 0. 0. 0. 0. 0. 0. 0. 0. 0. 0. 0. 0. 0. 255. 255. 0.
      1. 1. 0. 4. 255. 0. 3. 1. 0. 1. 1. 0. 2. 0. 0. 0. 0. 0. 1. 0. 0.
      0. 0. 0. 0. 0. 0. 0. 0. 0. 0. 0. 0. 0. 0. 0. 1. 255. 254. 2. 0. 0.
      1. 0. 0. 0. 0. 1. 2. 0. 0. 5. 0. 0. 0. 3. 2. 1. 0. 0. 0. 0. 0. 0.
      0. 0. 0. 0. 0. 0. 0. 0. 0. 0. 0. 0. 0. 254. 254. 0. 2. 0. 0. 0. 0.
      1. 2. 0. 0. 1. 0. 0. 0. 0. 1. 0. 0. 255. 2. 1. 0. 0. 0. 0. 0. 0.
      0. 0. 0. 0. 0. 0. 0. 0. 0. 0. 0. 255. 254. 1. 0. 0. 2. 0.</_>
    <_>
      0. 1. 2. 0. 0. 1. 0. 0. 0. 0. 0. 0. 0. 0. 0. 0. 0. 0. 2. 0. 2.
      254. 255. 254. 0. 1. 2. 0. 0. 0. 255. 255. 255. 255. 1. 0. 1. 0.
      0. 1. 0. 0. 0. 1. 2. 0. 0. 5. 0. 0. 0. 0. 0. 0. 0. 0. 0. 2. 1. 0.
      0. 255. 255. 255. 2. 0. 0. 1. 0. 5. 253. 255. 255. 254. 1. 0. 0.
      1. 2. 0. 255. 0. 3. 1. 0. 1. 1. 0. 0. 0. 0. 0. 0. 0. 0. 0. 0. 1.
      0. 1. 4. 254. 254. 255. 0. 0. 2. 0. 1. 0. 255. 0. 253. 255. 0. 5.
      1. 0. 0. 0. 255. 0. 2. 1. 1. 0. 3. 2. 0. 0. 0. 0. 0. 0. 0. 0. 2.
      0. 2. 1. 0. 0. 255. 252. 0. 1. 0. 2. 0. 2. 254. 0. 255. 255. 1. 0.
      0. 3. 2. 255. 254. 2. 0. 0. 0. 2. 0. 1. 0. 0. 0. 0. 0. 0. 0. 0. 3.
      0. 0. 0. 1. 2. 255. 255. 0. 0. 0. 0. 1. 0. 255. 0. 253. 255. 0. 4.
      0. 0. 0. 255. 255. 0. 2. 0. 2. 0. 4. 1. 0. 0. 0. 0. 0. 0. 0. 0. 0.
      1. 4. 0. 0. 0. 255. 255. 0. 3. 0. 0. 0. 0. 254. 1. 255. 254. 0. 0.
      4. 1. 0. 255. 255. 0. 0. 0. 0. 1. 0. 0. 0. 0. 0. 0. 0. 0. 0. 0. 4.
      0. 0. 0. 0. 3. 1. 255. 0. 0. 0. 2. 0. 255. 255. 0. 255. 255. 5. 0.
      0. 2. 0. 255. 255. 0. 0. 2. 0. 0. 2. 1. 0. 0. 0. 0. 0. 0. 0. 0. 0.
      0. 1. 0. 1. 1. 0. 255. 3. 0. 1. 0. 0. 254. 255. 0. 255. 254. 0. 2.
      0. 1. 1. 0. 255. 0. 0. 0. 0. 0. 0. 0. 0. 0. 0. 0. 0. 0. 0. 0. 0.
      0. 0. 0. 0. 0. 0. 255. 0. 1. 0. 0. 2. 253. 255. 0. 255. 255. 0. 1.
      0. 0. 0. 0. 255. 0. 0. 0. 0. 0. 0. 0. 0. 0. 0. 0. 0. 0. 0. 0. 0.
      0. 0. 0. 0. 0. 0. 255. 0. 0. 5. 1. 0. 255. 253. 1. 255. 255. 0. 1.
      0. 0. 0. 0. 255. 0. 0. 0. 0. 0. 0. 0. 0. 0. 0. 0. 0. 0. 0. 0. 0.
      0. 0. 0. 0. 0. 0. 255. 1. 0. 0. 0. 2. 254. 255. 0. 255. 255. 0. 1.
      0. 0. 0. 0. 255. 0. 0. 0. 0. 0. 0. 0. 0. 0. 0. 0. 0. 0. 0. 0. 0.
      0. 0. 0. 0. 0. 0. 255. 0. 0. 1. 1. 0. 255. 253. 2. 255. 255. 0. 1.
      0. 0. 0. 0. 255. 0. 0. 0. 0. 0. 0. 0. 0. 0. 0. 0. 0. 0. 0. 0. 0.
      0. 0. 0. 0. 0. 0. 255. 2. 0. 2. 1. 0. 254. 253. 0. 255. 255. 0. 1.
      0. 0. 0. 0. 255. 0. 0. 0. 0. 0. 0. 0. 0. 0. 0. 0. 0. 0. 0. 0. 0.
      0. 0. 0. 0. 0. 0. 255. 0. 1. 0. 0. 2. 254. 255. 2. 255. 255. 0. 1.
      0. 0. 0. 0. 255. 0. 0. 0. 0. 0. 0. 0. 0. 0. 0. 0. 0. 0. 0. 0. 0.
      0. 0. 0. 0. 0. 0. 255. 0. 1. 0. 4. 254. 255. 0. 0. 255. 255. 0. 1.
      0. 0. 0. 0. 255. 0. 0. 0. 0. 0. 0. 0. 0. 0. 0. 0. 0. 0. 0. 0. 0.
      0. 0. 0. 0. 0. 0. 255. 0. 1. 1. 0. 255. 255. 2. 0. 255. 255. 0. 1.
      0. 0. 0. 0. 255. 0. 0. 0. 0. 0. 0. 0. 0. 0. 0. 0. 0. 0. 0. 0. 0.
      0. 0. 0. 0. 0. 0. 255. 0. 0. 1. 0. 254. 255. 0. 0. 255. 255. 0. 0.
      2. 0. 0. 0. 255. 0. 0. 0. 0. 0. 0. 0. 0. 0. 0. 0. 0. 0. 0. 0. 0.
      0. 0. 0. 0. 0. 0. 255. 255. 3. 0. 1. 255. 252. 0. 2. 255. 253. 0.
      3. 0. 0. 1. 0. 255. 0. 0. 0. 0. 0. 0. 0. 0. 0. 0. 0. 0. 0. 0. 0.
      0. 0. 0. 0. 0. 0. 0. 255. 2. 0. 0. 3. 252. 255. 3. 0. 255. 255. 1.
      0. 0. 4. 0. 2. 255. 0. 0. 0. 0. 0. 0. 0. 0. 0. 0. 0. 0. 0. 0. 0.
      0. 0. 0. 0. 0. 0. 0. 255. 2. 0. 4. 0. 255. 255. 0. 3. 0. 253. 0.
      2. 2. 0. 0. 0. 255. 0. 0. 0. 0. 0. 0. 0. 0. 0. 0. 0. 0. 0. 0. 0.
      0. 0. 0. 0. 0. 0. 0. 255. 0. 4. 0. 0. 255. 255. 0. 0. 0. 255. 2.
      1. 0. 1. 0. 2. 255. 0. 0. 0. 0. 0. 0. 0. 0. 0. 0. 0. 0. 0. 0. 0.
      0. 0. 0. 0. 0. 0. 0. 255. 2. 0. 1. 0. 255. 255. 2. 0. 0. 255. 0.
      0. 2. 2. 1. 0. 255. 0. 0. 0. 0. 0. 0. 0. 0. 0. 0. 0. 0. 0. 0. 0.
      0. 0. 0. 0. 0. 0. 0. 255. 255. 0. 0. 0. 254. 253. 0. 1. 0. 255. 0.
      5. 0. 0. 0. 0. 255. 0. 0. 0. 0. 0. 0. 0. 0. 0. 0. 0. 0. 0. 0. 0.
      0. 0. 0. 0. 0. 0. 0. 255. 254. 2. 0. 0. 255. 255. 255. 255. 255.
      254. 0. 1. 0. 1. 1. 0. 255. 0. 0. 0. 0. 0. 0. 0. 0. 0. 0. 0. 0. 0.
      0. 0. 0. 2. 0. 0. 1. 0. 0. 255. 0. 0. 2. 0. 255. 255. 254. 255.
      255. 252. 0. 1. 0. 1. 0. 1. 255. 0. 0. 0. 0. 0. 0. 0. 0. 0. 0. 0.
      0. 0. 0. 0. 4. 0. 1. 0. 1. 0. 0. 255. 1. 2. 0. 0. 253. 255. 254.
      255. 255. 255. 255. 0. 0. 3. 0. 2. 255. 0. 0. 0. 0. 0. 0. 0. 0. 0.
      0. 0. 0. 0. 0. 0. 0. 4. 0. 1. 3. 0. 1. 253. 0. 0. 1. 2. 255. 253.
      255. 254. 255. 254. 255. 252. 1. 0. 3. 0. 255. 0. 0. 0. 0. 0. 0.
      0. 0. 0. 0. 0. 0. 0. 0. 0. 0. 1. 0. 0. 0. 2. 3. 255. 254. 1. 0. 0.
      254. 254. 255. 255. 254. 255. 254. 255. 1. 0. 0. 5. 255. 0. 0. 0.
      0. 0. 0. 0. 0. 0. 0. 0. 0. 0. 0. 0. 1. 0. 0. 0. 1. 0. 0. 255. 255.
      0. 0. 5. 250. 255. 255. 255. 254. 255. 255. 254. 1. 1. 0. 0. 255.
      0. 0. 0. 0. 0. 0. 0. 0. 0. 0. 0. 0. 0. 0. 0. 1. 0. 1. 3. 0. 3. 1.
      255. 0. 0. 0. 2. 255. 252. 255. 255. 255. 255. 254. 251. 2. 1. 0.
      0. 255. 0. 0. 0. 0. 0. 0. 0. 0. 0. 0. 0. 0. 0. 0. 0. 1. 0. 0. 0.
      3. 0. 0. 254. 0. 0. 2. 0. 255. 255. 253. 255. 255. 253. 255. 255.
      0. 0. 2. 0. 255. 0. 0. 0. 0. 0. 0. 0. 0. 0. 0. 0. 0. 0. 0. 0. 0.
      3. 0. 0. 1. 0. 1. 0. 0. 1. 0. 2. 0. 0. 255. 254. 255. 255. 255.
      255. 0. 0. 0. 0. 255. 0. 0. 2. 0. 0. 2. 1. 1. 253. 0. 3. 0. 0. 1.
      0. 0. 0. 0. 0. 0. 0. 0. 0. 1. 0. 0. 2. 0. 0. 1. 255. 254. 254.
      255. 255. 0. 1. 0. 0. 255. 0. 0. 0. 0. 1. 0. 0. 0. 3. 0. 0. 1. 0.
      0. 0. 0. 0. 0. 0. 0. 0. 0. 0. 0. 3. 1. 0. 0. 0. 1. 1. 255. 253.
      249. 255. 0. 0. 0. 1. 255. 0. 2. 0. 2. 0. 4. 1. 0. 0. 0. 4. 0. 2.
      0. 0. 0. 0. 0. 0. 0. 0. 0. 0. 0. 2. 0. 0. 4. 0. 0. 0. 0. 255. 255.
      255. 0. 2. 1. 1. 254. 2. 0. 0. 0. 2. 0. 1. 1. 0. 0. 255. 2. 0. 3.
      0. 0. 0. 0. 0. 0. 0. 0. 0. 0. 0. 0. 1. 0. 2. 1. 1. 4. 251. 255. 0.
      0. 3. 0. 0. 255. 0. 2. 1. 1. 0. 3. 2. 0. 1. 0. 255. 1. 2. 0. 0. 0.
      0. 0. 0. 0. 0. 0. 0. 2. 0. 0. 0. 2. 0. 0. 0. 0. 254. 255. 0. 0. 0.
      1. 1. 255. 0. 3. 1. 0. 1. 1. 0. 2. 1. 2. 0. 0. 2. 0. 3. 0. 0. 0.
      0. 0. 0. 0. 0. 2. 0. 1. 0. 0. 1. 1. 2. 0. 255. 251. 1. 1. 0. 0. 2.
      0. 0. 0. 1. 2. 0. 0. 5. 0. 0. 0. 0. 2. 3. 1. 0. 0. 0. 0. 0. 0. 0.
      0. 0. 0. 5. 0. 3. 0. 0. 2. 0. 0. 255. 254. 0. 1. 2. 0. 1. 0. 1. 2.
      0. 0. 1. 0. 0. 2. 0. 1. 1. 0. 0. 0. 2. 0. 0. 0. 0. 0. 0. 0. 0. 1.
      0. 1. 0. 0. 0. 3. 0. 0. 255. 255. 2. 0. 0. 4. 0.</_>
    <_>
      255. 0. 0. 3. 0. 1. 0. 1. 0. 0. 0. 0. 0. 0. 0. 0. 0. 0. 0. 0. 0.
      0. 0. 0. 0. 255. 255. 254. 0. 0. 0. 0. 0. 0. 1. 1. 0. 0. 0. 1.
      252. 255. 0. 0. 0. 2. 2. 0. 0. 0. 0. 0. 0. 0. 0. 0. 0. 0. 0. 0. 0.
      0. 0. 0. 0. 255. 255. 254. 0. 0. 0. 0. 5. 0. 0. 0. 2. 0. 1. 0.
      255. 255. 0. 4. 0. 1. 0. 0. 0. 0. 0. 0. 0. 0. 0. 0. 0. 0. 0. 0. 0.
      0. 0. 0. 0. 255. 255. 254. 0. 0. 0. 0. 0. 0. 1. 3. 0. 0. 255. 252.
      254. 253. 2. 0. 1. 0. 1. 3. 0. 0. 0. 0. 0. 0. 0. 0. 0. 0. 0. 0. 0.
      0. 0. 0. 0. 255. 255. 254. 0. 0. 0. 0. 2. 3. 0. 0. 0. 2. 255. 254.
      254. 255. 253. 2. 0. 0. 0. 0. 0. 0. 0. 0. 0. 0. 0. 0. 0. 0. 0. 0.
      0. 0. 0. 0. 0. 255. 255. 254. 0. 0. 0. 0. 0. 0. 1. 0. 1. 0. 252.
      255. 255. 255. 255. 0. 0. 5. 0. 0. 0. 0. 0. 0. 0. 0. 0. 0. 0. 0.
      0. 0. 0. 0. 0. 0. 0. 255. 255. 254. 0. 0. 0. 0. 1. 0. 0. 1. 0. 0.
      255. 254. 254. 251. 255. 1. 0. 0. 0. 0. 0. 0. 0. 0. 0. 0. 0. 0. 0.
      0. 0. 0. 0. 0. 0. 0. 0. 255. 255. 254. 0. 0. 0. 0. 2. 0. 2. 0. 0.
      1. 251. 255. 255. 255. 253. 1. 0. 2. 0. 1. 0. 0. 0. 0. 0. 0. 0. 0.
      0. 0. 0. 0. 0. 0. 0. 0. 0. 255. 255. 254. 0. 0. 0. 0. 0. 3. 0. 1.
      0. 254. 255. 254. 255. 255. 255. 0. 0. 1. 0. 0. 0. 0. 0. 0. 0. 0.
      0. 0. 2. 0. 0. 1. 2. 0. 0. 0. 254. 255. 255. 255. 1. 0. 1. 0. 0.
      0. 1. 0. 0. 255. 255. 255. 255. 255. 255. 0. 0. 1. 0. 0. 0. 0. 0.
      0. 0. 0. 0. 0. 0. 5. 0. 0. 2. 0. 0. 0. 255. 255. 255. 0. 0. 2. 0.
      0. 0. 0. 1. 0. 0. 255. 255. 255. 255. 255. 255. 0. 0. 1. 0. 0. 0.
      0. 0. 0. 0. 0. 0. 0. 0. 0. 0. 3. 0. 0. 1. 1. 252. 255. 255. 0. 0.
      2. 0. 1. 0. 0. 1. 0. 0. 255. 255. 255. 255. 255. 255. 0. 0. 1. 0.
      0. 0. 0. 0. 0. 0. 0. 0. 0. 2. 0. 0. 0. 0. 5. 0. 254. 0. 255. 0. 2.
      6. 0. 0. 0. 0. 0. 1. 0. 0. 255. 255. 255. 255. 255. 255. 0. 0. 1.
      0. 0. 0. 0. 0. 0. 0. 0. 0. 0. 1. 1. 1. 1. 2. 0. 0. 255. 1. 254. 1.
      0. 0. 0. 1. 1. 0. 0. 1. 0. 0. 255. 255. 255. 255. 255. 255. 0. 0.
      1. 0. 0. 0. 0. 0. 0. 0. 0. 0. 0. 0. 0. 0. 0. 0. 0. 4. 254. 0. 255.
      0. 0. 2. 0. 0. 0. 0. 0. 1. 0. 0. 255. 255. 255. 255. 255. 255. 0.
      0. 1. 0. 0. 0. 0. 0. 0. 0. 0. 0. 0. 1. 2. 2. 0. 0. 2. 0. 1. 3. 0.
      0. 2. 0. 1. 2. 2. 0. 0. 1. 0. 0. 255. 255. 255. 255. 255. 255. 0.
      0. 1. 0. 0. 0. 0. 0. 0. 0. 0. 0. 0. 0. 0. 0. 0. 2. 0. 3. 0. 0. 4.
      1. 0. 3. 0. 0. 1. 0. 0. 1. 0. 0. 255. 255. 255. 254. 255. 255. 0.
      1. 0. 0. 0. 0. 0. 0. 0. 0. 0. 0. 0. 1. 0. 0. 2. 0. 3. 0. 0. 1. 1.
      0. 0. 0. 3. 0. 1. 0. 0. 1. 0. 0. 255. 255. 255. 255. 255. 255. 0.
      1. 0. 0. 3. 0. 0. 0. 0. 0. 0. 0. 0. 0. 1. 0. 0. 1. 0. 3. 0. 0. 4.
      0. 2. 1. 0. 3. 0. 0. 0. 1. 0. 0. 255. 255. 255. 255. 254. 255. 0.
      0. 0. 0. 0. 0. 0. 0. 0. 0. 0. 0. 0. 0. 2. 0. 3. 2. 0. 0. 1. 2. 0.
      0. 2. 0. 1. 2. 0. 0. 0. 1. 0. 0. 255. 255. 255. 253. 255. 254. 1.
      2. 0. 1. 0. 0. 0. 0. 0. 0. 0. 0. 0. 0. 0. 0. 0. 1. 255. 253. 255.
      254. 255. 0. 0. 1. 0. 0. 0. 0. 0. 1. 0. 0. 255. 255. 255. 253.
      255. 254. 0. 0. 0. 1. 1. 0. 0. 0. 0. 0. 0. 0. 0. 0. 2. 0. 2. 0.
      255. 254. 254. 255. 254. 1. 0. 2. 0. 2. 0. 0. 0. 1. 0. 0. 255.
      255. 255. 255. 248. 255. 1. 3. 0. 2. 0. 0. 0. 0. 0. 0. 0. 0. 0. 2.
      0. 0. 4. 0. 252. 255. 254. 252. 255. 0. 0. 0. 0. 0. 3. 0. 0. 1. 0.
      0. 255. 255. 255. 255. 255. 0. 0. 0. 4. 0. 0. 0. 0. 0. 0. 0. 0. 0.
      0. 0. 0. 0. 0. 0. 255. 251. 255. 255. 255. 255. 255. 4. 1. 1. 0.
      0. 0. 1. 0. 0. 255. 255. 255. 254. 254. 255. 255. 2. 0. 0. 2. 0.
      0. 0. 0. 0. 0. 0. 0. 0. 0. 2. 0. 0. 255. 255. 253. 254. 255. 253.
      255. 0. 1. 0. 2. 0. 0. 1. 0. 0. 255. 255. 255. 255. 253. 255. 255.
      0. 2. 0. 0. 0. 0. 0. 0. 0. 0. 0. 0. 0. 0. 0. 0. 0. 0. 0. 0. 255.
      254. 255. 255. 2. 0. 0. 3. 0. 0. 1. 0. 0. 255. 255. 255. 255. 254.
      0. 0. 0. 1. 0. 1. 0. 0. 0. 0. 0. 0. 0. 0. 0. 0. 0. 0. 0. 0. 0. 0.
      255. 255. 254. 255. 0. 4. 0. 0. 0. 0. 0. 1. 0. 255. 255. 252. 255.
      255. 1. 1. 1. 2. 0. 0. 0. 0. 0. 0. 0. 0. 0. 0. 0. 0. 0. 0. 0. 0.
      0. 0. 254. 254. 252. 255. 1. 0. 0. 0. 0. 2. 0. 0. 0. 255. 254.
      255. 254. 255. 0. 4. 0. 0. 0. 0. 0. 0. 0. 0. 0. 0. 0. 0. 0. 0. 0.
      0. 0. 0. 0. 0. 0. 4. 255. 255. 255. 0. 2. 0. 3. 0. 0. 0. 4. 255.
      252. 254. 253. 255. 1. 0. 3. 0. 0. 2. 0. 0. 0. 0. 0. 0. 0. 0. 0.
      0. 0. 0. 0. 0. 0. 0. 3. 0. 254. 253. 254. 2. 0. 0. 1. 0. 1. 0. 0.
      253. 255. 254. 255. 254. 0. 0. 0. 0. 1. 0. 0. 0. 0. 0. 0. 0. 0. 0.
      0. 0. 0. 0. 0. 0. 0. 0. 0. 1. 255. 255. 255. 0. 1. 0. 0. 3. 1. 1.
      3. 255. 255. 255. 255. 253. 2. 1. 0. 3. 0. 0. 0. 0. 0. 0. 0. 0. 0.
      0. 0. 0. 0. 0. 0. 0. 0. 0. 3. 0. 252. 255. 251. 255. 2. 0. 0. 1.
      0. 0. 0. 254. 255. 255. 253. 255. 0. 0. 3. 0. 1. 1. 0. 0. 0. 0. 0.
      0. 0. 0. 0. 0. 0. 0. 0. 0. 0. 0. 0. 1. 255. 254. 255. 255. 0. 2.
      0. 0. 0. 2. 2. 0. 255. 254. 255. 255. 0. 2. 0. 0. 3. 0. 0. 0. 0.
      0. 0. 0. 0. 0. 0. 0. 1. 0. 1. 1. 1. 0. 1. 252. 254. 255. 255. 255.
      1. 0. 0. 3. 0. 0. 1. 0. 253. 255. 255. 252. 0. 0. 0. 2. 0. 0. 0.
      0. 0. 0. 0. 0. 0. 0. 1. 2. 0. 0. 0. 0. 0. 0. 0. 255. 253. 255.
      255. 252. 2. 0. 2. 0. 0. 0. 0. 3. 252. 254. 254. 255. 0. 0. 1. 0.
      0. 2. 0. 0. 0. 0. 0. 0. 0. 0. 0. 2. 1. 0. 2. 1. 2. 0. 255. 253.
      255. 255. 255. 255. 0. 0. 0. 1. 1. 4. 0. 0. 255. 255. 255. 251. 0.
      0. 2. 1. 1. 0. 0. 0. 0. 0. 0. 0. 0. 0. 0. 0. 2. 0. 0. 0. 0. 255.
      254. 255. 255. 254. 254. 254. 0. 3. 0. 0. 1. 0. 0. 1. 255. 255.
      254. 255. 2. 0. 0. 2. 0. 1. 0. 0. 0. 0. 0. 0. 0. 0. 3. 0. 0. 2. 1.
      0. 4. 252. 255. 253. 255. 255. 252. 255. 0. 0. 0. 5. 0. 0. 0. 0.
      0. 255. 255. 254. 0. 0. 0. 0. 0. 1. 0. 0. 0. 0. 0. 0. 0. 0. 0. 5.
      0. 4. 0. 0. 1. 255. 254. 252. 255. 255. 255. 255. 0. 1. 0. 1. 0.
      1. 0. 3. 0. 255. 253. 0. 4. 0. 0. 1. 4. 0. 0. 0. 0. 0. 0. 0. 0. 0.
      1. 0. 2. 0. 2. 1. 0. 255. 255. 254. 255. 255. 253. 1. 0. 1. 2. 0.
      0. 0. 2. 0. 0. 255. 255. 0. 1. 0. 1. 0. 0. 2. 0. 0. 0. 0. 0. 0. 0.
      0. 1. 0. 0. 1. 1. 0. 0. 255. 254. 255. 255. 252. 255. 0. 1. 0. 0.
      2. 0. 0. 0. 2. 0. 0.</_>
    <_>
      0. 1. 2. 0. 0. 1. 0. 0. 0. 0. 0. 0. 0. 0. 0. 0. 1. 0. 0. 0. 255.
      255. 254. 255. 0. 0. 0. 1. 0. 255. 255. 0. 254. 255. 0. 0. 0. 2.
      0. 2. 0. 0. 0. 1. 2. 0. 0. 5. 0. 0. 0. 0. 0. 0. 0. 0. 0. 0. 1. 0.
      0. 255. 253. 255. 0. 0. 0. 1. 0. 255. 255. 0. 255. 255. 0. 1. 0.
      2. 1. 0. 255. 0. 3. 1. 0. 1. 1. 0. 0. 0. 0. 0. 0. 0. 0. 0. 2. 1.
      1. 3. 0. 252. 255. 255. 0. 0. 0. 1. 0. 255. 255. 0. 253. 254. 0.
      2. 0. 0. 1. 0. 255. 0. 2. 1. 1. 0. 3. 2. 0. 0. 0. 0. 0. 0. 0. 0.
      0. 0. 0. 0. 4. 255. 255. 252. 0. 0. 0. 1. 0. 255. 255. 0. 255.
      252. 2. 1. 1. 0. 0. 0. 254. 2. 0. 0. 0. 2. 0. 1. 0. 0. 0. 0. 0. 0.
      0. 0. 2. 3. 0. 0. 1. 0. 255. 255. 0. 0. 0. 1. 0. 255. 255. 0. 253.
      255. 0. 1. 0. 1. 1. 255. 255. 0. 2. 0. 2. 0. 4. 1. 0. 0. 0. 0. 0.
      0. 0. 0. 0. 1. 1. 0. 0. 3. 253. 255. 0. 0. 0. 1. 0. 255. 255. 0.
      255. 255. 1. 0. 1. 1. 0. 255. 255. 0. 0. 0. 0. 1. 0. 0. 0. 0. 0.
      0. 0. 0. 0. 0. 1. 0. 2. 0. 2. 0. 255. 255. 0. 0. 0. 1. 0. 255.
      255. 0. 254. 254. 0. 1. 0. 0. 0. 255. 255. 0. 0. 2. 0. 0. 2. 1. 0.
      0. 0. 0. 0. 0. 0. 0. 0. 0. 0. 3. 0. 255. 255. 254. 0. 0. 0. 1. 0.
      255. 255. 0. 255. 255. 0. 2. 0. 0. 3. 253. 255. 0. 0. 0. 0. 0. 0.
      0. 0. 0. 0. 0. 0. 0. 0. 0. 0. 0. 0. 0. 1. 0. 255. 255. 1. 0. 2. 1.
      0. 251. 3. 0. 255. 253. 0. 2. 0. 0. 0. 255. 255. 0. 0. 0. 0. 0. 0.
      0. 0. 0. 0. 0. 0. 0. 0. 0. 0. 0. 0. 0. 1. 0. 255. 255. 0. 1. 0. 0.
      1. 255. 0. 0. 254. 255. 0. 0. 0. 1. 1. 1. 255. 0. 0. 0. 0. 0. 0.
      0. 0. 0. 0. 0. 0. 0. 0. 0. 0. 0. 0. 0. 1. 0. 255. 255. 0. 1. 4. 1.
      0. 254. 2. 0. 254. 255. 0. 0. 4. 0. 0. 0. 255. 0. 0. 0. 0. 0. 0.
      0. 0. 0. 0. 0. 0. 0. 0. 0. 0. 0. 0. 0. 1. 0. 255. 255. 0. 0. 0. 0.
      255. 253. 3. 0. 254. 255. 0. 1. 0. 3. 0. 1. 255. 0. 0. 0. 0. 0. 0.
      0. 0. 0. 0. 0. 0. 0. 0. 0. 0. 0. 0. 0. 1. 0. 255. 255. 3. 0. 1. 1.
      254. 253. 1. 0. 255. 255. 0. 0. 2. 0. 0. 0. 255. 0. 0. 0. 0. 0. 0.
      0. 0. 0. 0. 0. 0. 0. 0. 0. 0. 0. 0. 0. 1. 0. 255. 255. 0. 0. 4. 0.
      255. 255. 0. 1. 255. 252. 1. 0. 0. 1. 0. 2. 255. 0. 0. 0. 0. 0. 0.
      0. 0. 0. 0. 0. 0. 0. 0. 0. 0. 0. 0. 0. 1. 0. 255. 255. 0. 2. 0. 0.
      255. 253. 2. 0. 251. 255. 0. 3. 0. 0. 2. 0. 255. 0. 0. 0. 0. 0. 0.
      0. 0. 0. 0. 0. 0. 0. 0. 0. 0. 0. 0. 0. 1. 0. 255. 255. 1. 0. 0. 2.
      255. 253. 0. 0. 255. 253. 0. 0. 0. 0. 2. 0. 255. 0. 0. 0. 0. 0. 0.
      0. 0. 0. 0. 0. 0. 0. 0. 0. 0. 0. 0. 0. 1. 0. 255. 255. 0. 0. 2. 0.
      252. 255. 0. 0. 255. 255. 0. 1. 0. 0. 0. 0. 255. 0. 0. 0. 0. 0. 0.
      0. 0. 0. 0. 0. 0. 0. 0. 0. 0. 0. 0. 0. 1. 0. 255. 255. 0. 1. 0. 0.
      255. 255. 0. 2. 255. 255. 0. 1. 0. 0. 0. 0. 255. 0. 0. 0. 0. 0. 0.
      0. 0. 0. 0. 0. 0. 0. 0. 0. 0. 0. 0. 0. 1. 0. 255. 255. 0. 0. 2. 3.
      255. 249. 0. 0. 255. 255. 0. 1. 0. 0. 0. 0. 255. 0. 0. 0. 0. 0. 0.
      0. 0. 0. 0. 0. 0. 0. 0. 0. 0. 0. 0. 0. 1. 0. 255. 255. 0. 1. 0. 0.
      253. 255. 0. 2. 255. 255. 0. 1. 0. 0. 0. 0. 255. 0. 0. 0. 0. 0. 0.
      0. 0. 0. 0. 0. 0. 0. 0. 0. 0. 0. 0. 0. 1. 0. 255. 255. 1. 0. 4. 2.
      255. 254. 1. 0. 255. 255. 0. 1. 0. 0. 0. 0. 255. 0. 0. 0. 0. 0. 0.
      0. 0. 0. 0. 0. 0. 0. 0. 0. 0. 0. 0. 0. 1. 0. 255. 255. 0. 0. 0. 0.
      255. 0. 0. 1. 255. 255. 0. 1. 0. 0. 0. 0. 255. 0. 0. 0. 0. 0. 0.
      0. 0. 0. 0. 0. 0. 0. 0. 0. 0. 0. 0. 0. 1. 0. 255. 255. 0. 3. 0. 2.
      254. 2. 0. 1. 255. 255. 0. 1. 0. 0. 0. 0. 255. 0. 0. 0. 0. 0. 0.
      0. 0. 0. 0. 0. 0. 0. 0. 0. 0. 0. 0. 0. 1. 0. 255. 255. 0. 0. 0.
      255. 255. 255. 0. 0. 255. 255. 0. 1. 0. 0. 0. 0. 255. 0. 0. 0. 0.
      0. 0. 0. 0. 0. 0. 0. 0. 0. 0. 0. 1. 0. 1. 1. 0. 1. 255. 255. 0. 0.
      1. 252. 255. 254. 255. 1. 254. 255. 0. 1. 0. 0. 1. 0. 255. 0. 0.
      0. 0. 0. 0. 0. 0. 0. 0. 0. 0. 0. 0. 0. 0. 1. 0. 0. 1. 0. 255. 254.
      0. 2. 0. 255. 255. 255. 255. 253. 255. 255. 0. 1. 0. 0. 0. 1. 255.
      0. 0. 0. 0. 0. 0. 0. 0. 0. 0. 0. 0. 0. 0. 0. 0. 2. 0. 2. 0. 0.
      255. 255. 1. 0. 0. 255. 255. 254. 254. 255. 253. 255. 0. 0. 1. 0.
      2. 0. 255. 0. 0. 0. 0. 0. 0. 0. 0. 0. 0. 0. 0. 0. 0. 0. 0. 0. 0.
      1. 2. 1. 253. 254. 0. 0. 1. 255. 255. 255. 255. 254. 255. 253.
      255. 0. 0. 0. 0. 1. 255. 0. 0. 0. 0. 0. 0. 0. 0. 0. 0. 0. 0. 0. 0.
      0. 0. 1. 1. 0. 0. 0. 2. 255. 1. 2. 1. 255. 252. 250. 255. 255.
      254. 255. 248. 2. 0. 3. 2. 1. 255. 0. 0. 0. 0. 0. 0. 0. 0. 0. 0.
      0. 0. 0. 0. 0. 0. 0. 0. 0. 2. 0. 0. 254. 0. 0. 0. 254. 255. 255.
      254. 255. 254. 255. 255. 255. 0. 0. 2. 0. 255. 0. 0. 0. 0. 0. 0.
      0. 0. 0. 0. 0. 0. 0. 0. 0. 0. 0. 0. 3. 0. 0. 0. 255. 1. 0. 2. 255.
      252. 255. 255. 254. 255. 250. 253. 255. 0. 2. 2. 1. 255. 0. 0. 0.
      0. 0. 0. 0. 0. 0. 0. 0. 0. 0. 0. 0. 0. 2. 0. 0. 2. 0. 0. 255. 0.
      0. 1. 0. 255. 252. 255. 255. 254. 255. 255. 253. 2. 2. 0. 1. 255.
      0. 0. 2. 0. 0. 2. 1. 1. 0. 0. 1. 0. 0. 2. 0. 1. 0. 0. 2. 0. 0. 1.
      255. 0. 2. 0. 2. 254. 254. 255. 253. 255. 255. 255. 255. 0. 5. 0.
      2. 255. 0. 0. 0. 0. 1. 0. 0. 2. 0. 5. 0. 0. 3. 0. 1. 0. 3. 1. 0.
      0. 0. 1. 1. 2. 0. 1. 0. 4. 0. 2. 255. 254. 254. 255. 255. 0. 0. 4.
      0. 255. 0. 2. 0. 2. 0. 4. 1. 0. 2. 0. 1. 3. 1. 0. 0. 0. 2. 0. 0.
      4. 0. 0. 0. 1. 0. 0. 2. 0. 1. 0. 1. 255. 255. 254. 255. 0. 4. 0.
      0. 254. 2. 0. 0. 0. 2. 0. 1. 4. 0. 0. 2. 0. 0. 0. 0. 0. 0. 0. 1.
      0. 2. 1. 1. 1. 3. 2. 0. 1. 1. 1. 0. 254. 255. 255. 254. 0. 0. 0.
      0. 255. 0. 2. 1. 1. 0. 3. 2. 0. 0. 2. 1. 0. 0. 3. 2. 2. 0. 0. 0.
      2. 0. 0. 0. 0. 0. 0. 0. 0. 0. 0. 3. 255. 253. 0. 3. 4. 0. 0. 1.
      255. 0. 3. 1. 0. 1. 1. 0. 0. 0. 0. 0. 0. 6. 0. 0. 2. 0. 1. 0. 0.
      1. 1. 2. 0. 0. 0. 3. 1. 0. 1. 0. 2. 255. 255. 0. 0. 0. 2. 0. 0. 0.
      0. 1. 2. 0. 0. 5. 0. 1. 3. 1. 0. 1. 0. 0. 0. 5. 0. 3. 0. 0. 2. 0.
      0. 3. 1. 0. 0. 4. 0. 2. 254. 255. 0. 0. 1. 2. 0. 0. 0. 1. 2. 0. 0.
      1. 0. 0. 1. 0. 0. 0. 255. 0. 0. 1. 1. 0. 1. 0. 0. 0. 3. 0. 1. 0.
      0. 2. 0. 1. 3. 0. 1. 255. 0. 2. 0. 0. 0. 0.</_>
    <_>
      0. 0. 2. 0. 2. 0. 0. 2. 0. 0. 0. 0. 0. 0. 0. 0. 0. 0. 3. 0. 1.
      254. 254. 255. 0. 1. 2. 0. 0. 0. 255. 255. 255. 255. 1. 0. 1. 0.
      0. 1. 1. 1. 0. 0. 0. 0. 5. 0. 0. 0. 0. 0. 0. 0. 0. 0. 0. 5. 0. 1.
      2. 255. 252. 255. 2. 0. 0. 1. 0. 5. 253. 255. 255. 254. 1. 0. 0.
      1. 2. 0. 254. 0. 3. 4. 1. 2. 0. 1. 0. 0. 0. 0. 0. 0. 0. 0. 1. 0.
      3. 0. 0. 255. 255. 254. 0. 0. 2. 0. 1. 0. 255. 0. 253. 255. 0. 5.
      1. 0. 0. 0. 255. 0. 0. 0. 2. 0. 2. 1. 0. 0. 0. 0. 0. 0. 0. 0. 2.
      0. 0. 0. 2. 0. 255. 254. 0. 1. 0. 2. 0. 2. 254. 0. 255. 255. 1. 0.
      0. 3. 2. 255. 254. 0. 1. 3. 0. 0. 2. 0. 0. 0. 0. 0. 0. 0. 0. 0. 0.
      0. 0. 2. 0. 0. 255. 254. 0. 0. 0. 0. 1. 0. 255. 0. 253. 255. 0. 4.
      0. 0. 0. 255. 255. 0. 2. 0. 3. 0. 1. 3. 0. 0. 0. 0. 0. 0. 0. 0. 2.
      1. 0. 0. 2. 0. 255. 255. 0. 3. 0. 0. 0. 0. 254. 1. 255. 254. 0. 0.
