<?xml version="1.0"?>
<opencv_storage>
<opencv_ml_svm>
  <format>3</format>
  <svmType>C_SVC</svmType>
  <kernel>
    <type>LINEAR</type></kernel>
  <C>1.</C>
  <term_criteria><epsilon>1.0000000000000000e-02</epsilon>
    <iterations>1500</iterations></term_criteria>
  <var_count>1600</var_count>
  <class_count>2</class_count>
  <class_labels type_id="opencv-matrix">
    <rows>2</rows>
    <cols>1</cols>
    <dt>i</dt>
    <data>
      0 1</data></class_labels>
  <sv_total>1</sv_total>
  <support_vectors>
    <_>
      3.71834147e-04 1.60501397e-04 9.91374036e-05 1.08883003e-04
      1.06871405e-04 5.17874687e-05 5.66394301e-05 7.87663230e-05
      6.29835849e-05 6.43864332e-05 6.35871911e-05 6.45983819e-05
      -4.72215179e-05 7.21782781e-05 2.45436513e-05 7.70480074e-06
      9.49049791e-05 1.99503877e-04 1.25560728e-05 -1.12360140e-05
      -4.31826571e-03 9.02413831e-06 -1.93834585e-05 -1.56176422e-04
      3.47282839e-05 -1.24781436e-04 1.55627553e-04 5.55385268e-05
      -3.37430305e-04 -5.23957482e-04 -2.98719478e-05 1.11173070e-03
      2.85142160e-05 4.12772933e-05 4.21519908e-05 -6.01433953e-07
      6.61095555e-06 -1.18398748e-04 -6.12314325e-05 3.64804204e-04
      -4.18406737e-04 1.23233607e-04 1.75885856e-04 8.82030290e-05
      4.81696879e-05 6.47625711e-05 1.17283475e-04 -2.85419919e-05
      6.50257716e-05 5.76073726e-05 6.21317013e-05 6.04004890e-05
      6.46254630e-05 5.55551160e-05 -1.27592211e-05 -8.35486935e-05
      -6.28695489e-05 -1.46214252e-05 -1.36561255e-04 1.42519042e-04
      1.69210962e-03 -1.70690240e-04 6.57446508e-05 -2.52026046e-04
      -4.60107185e-05 -1.87832527e-04 6.48075293e-05 -1.92864798e-04
      -2.61801819e-04 1.41105056e-03 1.47981045e-04 -5.66733768e-03
      3.49134643e-06 2.57810607e-04 3.10645664e-05 4.59474904e-05
      -6.49065114e-05 1.87222213e-05 -1.71434767e-05 3.33486503e-04
      5.44273753e-05 -3.08943068e-04 2.23549170e-04 2.82901834e-04
      6.92125759e-05 4.72963548e-05 2.53310500e-05 1.03353559e-04
      6.21213840e-05 6.55014010e-05 6.31861112e-05 6.41335282e-05
      6.50502116e-05 -1.59710617e-05 -1.30916997e-05 -1.44721216e-05
      4.23112098e-04 1.38779258e-04 -1.80196032e-04 3.29380055e-05
      1.17699237e-04 9.16274075e-05 -4.29279025e-04 -6.00550440e-04
      -1.81741139e-04 -3.76953074e-04 -2.97991664e-05 -3.08452232e-04
      -1.36912538e-04 8.16942338e-05 -3.50401169e-05 4.09026211e-03
      8.07109882e-06 -6.46305052e-05 -1.04126091e-04 2.47431046e-04
      -3.59079240e-05 -4.95978864e-04 1.24396305e-04 -2.24272953e-03
      -3.68089241e-04 3.50142969e-03 -3.49488400e-04 4.47383900e-05
      2.30641217e-05 8.29296041e-05 7.11716420e-05 4.25994403e-05
      6.28865528e-05 6.44086467e-05 6.39073478e-05 6.51958908e-05
      6.16653560e-05 -1.21804260e-05 -1.20049745e-05 8.25413081e-05
      -1.55525355e-04 -8.78070350e-05 3.37948964e-04 1.97819918e-05
      -2.75835075e-04 -8.30059114e-04 -3.77799559e-04 -1.02961739e-03
      -9.25745189e-05 -3.68929817e-04 -5.61946990e-06 -3.11326934e-04
      -2.71098455e-04 -3.68694053e-03 1.45631406e-04 -1.38525211e-03
      5.78202635e-05 -1.19481381e-04 6.34517273e-05 2.51121412e-04
      1.55237634e-04 -7.41711119e-06 -1.59217481e-04 1.37585460e-03
      -8.04226656e-05 -1.91763649e-03 -1.17394171e-04 -2.31591534e-04
      -2.05472184e-04 1.24003809e-05 5.86138631e-05 6.06240792e-05
      6.30039794e-05 6.46244662e-05 6.57447818e-05 8.14991072e-05
      6.49445283e-05 -1.25137076e-05 -1.39420663e-05 8.28326229e-05
      -5.81506582e-04 1.48090621e-04 -2.60682777e-04 -7.73690044e-05
      2.37862099e-04 -2.66841816e-05 6.52606017e-04 -6.11922122e-04
      8.44271781e-05 -4.21009492e-04 -3.61750317e-05 -4.49311046e-05
      -3.87164531e-04 -9.11128591e-04 -1.81868454e-04 -3.22537744e-05
      -8.71591037e-05 2.11340390e-04 -1.98899124e-05 3.36379395e-04
      1.36267830e-04 -1.68678889e-04 -9.53850918e-04 -1.48478604e-03
      -1.17933683e-04 -1.75702386e-04 4.48855899e-05 -3.90019006e-04
      -3.17646278e-04 6.50593720e-05 7.78875183e-05 6.61843223e-05
      6.43651292e-05 6.11237047e-05 6.45238397e-05 1.02873615e-04
      9.66905645e-05 -3.10886498e-05 8.32088554e-05 8.43330417e-05
      -2.04917320e-04 -3.23878019e-04 1.63346354e-04 1.01584512e-04
      -5.83839079e-04 7.76880115e-05 1.25444931e-04 -2.00477243e-05
      -9.51575785e-05 -4.62693191e-04 1.27632680e-04 2.04975251e-04
      1.17274431e-04 3.51095863e-04 7.36957372e-05 -2.96501057e-05
      1.33666414e-04 -7.19460731e-05 3.55616539e-05 -1.62896758e-04
      2.33157873e-04 1.66672748e-04 3.07656795e-04 1.32729940e-04
      -1.90398362e-06 1.95818068e-03 6.82498212e-05 -2.23877185e-04
      3.26583613e-05 2.48131953e-04 4.21614059e-05 1.02272650e-04
      6.38455895e-05 6.09971867e-05 8.40818466e-05 1.29924330e-04
      1.27139632e-04 8.70026197e-05 6.37135745e-05 6.25059984e-05
      3.31620919e-04 1.01404854e-04 -4.52417735e-05 3.32707103e-04
      8.51776684e-04 8.17793712e-04 1.29793980e-03 4.51894855e-04
      -2.16575616e-04 -2.83555535e-04 -1.13152259e-04 4.57711867e-05
      2.89637013e-04 4.04653721e-04 -7.45788100e-04 -8.61761451e-04
      -2.60235247e-05 2.71243538e-04 1.94602922e-04 8.80607840e-05
      -2.71692610e-04 -1.84864504e-04 -6.42749947e-05 2.34041854e-05
      -3.43682314e-06 4.40669055e-06 -1.21105835e-03 -1.72927641e-04
      7.86274759e-05 5.70770389e-05 8.25895986e-05 6.21375148e-05
      6.30377253e-05 6.50088623e-05 8.77332350e-05 1.24580925e-04
      1.27198029e-04 8.83138346e-05 8.62514062e-05 -2.59364519e-04
      -1.63896984e-04 2.46915617e-04 -8.03560761e-05 -1.91948799e-04
      -2.01750754e-05 1.40919734e-03 8.41883011e-05 2.53051810e-04
      -7.60466384e-04 -1.56129507e-04 -2.32231614e-04 2.34536958e-04
      2.65880284e-04 -2.88364608e-05 -6.80756406e-04 -2.86834420e-05
      6.29514834e-05 -4.57100105e-05 -3.23378640e-06 1.29926673e-04
      -3.74617870e-04 -1.84502904e-04 -7.75802473e-05 -6.10352552e-04
      6.89183821e-07 -4.87434318e-06 -1.89764163e-04 -3.00510903e-04
      6.60433125e-06 1.10732348e-04 6.77308417e-05 6.42915766e-05
      6.60835358e-05 6.51445589e-05 8.57943960e-05 1.08477681e-04
      1.27687104e-04 8.91966702e-05 8.79085856e-05 1.60543073e-04
      7.45689176e-05 -1.84274777e-05 2.03584459e-05 3.23455097e-05
      4.44136131e-05 -4.90063801e-03 8.19962370e-05 1.18008604e-04
      -1.48963343e-04 -3.04574314e-05 -7.62012278e-05 -2.78498883e-05
      -2.16137531e-04 9.39641614e-05 4.81599057e-03 1.87289901e-04
      7.09868664e-06 1.97645350e-05 2.31952117e-06 8.57895138e-05
      -2.31805738e-04 7.00378441e-04 5.95780730e-04 -6.65531028e-04
      -3.37602141e-05 -1.01157293e-05 -1.64180688e-04 -9.24561027e-05
      1.16560477e-06 9.71330010e-05 8.12937287e-05 8.32769001e-05
      6.48329733e-05 6.98824661e-05 8.83283428e-05 1.14512877e-04
      1.07632281e-04 8.70470249e-05 8.58310013e-05 8.10189958e-05
      9.98505202e-05 3.56959345e-06 2.42333626e-05 -2.28566369e-05
      -1.23282680e-05 6.36541472e-07 -1.56204274e-04 -2.09093763e-04
      1.13115471e-04 4.12345951e-04 -1.85013458e-04 1.43048572e-04
      8.12456419e-04 -4.44899168e-04 -7.72111176e-04 8.61211374e-05
      1.01446758e-05 5.52559777e-06 8.15978410e-07 -1.02905860e-05
      -6.25419780e-05 4.59913368e-04 -1.83948388e-04 7.75278750e-05
      -4.42075861e-06 -6.14425562e-06 -1.40875549e-04 -9.30998940e-05
      2.63949187e-05 1.06065272e-04 6.36918630e-05 6.64850959e-05
      6.26164328e-05 6.34073149e-05 8.67521958e-05 8.80391817e-05
      8.68602147e-05 1.10724795e-04 8.86227208e-05 7.83405339e-05
      3.41673986e-05 3.03320553e-06 1.78903778e-04 -1.53574838e-05
      -4.35167567e-05 -2.99725856e-04 -7.75242806e-05 7.11039902e-05
      -5.29304496e-04 2.22799470e-04 1.99425544e-04 1.50277090e-04
      3.77925826e-05 3.77218530e-04 -2.25211098e-03 3.84870436e-05
      -2.02547992e-04 1.28577194e-05 4.26189035e-06 -9.64172796e-05
      -1.31416164e-04 4.36530390e-05 2.82641813e-05 -1.03629036e-05
      -1.05777690e-05 6.54583419e-05 -1.62223791e-04 2.01888484e-04
      5.22399714e-05 5.44528375e-05 7.91248312e-05 8.33776794e-05
      6.60232909e-05 6.97687792e-05 6.39652135e-05 8.55986946e-05
      9.05064371e-05 1.00873272e-04 -1.70032028e-04 7.69349062e-05
      -8.83889006e-05 -1.01478508e-04 1.02127466e-04 -9.36527940e-05
      -2.84520007e-04 -1.92544234e-04 -1.58431285e-04 1.87823200e-04
      2.63987953e-04 3.77841730e-04 -1.02811842e-03 -1.68026396e-04
      1.81521557e-03 -3.43422900e-04 -2.85812910e-03 -1.12291484e-04
      1.21264320e-05 4.28941576e-06 5.23509449e-08 1.81612922e-04
      6.73307022e-06 -4.35551774e-05 3.52931638e-05 -8.94709956e-06
      -9.50124559e-06 2.74682231e-03 7.03348633e-05 -1.09858571e-04
      9.56682416e-05 5.46436459e-05 8.22312213e-05 6.79864097e-05
      6.44676184e-05 6.00584499e-05 6.31580260e-05 6.75649935e-05
      9.09411683e-05 3.70432535e-05 3.14619159e-04 -1.67789949e-05
      -2.26957287e-04 -1.47737432e-04 -2.07923549e-05 -1.50996100e-04
      -2.78782420e-04 -1.59593299e-04 -7.04516715e-05 1.40037577e-04
      -2.57404230e-04 -5.04723168e-04 -4.30404063e-04 -4.47098537e-05
      1.95700675e-04 1.54746485e-05 8.88622133e-04 1.07550950e-04
      4.69308452e-06 6.85239002e-06 1.60090658e-05 1.85436773e-04
      -4.37277777e-05 1.06567561e-04 -7.20285698e-06 -5.58442662e-06
      -5.85926614e-07 3.89489969e-06 -9.70724359e-05 -3.04331537e-04
      -7.05791899e-05 7.08338848e-06 1.69384846e-04 1.00002086e-04
      6.25081884e-05 7.25865248e-05 6.54723699e-05 6.84634579e-05
      9.13511103e-05 3.41501291e-05 1.87278652e-04 -3.00945161e-04
      2.20143411e-04 -2.31858809e-04 -1.30275366e-05 -3.89311201e-04
      -4.60180716e-04 -5.54349914e-04 -1.90252133e-04 -9.89952168e-05
      -5.76447928e-05 -8.53024321e-05 -2.53120728e-04 -1.49231579e-04
      -2.83033791e-04 -2.53526872e-04 1.23674748e-03 -3.09446128e-04
      1.01336936e-05 1.21203939e-05 -1.82933661e-06 8.84830151e-05
      2.18279056e-05 2.83597794e-04 3.12144323e-07 -5.72356039e-05
      -2.37926670e-05 -7.31150885e-06 -1.96624140e-04 -4.90147097e-04
      -5.11634535e-05 -1.53575238e-05 1.87134719e-04 6.53367824e-05
      6.41538936e-05 6.93254551e-05 6.44836837e-05 6.81492966e-05
      8.28172124e-05 -3.51667004e-05 -2.17429886e-04 1.68199651e-04
      1.26865662e-05 -2.33570856e-04 -6.69435249e-04 -3.97271739e-04
      -1.13021779e-04 -4.08449152e-04 -2.25609911e-04 -4.13105678e-04
      -3.48543399e-04 -4.47253580e-04 -2.84837472e-04 1.44720441e-04
      2.66096380e-04 2.65690003e-04 3.76978703e-03 1.02414218e-04
      -2.86111554e-05 7.05891716e-06 7.99181817e-06 1.76545553e-04
      -8.45217073e-05 -2.43422299e-04 -6.08601295e-06 -4.56141024e-05
      1.44195189e-06 -7.83416817e-06 -1.02988142e-05 -5.17544337e-04
      2.25331514e-05 -4.54304827e-05 1.80251489e-04 6.49819194e-05
      6.81527017e-05 6.30358118e-05 6.29480201e-05 6.89652443e-05
      8.82695822e-05 -1.51792610e-05 -3.32597556e-04 3.37973092e-04
      2.83590431e-04 -2.92117533e-04 -3.96914489e-04 1.30093249e-04
      -2.30288584e-04 -5.35208092e-04 1.44913545e-04 -8.10457917e-04
      -6.01138279e-04 2.19100737e-04 -2.86886119e-04 7.63588105e-05
      -2.02065893e-03 -3.12867953e-04 3.57495555e-05 -9.41354447e-05
      2.51276040e-04 1.10318879e-05 -1.01635953e-06 1.22245314e-04
      1.42492921e-04 -3.24651774e-04 -4.47146849e-05 -4.44504622e-05
      -4.69812221e-07 -4.76888454e-06 -1.75081223e-05 -4.19265620e-04
      2.33762948e-05 -2.30171121e-04 6.38936326e-05 6.38992205e-05
      6.64899489e-05 5.27018128e-05 6.17562982e-05 8.91898017e-05
      4.67057544e-06 -4.83720287e-05 -3.19581712e-04 4.22887388e-04
      4.55993111e-04 -3.73801478e-04 3.08721006e-04 4.36345872e-05
      6.84346014e-04 -2.17980181e-04 -1.71341223e-03 1.46369393e-05
      -3.46909510e-04 -1.10047717e-04 -6.83333565e-05 1.02905411e-04
      -2.14279327e-03 -3.31563642e-05 6.37008125e-05 1.00088228e-05
      2.49440025e-04 -3.05663852e-05 1.26911218e-05 -1.79546420e-04
      2.95017613e-04 2.94007972e-04 4.95371969e-05 2.70380451e-06
      4.59539706e-06 -6.32443880e-06 1.31425368e-05 -1.10268709e-04
      7.16389332e-05 -2.27348690e-04 6.48565401e-05 6.58635254e-05
      6.05531968e-05 6.32081719e-05 9.46292639e-05 1.14223243e-04
      3.40391816e-05 -5.86513779e-05 -8.47747433e-05 4.31659340e-04
      3.33836688e-05 6.71473317e-05 -3.29498202e-04 7.07977188e-06
      -7.12643785e-04 -6.08470618e-05 2.25669751e-03 -1.87632413e-05
      1.46005303e-03 -8.02099894e-05 5.79583429e-05 9.38482553e-05
      5.23044786e-04 4.29292013e-05 -1.02579625e-05 2.05975521e-05
      2.88432842e-04 -1.13374939e-04 -1.01807454e-04 -3.19938445e-05
      -9.55587529e-05 -1.71727355e-04 1.22926926e-04 2.75803741e-05
      -2.11300312e-06 -2.27245005e-06 1.24756878e-06 2.64341670e-05
      1.47086694e-05 -2.32941878e-04 6.52290400e-05 6.32321171e-05
      6.39076170e-05 6.54467003e-05 8.61199660e-05 9.21929604e-05
      3.08293638e-05 -6.87695720e-05 -2.46485433e-05 -1.02513368e-04
      3.46610614e-04 3.95829353e-04 -1.85291952e-04 1.17335025e-04
      -5.36959677e-04 -3.76134383e-04 -6.93579786e-04 -3.62615887e-04
      -8.18109838e-04 -5.19461057e-04 1.12313013e-04 1.59044339e-05
      1.16749936e-04 -6.32376818e-04 -4.23726597e-05 -3.97955000e-06
      -1.55071577e-03 7.58354072e-05 1.06192275e-03 -1.15379713e-04
      9.44520070e-05 3.19536048e-04 7.16869778e-04 9.79588822e-06
      -1.87574506e-06 -6.56060638e-06 -2.02104027e-04 -7.50568943e-05
      -2.38381726e-05 -2.29466576e-04 6.85850464e-05 6.45747496e-05
      6.65415791e-05 6.44918910e-05 9.31508257e-05 1.03359504e-04
      9.17285506e-05 1.75967056e-04 -1.41151904e-04 -6.23109663e-05
      -9.03271939e-05 -3.29561881e-05 -3.29856528e-04 -2.39411711e-05
      -1.36142582e-04 -1.23758771e-04 2.88001867e-03 -4.63469507e-04
      -7.16549519e-04 -2.21096489e-04 -2.17164081e-04 2.52329100e-05
      5.93966652e-05 1.75009738e-03 2.74453687e-05 1.28047050e-05
      -8.11437902e-04 -1.14217029e-04 6.01282081e-05 1.50734253e-04
      -7.58494252e-06 3.65550863e-04 -2.46966956e-04 -4.52616114e-05
      6.13391080e-07 -5.45156217e-06 -1.94094071e-04 -3.62773994e-06
      2.55262767e-05 -2.35729996e-04 6.30100185e-05 6.01483807e-05
      7.53008208e-05 6.06368812e-05 1.00208628e-04 8.89558869e-05
      5.97550570e-05 1.45043043e-04 -2.04662312e-04 6.01961028e-06
      -1.01730737e-04 -1.70248575e-04 -2.88484734e-04 2.08573081e-04
      -1.02936596e-04 -2.56337604e-04 1.08124176e-03 -7.16569601e-04
      -4.63960809e-04 -1.89399594e-04 -3.53703304e-04 7.17882474e-04
      6.20349019e-05 3.93148890e-04 3.59406549e-05 -3.49187019e-07
      3.61108017e-04 1.35379320e-04 -1.05014893e-04 2.00611990e-04
      -1.30908375e-04 4.59549890e-04 2.90840981e-04 1.02785212e-04
      1.47383730e-06 -5.67440065e-06 -1.72467062e-05 3.32009600e-04
      8.24669187e-05 -1.70627143e-04 6.79856457e-05 6.73479226e-05
      6.31453731e-05 6.70692607e-05 8.41659348e-05 8.45365139e-05
      1.22945843e-04 -3.46685592e-05 3.08117276e-04 -4.50166735e-05
      -1.88591570e-04 -2.36046602e-04 4.17758965e-05 -2.46354059e-04
      -4.52555425e-04 -2.32245919e-04 1.33957563e-03 -2.27657700e-04
      -1.95894725e-04 -3.29975621e-04 -2.98226996e-06 5.59875800e-04
      6.69411238e-05 1.77023670e-04 7.16993645e-06 3.08701201e-05
      3.82907136e-04 1.00807534e-04 3.78945915e-05 9.62494814e-05
      -1.66542595e-04 4.82707313e-04 1.42040126e-05 -1.56886861e-04
      2.24351902e-06 -4.48129276e-06 1.11209283e-05 4.68593993e-04
      1.13266302e-04 -1.77044247e-04 6.54762407e-05 6.09455747e-05
      4.94511987e-05 7.93210129e-05 5.89340125e-05 1.14734028e-03
      6.94126065e-05 5.78910976e-06 2.60271976e-04 -4.59693038e-05
      1.47957777e-04 -3.19383685e-06 1.95396176e-04 1.28700703e-04
      -7.81068928e-04 -1.96395020e-04 -5.77756728e-04 -3.58135614e-04
      1.58052612e-03 -3.38428392e-04 3.30256677e-04 1.65834019e-04
      8.21436697e-05 1.93936343e-04 -1.77476759e-05 2.42127808e-05
      -6.05237111e-03 4.75264960e-06 -8.58647400e-04 6.15717378e-04
      -5.01303984e-05 3.40268220e-04 -8.82832974e-05 3.89315318e-07
      1.84749183e-06 -8.44444730e-06 3.80230369e-04 4.93940315e-04
      -9.07407302e-05 -1.70033105e-04 5.99796222e-05 6.51780138e-05
      6.54087489e-05 4.80853341e-05 6.34302269e-05 3.85142812e-05
      5.91200369e-05 5.82672656e-05 1.38432530e-04 -4.06267682e-05
      2.03860895e-04 -8.55469552e-05 2.70095887e-04 9.41832259e-05
      -3.92193324e-04 -3.60457809e-04 -7.08135136e-04 -4.82297241e-04
      6.43235049e-04 -3.77280143e-04 1.05309999e-04 -3.94900009e-04
      5.29604768e-05 -1.10546034e-03 1.97428366e-04 -1.42065424e-03
      3.61939869e-03 3.05778158e-05 -4.47387254e-04 1.29910128e-04
      1.44110563e-05 3.07655253e-04 6.71738671e-05 -2.90665885e-05
      7.67174924e-07 -3.18346724e-06 1.50482709e-04 1.40688149e-04
      -8.79436484e-05 -1.03539700e-04 6.53973329e-05 6.46615445e-05
      6.58846184e-05 5.77973369e-05 6.42923187e-05 7.04706297e-04
      4.96692519e-05 5.40507353e-05 1.51268730e-04 6.33166346e-05
      7.54036155e-05 5.52186211e-05 5.75307989e-04 -1.20321587e-04
      -1.50089927e-05 -1.48341875e-04 -6.80405137e-05 2.00749870e-04
      -2.34746534e-04 -1.39114563e-04 3.19422805e-04 -7.27510196e-04
      2.42602298e-04 -1.65726797e-05 2.27939722e-06 -5.20680507e-04
      3.26865539e-03 2.94964975e-05 -3.62767983e-04 2.36558146e-04
      -2.06211203e-04 2.48759607e-04 -5.88339062e-05 -2.17601337e-05
      1.38669816e-06 -6.37585526e-06 2.10173384e-04 -2.87177972e-04
      -5.50636105e-05 4.75828820e-05 6.93211332e-05 6.26870387e-05
      6.04416018e-05 5.91352073e-05 6.43442618e-05 5.13815430e-05
      5.43557107e-05 5.90099953e-05 5.71783057e-05 6.47571796e-05
      2.86568520e-05 7.13503687e-05 7.35251451e-05 -3.48081121e-05
      2.11726830e-04 1.85809855e-04 5.86472743e-04 3.85263353e-04
      -3.37069476e-04 -2.77854379e-05 -1.58932220e-04 -4.02327059e-05
      -3.71321221e-04 -2.43582006e-04 1.33488342e-04 8.75346421e-04
      2.99682342e-05 -2.26752327e-05 -4.60936048e-04 1.80122603e-04
      3.22001550e-04 -1.05533676e-04 3.91931171e-05 -1.19276454e-04
      1.94266840e-06 -1.32131336e-05 2.45834817e-04 -4.17086412e-04
      -5.78335275e-05 5.59396212e-05 6.43530730e-05 6.67709319e-05
      5.91596072e-05 9.12511314e-05 5.87640316e-05 5.09737620e-05
      6.45732580e-05 3.98784505e-05 1.00082427e-04 6.44893225e-05
      6.02838845e-05 3.88468543e-05 -3.21745465e-05 -9.84192047e-06
      -8.67602430e-05 -1.09858185e-04 1.58822630e-04 -4.01793572e-04
      -2.42862210e-04 9.18096193e-05 1.82647341e-06 4.46866825e-03
      -1.83928234e-04 -2.56874919e-04 -1.36283794e-04 -6.47542256e-05
      -7.11057364e-05 7.83945943e-05 3.09120624e-05 -3.57192221e-05
      3.28684779e-04 2.29113488e-04 -3.41720552e-05 -2.08069487e-05
      5.15686725e-06 -5.93670802e-06 2.58436805e-04 -2.56220927e-04
      -1.21097481e-04 5.02317489e-05 7.18115843e-05 5.86512542e-05
      6.37219418e-05 6.27563859e-05 5.51492849e-04 5.79434272e-05
      5.39434986e-05 6.37134726e-05 2.57907159e-05 7.40406540e-05
      6.12971708e-05 6.80968224e-05 -3.45749067e-05 -6.41239967e-05
      -3.99099378e-07 -3.45632034e-05 -2.46703770e-04 1.30938270e-05
      -1.39403425e-03 1.29044522e-04 4.49196923e-05 -1.01436548e-04
      -4.17989912e-04 -3.84731684e-04 2.18084624e-05 9.80974728e-05
      -6.33472746e-06 -6.86182466e-05 3.92784386e-05 -1.22808234e-03
      2.10489132e-04 5.07505410e-06 1.06987769e-04 -1.49112515e-04
      -1.05562776e-06 -5.24435200e-06 2.40442343e-04 -1.75046356e-04
      5.85147573e-05 1.62544646e-04 5.17208136e-05 7.41078038e-05
      6.14893652e-05 5.85120979e-05 5.76874409e-05 6.36342011e-05
      4.41443153e-05 5.51578960e-05 -3.60034210e-05 6.41628721e-05
      5.23592062e-05 -2.49009354e-05 -3.40694169e-05 -3.10606993e-05
      -2.28324352e-04 -5.82406319e-05 -2.45898031e-03 2.56842595e-05
      4.85869445e-04 4.44203732e-04 3.02578643e-04 -2.22971139e-04
      -8.18642729e-04 -2.51828751e-04 -2.44241732e-04 -1.45026579e-05
      -4.10675930e-05 1.26873958e-04 -1.71494001e-04 -2.78373132e-03
      4.22775600e-04 7.68051250e-05 -9.01816122e-04 2.32326274e-05
      2.97760471e-06 2.65800622e-06 1.30410554e-04 -9.37999800e-07
      4.74448098e-05 -9.44519052e-05 5.97463113e-05 5.32613994e-05
      6.40188082e-05 7.70423940e-05 4.42922574e-05 5.49248434e-05
      6.74163020e-05 5.70452285e-05 1.11470243e-03 7.65882141e-05
      4.05915271e-05 -1.29366017e-04 -5.30037330e-04 -4.57024835e-05
      1.56767352e-03 -6.76599739e-05 6.03608205e-04 3.36741346e-06
      -2.56219273e-03 8.17019900e-04 -2.97658611e-04 7.46512669e-04
      3.21904736e-05 -1.19601238e-04 -9.17345096e-05 -1.00034405e-04
      -5.85142370e-05 -1.17661302e-05 1.24428107e-05 6.04801928e-04
      4.98353074e-06 -1.75929687e-04 -3.29185248e-04 5.16649379e-05
      -1.96243127e-06 -7.00114470e-06 3.98595759e-04 -6.35697361e-05
      5.13546729e-05 -9.01422682e-05 5.41811169e-05 5.73738580e-05
      6.43105886e-05 6.39931677e-05 6.17710903e-05 4.98696827e-05
      5.44608665e-05 5.49248434e-05 5.54564758e-05 4.80056879e-05
      -5.26472140e-05 -4.57171082e-05 1.72315762e-04 3.06456895e-05
      -5.89748233e-05 -1.14731352e-04 4.98950481e-04 1.52947032e-04
      -2.26621327e-04 1.78342656e-04 -3.54494987e-04 2.32746621e-04
      -3.41208273e-04 -1.68030034e-04 6.65638072e-05 3.56871510e-06
      3.97871263e-05 8.79820218e-05 -2.33683731e-05 -4.27997031e-04
      3.76439639e-05 -2.88157782e-04 1.56004589e-05 -2.02951305e-05
      1.63505632e-07 -6.04138722e-06 5.69612195e-04 -2.60385132e-04
      6.25434550e-05 -9.69899993e-05 5.80726446e-05 5.00505557e-05
      6.81803504e-05 6.47130582e-05 4.62728203e-05 6.09608396e-05
      5.04259224e-05 6.08129012e-05 4.45371079e-05 5.37579508e-05
      -4.22721423e-05 -6.18181657e-05 -6.43364619e-05 -3.93755945e-05
      -3.96929172e-05 -9.48705929e-06 -2.80823515e-05 1.33154029e-03
      -2.21639275e-05 1.04622566e-04 -1.74275207e-04 -1.16470444e-03
      -1.32003857e-03 -7.23066914e-04 -1.35762920e-03 -7.05674684e-05
      -4.52027416e-05 -2.47477583e-05 -2.59830249e-05 -3.87331645e-04
      -1.46982798e-04 -5.81068707e-05 -2.49923687e-06 -9.61869409e-06
      -1.59572863e-07 -7.84481199e-06 3.55387776e-04 -1.23658829e-04
      6.15683966e-05 -9.60394245e-05 6.89674926e-05 5.64199763e-05
      4.26808765e-05 -1.87338598e-03 4.19642347e-05 7.68647878e-05
      1.21175675e-04 9.31166214e-05 8.01107672e-05 1.35566195e-04
      -4.49176514e-05 -5.05814678e-05 -4.09540917e-05 -4.90792409e-05
      -5.18873676e-05 -1.84694709e-05 -2.45844258e-05 -1.16439303e-03
      5.59630898e-05 -3.31736257e-04 -3.44998291e-04 -3.09705967e-04
      -1.46921282e-03 1.71085505e-03 1.94642390e-03 3.03438003e-03
      1.83869794e-04 -4.21734730e-05 1.08322529e-04 1.06942884e-04
      4.23199235e-05 2.66523886e-04 -1.16815809e-05 6.64508625e-05
      -1.85077127e-07 -1.24881044e-05 2.65138078e-04 -1.42362347e-04
      1.32709451e-04 -1.06637723e-04 5.73266952e-05 4.90222337e-05
      4.40645090e-05 3.31569696e-03 3.10808711e-04 8.93411925e-05
      2.06220022e-04 1.16777053e-04 1.80937597e-04 1.15721268e-04
      -5.45001276e-05 -4.97504989e-05 -4.22883932e-05 -3.82069156e-05
      4.86896934e-05 -2.68189178e-05 -4.89804879e-05 -5.94281650e-04
      -4.96340872e-05 -4.90743005e-05 2.30649908e-04 -1.84256234e-04
      -8.22602306e-05 -1.53567147e-04 -3.67786743e-05 2.27146596e-03
      3.15846904e-04 2.24805353e-06 -2.19735026e-04 -4.37458621e-05
      -1.14944465e-04 2.24041403e-04 1.98716793e-04 2.96031340e-05
      2.23815164e-06 4.94938604e-06 1.48817606e-04 -2.28172212e-04
      2.69600532e-05 -9.30758833e-05 4.71223211e-05 6.57632190e-05
      1.51907923e-04 -5.76273480e-04 3.55052296e-04 8.03543808e-05
      1.63064047e-04 4.07686137e-04 1.64279933e-04 -2.72382837e-04
      -2.52424597e-05 -4.17083211e-05 -1.70169460e-05 -4.10031862e-05
      4.16260955e-05 -2.22120652e-05 -4.21466830e-05 -4.26313927e-05
      6.18151680e-05 1.85042154e-05 2.49271077e-04 3.85838430e-05
      1.30597298e-04 -3.24908207e-04 -5.96663886e-05 2.61760470e-05
      -1.10049883e-03 -2.55229552e-05 -4.69135666e-05 -5.29363460e-04
      9.33147676e-05 3.33224918e-04 1.36206552e-04 -6.80007652e-05
      3.51972303e-05 -6.62807943e-05 -3.83092673e-04 1.21786958e-04
      9.76597148e-05 -8.42373120e-05 5.61645902e-05 4.03214617e-05
      1.65922029e-04 1.76069661e-04 -2.51088040e-05 1.47252425e-03
      1.05239866e-04 -6.53688694e-05 1.20817800e-04 1.12944130e-04
      -2.14006850e-05 -1.75040768e-05 -2.44106650e-05 -1.97137615e-05
      8.19477718e-05 -3.70937346e-06 -5.54384605e-05 -3.78062359e-05
      -6.72298047e-05 -7.55765086e-06 -7.97808298e-06 7.23592602e-05
      6.70747177e-05 -1.87891594e-04 -3.80718848e-06 -9.59529734e-06
      -2.06880388e-04 -6.00549392e-05 1.33461645e-03 1.15453231e-03
      6.19869796e-04 5.84871759e-06 -1.15730414e-04 -1.53762056e-04
      4.18162881e-06 -5.65036353e-05 -4.02064645e-04 -9.87592139e-05
      5.13150808e-05 3.73527873e-05 7.80669434e-05 7.63420103e-05
      2.39571964e-05 3.51349852e-04 5.39043431e-05 -3.55602708e-04
      9.83743012e-05 2.64656264e-04 -7.54450739e-05 1.01310856e-04
      -2.75348666e-05 -3.21085972e-05 -2.62083140e-05 7.41773474e-05
      6.71422822e-05 6.07438487e-05 -2.57478223e-05 -2.99852050e-04
      7.05931552e-06 1.57931117e-05 -2.38129607e-04 2.59929482e-04
      2.45388539e-04 1.07093278e-04 -3.66047680e-05 -3.78948130e-06
      3.03887908e-04 5.85724774e-05 3.70136206e-03 -5.06259785e-05
      3.05379246e-04 1.99595615e-05 -2.38366076e-04 -8.86622583e-05
      1.77873019e-03 2.11966108e-04 -2.71840545e-04 2.36713113e-05
      -5.17037297e-05 5.99474879e-05 5.04324744e-05 5.16003092e-05
      6.42281748e-06 1.26103390e-04 2.41403890e-04 -2.18861131e-03
      1.06817912e-04 1.67449340e-04 2.26264528e-05 -7.54644279e-05
      7.14334383e-05 6.35736447e-04 -2.34991367e-05 5.97224171e-05
      7.03420956e-05 1.49590152e-04 4.82783107e-05 -1.16813309e-04
      8.71304364e-05 -3.70643567e-04 -1.53355228e-04 -6.31208313e-05
      1.05091705e-04 6.15486351e-05 -4.18057134e-05 7.66089306e-06
      -6.83927501e-04 -4.95719496e-06 3.53831379e-03 3.84619525e-05
      1.10739369e-04 -9.13749682e-05 1.56842187e-04 5.80552791e-04
      7.35586727e-05 6.49990747e-04 1.84095392e-04 4.01675439e-04
      7.47204977e-05 5.72536155e-05 4.13118687e-05 9.42510160e-05
      9.27535657e-05 -4.44256366e-05 -1.24850904e-03 6.27682661e-04
      1.51843706e-03 -1.90159641e-04 -1.48928928e-04 -6.02869522e-06
      4.91947822e-06 -5.21317590e-04 -2.47094285e-04 4.94282358e-05
      -1.70000392e-04 1.41040175e-04 6.98966141e-06 -2.68698321e-04
      3.91197609e-05 1.25685707e-04 6.57230266e-04 -2.85381102e-04
      -2.19649359e-04 -1.87578607e-05 -2.72248853e-05 -2.19591257e-05
      -9.14119009e-05 3.39080761e-05 1.43829500e-04 -9.21773608e-06
      -3.16701080e-05 7.25096252e-05 2.29336045e-04 5.96062746e-04
      -2.24780626e-04 -3.16113001e-05 -1.48280495e-04 6.59331272e-05
      5.87544746e-05 5.97187354e-05 5.41260815e-05 5.75995255e-05
      3.67649445e-05 9.41644394e-05 8.99048609e-05 -1.45379250e-04
      -3.62136023e-04 4.20272787e-04 5.06085098e-06 8.50847573e-05
      -3.96851792e-05 -1.82137606e-04 -1.24454760e-04 -5.10185309e-05
      3.77293122e-06 6.57828932e-05 -3.50712915e-04 -4.54296271e-04
      -3.47528519e-04 -1.82275122e-04 -1.70490312e-04 -6.33635282e-05
      -3.86163621e-04 2.41847338e-05 -9.38734447e-05 2.20571437e-05
      -3.41290934e-03 -8.19724883e-05 -6.33372692e-04 4.85408709e-05
      -4.54590772e-05 -4.09549211e-05 2.97088467e-04 4.37997805e-04</_></support_vectors>
  <uncompressed_sv_total>178</uncompressed_sv_total>
  <uncompressed_support_vectors>
    <_>
      3. 0. 3. 0. 0. 1. 0. 1. 0. 0. 0. 0. 0. 0. 0. 0. 1. 0. 0. 1. 0. 0.
      0. 255. 254. 255. 255. 0. 1. 0. 1. 0. 0. 0. 2. 1. 0. 0. 0. 0. 0.
      0. 0. 1. 1. 0. 3. 0. 0. 0. 0. 0. 0. 0. 0. 0. 0. 2. 0. 1. 0. 4. 0.
      255. 255. 255. 254. 255. 0. 0. 0. 2. 0. 3. 0. 0. 0. 3. 0. 2. 0. 3.
      0. 0. 2. 0. 0. 0. 0. 0. 0. 0. 0. 0. 0. 0. 2. 0. 2. 1. 0. 0. 0.
      253. 255. 255. 250. 255. 1. 3. 0. 0. 1. 0. 0. 0. 3. 0. 0. 0. 1.
      255. 0. 0. 1. 2. 0. 0. 0. 0. 0. 0. 0. 0. 0. 0. 0. 2. 0. 0. 4. 0.
      0. 255. 253. 252. 255. 255. 0. 0. 0. 0. 0. 0. 1. 0. 0. 0. 3. 255.
      252. 255. 0. 0. 0. 0. 0. 2. 0. 0. 0. 0. 0. 0. 0. 0. 0. 0. 0. 1. 0.
      4. 2. 0. 255. 255. 255. 255. 0. 1. 2. 0. 1. 0. 2. 0. 0. 3. 0. 255.
      255. 255. 254. 0. 0. 2. 0. 1. 0. 0. 0. 0. 0. 0. 0. 0. 1. 0. 0. 1.
      2. 0. 0. 1. 255. 255. 255. 251. 0. 3. 0. 3. 0. 2. 0. 1. 2. 0. 253.
      255. 255. 253. 255. 0. 2. 0. 3. 0. 0. 0. 0. 0. 0. 0. 0. 0. 0. 2.
      0. 0. 2. 2. 0. 255. 254. 255. 253. 255. 3. 0. 2. 0. 0. 0. 1. 1. 0.
      0. 255. 255. 254. 255. 254. 0. 0. 2. 0. 1. 0. 0. 0. 0. 0. 0. 0. 0.
      2. 0. 1. 0. 0. 1. 0. 255. 255. 253. 255. 255. 0. 0. 2. 0. 0. 2. 0.
      2. 0. 0. 255. 254. 255. 255. 255. 0. 0. 1. 0. 0. 0. 2. 0. 1. 0. 0.
      2. 0. 0. 1. 0. 0. 0. 2. 255. 255. 255. 252. 255. 255. 0. 1. 0. 0.
      0. 0. 0. 0. 1. 0. 255. 255. 255. 255. 255. 0. 0. 1. 0. 0. 1. 0. 1.
      0. 1. 0. 0. 0. 0. 0. 4. 1. 0. 0. 255. 253. 0. 255. 255. 254. 6. 0.
      0. 0. 0. 0. 0. 0. 1. 0. 255. 255. 255. 255. 255. 0. 0. 1. 0. 0. 0.
      0. 3. 0. 0. 0. 1. 1. 3. 0. 0. 1. 2. 1. 0. 255. 3. 255. 254. 0. 0.
      1. 3. 0. 0. 0. 0. 0. 1. 0. 255. 255. 255. 255. 255. 0. 0. 1. 0. 0.
      1. 1. 0. 2. 0. 3. 0. 0. 0. 2. 0. 0. 1. 0. 253. 255. 0. 253. 255.
      2. 3. 0. 0. 0. 0. 0. 0. 0. 1. 0. 255. 255. 255. 255. 255. 0. 0. 1.
      0. 0. 0. 0. 0. 0. 3. 1. 0. 5. 0. 2. 0. 0. 255. 251. 255. 253. 0.
      255. 254. 0. 0. 0. 3. 0. 0. 0. 0. 0. 1. 0. 255. 255. 255. 255.
      255. 0. 0. 1. 0. 0. 1. 0. 2. 3. 0. 0. 0. 253. 2. 0. 1. 0. 255.
      255. 254. 255. 255. 252. 255. 2. 0. 0. 0. 1. 0. 0. 0. 0. 1. 0.
      255. 255. 255. 255. 255. 0. 0. 1. 0. 0. 0. 2. 0. 0. 0. 0. 3. 255.
      1. 1. 0. 252. 255. 251. 255. 255. 255. 0. 0. 0. 0. 1. 0. 0. 0. 0.
      0. 0. 1. 0. 255. 255. 255. 255. 255. 0. 0. 1. 0. 0. 0. 0. 1. 0. 3.
      0. 254. 255. 254. 255. 2. 254. 255. 255. 254. 255. 254. 2. 0. 0.
      0. 1. 0. 1. 0. 0. 0. 0. 1. 0. 255. 255. 255. 255. 255. 0. 0. 1. 0.
      0. 1. 1. 0. 0. 3. 0. 254. 255. 255. 0. 255. 255. 253. 255. 255.
      255. 0. 1. 0. 0. 0. 1. 2. 0. 0. 0. 0. 2. 2. 0. 255. 255. 255. 255.
      255. 0. 0. 1. 0. 0. 0. 0. 2. 0. 0. 5. 255. 255. 253. 1. 251. 255.
      255. 255. 255. 0. 2. 0. 0. 0. 1. 0. 0. 1. 0. 0. 2. 0. 0. 0. 255.
      253. 255. 255. 255. 0. 0. 1. 0. 0. 0. 0. 0. 0. 2. 0. 253. 255.
      255. 255. 255. 0. 255. 253. 252. 2. 0. 0. 3. 0. 2. 1. 0. 3. 0. 0.
      0. 3. 0. 255. 250. 255. 255. 255. 255. 0. 0. 1. 0. 0. 0. 0. 2. 0.
      0. 0. 2. 254. 253. 255. 255. 0. 253. 255. 255. 0. 3. 0. 0. 0. 1.
      0. 7. 0. 0. 4. 0. 0. 0. 255. 255. 255. 255. 255. 255. 0. 0. 1. 0.
      0. 4. 0. 0. 1. 2. 1. 1. 253. 255. 255. 251. 255. 255. 255. 254. 0.
      252. 3. 2. 0. 0. 0. 0. 0. 2. 0. 0. 1. 0. 253. 255. 253. 255. 255.
      255. 0. 0. 1. 0. 0. 0. 0. 3. 0. 0. 0. 1. 255. 254. 255. 255. 0.
      253. 255. 0. 0. 255. 0. 0. 1. 3. 0. 0. 3. 0. 1. 0. 0. 3. 255. 253.
      255. 255. 255. 255. 0. 0. 1. 0. 0. 1. 0. 1. 0. 0. 0. 1. 0. 1. 253.
      254. 5. 252. 255. 255. 252. 252. 255. 0. 3. 0. 0. 2. 0. 0. 1. 0.
      3. 0. 252. 255. 255. 255. 255. 255. 0. 0. 1. 0. 0. 1. 0. 1. 0. 0.
      2. 0. 1. 1. 254. 0. 255. 0. 255. 253. 255. 255. 255. 255. 0. 3. 1.
      0. 3. 1. 0. 2. 0. 0. 255. 254. 255. 255. 255. 255. 0. 0. 2. 0. 0.
      0. 0. 0. 0. 0. 0. 0. 0. 1. 2. 0. 255. 1. 255. 0. 255. 255. 253.
      255. 0. 2. 0. 0. 0. 0. 0. 1. 0. 0. 255. 255. 255. 255. 249. 255.
      2. 3. 0. 1. 0. 0. 0. 0. 0. 0. 0. 0. 0. 0. 0. 1. 2. 0. 251. 2. 252.
      255. 255. 254. 255. 0. 0. 1. 0. 0. 0. 0. 1. 0. 255. 255. 252. 255.
      255. 0. 0. 0. 1. 0. 0. 0. 0. 0. 0. 0. 0. 0. 0. 0. 3. 0. 0. 0. 7.
      0. 255. 0. 255. 254. 255. 255. 1. 0. 0. 0. 2. 0. 0. 0. 255. 254.
      255. 253. 255. 0. 0. 1. 1. 0. 3. 0. 0. 0. 0. 0. 0. 0. 0. 0. 0. 0.
      1. 1. 0. 0. 255. 255. 253. 255. 252. 254. 2. 0. 0. 3. 0. 0. 0. 4.
      255. 252. 254. 255. 253. 3. 2. 0. 0. 2. 0. 0. 0. 0. 0. 0. 0. 0. 0.
      0. 2. 0. 2. 0. 0. 3. 0. 251. 255. 255. 255. 255. 0. 0. 2. 1. 0. 1.
      0. 0. 253. 255. 254. 254. 255. 0. 0. 3. 1. 0. 0. 0. 0. 0. 0. 0. 0.
      0. 0. 1. 0. 3. 1. 0. 0. 1. 0. 3. 0. 250. 255. 255. 0. 2. 0. 0. 3.
      1. 1. 3. 255. 255. 255. 255. 254. 4. 0. 0. 2. 0. 1. 0. 0. 0. 0. 0.
      0. 0. 0. 0. 0. 2. 0. 3. 0. 2. 0. 0. 3. 255. 252. 253. 0. 0. 2. 0.
      1. 0. 0. 0. 254. 255. 255. 255. 255. 0. 0. 2. 0. 1. 0. 0. 0. 0. 0.
      0. 0. 0. 0. 1. 1. 0. 0. 0. 3. 0. 2. 0. 255. 0. 255. 255. 1. 0. 0.
      0. 0. 0. 2. 2. 0. 255. 254. 254. 254. 1. 1. 1. 0. 3. 0. 0. 0. 0.
      0. 0. 0. 0. 0. 0. 0. 0. 1. 0. 1. 0. 0. 1. 254. 254. 253. 255. 0.
      0. 2. 0. 2. 0. 0. 1. 0. 0. 255. 255. 254. 1. 0. 0. 5. 0. 0. 0. 0.
      0. 0. 0. 0. 0. 0. 1. 0. 1. 0. 0. 0. 0. 255. 255. 253. 255. 255.
      250. 0. 3. 0. 4. 0. 1. 0. 1. 0. 0. 255. 253. 253. 1. 1. 1. 0. 0.
      2. 0. 0. 0. 0. 0. 0. 0. 0. 1. 0. 1. 0. 0. 0. 0. 255. 255. 255.
      255. 253. 255. 1. 0. 1. 0. 4. 0. 1. 3. 0. 1. 253. 255. 6. 0. 0. 0.
      0. 1. 0. 0. 0. 0. 0. 0. 0. 0. 0. 0. 0. 0. 1. 0. 1. 0. 0. 255. 255.
      254. 255. 255. 0. 2. 0. 0. 1. 0. 0. 0. 2. 3. 255. 255. 0. 2. 3. 0.
      0. 0. 0. 0. 0. 0. 0. 0. 0. 0. 0. 0. 0. 0. 1. 0. 1. 0. 0. 254. 255.
      0. 255. 252. 2. 0. 2. 1. 0. 0. 0. 1. 0. 0. 255. 255. 0. 0. 3. 1.
      0. 0. 0. 0. 0. 0. 0. 0. 0. 0. 0. 1. 0. 1. 0. 0. 0. 0. 255. 255.
      253. 2. 253. 255. 255. 0. 0. 1. 0. 1. 3. 0. 3. 1. 255. 255. 1. 3.
      0. 0. 0. 0. 0. 0. 0. 0. 0. 0. 0. 0. 0. 1. 0. 1. 0. 0. 0. 0. 255.
      252. 255. 252. 255. 255. 253. 2. 0. 1. 0. 0. 0. 3. 0. 0. 254. 0.
      0. 0. 2. 1. 0. 2. 0. 0. 0. 0. 0. 0. 0. 0. 0. 0. 0. 0. 1. 0. 1. 0.
      0. 255. 255. 255. 253. 255. 1. 0. 1. 0. 3. 0. 0. 1. 0. 1. 0.</_>
    <_>
      0. 1. 2. 0. 0. 1. 0. 0. 0. 0. 0. 0. 0. 0. 0. 0. 0. 0. 2. 0. 2.
      254. 255. 254. 0. 1. 2. 0. 0. 0. 255. 255. 254. 255. 0. 0. 0. 1.
      0. 3. 0. 0. 0. 1. 2. 0. 0. 5. 0. 0. 0. 0. 0. 0. 0. 0. 0. 2. 1. 0.
      0. 255. 255. 255. 2. 0. 0. 1. 0. 5. 253. 255. 255. 250. 0. 0. 1.
      1. 1. 0. 255. 0. 3. 1. 0. 1. 1. 0. 0. 0. 0. 0. 0. 0. 0. 0. 0. 1.
      0. 1. 4. 254. 254. 255. 0. 0. 2. 0. 1. 0. 255. 0. 254. 255. 2. 2.
      0. 3. 0. 1. 255. 0. 2. 1. 1. 0. 3. 2. 0. 0. 0. 0. 0. 0. 0. 0. 2.
      0. 2. 1. 0. 0. 255. 252. 0. 1. 0. 2. 0. 2. 254. 0. 255. 255. 0. 0.
      0. 0. 3. 0. 254. 2. 0. 0. 0. 2. 0. 1. 0. 0. 0. 0. 0. 0. 0. 0. 3.
      0. 0. 0. 1. 2. 255. 255. 0. 0. 0. 0. 1. 0. 255. 0. 253. 255. 0. 1.
      1. 0. 1. 255. 255. 0. 2. 0. 2. 0. 4. 1. 0. 0. 0. 0. 0. 0. 0. 0. 0.
      1. 4. 0. 0. 0. 255. 255. 0. 3. 0. 0. 0. 0. 254. 1. 255. 255. 0. 4.
      0. 0. 2. 253. 255. 0. 0. 0. 0. 1. 0. 0. 0. 0. 0. 0. 0. 0. 0. 0. 4.
      0. 0. 0. 0. 3. 1. 255. 0. 0. 0. 2. 0. 255. 255. 0. 255. 252. 0. 0.
      2. 0. 0. 255. 255. 0. 0. 2. 0. 0. 2. 1. 0. 0. 0. 0. 0. 0. 0. 0. 0.
      0. 1. 0. 1. 1. 0. 255. 3. 0. 1. 0. 0. 254. 255. 0. 254. 255. 0. 0.
      1. 0. 2. 0. 255. 0. 0. 0. 0. 0. 0. 0. 0. 0. 0. 0. 0. 0. 0. 0. 0.
      0. 0. 0. 0. 0. 0. 255. 1. 0. 0. 4. 0. 255. 254. 0. 255. 255. 0. 1.
      0. 0. 0. 0. 255. 0. 0. 0. 0. 0. 0. 0. 0. 0. 0. 0. 0. 0. 0. 0. 0.
      0. 0. 0. 0. 0. 0. 255. 0. 1. 0. 0. 0. 255. 255. 0. 255. 255. 0. 1.
      0. 0. 0. 0. 255. 0. 0. 0. 0. 0. 0. 0. 0. 0. 0. 0. 0. 0. 0. 0. 0.
      0. 0. 0. 0. 0. 0. 255. 4. 0. 2. 0. 2. 254. 253. 3. 255. 255. 0. 1.
      0. 0. 0. 0. 255. 0. 0. 0. 0. 0. 0. 0. 0. 0. 0. 0. 0. 0. 0. 0. 0.
      0. 0. 0. 0. 0. 0. 255. 0. 0. 0. 1. 0. 255. 3. 0. 255. 255. 0. 1.
      0. 0. 0. 0. 255. 0. 0. 0. 0. 0. 0. 0. 0. 0. 0. 0. 0. 0. 0. 0. 0.
      0. 0. 0. 0. 0. 0. 255. 3. 1. 0. 1. 0. 254. 255. 0. 255. 255. 0. 1.
      0. 0. 0. 0. 255. 0. 0. 0. 0. 0. 0. 0. 0. 0. 0. 0. 0. 0. 0. 0. 0.
      0. 0. 0. 0. 0. 0. 255. 0. 0. 2. 0. 3. 255. 251. 2. 255. 255. 0. 1.
      0. 0. 0. 0. 255. 0. 0. 0. 0. 0. 0. 0. 0. 0. 0. 0. 0. 0. 0. 0. 0.
      0. 0. 0. 0. 0. 0. 255. 0. 2. 1. 0. 0. 255. 0. 2. 255. 255. 0. 1.
      0. 0. 0. 0. 255. 0. 0. 0. 0. 0. 0. 0. 0. 0. 0. 0. 0. 0. 0. 0. 0.
      0. 0. 0. 0. 0. 0. 255. 0. 0. 0. 0. 255. 255. 1. 0. 255. 255. 0. 1.
      0. 0. 0. 0. 255. 0. 0. 0. 0. 0. 0. 0. 0. 0. 0. 0. 0. 0. 0. 0. 0.
      0. 0. 0. 0. 0. 0. 255. 2. 0. 1. 2. 255. 255. 0. 0. 255. 255. 0. 0.
      0. 0. 1. 0. 255. 0. 0. 0. 0. 0. 0. 0. 0. 0. 0. 0. 0. 0. 0. 0. 0.
      0. 0. 0. 0. 0. 0. 255. 255. 5. 0. 0. 255. 255. 0. 3. 254. 255. 4.
      0. 1. 3. 0. 0. 255. 0. 0. 0. 0. 0. 0. 0. 0. 0. 0. 0. 0. 0. 0. 0.
      0. 0. 0. 0. 0. 0. 0. 255. 0. 0. 0. 0. 255. 254. 0. 0. 255. 253. 0.
      0. 1. 0. 0. 3. 255. 0. 0. 0. 0. 0. 0. 0. 0. 0. 0. 0. 0. 0. 0. 0.
      0. 0. 0. 0. 0. 0. 0. 255. 0. 1. 1. 0. 254. 254. 2. 2. 0. 255. 1.
      0. 1. 0. 0. 1. 255. 0. 0. 0. 0. 0. 0. 0. 0. 0. 0. 0. 0. 0. 0. 0.
      0. 0. 0. 0. 0. 0. 0. 255. 0. 1. 0. 0. 255. 255. 0. 0. 2. 251. 0.
      0. 0. 1. 4. 0. 255. 0. 0. 0. 0. 0. 0. 0. 0. 0. 0. 0. 0. 0. 0. 0.
      0. 0. 0. 0. 0. 0. 0. 255. 0. 0. 0. 0. 255. 254. 2. 1. 0. 255. 0.
      3. 0. 1. 0. 3. 255. 0. 0. 0. 0. 0. 0. 0. 0. 0. 0. 0. 0. 0. 0. 0.
      0. 0. 0. 0. 0. 0. 0. 255. 255. 1. 1. 0. 254. 255. 0. 0. 0. 255. 0.
      0. 4. 0. 4. 0. 255. 0. 0. 0. 0. 0. 0. 0. 0. 0. 0. 0. 0. 0. 0. 0.
      0. 0. 0. 0. 0. 0. 0. 255. 255. 0. 0. 0. 255. 251. 255. 0. 0. 255.
      1. 0. 0. 1. 0. 0. 255. 0. 0. 0. 0. 0. 0. 0. 0. 0. 0. 0. 0. 0. 0.
      0. 0. 2. 0. 0. 1. 0. 0. 255. 0. 0. 0. 1. 255. 255. 255. 255. 0.
      255. 0. 0. 2. 0. 3. 0. 255. 0. 0. 0. 0. 0. 0. 0. 0. 0. 0. 0. 0. 0.
      0. 0. 4. 0. 1. 0. 1. 0. 0. 255. 1. 0. 2. 0. 255. 255. 252. 255.
      255. 255. 255. 0. 1. 0. 0. 3. 255. 0. 0. 0. 0. 0. 0. 0. 0. 0. 0.
      0. 0. 0. 0. 0. 0. 4. 0. 1. 3. 0. 1. 253. 0. 0. 1. 2. 255. 252.
      254. 255. 255. 252. 255. 0. 0. 3. 2. 0. 255. 0. 0. 0. 0. 0. 0. 0.
      0. 0. 0. 0. 0. 0. 0. 0. 0. 1. 0. 0. 0. 2. 3. 255. 255. 0. 0. 0.
      255. 255. 255. 253. 255. 255. 253. 255. 0. 0. 0. 1. 255. 0. 0. 0.
      0. 0. 0. 0. 0. 0. 0. 0. 0. 0. 0. 0. 1. 0. 0. 0. 1. 0. 0. 255. 255.
      0. 0. 0. 255. 255. 255. 253. 255. 250. 255. 254. 0. 0. 0. 0. 255.
      0. 0. 0. 0. 0. 0. 0. 0. 0. 0. 0. 0. 0. 0. 0. 1. 0. 1. 3. 0. 3. 1.
      255. 0. 0. 1. 2. 255. 252. 254. 255. 255. 255. 255. 255. 0. 1. 3.
      0. 255. 0. 0. 0. 0. 0. 0. 0. 0. 0. 0. 0. 0. 0. 0. 0. 1. 0. 0. 0.
      3. 0. 0. 254. 1. 0. 2. 0. 255. 255. 252. 255. 255. 252. 254. 255.
      0. 1. 1. 0. 255. 0. 0. 0. 0. 0. 0. 0. 0. 0. 0. 0. 0. 0. 0. 0. 0.
      3. 0. 0. 1. 0. 1. 0. 0. 0. 0. 1. 255. 255. 255. 255. 255. 255.
      255. 254. 5. 0. 0. 1. 255. 0. 0. 2. 0. 0. 2. 1. 0. 0. 0. 0. 0. 0.
      0. 0. 0. 0. 0. 0. 0. 0. 0. 0. 1. 0. 0. 2. 0. 0. 1. 255. 255. 255.
      255. 255. 0. 0. 1. 0. 255. 0. 0. 0. 0. 1. 0. 0. 0. 0. 0. 0. 0. 0.
      0. 0. 0. 0. 0. 0. 0. 0. 0. 0. 0. 3. 1. 0. 0. 0. 1. 1. 1. 255. 254.
      255. 2. 0. 1. 0. 255. 0. 2. 0. 2. 0. 4. 1. 0. 0. 0. 0. 0. 0. 0. 0.
      0. 0. 0. 0. 0. 0. 0. 0. 0. 2. 0. 0. 4. 0. 0. 0. 0. 255. 254. 255.
      0. 0. 0. 0. 254. 2. 0. 0. 0. 2. 0. 1. 0. 0. 0. 0. 0. 0. 0. 0. 0.
      0. 0. 0. 0. 0. 0. 0. 0. 0. 0. 1. 0. 2. 1. 1. 2. 254. 255. 0. 0. 0.
      3. 1. 255. 0. 2. 1. 1. 0. 3. 2. 0. 0. 0. 0. 0. 0. 0. 0. 0. 0. 0.
      0. 0. 0. 0. 0. 2. 0. 0. 0. 2. 0. 0. 0. 0. 255. 255. 0. 3. 0. 0. 0.
      255. 0. 3. 1. 0. 1. 1. 0. 0. 0. 0. 0. 0. 0. 0. 0. 0. 0. 0. 0. 0.
      0. 0. 0. 2. 0. 1. 0. 0. 1. 1. 2. 3. 255. 255. 0. 0. 5. 0. 0. 0. 0.
      0. 1. 2. 0. 0. 5. 0. 0. 0. 0. 0. 0. 0. 0. 0. 0. 0. 0. 0. 0. 0. 0.
      0. 5. 0. 3. 0. 0. 2. 0. 0. 253. 254. 2. 0. 0. 0. 3. 0. 1. 2. 0. 0.
      1. 0. 0. 0. 0. 0. 0. 0. 0. 0. 0. 0. 0. 0. 0. 0. 0. 0. 0. 1. 0. 1.
      0. 0. 0. 3. 0. 1. 254. 255. 0. 1. 0. 3. 0.</_>
    <_>
      0. 0. 0. 0. 1. 2. 0. 0. 0. 0. 0. 0. 0. 0. 0. 0. 0. 0. 0. 1. 2. 0.
      253. 255. 255. 255. 252. 0. 0. 1. 0. 0. 0. 0. 1. 0. 0. 0. 1. 254.
      2. 0. 3. 0. 0. 0. 3. 0. 0. 0. 0. 0. 0. 0. 0. 0. 0. 3. 0. 0. 1. 0.
      255. 255. 254. 250. 255. 255. 1. 0. 2. 0. 0. 2. 0. 0. 1. 3. 0.
      255. 0. 0. 0. 3. 0. 0. 0. 1. 0. 0. 0. 0. 0. 0. 0. 0. 1. 0. 0. 1.
      2. 0. 255. 251. 255. 255. 255. 254. 0. 7. 1. 1. 0. 0. 1. 3. 0. 0.
      0. 255. 255. 3. 0. 0. 0. 1. 0. 0. 0. 0. 0. 0. 0. 0. 0. 0. 0. 0. 1.
      0. 0. 0. 1. 255. 253. 255. 254. 255. 0. 0. 0. 0. 0. 1. 1. 0. 3. 2.
      0. 254. 255. 0. 3. 0. 0. 2. 0. 1. 0. 0. 0. 0. 0. 0. 0. 0. 2. 0. 0.
      0. 2. 3. 0. 255. 255. 255. 252. 254. 0. 2. 0. 3. 1. 0. 2. 1. 0. 0.
      0. 255. 255. 253. 0. 2. 1. 0. 2. 0. 0. 0. 0. 0. 0. 0. 0. 0. 1. 0.
      0. 0. 0. 0. 255. 253. 255. 254. 255. 0. 1. 1. 0. 0. 1. 0. 0. 2. 0.
      255. 254. 255. 255. 255. 0. 0. 1. 1. 0. 0. 0. 0. 0. 0. 0. 0. 0. 0.
      0. 2. 0. 1. 0. 3. 254. 254. 254. 255. 255. 1. 0. 0. 0. 0. 0. 2. 2.
      0. 1. 255. 254. 253. 254. 255. 0. 0. 2. 0. 2. 0. 0. 0. 0. 0. 0. 0.
      0. 0. 0. 0. 1. 0. 1. 255. 255. 255. 255. 255. 253. 255. 1. 0. 0.
      3. 0. 0. 0. 2. 0. 255. 255. 255. 255. 255. 0. 2. 2. 0. 0. 0. 0. 2.
      0. 0. 3. 0. 0. 0. 1. 1. 0. 1. 0. 0. 255. 0. 252. 255. 255. 255. 0.
      0. 0. 0. 0. 1. 0. 0. 0. 255. 255. 255. 253. 255. 0. 0. 0. 2. 0. 0.
      1. 0. 0. 0. 0. 2. 0. 1. 0. 0. 4. 0. 4. 0. 253. 0. 255. 252. 0. 0.
      2. 2. 3. 0. 0. 0. 0. 3. 2. 1. 252. 255. 255. 250. 255. 0. 3. 0. 0.
      0. 2. 0. 0. 2. 1. 0. 1. 0. 0. 2. 0. 3. 0. 0. 0. 255. 255. 255. 1.
      1. 0. 0. 0. 3. 2. 0. 0. 0. 0. 0. 255. 254. 255. 255. 255. 0. 0. 0.
      4. 0. 0. 4. 0. 1. 0. 2. 1. 0. 0. 1. 0. 0. 255. 255. 255. 252. 254.
      254. 0. 0. 0. 2. 0. 0. 0. 3. 0. 1. 3. 2. 252. 255. 253. 255. 253.
      0. 1. 0. 0. 2. 0. 0. 2. 0. 0. 1. 0. 2. 0. 2. 0. 254. 254. 252. 0.
      255. 255. 255. 1. 0. 1. 0. 0. 4. 0. 3. 0. 1. 0. 0. 255. 255. 255.
      253. 255. 3. 0. 0. 1. 0. 0. 1. 3. 0. 2. 0. 1. 254. 255. 0. 4. 255.
      254. 255. 5. 254. 255. 0. 0. 0. 3. 0. 0. 0. 1. 0. 1. 1. 0. 0. 255.
      251. 255. 255. 252. 0. 3. 0. 1. 0. 2. 0. 0. 1. 0. 1. 252. 255.
      254. 0. 255. 253. 255. 254. 251. 2. 255. 1. 3. 0. 0. 1. 0. 1. 0.
      1. 0. 0. 3. 0. 255. 255. 255. 254. 255. 0. 0. 2. 0. 1. 0. 3. 0. 0.
      1. 0. 255. 255. 255. 1. 255. 252. 2. 255. 254. 1. 255. 0. 0. 0. 0.
      0. 1. 0. 0. 1. 0. 1. 0. 0. 254. 255. 255. 255. 255. 0. 0. 2. 0. 0.
      0. 4. 0. 1. 0. 255. 255. 254. 255. 254. 254. 254. 0. 255. 0. 0. 0.
      0. 0. 1. 0. 3. 0. 0. 0. 0. 1. 0. 0. 2. 254. 255. 255. 249. 255. 2.
      3. 0. 1. 0. 2. 0. 0. 0. 1. 255. 252. 255. 255. 255. 254. 255. 255.
      0. 1. 2. 1. 4. 1. 0. 0. 0. 5. 0. 2. 0. 0. 0. 0. 250. 255. 254.
      255. 255. 0. 0. 0. 1. 0. 0. 0. 3. 0. 0. 1. 253. 255. 254. 0. 255.
      255. 254. 255. 253. 251. 2. 0. 0. 0. 1. 0. 1. 0. 2. 0. 0. 0. 3. 0.
      255. 255. 253. 253. 255. 0. 0. 1. 1. 0. 3. 0. 1. 0. 1. 0. 255. 2.
      255. 0. 255. 253. 255. 1. 255. 255. 0. 255. 2. 1. 0. 0. 0. 0. 0.
      1. 2. 2. 0. 0. 255. 251. 255. 255. 253. 3. 2. 0. 0. 2. 0. 1. 1. 1.
      2. 0. 251. 0. 255. 253. 255. 254. 255. 0. 255. 254. 253. 255. 0.
      0. 0. 1. 0. 0. 0. 0. 0. 0. 3. 0. 254. 254. 255. 254. 255. 0. 0. 3.
      1. 0. 0. 0. 0. 0. 0. 2. 255. 255. 254. 255. 254. 255. 252. 1. 253.
      255. 255. 255. 255. 1. 0. 0. 0. 0. 1. 0. 1. 0. 0. 254. 255. 255.
      252. 255. 254. 4. 0. 0. 2. 0. 1. 0. 2. 0. 0. 0. 255. 250. 3. 255.
      255. 255. 255. 0. 255. 255. 254. 255. 250. 255. 3. 0. 0. 1. 0. 2.
      0. 1. 0. 255. 255. 253. 255. 255. 255. 0. 0. 2. 0. 1. 0. 0. 0. 2.
      1. 0. 0. 3. 0. 255. 254. 0. 0. 3. 253. 255. 255. 254. 255. 254. 0.
      0. 1. 1. 0. 0. 0. 0. 1. 253. 254. 255. 255. 255. 255. 0. 1. 0. 0.
      0. 0. 0. 0. 0. 0. 0. 0. 0. 0. 2. 0. 0. 2. 0. 255. 254. 255. 255.
      254. 254. 1. 0. 0. 0. 2. 1. 0. 0. 0. 255. 254. 255. 255. 255. 255.
      0. 1. 0. 0. 0. 0. 0. 0. 0. 0. 0. 0. 0. 0. 0. 5. 0. 0. 0. 255. 255.
      253. 254. 254. 255. 0. 1. 0. 0. 0. 0. 1. 4. 0. 0. 255. 255. 255.
      255. 255. 0. 1. 0. 0. 0. 0. 0. 0. 0. 0. 0. 0. 0. 0. 1. 0. 0. 3. 0.
      0. 254. 255. 255. 255. 254. 255. 0. 1. 2. 0. 0. 1. 0. 1. 0. 255.
      253. 255. 255. 255. 0. 1. 0. 0. 0. 0. 0. 0. 0. 0. 0. 0. 0. 0. 0.
      2. 0. 0. 0. 1. 255. 255. 255. 254. 255. 254. 0. 0. 0. 0. 1. 2. 0.
      0. 1. 255. 255. 255. 255. 255. 0. 1. 0. 0. 0. 0. 0. 0. 0. 0. 0. 0.
      0. 0. 1. 0. 0. 0. 4. 0. 2. 251. 255. 255. 255. 255. 1. 0. 1. 0. 2.
      0. 5. 2. 0. 0. 255. 255. 255. 255. 0. 1. 0. 0. 0. 0. 0. 0. 0. 0.
      0. 0. 0. 0. 0. 3. 3. 0. 0. 1. 0. 3. 255. 253. 254. 255. 0. 1. 0.
      0. 0. 3. 0. 0. 3. 3. 252. 255. 255. 255. 0. 1. 0. 0. 0. 0. 0. 0.
      0. 0. 0. 0. 0. 0. 0. 0. 0. 0. 3. 0. 1. 0. 255. 255. 255. 254. 255.
      0. 1. 1. 0. 0. 4. 0. 0. 2. 252. 255. 255. 255. 0. 1. 0. 0. 0. 0.
      0. 0. 0. 0. 0. 0. 0. 0. 2. 0. 3. 2. 0. 1. 0. 1. 253. 255. 255.
      255. 254. 1. 1. 0. 0. 0. 0. 1. 0. 0. 255. 255. 254. 254. 0. 0. 0.
      0. 2. 0. 0. 0. 0. 0. 0. 0. 0. 0. 2. 0. 0. 0. 0. 2. 0. 0. 1. 253.
      254. 255. 255. 4. 0. 3. 0. 2. 1. 0. 1. 0. 255. 253. 254. 255. 0.
      0. 3. 0. 0. 1. 0. 0. 0. 0. 0. 0. 0. 0. 0. 1. 3. 0. 0. 0. 0. 255.
      255. 255. 255. 254. 254. 0. 4. 0. 4. 0. 0. 1. 1. 0. 255. 255. 255.
      255. 0. 0. 0. 0. 3. 0. 0. 0. 0. 0. 0. 0. 0. 0. 0. 3. 0. 0. 4. 0.
      0. 255. 255. 253. 255. 255. 255. 0. 0. 2. 0. 0. 3. 0. 0. 2. 1.
      253. 254. 255. 3. 0. 1. 1. 0. 0. 0. 0. 0. 0. 0. 0. 0. 0. 1. 0. 0.
      1. 0. 2. 0. 255. 255. 255. 253. 255. 0. 3. 4. 0. 0. 1. 0. 2. 0. 0.
      0. 255. 255. 0. 0. 0. 0. 0. 0. 3. 0. 0. 0. 0. 0. 0. 0. 0. 1. 0. 0.
      1. 0. 2. 0. 255. 255. 255. 254. 255. 1. 0. 0. 0. 2. 0. 0. 0. 2. 1.
      3. 255. 255. 0. 6. 0. 0. 0. 1. 0. 0. 0. 0. 0. 0. 0. 0. 0. 0. 3. 0.
      0. 4. 0. 0. 255. 254. 255. 255. 255. 2. 0. 0. 2. 0. 1. 1. 0. 0. 0.
      0. 255. 0. 0. 0. 1. 0. 3. 0. 2. 0. 0. 0. 0. 0. 0. 0. 0. 0. 1. 3.
      0. 0. 0. 0. 255. 255. 0. 255. 255. 0. 3. 0. 0. 0. 2. 0. 0. 1. 0.
      2. 253. 0. 4. 0. 1. 0. 0. 0. 0. 0. 0. 0. 0. 0. 0. 0. 0. 2. 0. 0.
      0. 0. 2. 0. 0. 255. 1. 254. 255. 0. 0. 0. 1. 1. 0. 2. 0. 0. 0. 0.
      255.</_>
    <_>
      0. 0. 0. 1. 1. 0. 0. 1. 0. 0. 0. 0. 0. 0. 0. 0. 1. 0. 0. 0. 2. 0.
      0. 255. 255. 255. 255. 255. 0. 0. 0. 0. 0. 0. 0. 0. 1. 0. 0. 0. 0.
      2. 0. 1. 0. 0. 3. 0. 0. 0. 0. 0. 0. 0. 0. 0. 0. 0. 1. 1. 0. 1. 1.
      254. 255. 255. 255. 255. 0. 0. 0. 0. 0. 1. 0. 1. 0. 0. 1. 253.
      255. 2. 2. 0. 2. 0. 0. 1. 0. 0. 0. 0. 0. 0. 0. 0. 2. 1. 0. 2. 0.
      1. 1. 255. 255. 255. 255. 255. 0. 0. 0. 0. 0. 1. 0. 0. 2. 0. 2.
      255. 255. 0. 0. 0. 0. 2. 1. 0. 0. 0. 0. 0. 0. 0. 0. 0. 0. 0. 1. 0.
      3. 0. 0. 255. 255. 255. 255. 255. 0. 0. 0. 0. 0. 1. 0. 0. 4. 0.
      250. 255. 255. 3. 1. 2. 0. 1. 0. 1. 0. 0. 0. 0. 0. 0. 0. 0. 3. 0.
      0. 0. 0. 0. 2. 254. 255. 255. 255. 255. 0. 0. 0. 0. 0. 2. 0. 0. 0.
      0. 255. 255. 254. 0. 0. 0. 2. 2. 0. 0. 0. 0. 0. 0. 0. 0. 0. 0. 0.
      1. 0. 0. 4. 0. 0. 255. 255. 255. 255. 255. 0. 0. 0. 0. 0. 0. 0. 0.
      0. 1. 255. 253. 255. 254. 0. 2. 0. 1. 0. 1. 0. 0. 0. 0. 0. 0. 0.
      0. 0. 5. 0. 0. 0. 255. 255. 255. 255. 255. 255. 255. 0. 0. 0. 0.
      1. 0. 6. 0. 1. 0. 254. 255. 255. 255. 0. 0. 2. 0. 0. 0. 0. 0. 0.
      0. 0. 0. 0. 0. 0. 0. 0. 4. 0. 1. 255. 254. 255. 255. 255. 255. 0.
      0. 0. 0. 0. 1. 0. 0. 0. 3. 254. 255. 254. 255. 0. 0. 1. 2. 0. 4.
      0. 3. 0. 1. 0. 0. 1. 1. 3. 0. 2. 0. 0. 2. 0. 1. 253. 255. 253. 1.
      0. 3. 0. 2. 0. 2. 0. 0. 1. 0. 254. 255. 255. 252. 3. 0. 0. 0. 3.
      0. 0. 0. 1. 0. 4. 0. 2. 0. 0. 2. 0. 1. 2. 0. 2. 0. 255. 255. 254.
      0. 1. 0. 1. 0. 2. 2. 0. 0. 0. 0. 255. 251. 252. 255. 0. 0. 0. 0.
      1. 0. 2. 1. 0. 3. 0. 0. 2. 2. 2. 0. 0. 1. 2. 255. 253. 255. 255.
      250. 255. 1. 0. 3. 2. 0. 0. 0. 1. 0. 1. 0. 254. 255. 255. 254. 0.
      1. 0. 0. 1. 0. 1. 0. 2. 0. 0. 2. 0. 0. 0. 0. 0. 2. 0. 255. 255. 0.
      255. 255. 255. 0. 2. 3. 0. 0. 0. 0. 1. 1. 0. 1. 253. 255. 253.
      255. 0. 1. 1. 1. 0. 1. 0. 5. 1. 0. 2. 1. 0. 1. 0. 1. 3. 1. 2. 253.
      255. 0. 254. 254. 0. 0. 0. 0. 1. 3. 0. 1. 0. 0. 0. 255. 255. 255.
      254. 255. 255. 0. 0. 0. 0. 0. 0. 0. 0. 0. 0. 0. 255. 0. 2. 0. 0.
      255. 0. 254. 255. 253. 0. 0. 1. 0. 1. 4. 2. 0. 0. 2. 0. 3. 4. 1.
      254. 255. 255. 255. 252. 2. 2. 1. 1. 0. 4. 0. 2. 0. 1. 255. 255.
      0. 255. 254. 4. 255. 3. 254. 255. 255. 0. 255. 0. 0. 0. 0. 0. 0.
      2. 0. 1. 0. 0. 1. 255. 254. 254. 254. 255. 1. 0. 0. 0. 1. 0. 0. 2.
      0. 0. 0. 0. 255. 253. 255. 0. 252. 255. 255. 255. 0. 2. 0. 0. 1.
      1. 1. 1. 0. 0. 3. 0. 2. 0. 0. 255. 255. 255. 254. 255. 0. 0. 2. 0.
      1. 0. 1. 0. 2. 0. 0. 1. 254. 255. 255. 1. 254. 255. 0. 0. 0. 0. 1.
      0. 1. 0. 2. 0. 2. 0. 0. 1. 0. 0. 255. 255. 255. 255. 255. 252. 0.
      3. 0. 1. 0. 0. 1. 0. 0. 1. 0. 255. 0. 255. 250. 3. 255. 254. 2. 2.
      0. 0. 0. 0. 0. 0. 0. 5. 0. 0. 0. 1. 0. 0. 255. 255. 255. 255. 253.
      255. 3. 0. 0. 1. 0. 2. 0. 0. 1. 0. 2. 254. 255. 252. 255. 0. 255.
      255. 255. 0. 0. 1. 2. 1. 1. 0. 1. 0. 0. 0. 0. 1. 0. 0. 255. 255.
      255. 253. 255. 253. 0. 1. 0. 0. 2. 0. 2. 0. 0. 0. 0. 255. 255.
      255. 254. 0. 0. 1. 254. 0. 255. 255. 0. 0. 0. 0. 0. 0. 2. 0. 0. 1.
      0. 0. 255. 255. 255. 255. 255. 255. 0. 0. 0. 4. 0. 0. 0. 2. 4. 1.
      0. 0. 253. 1. 255. 0. 6. 253. 1. 255. 253. 252. 255. 2. 1. 1. 1.
      0. 1. 0. 0. 1. 0. 0. 255. 255. 255. 255. 250. 255. 0. 3. 0. 0. 0.
      0. 0. 0. 0. 0. 0. 4. 254. 0. 255. 255. 255. 254. 254. 253. 255.
      255. 254. 0. 0. 0. 4. 1. 0. 0. 0. 1. 0. 0. 255. 255. 255. 253.
      255. 0. 0. 0. 2. 0. 0. 0. 2. 0. 2. 1. 1. 0. 2. 2. 0. 255. 252.
      255. 255. 255. 254. 253. 255. 254. 255. 1. 0. 0. 1. 0. 0. 1. 0. 0.
      255. 255. 255. 255. 255. 0. 2. 2. 0. 0. 0. 0. 0. 3. 0. 0. 0. 0. 0.
      0. 2. 0. 1. 255. 252. 0. 255. 255. 253. 255. 255. 0. 0. 1. 0. 0.
      0. 1. 0. 0. 255. 255. 255. 255. 255. 0. 2. 2. 0. 0. 0. 0. 0. 0. 0.
      0. 0. 0. 0. 1. 0. 0. 0. 3. 255. 1. 254. 255. 252. 1. 255. 0. 2. 0.
      0. 0. 2. 0. 1. 0. 254. 255. 255. 253. 255. 0. 0. 0. 2. 0. 0. 0. 0.
      0. 0. 0. 0. 0. 0. 0. 3. 1. 0. 0. 254. 0. 2. 253. 255. 1. 255. 0.
      0. 0. 3. 0. 0. 1. 0. 0. 255. 255. 253. 255. 250. 255. 0. 3. 0. 0.
      0. 0. 0. 0. 0. 0. 0. 0. 0. 0. 4. 0. 0. 1. 3. 0. 0. 1. 253. 254.
      253. 2. 2. 0. 0. 1. 0. 1. 1. 0. 255. 255. 254. 255. 255. 255. 0.
      0. 0. 4. 0. 0. 0. 0. 0. 0. 0. 0. 0. 2. 0. 0. 1. 0. 1. 0. 1. 1.
      255. 254. 255. 0. 0. 3. 0. 0. 2. 0. 1. 0. 254. 253. 255. 253. 255.
      253. 0. 1. 0. 0. 2. 0. 0. 0. 0. 0. 0. 0. 0. 1. 0. 0. 0. 0. 0. 2.
      0. 0. 2. 255. 252. 0. 0. 1. 0. 0. 0. 2. 0. 2. 0. 255. 252. 255.
      253. 255. 3. 0. 0. 1. 0. 0. 0. 0. 0. 0. 0. 0. 0. 0. 4. 0. 1. 1. 1.
      0. 1. 1. 0. 254. 255. 254. 1. 0. 2. 0. 1. 0. 0. 1. 0. 254. 255.
      255. 255. 252. 0. 3. 0. 1. 0. 0. 0. 0. 0. 0. 0. 0. 0. 3. 0. 0. 0.
      0. 0. 4. 0. 0. 255. 0. 254. 252. 6. 0. 0. 1. 1. 0. 0. 1. 0. 255.
      255. 255. 254. 255. 0. 0. 2. 0. 1. 0. 0. 0. 0. 0. 0. 0. 0. 0. 0.
      0. 2. 1. 0. 0. 0. 255. 255. 0. 255. 254. 0. 1. 0. 1. 0. 1. 0. 1.
      0. 255. 254. 255. 254. 255. 0. 0. 0. 0. 0. 0. 0. 0. 0. 0. 0. 0. 0.
      2. 0. 0. 2. 0. 2. 1. 0. 255. 251. 255. 255. 255. 0. 1. 0. 2. 0. 1.
      0. 0. 1. 255. 255. 255. 251. 3. 0. 0. 0. 2. 0. 0. 0. 0. 0. 0. 0.
      0. 0. 0. 3. 2. 0. 0. 0. 0. 255. 252. 255. 252. 252. 255. 1. 3. 0.
      0. 0. 0. 2. 0. 0. 255. 255. 255. 255. 0. 0. 0. 4. 0. 1. 0. 0. 0.
      0. 0. 0. 0. 0. 1. 0. 1. 0. 2. 0. 0. 255. 255. 254. 255. 255. 254.
      253. 0. 1. 1. 3. 2. 0. 2. 0. 0. 255. 254. 253. 0. 1. 2. 0. 1. 1.
      0. 0. 0. 0. 0. 0. 0. 0. 0. 0. 0. 4. 0. 0. 0. 0. 255. 255. 252.
      255. 253. 3. 1. 1. 0. 0. 2. 1. 1. 0. 0. 255. 255. 255. 0. 1. 0. 2.
      2. 0. 0. 0. 0. 0. 0. 0. 0. 0. 3. 0. 1. 0. 0. 4. 1. 0. 1. 254. 1.
      255. 255. 1. 0. 0. 0. 2. 0. 4. 0. 1. 2. 253. 254. 255. 0. 0. 0. 1.
      0. 4. 0. 0. 0. 0. 0. 0. 0. 0. 0. 4. 0. 2. 0. 0. 0. 0. 0. 255. 2.
      253. 250. 0. 4. 0. 3. 0. 0. 0. 1. 0. 0. 1. 255. 254. 1. 0. 1. 2.
      1. 0. 0. 0. 0. 0. 0. 0. 0. 0. 0. 2. 0. 0. 2. 0. 1. 0. 255. 3. 0.
      255. 255. 4. 0. 1. 0. 2. 1. 1. 0. 1. 1. 0. 255. 0. 2. 0. 0. 0. 1.
      0. 0. 0. 0. 0. 0. 0. 0. 0. 1. 0. 1. 0. 1. 1. 0. 0. 255. 1. 0. 255.
      255. 0. 0. 1. 3. 0. 0. 0. 3. 0. 0. 1.</_>
    <_>
      255. 0. 1. 0. 1. 0. 0. 2. 0. 0. 0. 0. 0. 0. 0. 0. 0. 1. 2. 0. 1.
      0. 255. 0. 255. 254. 255. 254. 0. 1. 0. 0. 0. 0. 0. 0. 1. 0. 255.
      255. 253. 0. 4. 0. 0. 1. 4. 0. 0. 0. 0. 0. 0. 0. 0. 0. 2. 0. 0. 0.
      3. 254. 253. 1. 255. 255. 0. 254. 1. 4. 0. 1. 0. 0. 0. 0. 1. 0.
      255. 255. 255. 254. 0. 0. 0. 0. 0. 1. 0. 0. 0. 0. 0. 0. 0. 0. 0.
      3. 0. 0. 0. 255. 252. 255. 254. 254. 1. 255. 2. 0. 0. 0. 0. 0. 0.
      0. 1. 0. 255. 255. 254. 255. 2. 0. 0. 2. 0. 1. 0. 0. 0. 0. 0. 0.
      0. 0. 1. 0. 1. 1. 0. 0. 255. 255. 253. 254. 255. 0. 0. 3. 0. 2. 0.
      0. 0. 0. 1. 0. 255. 255. 255. 251. 0. 0. 2. 1. 1. 0. 0. 0. 0. 0.
      0. 0. 0. 0. 0. 1. 1. 0. 1. 0. 254. 255. 255. 255. 255. 0. 2. 0. 0.
      0. 0. 0. 0. 0. 1. 0. 255. 255. 254. 255. 0. 0. 1. 0. 0. 2. 0. 0.
      0. 0. 0. 0. 0. 0. 0. 2. 0. 0. 0. 3. 0. 255. 255. 250. 255. 2. 0.
      0. 2. 0. 0. 0. 0. 0. 1. 0. 255. 255. 255. 252. 0. 0. 0. 2. 0. 0.
      0. 0. 0. 0. 0. 0. 0. 0. 1. 0. 2. 2. 0. 0. 1. 254. 255. 255. 255.
      0. 0. 4. 0. 0. 0. 0. 0. 0. 1. 0. 255. 255. 255. 255. 0. 2. 0. 0.
      3. 0. 0. 0. 0. 0. 0. 0. 0. 0. 0. 2. 0. 1. 1. 0. 255. 254. 254.
      255. 254. 0. 1. 0. 0. 1. 0. 0. 0. 0. 1. 0. 255. 255. 255. 255. 0.
      0. 2. 0. 1. 0. 0. 2. 0. 0. 2. 0. 0. 0. 0. 3. 0. 0. 3. 1. 252. 255.
      254. 254. 0. 0. 2. 0. 0. 1. 0. 0. 1. 0. 0. 255. 255. 255. 255.
      254. 4. 0. 0. 2. 0. 1. 0. 0. 1. 2. 0. 0. 0. 1. 1. 0. 0. 3. 0. 1.
      255. 251. 255. 253. 1. 0. 0. 0. 0. 0. 0. 0. 1. 0. 0. 255. 255.
      255. 254. 255. 0. 0. 3. 1. 0. 0. 0. 0. 1. 0. 2. 0. 0. 0. 0. 0. 1.
      0. 255. 251. 255. 255. 254. 255. 0. 0. 0. 0. 5. 0. 0. 0. 1. 0. 0.
      255. 255. 255. 255. 253. 3. 2. 0. 0. 2. 0. 0. 1. 2. 0. 0. 0. 2. 1.
      255. 0. 252. 1. 255. 254. 255. 253. 252. 255. 0. 0. 4. 0. 0. 0. 0.
      0. 1. 0. 0. 255. 255. 255. 253. 255. 0. 0. 1. 1. 0. 3. 0. 0. 0. 1.
      2. 1. 253. 0. 252. 3. 255. 0. 255. 255. 255. 255. 255. 0. 1. 0. 0.
      0. 0. 3. 0. 0. 1. 0. 0. 255. 255. 255. 255. 255. 0. 0. 0. 1. 0. 0.
      0. 1. 0. 1. 0. 1. 255. 1. 255. 0. 254. 254. 254. 255. 0. 255. 1.
      0. 3. 0. 3. 0. 3. 0. 0. 0. 1. 0. 0. 255. 255. 255. 255. 249. 255.
      2. 3. 0. 1. 0. 0. 1. 0. 0. 1. 0. 255. 0. 255. 0. 255. 1. 255. 255.
      0. 255. 0. 1. 0. 0. 0. 1. 0. 2. 0. 0. 1. 0. 0. 255. 255. 255. 255.
      255. 255. 0. 0. 2. 0. 0. 1. 0. 2. 1. 0. 1. 255. 0. 255. 255. 255.
      1. 0. 251. 2. 0. 1. 0. 2. 2. 0. 0. 0. 1. 0. 0. 1. 0. 0. 255. 255.
      255. 255. 255. 255. 0. 0. 1. 0. 0. 0. 3. 0. 0. 3. 0. 255. 0. 255.
      255. 255. 0. 0. 0. 1. 0. 0. 0. 0. 1. 0. 1. 1. 0. 0. 0. 1. 0. 0.
      255. 255. 255. 252. 255. 255. 0. 1. 0. 0. 0. 3. 0. 0. 3. 0. 252.
      252. 4. 252. 255. 253. 3. 0. 254. 2. 0. 2. 0. 2. 0. 0. 0. 2. 0. 0.
      0. 1. 0. 0. 255. 255. 255. 255. 254. 255. 0. 0. 0. 2. 0. 0. 0. 2.
      1. 0. 255. 3. 253. 255. 255. 252. 0. 255. 255. 1. 3. 0. 1. 0. 0.
      0. 3. 0. 2. 0. 0. 1. 0. 0. 255. 255. 255. 254. 252. 255. 4. 0. 0.
      0. 3. 0. 3. 0. 2. 0. 0. 0. 255. 255. 251. 255. 255. 252. 254. 255.
      0. 0. 2. 0. 2. 1. 0. 2. 0. 0. 0. 1. 0. 0. 255. 255. 255. 254. 255.
      253. 0. 0. 1. 0. 1. 1. 1. 0. 0. 2. 1. 4. 253. 254. 255. 255. 254.
      2. 254. 255. 1. 0. 0. 5. 0. 0. 0. 0. 1. 0. 0. 1. 0. 0. 255. 255.
      255. 255. 255. 255. 3. 1. 1. 3. 0. 0. 0. 0. 0. 0. 255. 0. 255.
      255. 0. 255. 252. 0. 255. 249. 255. 255. 253. 1. 0. 1. 2. 0. 0. 0.
      0. 1. 0. 0. 255. 255. 255. 255. 255. 254. 0. 0. 0. 1. 0. 0. 4. 0.
      1. 0. 255. 0. 0. 0. 2. 254. 255. 0. 255. 255. 255. 255. 255. 0. 0.
      1. 0. 0. 0. 0. 0. 1. 0. 0. 255. 255. 255. 254. 255. 0. 2. 2. 0. 0.
      0. 0. 0. 0. 1. 0. 1. 0. 0. 0. 1. 0. 255. 0. 255. 254. 254. 254.
      255. 0. 2. 0. 0. 4. 0. 0. 0. 1. 0. 0. 255. 255. 255. 255. 255. 0.
      1. 0. 0. 0. 0. 0. 0. 0. 0. 0. 0. 0. 0. 3. 1. 0. 254. 2. 1. 254.
      255. 255. 255. 0. 1. 1. 0. 1. 0. 0. 0. 1. 0. 0. 255. 255. 255.
      255. 255. 0. 1. 0. 0. 0. 0. 0. 0. 0. 0. 0. 0. 0. 0. 0. 0. 3. 2. 0.
      2. 250. 255. 254. 255. 255. 0. 0. 4. 0. 3. 0. 0. 1. 0. 0. 255.
      255. 255. 255. 255. 0. 1. 0. 0. 0. 0. 0. 0. 0. 0. 0. 0. 0. 0. 3.
      1. 3. 0. 0. 2. 3. 253. 255. 255. 255. 254. 0. 0. 0. 0. 0. 0. 1. 0.
      0. 255. 255. 255. 255. 255. 0. 1. 0. 0. 0. 0. 0. 0. 0. 0. 0. 0. 0.
      0. 0. 2. 0. 0. 3. 0. 0. 255. 253. 0. 254. 255. 2. 0. 2. 0. 0. 0.
      1. 0. 0. 255. 255. 255. 255. 255. 0. 1. 0. 0. 0. 0. 0. 0. 0. 0. 0.
      0. 0. 0. 0. 2. 0. 3. 0. 1. 0. 0. 255. 0. 255. 249. 255. 3. 0. 0.
      0. 0. 1. 0. 0. 255. 255. 255. 255. 255. 0. 1. 0. 0. 0. 0. 0. 0. 0.
      0. 0. 0. 0. 0. 2. 0. 4. 0. 0. 0. 0. 1. 255. 252. 255. 255. 253. 0.
      3. 0. 0. 0. 1. 0. 0. 255. 255. 255. 255. 255. 0. 1. 0. 0. 0. 0. 0.
      0. 0. 0. 0. 0. 0. 0. 0. 0. 0. 1. 1. 0. 3. 0. 3. 255. 253. 252.
      255. 0. 0. 0. 0. 0. 1. 0. 0. 255. 255. 255. 255. 255. 0. 1. 0. 0.
      0. 0. 0. 0. 0. 0. 0. 0. 0. 0. 1. 0. 0. 0. 0. 0. 0. 2. 0. 2. 253.
      254. 255. 0. 0. 1. 0. 0. 1. 0. 0. 255. 255. 255. 255. 253. 0. 1.
      0. 0. 3. 0. 0. 0. 0. 0. 0. 0. 0. 0. 1. 2. 0. 0. 2. 0. 0. 255. 255.
      0. 255. 254. 254. 2. 0. 0. 0. 2. 1. 0. 1. 0. 255. 253. 254. 252.
      3. 0. 0. 0. 0. 2. 0. 0. 0. 0. 0. 0. 0. 0. 0. 0. 1. 0. 0. 0. 0.
      255. 254. 255. 251. 255. 255. 0. 0. 0. 4. 0. 0. 1. 1. 0. 255. 255.
      255. 255. 0. 0. 4. 1. 1. 0. 0. 0. 0. 0. 0. 0. 0. 0. 1. 4. 0. 2. 0.
      2. 0. 255. 255. 255. 255. 254. 255. 1. 1. 0. 0. 0. 3. 0. 0. 2. 1.
      253. 255. 255. 1. 0. 0. 1. 0. 0. 0. 0. 0. 0. 0. 0. 0. 0. 1. 0. 2.
      0. 0. 0. 2. 254. 254. 255. 253. 255. 251. 0. 2. 0. 0. 1. 0. 2. 0.
      0. 0. 255. 255. 0. 0. 0. 0. 0. 5. 0. 0. 0. 0. 0. 0. 0. 0. 0. 2. 3.
      0. 1. 1. 2. 0. 255. 253. 255. 254. 255. 255. 1. 0. 0. 2. 0. 0. 0.
      2. 1. 3. 255. 255. 0. 3. 0. 1. 0. 1. 0. 0. 0. 0. 0. 0. 0. 0. 0. 0.
      1. 1. 0. 1. 3. 0. 255. 255. 253. 0. 255. 255. 0. 3. 0. 0. 1. 1. 0.
      0. 0. 0. 255. 255. 0. 0. 2. 0. 0. 0. 2. 0. 0. 0. 0. 0. 0. 0. 0. 5.
      0. 0. 2. 1. 0. 0. 0. 0. 253. 0. 255. 253. 3. 0. 1. 0. 2. 0. 0. 1.
      0. 2. 253. 0. 0. 2. 0. 0. 0. 2. 0. 0. 0. 0. 0. 0. 0. 0. 0. 0. 0.
      1. 0. 0. 2. 1. 0. 1. 255. 0. 255. 0. 1. 0. 0. 1. 0. 2. 0. 0. 0. 0.
      255.</_>
    <_>
      0. 0. 0. 0. 1. 2. 0. 0. 0. 0. 0. 0. 0. 0. 0. 0. 1. 0. 1. 1. 0. 1.
      255. 255. 255. 253. 255. 255. 0. 1. 0. 1. 0. 2. 0. 0. 2. 0. 0.
      255. 2. 0. 3. 0. 0. 0. 3. 0. 0. 0. 0. 0. 0. 0. 0. 0. 0. 1. 0. 0.
      1. 0. 255. 254. 255. 255. 255. 255. 0. 0. 2. 0. 0. 0. 0. 3. 0. 0.
      0. 255. 0. 0. 0. 3. 0. 0. 0. 1. 0. 0. 0. 0. 0. 0. 0. 0. 0. 2. 0.
      2. 0. 0. 255. 255. 1. 255. 250. 255. 0. 0. 0. 1. 0. 0. 0. 0. 2. 0.
      0. 254. 255. 3. 0. 0. 0. 1. 0. 0. 0. 0. 0. 0. 0. 0. 0. 0. 0. 0. 0.
      1. 2. 1. 253. 254. 0. 255. 255. 252. 0. 1. 0. 0. 0. 1. 1. 0. 0. 0.
      2. 255. 255. 0. 3. 0. 0. 2. 0. 1. 0. 0. 0. 0. 0. 0. 0. 0. 0. 1. 1.
      0. 0. 0. 2. 255. 255. 255. 251. 255. 0. 0. 2. 0. 0. 0. 0. 1. 2. 1.
      253. 254. 255. 253. 0. 2. 1. 0. 2. 0. 0. 0. 0. 0. 0. 0. 0. 0. 0.
      0. 0. 0. 2. 0. 0. 254. 253. 255. 255. 254. 1. 2. 0. 2. 0. 2. 0. 2.
      0. 0. 255. 255. 255. 255. 0. 0. 1. 1. 0. 0. 0. 0. 0. 0. 0. 0. 0.
      0. 0. 0. 0. 3. 0. 0. 0. 255. 255. 255. 255. 253. 0. 0. 2. 0. 0. 1.
      0. 0. 1. 0. 255. 254. 254. 255. 0. 0. 2. 0. 2. 0. 0. 0. 0. 0. 0.
      0. 0. 0. 0. 2. 0. 0. 2. 0. 0. 255. 255. 255. 254. 255. 0. 0. 0. 0.
      1. 0. 1. 1. 0. 1. 255. 255. 255. 255. 0. 2. 2. 0. 0. 0. 1. 0. 0.
      2. 1. 0. 2. 0. 1. 1. 0. 1. 1. 0. 0. 255. 253. 255. 255. 0. 0. 2.
      0. 0. 0. 1. 0. 0. 0. 255. 255. 255. 253. 255. 0. 0. 0. 2. 0. 0. 1.
      0. 0. 0. 0. 3. 0. 3. 0. 2. 0. 1. 0. 2. 3. 252. 255. 251. 255. 0.
      0. 0. 0. 0. 0. 0. 0. 3. 2. 1. 252. 255. 255. 250. 255. 0. 3. 0. 0.
      0. 0. 2. 0. 0. 2. 0. 3. 1. 4. 0. 1. 0. 1. 0. 253. 255. 254. 255.
      252. 0. 4. 0. 0. 2. 2. 0. 0. 0. 0. 0. 255. 254. 255. 255. 255. 0.
      0. 0. 4. 0. 1. 0. 0. 3. 0. 6. 0. 0. 0. 3. 0. 2. 255. 255. 255.
      254. 254. 254. 255. 0. 2. 0. 2. 0. 0. 3. 0. 1. 3. 2. 252. 255.
      253. 255. 253. 0. 1. 0. 0. 2. 1. 0. 2. 0. 0. 0. 0. 4. 0. 0. 255.
      255. 252. 255. 250. 255. 255. 253. 255. 1. 0. 0. 0. 0. 0. 3. 0. 1.
      0. 0. 255. 255. 255. 253. 255. 3. 0. 0. 1. 0. 0. 3. 2. 0. 0. 1. 1.
      0. 255. 0. 254. 252. 1. 255. 252. 255. 1. 0. 0. 2. 3. 0. 2. 0. 1.
      0. 1. 1. 0. 0. 255. 251. 255. 255. 252. 0. 3. 0. 1. 0. 0. 1. 0. 0.
      0. 0. 255. 0. 255. 255. 0. 255. 0. 253. 1. 0. 0. 3. 0. 1. 0. 0. 1.
      0. 0. 1. 0. 0. 3. 0. 255. 255. 255. 254. 255. 0. 0. 2. 0. 1. 1. 0.
      2. 0. 3. 0. 254. 255. 254. 255. 1. 255. 0. 255. 0. 1. 0. 0. 3. 0.
      2. 0. 0. 1. 0. 1. 0. 1. 0. 0. 254. 255. 255. 254. 255. 0. 0. 0. 6.
      0. 0. 1. 0. 0. 0. 1. 0. 255. 254. 1. 0. 255. 0. 254. 1. 1. 0. 0.
      0. 0. 0. 0. 0. 2. 0. 0. 1. 0. 0. 255. 255. 255. 252. 255. 253. 0.
      1. 1. 0. 2. 0. 0. 0. 0. 0. 4. 0. 255. 4. 0. 0. 0. 1. 253. 3. 0. 0.
      6. 0. 0. 0. 3. 0. 0. 0. 0. 1. 0. 0. 255. 255. 255. 255. 252. 255.
      0. 1. 0. 0. 0. 1. 0. 3. 2. 0. 0. 255. 254. 0. 254. 255. 0. 0. 255.
      255. 1. 2. 0. 0. 2. 0. 0. 4. 0. 0. 0. 1. 0. 0. 255. 255. 255. 254.
      255. 255. 0. 0. 1. 0. 1. 0. 3. 0. 0. 2. 0. 253. 255. 255. 255.
      252. 255. 254. 255. 252. 1. 255. 2. 0. 3. 0. 0. 2. 0. 0. 0. 1. 0.
      0. 255. 255. 255. 255. 254. 255. 0. 0. 0. 2. 0. 1. 0. 1. 0. 0. 4.
      255. 253. 253. 254. 255. 252. 255. 255. 254. 253. 253. 1. 253. 2.
      0. 1. 0. 0. 0. 0. 1. 0. 0. 255. 255. 255. 255. 254. 0. 4. 1. 0. 0.
      0. 0. 2. 0. 2. 0. 0. 0. 255. 255. 255. 253. 4. 252. 1. 255. 255.
      255. 255. 255. 0. 0. 4. 0. 1. 0. 0. 1. 0. 0. 255. 255. 255. 254.
      253. 5. 0. 0. 0. 0. 2. 0. 0. 3. 0. 1. 2. 0. 253. 255. 0. 253. 0.
      255. 0. 0. 255. 255. 253. 253. 1. 1. 0. 0. 0. 0. 0. 1. 0. 0. 255.
      255. 255. 255. 255. 0. 0. 2. 1. 0. 0. 1. 0. 0. 0. 3. 0. 0. 1. 0.
      3. 254. 2. 253. 1. 1. 255. 1. 253. 255. 0. 0. 0. 0. 3. 0. 0. 1. 0.
      0. 255. 255. 255. 255. 255. 255. 0. 0. 2. 0. 0. 0. 0. 0. 0. 0. 0.
      0. 0. 3. 0. 1. 1. 255. 0. 255. 255. 1. 254. 254. 255. 0. 0. 3. 0.
      0. 0. 0. 0. 1. 0. 255. 255. 255. 249. 255. 2. 3. 0. 1. 0. 0. 0. 0.
      0. 0. 0. 0. 0. 0. 0. 0. 0. 1. 3. 255. 252. 253. 255. 255. 255. 1.
      1. 0. 0. 0. 0. 0. 0. 1. 0. 255. 255. 255. 255. 0. 0. 0. 1. 0. 0.
      0. 0. 0. 0. 0. 0. 0. 0. 2. 1. 0. 0. 0. 4. 0. 3. 255. 254. 255.
      253. 252. 1. 1. 0. 0. 0. 0. 0. 1. 0. 255. 255. 253. 255. 0. 0. 1.
      1. 0. 3. 0. 0. 0. 0. 0. 0. 0. 0. 1. 0. 1. 0. 1. 0. 2. 0. 0. 1.
      252. 255. 255. 0. 0. 2. 0. 0. 0. 0. 1. 0. 255. 255. 255. 253. 3.
      2. 0. 0. 2. 0. 0. 0. 0. 0. 0. 0. 0. 0. 1. 0. 0. 3. 1. 1. 0. 4. 0.
      1. 0. 255. 254. 0. 0. 0. 0. 0. 0. 0. 1. 0. 255. 255. 254. 255. 0.
      0. 3. 1. 0. 0. 0. 0. 0. 0. 0. 0. 0. 0. 1. 1. 0. 0. 1. 1. 0. 1. 0.
      3. 0. 254. 255. 3. 0. 0. 0. 0. 0. 0. 1. 0. 255. 255. 255. 254. 4.
      0. 0. 2. 0. 1. 0. 0. 0. 0. 0. 0. 0. 0. 0. 1. 1. 0. 0. 0. 1. 0. 2.
      0. 255. 252. 255. 0. 0. 2. 0. 0. 0. 0. 1. 0. 255. 255. 255. 255.
      0. 0. 2. 0. 1. 0. 0. 0. 0. 0. 0. 0. 0. 0. 0. 1. 0. 0. 2. 0. 2. 0.
      254. 255. 253. 255. 255. 255. 0. 0. 0. 0. 0. 0. 1. 0. 255. 255.
      255. 255. 0. 0. 0. 0. 2. 0. 0. 0. 0. 0. 0. 0. 0. 0. 1. 0. 0. 0. 1.
      1. 0. 1. 254. 255. 255. 253. 255. 255. 0. 1. 1. 0. 1. 0. 2. 0.
      253. 255. 255. 253. 2. 0. 0. 3. 0. 0. 0. 0. 0. 0. 0. 0. 0. 0. 2.
      0. 0. 0. 1. 0. 2. 254. 255. 255. 253. 255. 255. 254. 0. 1. 0. 0.
      0. 3. 0. 0. 255. 253. 254. 253. 0. 0. 0. 0. 3. 1. 0. 0. 0. 0. 0.
      0. 0. 0. 0. 2. 3. 2. 1. 0. 0. 255. 255. 255. 253. 252. 255. 255.
      2. 0. 4. 0. 0. 0. 2. 3. 0. 254. 255. 255. 3. 1. 0. 2. 0. 1. 0. 0.
      0. 0. 0. 0. 0. 0. 2. 0. 0. 0. 0. 0. 4. 253. 0. 0. 255. 255. 253.
      0. 0. 3. 0. 1. 1. 0. 0. 0. 0. 255. 255. 252. 0. 0. 2. 2. 0. 0. 0.
      0. 0. 0. 0. 0. 0. 0. 0. 1. 1. 1. 0. 1. 0. 0. 2. 0. 255. 255. 254.
      3. 0. 1. 0. 3. 0. 3. 0. 5. 0. 252. 255. 255. 2. 0. 0. 0. 2. 2. 0.
      0. 0. 0. 0. 0. 0. 0. 0. 3. 0. 2. 0. 0. 3. 255. 255. 0. 254. 255.
      255. 0. 1. 0. 3. 0. 0. 0. 3. 0. 0. 255. 0. 1. 0. 0. 2. 0. 0. 0. 0.
      0. 0. 0. 0. 0. 0. 0. 2. 0. 0. 0. 4. 0. 0. 255. 255. 255. 255. 255.
      250. 2. 1. 0. 0. 0. 1. 1. 0. 3. 0. 255. 0. 0. 1. 1. 0. 0. 1. 1. 0.
      0. 0. 0. 0. 0. 0. 0. 0. 1. 0. 1. 0. 1. 0. 0. 0. 255. 254. 253. 4.
      0. 0. 0. 0. 1. 0. 0. 0. 0. 1. 0.</_>
    <_>
      0. 1. 2. 0. 0. 1. 0. 0. 0. 0. 0. 0. 0. 0. 0. 0. 1. 0. 0. 0. 1.
      255. 254. 254. 0. 1. 2. 0. 0. 0. 255. 255. 254. 255. 0. 0. 0. 1.
      0. 3. 0. 0. 0. 1. 2. 0. 0. 5. 0. 0. 0. 0. 0. 0. 0. 0. 0. 1. 1. 2.
      2. 252. 255. 255. 2. 0. 0. 1. 0. 5. 253. 255. 255. 250. 0. 0. 1.
      1. 1. 0. 255. 0. 3. 1. 0. 1. 1. 0. 0. 0. 0. 0. 0. 0. 0. 0. 0. 0.
      0. 0. 0. 255. 255. 254. 0. 0. 2. 0. 1. 0. 255. 0. 254. 255. 2. 2.
      0. 3. 0. 1. 255. 0. 2. 1. 1. 0. 3. 2. 0. 0. 0. 0. 0. 0. 0. 0. 1.
      0. 1. 1. 1. 0. 255. 253. 0. 1. 0. 2. 0. 2. 254. 0. 255. 255. 0. 0.
      0. 0. 3. 0. 254. 2. 0. 0. 0. 2. 0. 1. 0. 0. 0. 0. 0. 0. 0. 0. 0.
      1. 0. 0. 1. 0. 254. 255. 0. 0. 0. 0. 1. 0. 255. 0. 253. 255. 0. 1.
      1. 0. 1. 255. 255. 0. 2. 0. 2. 0. 4. 1. 0. 0. 0. 0. 0. 0. 0. 0. 0.
      1. 0. 0. 0. 0. 255. 252. 0. 3. 0. 0. 0. 0. 254. 1. 255. 255. 0. 4.
      0. 0. 2. 253. 255. 0. 0. 0. 0. 1. 0. 0. 0. 0. 0. 0. 0. 0. 0. 0. 0.
      3. 0. 0. 0. 3. 252. 255. 0. 0. 0. 2. 0. 255. 255. 0. 255. 252. 0.
      0. 2. 0. 0. 255. 255. 0. 0. 2. 0. 0. 2. 1. 0. 0. 0. 0. 0. 0. 0. 0.
      4. 0. 2. 1. 0. 0. 255. 254. 3. 0. 1. 0. 0. 254. 255. 0. 254. 255.
      0. 0. 1. 0. 2. 0. 255. 0. 0. 0. 0. 0. 0. 0. 0. 0. 0. 0. 0. 0. 0.
      0. 0. 0. 0. 0. 0. 0. 0. 255. 0. 4. 0. 0. 0. 254. 255. 0. 255. 255.
      0. 1. 0. 0. 0. 0. 255. 0. 0. 0. 0. 0. 0. 0. 0. 0. 0. 0. 0. 0. 0.
      0. 0. 0. 0. 0. 0. 0. 0. 255. 2. 0. 0. 0. 0. 255. 255. 0. 255. 255.
      0. 1. 0. 0. 0. 0. 255. 0. 0. 0. 0. 0. 0. 0. 0. 0. 0. 0. 0. 0. 0.
      0. 0. 0. 0. 0. 0. 0. 0. 255. 3. 0. 0. 0. 1. 252. 253. 0. 255. 255.
      0. 1. 0. 0. 0. 0. 255. 0. 0. 0. 0. 0. 0. 0. 0. 0. 0. 0. 0. 0. 0.
      0. 0. 0. 0. 0. 0. 0. 0. 255. 0. 0. 2. 0. 0. 255. 255. 1. 255. 255.
      0. 1. 0. 0. 0. 0. 255. 0. 0. 0. 0. 0. 0. 0. 0. 0. 0. 0. 0. 0. 0.
      0. 0. 0. 0. 0. 0. 0. 0. 255. 0. 0. 0. 0. 1. 254. 255. 0. 255. 255.
      0. 1. 0. 0. 0. 0. 255. 0. 0. 0. 0. 0. 0. 0. 0. 0. 0. 0. 0. 0. 0.
      0. 0. 0. 0. 0. 0. 0. 0. 255. 0. 5. 1. 0. 0. 255. 0. 2. 255. 255.
      0. 1. 0. 0. 0. 0. 255. 0. 0. 0. 0. 0. 0. 0. 0. 0. 0. 0. 0. 0. 0.
      0. 0. 0. 0. 0. 0. 0. 0. 255. 2. 0. 0. 0. 255. 251. 0. 0. 255. 255.
      0. 1. 0. 0. 0. 0. 255. 0. 0. 0. 0. 0. 0. 0. 0. 0. 0. 0. 0. 0. 0.
      0. 0. 0. 0. 0. 0. 0. 0. 255. 0. 0. 4. 0. 254. 255. 0. 0. 255. 255.
      0. 1. 0. 0. 0. 0. 255. 0. 0. 0. 0. 0. 0. 0. 0. 0. 0. 0. 0. 0. 0.
      0. 0. 0. 0. 0. 0. 0. 0. 255. 0. 2. 1. 0. 253. 255. 2. 0. 255. 255.
      0. 0. 0. 0. 1. 0. 255. 0. 0. 0. 0. 0. 0. 0. 0. 0. 0. 0. 0. 0. 0.
      0. 0. 0. 0. 0. 0. 0. 0. 255. 254. 0. 0. 0. 255. 254. 0. 1. 254.
      255. 4. 0. 1. 3. 0. 0. 255. 0. 0. 0. 0. 0. 0. 0. 0. 0. 0. 0. 0. 0.
      0. 0. 0. 0. 0. 0. 0. 0. 0. 255. 1. 1. 3. 0. 255. 255. 0. 2. 255.
      253. 0. 0. 1. 0. 0. 3. 255. 0. 0. 0. 0. 0. 0. 0. 0. 0. 0. 0. 0. 0.
      0. 0. 0. 0. 0. 0. 0. 0. 0. 255. 0. 0. 0. 1. 254. 255. 1. 2. 0.
      255. 1. 0. 1. 0. 0. 1. 255. 0. 0. 0. 0. 0. 0. 0. 0. 0. 0. 0. 0. 0.
      0. 0. 0. 0. 0. 0. 0. 0. 0. 255. 0. 3. 0. 0. 255. 255. 1. 0. 2.
      251. 0. 0. 0. 1. 4. 0. 255. 0. 0. 0. 0. 0. 0. 0. 0. 0. 0. 0. 0. 0.
      0. 0. 0. 0. 0. 0. 0. 0. 0. 255. 0. 1. 0. 6. 253. 254. 2. 0. 0.
      255. 0. 3. 0. 1. 0. 3. 255. 0. 0. 0. 0. 0. 0. 0. 0. 0. 0. 0. 0. 0.
      0. 0. 0. 0. 0. 0. 0. 0. 0. 255. 255. 0. 0. 0. 255. 255. 0. 3. 0.
      255. 0. 0. 4. 0. 4. 0. 255. 0. 0. 0. 0. 0. 0. 0. 0. 0. 0. 0. 0. 0.
      0. 0. 0. 0. 0. 0. 0. 0. 0. 255. 255. 0. 0. 0. 255. 254. 2. 0. 0.
      255. 1. 0. 0. 1. 0. 0. 255. 0. 0. 0. 0. 0. 0. 0. 0. 0. 0. 0. 0. 0.
      0. 0. 0. 2. 0. 0. 1. 0. 0. 255. 0. 0. 0. 0. 255. 255. 255. 255. 0.
      255. 1. 0. 0. 1. 2. 0. 255. 0. 0. 0. 0. 0. 0. 0. 0. 0. 0. 0. 0. 0.
      0. 0. 4. 0. 1. 0. 1. 0. 0. 255. 1. 0. 0. 2. 253. 254. 255. 255.
      255. 253. 253. 0. 3. 0. 0. 2. 255. 0. 0. 0. 0. 0. 0. 0. 0. 0. 0.
      0. 0. 0. 0. 0. 0. 4. 0. 1. 3. 0. 1. 253. 0. 4. 0. 0. 255. 252.
      255. 252. 252. 255. 254. 255. 0. 3. 1. 0. 255. 0. 0. 0. 0. 0. 0.
      0. 0. 0. 0. 0. 0. 0. 0. 0. 0. 1. 0. 0. 0. 2. 3. 255. 0. 0. 0. 0.
      255. 255. 255. 255. 255. 254. 255. 255. 0. 0. 0. 2. 255. 0. 0. 0.
      0. 0. 0. 0. 0. 0. 0. 0. 0. 0. 0. 0. 1. 0. 0. 0. 1. 0. 0. 255. 253.
      3. 0. 0. 255. 254. 250. 255. 251. 255. 250. 255. 1. 1. 2. 0. 255.
      0. 0. 0. 0. 0. 0. 0. 0. 0. 0. 0. 0. 0. 0. 0. 1. 0. 1. 3. 0. 3. 1.
      255. 1. 0. 1. 0. 255. 255. 255. 253. 254. 255. 255. 255. 1. 0. 1.
      0. 255. 0. 0. 0. 0. 0. 0. 0. 0. 0. 0. 0. 0. 0. 0. 0. 1. 0. 0. 0.
      3. 0. 0. 254. 0. 3. 0. 0. 252. 255. 254. 255. 255. 255. 255. 254.
      0. 1. 2. 0. 255. 0. 0. 0. 0. 0. 0. 0. 0. 0. 0. 0. 0. 0. 0. 0. 0.
      3. 0. 0. 1. 0. 1. 0. 1. 0. 0. 2. 255. 255. 254. 255. 255. 255.
      255. 255. 0. 0. 0. 0. 255. 0. 0. 2. 0. 0. 2. 1. 0. 1. 0. 0. 1. 1.
      0. 2. 0. 0. 0. 0. 0. 0. 0. 0. 1. 0. 0. 2. 0. 0. 1. 255. 255. 255.
      255. 255. 0. 0. 1. 0. 255. 0. 0. 0. 0. 1. 0. 0. 0. 0. 3. 1. 0. 0.
      0. 0. 0. 0. 0. 0. 0. 0. 0. 0. 0. 3. 1. 0. 0. 0. 1. 1. 1. 255. 254.
      255. 2. 0. 1. 0. 255. 0. 2. 0. 2. 0. 4. 1. 1. 0. 3. 0. 0. 6. 0. 0.
      0. 0. 0. 0. 0. 0. 0. 0. 0. 2. 0. 0. 4. 0. 0. 0. 0. 255. 254. 255.
      0. 0. 0. 0. 254. 2. 0. 0. 0. 2. 0. 1. 1. 1. 1. 1. 0. 0. 0. 1. 0.
      0. 0. 0. 0. 0. 0. 0. 0. 0. 0. 1. 0. 2. 1. 1. 2. 254. 255. 0. 0. 0.
      3. 1. 255. 0. 2. 1. 1. 0. 3. 2. 0. 1. 0. 253. 2. 1. 0. 2. 0. 0. 0.
      0. 0. 0. 0. 0. 2. 0. 0. 0. 2. 0. 0. 0. 0. 255. 255. 0. 3. 0. 0. 0.
      255. 0. 3. 1. 0. 1. 1. 0. 0. 3. 1. 0. 0. 1. 0. 1. 0. 0. 0. 0. 0.
      0. 0. 0. 2. 0. 1. 0. 0. 1. 1. 2. 3. 255. 255. 0. 0. 5. 0. 0. 0. 0.
      0. 1. 2. 0. 0. 5. 0. 0. 4. 0. 1. 0. 3. 0. 0. 0. 0. 0. 0. 0. 0. 0.
      0. 5. 0. 3. 0. 0. 2. 0. 0. 253. 254. 2. 0. 0. 0. 3. 0. 1. 2. 0. 0.
      1. 0. 0. 1. 1. 0. 0. 2. 0. 0. 1. 0. 0. 0. 0. 0. 0. 0. 0. 1. 0. 1.
      0. 0. 0. 3. 0. 1. 254. 255. 0. 1. 0. 3. 0.</_>
    <_>
      1. 0. 2. 0. 0. 1. 0. 0. 0. 0. 0. 0. 0. 0. 0. 0. 1. 2. 0. 0. 2. 0.
      0. 255. 255. 255. 255. 255. 0. 0. 2. 0. 0. 1. 0. 0. 0. 4. 0. 0. 0.
      0. 0. 2. 1. 0. 1. 0. 0. 0. 0. 0. 0. 0. 0. 0. 0. 0. 1. 0. 0. 0. 0.
      255. 253. 255. 250. 255. 1. 7. 0. 1. 3. 0. 1. 2. 0. 0. 2. 254.
      255. 2. 3. 0. 0. 0. 0. 0. 0. 0. 0. 0. 0. 0. 0. 0. 1. 4. 0. 2. 0.
      2. 0. 255. 255. 255. 255. 255. 0. 0. 1. 1. 0. 0. 0. 0. 0. 3. 0.
      255. 255. 255. 0. 0. 3. 3. 0. 3. 0. 0. 0. 0. 0. 0. 0. 0. 1. 0. 2.
      0. 0. 0. 2. 254. 254. 254. 254. 254. 255. 0. 2. 1. 0. 4. 0. 0. 0.
      0. 1. 255. 254. 252. 3. 0. 0. 0. 2. 0. 0. 0. 0. 0. 0. 0. 0. 0. 2.
      3. 0. 1. 1. 2. 0. 255. 255. 254. 255. 255. 254. 0. 0. 0. 1. 0. 0.
      1. 1. 0. 255. 255. 255. 255. 255. 0. 0. 0. 2. 0. 0. 0. 0. 0. 0. 0.
      0. 0. 0. 1. 1. 0. 1. 3. 0. 255. 254. 255. 255. 253. 255. 2. 0. 1.
      0. 2. 2. 2. 0. 0. 1. 253. 253. 254. 255. 1. 3. 0. 1. 0. 0. 0. 0.
      0. 0. 0. 0. 0. 5. 0. 0. 2. 1. 0. 0. 0. 253. 255. 252. 255. 255. 0.
      1. 0. 0. 0. 0. 0. 1. 0. 254. 255. 255. 255. 255. 0. 0. 0. 0. 1. 0.
      0. 0. 0. 0. 0. 0. 0. 0. 0. 1. 0. 0. 2. 1. 0. 255. 255. 254. 255.
      255. 0. 0. 1. 0. 2. 0. 0. 2. 1. 253. 255. 255. 255. 255. 0. 0. 0.
      1. 0. 1. 0. 0. 2. 0. 2. 0. 0. 0. 4. 0. 0. 1. 0. 2. 254. 255. 255.
      255. 255. 0. 1. 0. 0. 0. 1. 0. 2. 0. 0. 255. 255. 255. 252. 255.
      2. 1. 0. 3. 0. 0. 0. 2. 1. 2. 0. 0. 3. 1. 0. 0. 0. 0. 1. 0. 255.
      253. 255. 255. 254. 1. 1. 0. 2. 1. 0. 2. 0. 0. 4. 254. 255. 253.
      255. 253. 0. 2. 0. 1. 0. 2. 0. 0. 0. 0. 2. 1. 0. 0. 6. 0. 1. 0. 0.
      255. 4. 255. 255. 255. 0. 0. 2. 0. 0. 0. 0. 1. 3. 0. 0. 255. 254.
      255. 255. 255. 0. 0. 0. 0. 1. 0. 0. 6. 0. 0. 0. 0. 0. 0. 0. 2. 1.
      0. 4. 251. 0. 255. 253. 254. 1. 1. 0. 2. 0. 0. 2. 0. 0. 2. 3. 253.
      255. 255. 252. 0. 5. 1. 0. 0. 0. 0. 2. 0. 0. 0. 1. 0. 4. 4. 0. 2.
      1. 0. 0. 255. 253. 254. 255. 255. 0. 1. 0. 1. 1. 3. 0. 1. 1. 0. 0.
      255. 253. 255. 255. 0. 0. 0. 2. 0. 0. 0. 1. 0. 0. 2. 0. 0. 0. 0.
      3. 0. 255. 4. 0. 253. 255. 254. 253. 255. 0. 3. 3. 0. 0. 0. 0. 1.
      0. 0. 0. 255. 255. 255. 251. 255. 1. 0. 2. 0. 2. 2. 0. 0. 0. 0. 0.
      3. 3. 0. 255. 0. 254. 0. 255. 255. 253. 255. 255. 1. 0. 0. 0. 1.
      2. 0. 1. 0. 3. 2. 255. 249. 255. 254. 255. 255. 0. 1. 0. 2. 0. 0.
      2. 1. 1. 0. 1. 254. 0. 0. 255. 2. 253. 1. 254. 255. 255. 0. 0. 0.
      1. 0. 1. 1. 0. 0. 0. 2. 0. 0. 255. 255. 255. 255. 255. 255. 0. 0.
      1. 0. 0. 2. 0. 1. 0. 2. 0. 252. 3. 255. 255. 0. 254. 0. 255. 254.
      254. 0. 0. 0. 3. 0. 0. 2. 0. 0. 0. 1. 0. 0. 255. 255. 255. 255.
      255. 255. 0. 0. 1. 0. 0. 0. 0. 1. 2. 0. 3. 254. 255. 255. 249. 0.
      255. 254. 255. 255. 254. 1. 4. 0. 0. 1. 1. 0. 0. 0. 0. 1. 0. 0.
      255. 255. 255. 255. 255. 255. 0. 0. 1. 0. 0. 4. 1. 0. 0. 1. 1. 1.
      255. 255. 255. 255. 251. 255. 253. 255. 2. 0. 0. 0. 1. 0. 1. 1. 1.
      0. 0. 1. 0. 0. 255. 255. 255. 255. 255. 255. 0. 0. 1. 0. 0. 0. 4.
      1. 1. 1. 0. 0. 1. 252. 255. 253. 1. 254. 255. 252. 1. 0. 1. 1. 0.
      1. 1. 0. 0. 0. 0. 1. 0. 0. 255. 255. 255. 255. 255. 255. 0. 0. 1.
      0. 0. 0. 0. 0. 3. 0. 3. 0. 255. 255. 255. 255. 0. 255. 255. 254.
      254. 0. 0. 0. 1. 2. 0. 0. 0. 0. 0. 1. 0. 0. 255. 255. 255. 255.
      255. 255. 0. 0. 1. 0. 0. 0. 3. 1. 0. 1. 0. 255. 1. 255. 253. 254.
      255. 253. 254. 255. 255. 254. 255. 1. 0. 0. 0. 0. 1. 0. 0. 1. 0.
      0. 255. 255. 255. 255. 255. 255. 0. 0. 1. 0. 0. 0. 1. 0. 3. 0. 0.
      255. 0. 255. 0. 255. 254. 254. 255. 252. 253. 255. 250. 254. 0. 4.
      2. 0. 1. 0. 0. 1. 0. 0. 255. 255. 255. 255. 255. 255. 0. 0. 1. 0.
      0. 0. 0. 1. 0. 1. 1. 0. 1. 0. 2. 0. 1. 255. 252. 255. 0. 253. 255.
      253. 2. 0. 0. 5. 0. 0. 0. 1. 0. 0. 255. 255. 255. 255. 255. 0. 0.
      2. 0. 1. 0. 0. 0. 0. 0. 0. 0. 0. 0. 2. 0. 1. 0. 255. 253. 255. 0.
      255. 253. 255. 255. 0. 0. 0. 1. 0. 0. 1. 0. 0. 255. 255. 255. 255.
      254. 4. 0. 0. 2. 0. 1. 0. 0. 0. 0. 0. 0. 0. 0. 0. 2. 1. 0. 0. 255.
      254. 0. 255. 255. 252. 255. 0. 2. 0. 0. 0. 0. 1. 0. 0. 255. 255.
      255. 254. 255. 0. 0. 3. 1. 0. 0. 0. 0. 0. 0. 0. 0. 0. 0. 0. 1. 0.
      0. 2. 5. 0. 5. 253. 255. 255. 251. 0. 4. 0. 2. 0. 0. 1. 0. 0. 255.
      255. 255. 255. 253. 3. 2. 0. 0. 2. 0. 0. 0. 0. 0. 0. 0. 0. 0. 1.
      1. 0. 0. 0. 0. 0. 0. 255. 253. 255. 255. 0. 0. 1. 0. 0. 0. 1. 0.
      0. 255. 255. 255. 253. 255. 0. 0. 1. 1. 0. 3. 0. 0. 0. 0. 0. 0. 0.
      0. 1. 0. 0. 1. 2. 0. 1. 1. 255. 250. 253. 255. 253. 2. 1. 1. 0. 0.
      1. 0. 0. 255. 255. 255. 255. 255. 0. 0. 0. 1. 0. 0. 0. 0. 0. 0. 0.
      0. 0. 0. 0. 2. 0. 4. 0. 1. 0. 0. 0. 255. 255. 255. 255. 2. 0. 0.
      0. 0. 1. 0. 0. 255. 255. 255. 255. 249. 255. 2. 3. 0. 1. 0. 0. 0.
      0. 0. 0. 0. 0. 0. 2. 0. 3. 0. 0. 2. 0. 0. 0. 252. 255. 255. 251.
      0. 0. 0. 0. 0. 1. 0. 0. 255. 255. 255. 255. 255. 255. 0. 0. 2. 0.
      0. 0. 0. 0. 0. 0. 0. 0. 0. 1. 0. 0. 2. 0. 0. 0. 1. 0. 1. 253. 255.
      255. 254. 0. 1. 0. 0. 1. 0. 0. 255. 255. 255. 254. 255. 254. 2. 0.
      2. 0. 0. 0. 0. 0. 0. 0. 0. 0. 0. 0. 0. 0. 0. 0. 0. 0. 0. 0. 1.
      254. 255. 255. 255. 0. 1. 1. 0. 1. 1. 0. 1. 255. 255. 255. 255.
      255. 0. 0. 1. 2. 0. 0. 0. 0. 0. 0. 0. 0. 0. 0. 0. 0. 0. 0. 0. 0.
      0. 252. 255. 255. 254. 254. 0. 3. 0. 0. 1. 0. 0. 1. 0. 255. 254.
      255. 254. 254. 4. 1. 0. 1. 0. 0. 0. 0. 0. 0. 0. 0. 0. 0. 0. 0. 0.
      0. 0. 0. 0. 255. 255. 253. 255. 255. 2. 0. 4. 0. 2. 0. 2. 0. 0.
      255. 255. 252. 255. 0. 0. 1. 2. 0. 2. 0. 0. 0. 0. 0. 0. 0. 0. 0.
      0. 0. 0. 0. 0. 0. 0. 252. 253. 255. 255. 253. 1. 0. 0. 0. 0. 0. 1.
      2. 1. 253. 254. 255. 255. 2. 1. 0. 0. 0. 3. 0. 0. 0. 0. 0. 0. 0.
      0. 0. 0. 0. 0. 0. 0. 0. 0. 255. 254. 252. 254. 255. 255. 0. 2. 0.
      1. 1. 0. 0. 0. 2. 255. 255. 255. 0. 0. 0. 4. 1. 0. 0. 0. 0. 0. 0.
      0. 0. 0. 0. 0. 0. 0. 0. 0. 0. 0. 253. 255. 255. 255. 255. 253. 2.
      0. 0. 0. 0. 0. 2. 0. 0. 254. 255. 1. 3. 0. 0. 0. 0. 4. 0. 0. 0. 0.
      0. 0. 0. 0. 0. 0. 0. 0. 0. 0. 0. 0. 254. 255. 255. 254. 255. 255.
      0. 0. 0. 0. 0. 3. 0. 0. 0. 255. 255. 0. 1. 1. 0. 1. 0. 0. 0. 0. 0.
      0. 0. 0. 0. 0. 0. 0. 0. 0. 0. 0. 0. 0. 255. 0. 253. 255. 253. 0.
      2. 0. 0. 2. 0. 0. 2. 0. 0. 255.</_>
    <_>
      0. 2. 0. 1. 0. 0. 2. 0. 1. 0. 0. 0. 255. 0. 0. 1. 0. 2. 0. 0. 3.
      0. 0. 255. 255. 255. 253. 255. 0. 0. 0. 0. 1. 0. 1. 0. 0. 2. 0. 1.
      0. 0. 1. 0. 2. 0. 0. 1. 0. 1. 3. 1. 0. 1. 0. 0. 1. 0. 0. 1. 0. 0.
      1. 0. 255. 253. 255. 255. 1. 1. 0. 1. 1. 0. 1. 0. 0. 0. 1. 0. 1.
      0. 2. 3. 0. 1. 0. 0. 0. 0. 0. 0. 0. 6. 0. 0. 0. 0. 0. 4. 0. 0. 0.
      0. 253. 255. 252. 255. 1. 0. 0. 2. 0. 0. 3. 0. 0. 0. 1. 255. 0. 1.
      0. 0. 1. 0. 1. 0. 0. 0. 2. 1. 0. 0. 3. 2. 2. 2. 0. 0. 1. 3. 1.
      255. 255. 255. 255. 251. 2. 0. 1. 0. 4. 0. 0. 1. 2. 1. 1. 253.
      255. 0. 2. 3. 1. 0. 1. 1. 4. 0. 0. 2. 0. 0. 0. 0. 0. 1. 0. 2. 2.
      0. 0. 255. 255. 251. 254. 254. 0. 2. 0. 0. 0. 0. 2. 0. 0. 0. 2.
      254. 254. 0. 2. 0. 3. 1. 2. 0. 0. 2. 0. 1. 3. 1. 0. 0. 3. 0. 2. 0.
      0. 2. 0. 255. 255. 255. 4. 255. 0. 0. 0. 1. 0. 0. 0. 0. 2. 0. 253.
      255. 255. 255. 0. 1. 1. 0. 0. 2. 2. 0. 5. 0. 0. 3. 0. 1. 0. 0. 3.
      1. 0. 1. 0. 255. 255. 251. 253. 255. 0. 3. 0. 2. 0. 0. 2. 0. 0. 5.
      255. 255. 254. 253. 4. 0. 1. 2. 0. 0. 1. 0. 0. 1. 0. 0. 2. 0. 1.
      1. 0. 1. 1. 1. 1. 254. 255. 255. 255. 254. 0. 0. 2. 0. 1. 1. 0. 0.
      3. 0. 254. 255. 254. 255. 0. 2. 2. 0. 0. 0. 0. 0. 0. 0. 0. 0. 0.
      0. 0. 0. 2. 0. 1. 1. 2. 254. 254. 255. 254. 253. 255. 0. 1. 0. 0.
      0. 0. 0. 1. 0. 255. 255. 255. 255. 254. 0. 0. 0. 1. 0. 0. 0. 0. 0.
      0. 0. 0. 0. 2. 2. 0. 0. 1. 0. 252. 255. 2. 251. 255. 255. 252. 0.
      0. 1. 0. 0. 0. 0. 1. 0. 255. 255. 255. 255. 255. 3. 1. 1. 3. 0. 0.
      0. 0. 0. 0. 0. 0. 0. 0. 0. 2. 3. 0. 0. 255. 254. 252. 255. 255.
      255. 255. 0. 2. 0. 0. 0. 0. 0. 1. 0. 255. 255. 254. 255. 253. 0.
      0. 1. 0. 1. 0. 0. 0. 0. 0. 0. 0. 0. 3. 0. 0. 0. 0. 0. 255. 255.
      255. 253. 254. 0. 0. 0. 0. 3. 0. 0. 0. 0. 1. 0. 255. 255. 254.
      252. 255. 4. 0. 0. 0. 3. 0. 0. 0. 0. 0. 0. 0. 0. 1. 0. 0. 0. 0. 5.
      253. 254. 255. 255. 255. 0. 0. 2. 0. 0. 0. 0. 0. 0. 1. 0. 255.
      255. 255. 254. 255. 0. 0. 0. 2. 0. 0. 0. 0. 0. 0. 0. 0. 0. 0. 0.
      3. 0. 2. 0. 254. 255. 253. 253. 255. 1. 0. 0. 2. 1. 0. 0. 0. 0. 1.
      0. 255. 255. 252. 255. 255. 0. 1. 0. 0. 0. 0. 0. 0. 0. 0. 0. 0. 0.
      1. 1. 0. 255. 255. 0. 255. 254. 255. 252. 255. 0. 1. 0. 2. 0. 0.
      0. 0. 0. 1. 0. 255. 255. 255. 255. 255. 0. 0. 1. 0. 0. 0. 0. 0. 0.
      0. 0. 0. 0. 0. 0. 255. 252. 255. 254. 254. 255. 254. 255. 0. 1. 0.
      1. 1. 0. 0. 0. 0. 0. 1. 0. 255. 255. 255. 255. 253. 2. 0. 0. 1. 0.
      0. 0. 0. 2. 0. 0. 0. 0. 0. 0. 255. 255. 0. 255. 255. 255. 255. 0.
      0. 1. 0. 1. 0. 0. 0. 0. 2. 0. 0. 1. 255. 255. 255. 253. 255. 0. 1.
      1. 0. 0. 3. 0. 0. 0. 0. 0. 2. 0. 0. 0. 255. 255. 3. 251. 255. 0.
      252. 4. 0. 2. 1. 0. 0. 1. 3. 0. 0. 2. 0. 253. 255. 254. 253. 255.
      252. 1. 1. 0. 0. 2. 0. 0. 3. 0. 1. 0. 255. 255. 255. 1. 255. 255.
      253. 251. 255. 2. 0. 1. 3. 0. 0. 0. 0. 1. 0. 0. 1. 0. 3. 255. 252.
      255. 255. 255. 255. 0. 2. 0. 2. 0. 1. 2. 0. 0. 1. 1. 253. 255.
      254. 0. 254. 255. 255. 2. 255. 0. 3. 0. 0. 2. 1. 2. 0. 0. 1. 3. 0.
      2. 0. 254. 253. 255. 255. 252. 254. 0. 0. 2. 1. 0. 0. 0. 2. 0. 0.
      0. 255. 251. 254. 6. 254. 0. 255. 0. 254. 255. 0. 0. 1. 0. 0. 2.
      0. 2. 0. 0. 2. 0. 0. 255. 255. 254. 255. 255. 4. 2. 0. 0. 1. 1. 3.
      1. 0. 5. 0. 0. 253. 255. 255. 254. 255. 1. 255. 255. 254. 255. 1.
      255. 0. 4. 0. 0. 1. 0. 3. 0. 0. 1. 0. 0. 252. 255. 255. 252. 253.
      1. 0. 3. 0. 2. 0. 3. 0. 0. 0. 1. 3. 254. 255. 255. 255. 252. 255.
      254. 255. 255. 254. 254. 2. 253. 0. 0. 1. 0. 0. 1. 0. 1. 1. 255.
      255. 255. 255. 255. 255. 0. 0. 0. 3. 0. 1. 2. 0. 1. 2. 0. 0. 255.
      0. 0. 255. 255. 253. 254. 255. 254. 255. 0. 255. 255. 0. 0. 0. 1.
      1. 2. 0. 0. 1. 254. 254. 255. 254. 254. 255. 1. 0. 0. 0. 1. 0. 0.
      0. 0. 0. 0. 0. 0. 1. 0. 2. 0. 252. 255. 254. 254. 255. 0. 255.
      254. 3. 0. 0. 1. 0. 0. 1. 1. 0. 0. 255. 255. 255. 255. 252. 2. 2.
      1. 1. 0. 0. 0. 0. 0. 0. 0. 0. 0. 1. 4. 0. 0. 4. 0. 255. 255. 250.
      255. 252. 253. 0. 0. 0. 0. 1. 0. 4. 0. 0. 0. 255. 254. 254. 255.
      255. 0. 0. 0. 0. 0. 0. 0. 0. 0. 0. 0. 0. 0. 0. 0. 1. 2. 0. 1. 0.
      253. 255. 252. 255. 255. 1. 2. 0. 0. 0. 0. 1. 0. 0. 3. 253. 255.
      253. 255. 0. 1. 1. 1. 0. 1. 0. 0. 0. 0. 0. 0. 0. 0. 1. 0. 1. 0. 0.
      0. 0. 2. 253. 253. 254. 255. 0. 0. 0. 1. 0. 2. 0. 1. 2. 0. 254.
      255. 255. 254. 0. 1. 0. 0. 1. 0. 0. 0. 0. 0. 0. 0. 0. 0. 0. 1. 0.
      0. 0. 1. 2. 0. 255. 255. 255. 254. 255. 0. 0. 1. 0. 0. 0. 0. 0.
      255. 255. 255. 252. 255. 0. 0. 0. 0. 1. 0. 0. 0. 0. 0. 0. 0. 0. 0.
      1. 0. 2. 0. 0. 0. 0. 1. 0. 0. 253. 255. 255. 1. 0. 0. 0. 1. 0. 2.
      3. 255. 250. 255. 255. 252. 3. 0. 0. 0. 3. 0. 0. 0. 0. 0. 0. 0. 0.
      0. 1. 0. 1. 3. 0. 0. 0. 0. 0. 4. 253. 255. 253. 0. 0. 1. 0. 2. 0.
      1. 0. 0. 255. 255. 254. 255. 0. 0. 1. 2. 0. 4. 0. 0. 0. 0. 0. 0.
      0. 0. 1. 0. 1. 0. 0. 1. 0. 2. 255. 0. 255. 255. 255. 255. 2. 0. 1.
      0. 1. 0. 2. 1. 253. 255. 255. 255. 0. 1. 0. 0. 0. 0. 0. 0. 0. 0.
      0. 0. 0. 0. 0. 0. 0. 0. 0. 0. 0. 0. 255. 0. 255. 254. 255. 255. 0.
      2. 0. 2. 0. 0. 1. 0. 255. 255. 255. 255. 0. 1. 0. 0. 0. 0. 0. 0.
      0. 0. 0. 0. 0. 0. 0. 0. 0. 0. 0. 0. 0. 0. 0. 255. 255. 253. 252.
      0. 0. 0. 1. 0. 0. 2. 0. 3. 255. 255. 255. 255. 0. 1. 0. 0. 0. 0.
      0. 0. 0. 0. 0. 0. 0. 0. 0. 0. 0. 0. 0. 0. 0. 0. 4. 254. 251. 255.
      255. 0. 4. 0. 2. 1. 0. 0. 1. 0. 253. 254. 255. 255. 0. 1. 0. 0. 0.
      0. 0. 0. 0. 0. 0. 0. 0. 0. 0. 0. 0. 0. 0. 0. 0. 0. 0. 0. 255. 254.
      255. 0. 0. 2. 0. 0. 4. 0. 0. 0. 255. 255. 255. 255. 0. 1. 0. 0. 0.
      0. 0. 0. 0. 0. 0. 0. 0. 0. 0. 0. 0. 0. 0. 0. 0. 0. 0. 255. 255. 0.
      255. 0. 1. 1. 1. 0. 0. 1. 1. 2. 255. 254. 255. 255. 0. 1. 0. 0. 0.
      0. 0. 0. 0. 0. 0. 0. 0. 0. 0. 0. 0. 0. 0. 0. 0. 0. 254. 255. 255.
      1. 254. 3. 0. 0. 0. 0. 1. 0. 0. 0. 0. 255. 255. 255. 0. 1. 0. 0.
      0. 0. 0. 0. 0. 0. 0. 0. 0. 0. 0. 0. 0. 0. 0. 0. 0. 0. 254. 254.
      253. 255. 254. 253. 6. 0. 3. 0. 0. 2. 3. 0. 2. 0. 255. 255. 0. 1.
      0. 0. 0. 0. 0. 0. 0. 0. 0. 0. 0. 0. 0. 0. 0. 0. 0. 0. 0. 0. 255.
      255. 255. 255. 254. 255. 0. 0. 0. 0. 2. 0. 0. 3. 0. 0.</_>
    <_>
      255. 255. 0. 1. 0. 0. 0. 0. 0. 0. 0. 0. 0. 0. 0. 0. 0. 0. 0. 0. 0.
      0. 0. 255. 254. 255. 255. 255. 254. 0. 1. 0. 0. 3. 0. 0. 2. 0.
      255. 255. 255. 255. 0. 1. 0. 0. 0. 0. 0. 0. 0. 0. 0. 0. 0. 0. 0.
      0. 0. 0. 0. 0. 0. 255. 255. 252. 255. 255. 255. 1. 0. 1. 0. 0. 2.
      0. 0. 0. 252. 255. 255. 255. 0. 1. 0. 0. 0. 0. 0. 0. 0. 0. 0. 0.
      0. 0. 0. 0. 0. 0. 0. 0. 0. 255. 255. 255. 0. 253. 254. 0. 3. 0. 2.
      0. 0. 1. 0. 0. 255. 254. 255. 255. 0. 1. 0. 0. 0. 0. 0. 0. 0. 0.
      0. 0. 0. 0. 0. 0. 0. 0. 0. 0. 0. 255. 255. 253. 0. 255. 254. 1. 0.
      0. 0. 1. 1. 2. 0. 0. 251. 255. 255. 255. 0. 1. 0. 0. 0. 0. 0. 0.
      0. 0. 0. 0. 0. 0. 0. 0. 0. 0. 0. 0. 0. 255. 255. 255. 255. 253. 1.
      1. 0. 4. 1. 0. 2. 0. 0. 2. 255. 254. 255. 255. 0. 1. 0. 0. 0. 0.
      0. 0. 0. 0. 0. 0. 0. 0. 0. 0. 0. 0. 0. 0. 0. 255. 254. 255. 252.
      253. 0. 2. 0. 0. 1. 0. 0. 0. 0. 0. 254. 255. 255. 255. 0. 1. 0. 0.
      0. 0. 0. 0. 0. 0. 0. 0. 0. 0. 0. 0. 0. 0. 0. 0. 0. 255. 255. 251.
      255. 255. 0. 0. 2. 1. 0. 4. 1. 0. 0. 4. 0. 253. 255. 255. 0. 1. 0.
      0. 0. 0. 0. 0. 0. 0. 0. 0. 0. 0. 0. 0. 0. 0. 0. 0. 0. 255. 255.
      255. 255. 253. 0. 1. 0. 0. 2. 0. 0. 1. 0. 1. 0. 255. 254. 255. 0.
      1. 0. 1. 0. 1. 0. 0. 1. 0. 0. 2. 0. 2. 0. 0. 0. 1. 0. 1. 255. 255.
      255. 253. 255. 255. 0. 0. 0. 0. 4. 0. 2. 1. 0. 0. 255. 254. 255.
      255. 0. 1. 0. 0. 1. 1. 2. 1. 0. 0. 0. 1. 1. 0. 1. 0. 0. 5. 1. 0.
      254. 0. 255. 251. 255. 255. 0. 0. 6. 0. 0. 3. 0. 0. 0. 3. 252.
      255. 255. 254. 0. 1. 0. 0. 1. 0. 0. 0. 0. 1. 0. 0. 1. 1. 0. 0. 1.
      0. 253. 255. 255. 0. 252. 255. 253. 3. 1. 0. 0. 1. 0. 1. 0. 0. 0.
      0. 255. 252. 252. 255. 0. 2. 0. 2. 0. 0. 3. 0. 2. 0. 1. 0. 0. 0.
      0. 255. 0. 2. 255. 255. 253. 255. 255. 254. 255. 0. 0. 5. 3. 1. 0.
      1. 0. 0. 1. 0. 254. 255. 255. 253. 254. 0. 1. 0. 2. 0. 0. 2. 0. 0.
      0. 1. 1. 255. 253. 255. 1. 0. 0. 255. 1. 255. 255. 254. 0. 2. 0.
      0. 0. 0. 1. 0. 1. 1. 1. 0. 255. 253. 254. 255. 255. 0. 1. 1. 0. 1.
      3. 1. 1. 0. 1. 0. 0. 255. 254. 255. 255. 255. 2. 253. 0. 255. 0.
      0. 0. 0. 0. 0. 2. 0. 0. 0. 0. 0. 0. 255. 255. 254. 253. 255. 255.
      0. 0. 1. 0. 0. 0. 0. 0. 0. 1. 0. 0. 255. 255. 255. 251. 255. 0. 2.
      255. 255. 0. 0. 0. 0. 0. 1. 3. 0. 0. 1. 1. 2. 2. 252. 255. 255.
      255. 255. 254. 0. 1. 0. 2. 0. 1. 0. 0. 1. 0. 0. 3. 253. 255. 253.
      255. 0. 0. 1. 255. 0. 0. 1. 1. 0. 1. 0. 0. 2. 1. 0. 0. 0. 1. 255.
      254. 254. 255. 255. 255. 0. 0. 1. 0. 0. 1. 2. 0. 0. 2. 0. 0. 255.
      255. 255. 254. 1. 255. 254. 255. 255. 0. 1. 0. 0. 4. 0. 0. 1. 0.
      0. 2. 0. 0. 255. 255. 255. 255. 255. 255. 0. 0. 1. 0. 0. 0. 0. 1.
      0. 0. 0. 0. 255. 254. 252. 255. 252. 255. 255. 253. 255. 255. 2.
      0. 0. 0. 1. 2. 0. 0. 1. 0. 3. 2. 255. 249. 255. 255. 255. 255. 0.
      0. 1. 0. 0. 1. 4. 0. 2. 0. 2. 0. 255. 0. 255. 254. 255. 255. 253.
      255. 252. 255. 0. 254. 1. 0. 2. 0. 2. 0. 0. 1. 0. 0. 0. 255. 255.
      255. 255. 255. 0. 0. 1. 0. 0. 1. 0. 2. 0. 0. 0. 2. 254. 0. 252. 0.
      255. 255. 254. 255. 255. 254. 253. 255. 0. 0. 0. 1. 0. 3. 0. 1. 1.
      0. 0. 255. 253. 255. 255. 255. 0. 0. 1. 0. 0. 2. 3. 0. 1. 1. 2. 0.
      255. 0. 255. 0. 253. 255. 255. 255. 253. 255. 252. 255. 2. 0. 0.
      2. 4. 0. 2. 0. 0. 2. 3. 253. 255. 255. 255. 255. 0. 0. 1. 0. 0. 0.
      1. 1. 0. 1. 3. 0. 255. 1. 0. 2. 0. 253. 255. 253. 4. 255. 255.
      254. 0. 6. 1. 0. 0. 0. 0. 1. 3. 0. 0. 255. 254. 255. 255. 255. 0.
      0. 1. 0. 0. 5. 0. 0. 2. 1. 0. 0. 0. 0. 0. 5. 0. 1. 254. 255. 0.
      254. 254. 255. 255. 253. 1. 1. 3. 1. 0. 2. 0. 0. 4. 254. 255. 255.
      255. 255. 0. 0. 1. 0. 0. 0. 0. 1. 0. 0. 2. 1. 0. 2. 0. 0. 0. 1.
      254. 255. 0. 255. 255. 255. 255. 255. 1. 1. 0. 0. 1. 0. 2. 0. 0.
      255. 255. 255. 255. 255. 0. 0. 0. 3. 0. 0. 0. 0. 0. 0. 0. 0. 0. 0.
      0. 0. 0. 0. 0. 0. 0. 255. 254. 255. 254. 255. 0. 0. 0. 0. 0. 0. 0.
      1. 0. 255. 255. 255. 252. 253. 1. 0. 3. 0. 2. 0. 0. 0. 0. 0. 0. 0.
      0. 0. 0. 0. 0. 0. 0. 0. 0. 254. 255. 251. 255. 254. 3. 0. 2. 0. 0.
      0. 0. 1. 0. 255. 255. 255. 255. 4. 2. 0. 0. 1. 1. 0. 0. 0. 0. 0.
      0. 0. 0. 0. 0. 0. 0. 0. 0. 0. 0. 255. 254. 253. 255. 252. 0. 2. 0.
      0. 0. 0. 0. 1. 0. 255. 255. 255. 252. 254. 0. 0. 2. 1. 0. 0. 0. 0.
      0. 0. 0. 0. 0. 0. 0. 0. 0. 0. 0. 0. 0. 1. 0. 255. 253. 255. 0. 0.
      1. 0. 0. 0. 0. 1. 0. 255. 255. 255. 255. 255. 0. 2. 0. 2. 0. 0. 0.
      0. 0. 0. 0. 0. 0. 0. 0. 0. 0. 0. 0. 0. 0. 0. 1. 255. 254. 254. 2.
      1. 0. 0. 0. 0. 0. 1. 0. 255. 255. 253. 255. 252. 1. 1. 0. 0. 2. 0.
      0. 0. 0. 0. 0. 0. 0. 0. 0. 0. 0. 0. 0. 0. 0. 1. 254. 0. 255. 255.
      0. 0. 2. 0. 0. 0. 0. 1. 0. 255. 255. 255. 253. 255. 0. 1. 1. 0. 0.
      0. 0. 0. 0. 0. 0. 0. 0. 0. 0. 0. 0. 0. 0. 0. 0. 2. 252. 2. 255.
      254. 255. 0. 0. 0. 0. 0. 0. 1. 0. 255. 255. 255. 255. 253. 2. 0.
      0. 1. 0. 0. 0. 0. 0. 0. 0. 0. 0. 0. 0. 0. 0. 0. 0. 0. 0. 0. 255.
      254. 254. 255. 255. 0. 3. 0. 0. 0. 0. 1. 0. 255. 255. 255. 254. 3.
      0. 0. 0. 1. 0. 1. 0. 0. 1. 0. 0. 2. 0. 0. 0. 0. 0. 0. 0. 0. 0. 0.
      253. 255. 254. 254. 255. 1. 0. 1. 1. 0. 0. 3. 0. 254. 255. 255.
      254. 0. 1. 0. 6. 0. 1. 2. 0. 5. 0. 0. 3. 0. 1. 0. 0. 0. 0. 0. 0.
      0. 0. 0. 255. 0. 254. 255. 255. 0. 2. 0. 0. 2. 0. 0. 5. 255. 255.
      253. 255. 1. 0. 0. 0. 0. 0. 0. 2. 0. 1. 3. 1. 0. 0. 0. 0. 0. 0. 0.
      0. 0. 0. 0. 255. 1. 255. 255. 250. 0. 1. 0. 0. 0. 0. 2. 0. 253.
      255. 255. 255. 0. 0. 0. 0. 2. 0. 4. 0. 0. 2. 0. 0. 0. 0. 0. 0. 0.
      0. 0. 0. 0. 0. 0. 255. 0. 253. 254. 255. 1. 0. 0. 0. 2. 0. 0. 0.
      2. 254. 255. 250. 0. 4. 0. 0. 1. 0. 0. 0. 2. 1. 0. 0. 3. 2. 0. 0.
      0. 0. 0. 0. 0. 0. 0. 255. 0. 255. 255. 254. 0. 2. 4. 0. 0. 1. 2.
      1. 1. 253. 255. 2. 0. 2. 0. 0. 1. 0. 0. 0. 0. 0. 0. 6. 0. 0. 0. 0.
      0. 0. 0. 0. 0. 0. 0. 255. 254. 255. 255. 254. 4. 0. 0. 0. 3. 0. 0.
      0. 1. 255. 253. 1. 0. 0. 1. 0. 1. 0. 0. 1. 3. 1. 0. 1. 0. 0. 0. 0.
      0. 0. 0. 0. 0. 0. 4. 252. 255. 254. 253. 254. 1. 0. 1. 0. 1. 0. 0.
      0. 1. 0. 0. 0. 0. 1. 0. 0. 0. 0. 1. 0. 0. 0. 255. 0. 0. 1. 0. 0.
      0. 0. 0. 0. 0. 0. 253. 1. 254. 255. 255. 255. 0. 2. 1. 0. 1. 0. 0.
      2. 0. 1.</_>
    <_>
      0. 0. 0. 1. 0. 0. 0. 0. 0. 0. 0. 0. 0. 0. 0. 0. 0. 0. 3. 0. 0. 0.
      1. 252. 255. 254. 255. 254. 0. 0. 1. 1. 0. 0. 0. 0. 0. 1. 0. 0.
      253. 1. 0. 0. 1. 0. 1. 0. 0. 0. 0. 0. 0. 0. 0. 0. 1. 0. 0. 0. 2.
      0. 0. 255. 254. 255. 252. 255. 0. 2. 0. 0. 1. 3. 0. 2. 1. 0. 3. 0.
      255. 2. 0. 2. 0. 0. 1. 0. 0. 0. 0. 0. 0. 0. 0. 0. 0. 2. 1. 0. 1.
      0. 2. 252. 0. 255. 253. 255. 1. 0. 4. 1. 0. 0. 1. 0. 0. 0. 0. 3.
      255. 250. 0. 4. 0. 0. 1. 0. 0. 0. 0. 0. 0. 0. 0. 0. 0. 1. 0. 1. 1.
      0. 253. 255. 2. 252. 255. 255. 0. 0. 0. 0. 0. 1. 0. 1. 4. 0. 255.
      254. 255. 255. 0. 0. 0. 0. 2. 0. 0. 0. 0. 0. 0. 0. 0. 0. 0. 0. 2.
      0. 0. 2. 255. 255. 255. 255. 255. 254. 254. 2. 1. 2. 0. 2. 0. 0.
      0. 0. 255. 253. 253. 255. 1. 0. 0. 0. 0. 0. 0. 0. 0. 0. 0. 0. 0.
      0. 0. 0. 1. 0. 1. 0. 254. 254. 254. 0. 255. 253. 255. 2. 0. 0. 3.
      0. 0. 3. 0. 2. 252. 255. 255. 254. 0. 1. 0. 6. 0. 1. 0. 0. 0. 0.
      0. 0. 0. 0. 4. 0. 0. 1. 0. 3. 0. 255. 254. 1. 255. 255. 0. 0. 2.
      0. 0. 0. 2. 0. 2. 0. 0. 255. 255. 254. 3. 0. 0. 0. 1. 0. 0. 0. 0.
      0. 0. 0. 0. 0. 0. 0. 2. 0. 0. 0. 0. 255. 255. 254. 255. 252. 2. 1.
      0. 0. 0. 1. 0. 1. 0. 2. 255. 254. 255. 255. 0. 0. 2. 0. 1. 0. 0.
      0. 2. 1. 0. 1. 0. 0. 0. 3. 2. 0. 1. 1. 1. 0. 255. 253. 255. 255.
      0. 0. 2. 1. 0. 0. 1. 2. 0. 0. 255. 255. 255. 254. 4. 0. 0. 2. 0.
      1. 0. 4. 0. 2. 0. 0. 2. 0. 0. 0. 0. 2. 0. 0. 0. 0. 255. 255. 255.
      255. 0. 0. 0. 0. 2. 0. 0. 0. 0. 5. 253. 254. 254. 255. 0. 0. 3. 1.
      0. 0. 0. 0. 0. 1. 0. 1. 2. 1. 0. 2. 0. 0. 4. 1. 254. 255. 255.
      253. 255. 0. 1. 3. 0. 1. 0. 0. 0. 1. 4. 0. 254. 255. 255. 253. 3.
      2. 0. 0. 2. 0. 0. 4. 0. 2. 0. 0. 0. 0. 0. 1. 0. 0. 1. 0. 253. 255.
      255. 254. 255. 3. 1. 0. 0. 0. 0. 2. 0. 0. 0. 255. 254. 255. 253.
      255. 0. 0. 1. 1. 0. 3. 2. 1. 0. 0. 2. 1. 3. 0. 1. 0. 4. 0. 252. 0.
      255. 255. 254. 255. 0. 0. 0. 0. 1. 3. 1. 0. 1. 0. 0. 255. 255.
      254. 255. 255. 0. 0. 0. 1. 0. 0. 0. 0. 3. 1. 0. 0. 0. 0. 0. 255.
      0. 3. 255. 0. 255. 251. 255. 255. 252. 3. 1. 0. 4. 0. 0. 0. 0. 1.
      0. 255. 252. 255. 255. 249. 255. 2. 3. 0. 1. 0. 2. 2. 0. 0. 0. 2.
      254. 255. 255. 255. 0. 254. 255. 252. 255. 255. 254. 0. 3. 0. 2.
      0. 0. 3. 2. 0. 1. 1. 0. 253. 255. 252. 255. 255. 255. 0. 0. 2. 0.
      0. 0. 0. 1. 2. 0. 0. 255. 255. 253. 255. 255. 255. 255. 255. 254.
      0. 0. 2. 0. 0. 0. 0. 2. 0. 0. 6. 0. 0. 0. 255. 254. 255. 255. 255.
      255. 0. 0. 1. 0. 0. 0. 2. 0. 0. 0. 0. 0. 255. 254. 255. 255. 255.
      254. 255. 255. 0. 0. 1. 0. 3. 0. 0. 1. 0. 0. 0. 0. 0. 1. 255. 255.
      255. 255. 255. 255. 0. 0. 1. 0. 0. 0. 0. 2. 0. 1. 3. 1. 254. 255.
      253. 255. 253. 255. 255. 255. 0. 2. 0. 2. 0. 1. 0. 0. 0. 1. 0. 2.
      0. 1. 1. 255. 249. 255. 255. 255. 0. 0. 1. 0. 0. 3. 0. 0. 1. 0. 0.
      0. 255. 253. 255. 255. 0. 0. 255. 255. 2. 254. 0. 1. 0. 0. 3. 0.
      3. 0. 1. 0. 3. 0. 0. 255. 255. 255. 255. 255. 0. 0. 1. 0. 0. 0. 1.
      0. 0. 1. 0. 2. 0. 255. 253. 255. 1. 3. 255. 253. 254. 254. 0. 255.
      0. 0. 2. 1. 0. 2. 0. 0. 4. 1. 0. 255. 253. 255. 255. 255. 0. 0. 1.
      0. 0. 0. 4. 1. 0. 1. 0. 0. 3. 255. 253. 4. 254. 0. 255. 255. 2.
      255. 255. 252. 0. 2. 0. 0. 4. 0. 3. 0. 0. 0. 0. 255. 254. 255.
      255. 255. 0. 0. 1. 0. 0. 2. 0. 1. 0. 4. 0. 0. 0. 0. 3. 0. 253.
      255. 255. 252. 0. 255. 255. 255. 3. 0. 0. 4. 0. 2. 0. 3. 0. 3.
      255. 255. 255. 255. 255. 255. 0. 0. 1. 0. 0. 0. 4. 0. 4. 0. 0. 1.
      0. 1. 0. 2. 0. 255. 255. 255. 252. 255. 251. 255. 0. 0. 4. 0. 0.
      0. 2. 0. 0. 0. 255. 255. 254. 255. 255. 255. 0. 0. 1. 0. 0. 0. 0.
      1. 0. 0. 0. 3. 0. 1. 0. 0. 3. 0. 0. 0. 255. 253. 255. 253. 255. 0.
      0. 2. 0. 0. 0. 3. 0. 1. 255. 255. 255. 255. 255. 254. 4. 0. 0. 0.
      0. 0. 0. 0. 0. 0. 0. 0. 0. 0. 0. 0. 0. 0. 0. 0. 0. 0. 2. 254. 255.
      255. 0. 0. 1. 0. 0. 3. 0. 1. 254. 254. 255. 254. 255. 0. 0. 1. 0.
      0. 0. 0. 0. 0. 0. 0. 0. 0. 0. 0. 0. 0. 0. 0. 0. 0. 0. 4. 251. 255.
      254. 252. 0. 6. 0. 0. 5. 0. 1. 2. 255. 252. 255. 255. 254. 255. 2.
      3. 2. 0. 1. 0. 0. 0. 0. 0. 0. 0. 0. 0. 0. 0. 0. 0. 0. 0. 0. 254.
      253. 255. 255. 255. 0. 0. 0. 1. 0. 3. 0. 0. 255. 255. 254. 255.
      255. 255. 0. 0. 0. 2. 0. 0. 0. 0. 0. 0. 0. 0. 0. 0. 0. 0. 0. 0. 0.
      0. 0. 0. 1. 254. 252. 255. 0. 3. 1. 2. 0. 0. 0. 2. 0. 255. 254.
      254. 255. 254. 1. 2. 2. 2. 0. 0. 0. 0. 0. 0. 0. 0. 0. 0. 0. 0. 0.
      0. 0. 0. 0. 1. 0. 255. 252. 255. 3. 0. 0. 0. 0. 0. 2. 0. 0. 255.
      254. 255. 251. 4. 0. 0. 0. 1. 1. 0. 0. 0. 0. 0. 0. 0. 0. 0. 0. 0.
      0. 0. 0. 0. 0. 253. 1. 253. 255. 255. 0. 2. 2. 2. 1. 0. 0. 2. 0.
      255. 255. 255. 255. 0. 0. 0. 3. 0. 1. 0. 0. 0. 0. 0. 0. 0. 0. 0.
      0. 0. 0. 0. 0. 0. 0. 255. 1. 253. 255. 255. 254. 0. 0. 0. 1. 0. 1.
      0. 2. 254. 252. 254. 255. 0. 3. 0. 0. 0. 1. 0. 0. 0. 0. 0. 0. 0.
      0. 0. 0. 0. 0. 0. 0. 0. 0. 254. 255. 255. 254. 255. 255. 0. 0. 0.
      0. 1. 0. 0. 0. 2. 255. 253. 255. 0. 1. 0. 1. 0. 0. 1. 0. 0. 0. 0.
      0. 0. 1. 0. 0. 0. 0. 0. 0. 0. 0. 255. 253. 0. 255. 255. 255. 4. 0.
      1. 0. 0. 1. 0. 0. 3. 253. 255. 255. 1. 0. 0. 0. 2. 0. 0. 0. 2. 0.
      0. 2. 0. 0. 0. 0. 0. 0. 0. 0. 0. 0. 2. 255. 0. 255. 255. 253. 0.
      1. 0. 0. 0. 0. 1. 0. 0. 255. 253. 255. 0. 0. 0. 0. 0. 2. 0. 2. 0.
      0. 0. 0. 2. 0. 0. 0. 0. 0. 0. 0. 0. 0. 0. 0. 255. 253. 254. 255.
      0. 3. 3. 1. 1. 0. 1. 0. 0. 255. 254. 255. 0. 2. 1. 0. 0. 0. 0. 0.
      0. 0. 0. 0. 0. 0. 0. 0. 0. 0. 0. 0. 0. 0. 255. 0. 252. 255. 255.
      254. 0. 0. 0. 2. 0. 0. 0. 1. 1. 255. 0. 0. 0. 0. 0. 0. 0. 1. 1. 1.
      0. 1. 1. 0. 1. 1. 0. 0. 0. 0. 0. 0. 0. 0. 255. 254. 255. 255. 250.
      255. 0. 1. 3. 0. 2. 0. 1. 0. 0. 0. 2. 0. 1. 3. 0. 0. 2. 0. 0. 0.
      0. 0. 0. 0. 0. 0. 0. 0. 0. 0. 0. 0. 0. 0. 254. 255. 255. 250. 255.
      255. 0. 3. 0. 0. 0. 1. 0. 0. 1. 1. 0. 0. 0. 0. 0. 1. 0. 1. 1. 1.
      0. 255. 255. 0. 1. 1. 0. 0. 0. 0. 0. 0. 0. 0. 255. 254. 253. 255.
      255. 252. 2. 1. 2. 1. 0. 0. 0. 1. 1. 0. 1. 0. 1. 0. 0. 0. 1. 0. 0.
      1. 1. 255. 255. 1. 1. 0. 0. 0. 0. 0. 0. 0. 0. 0. 255. 255. 0. 255.
      253. 2. 0. 0. 0. 0. 1. 0. 0. 2. 0. 2.</_>
    <_>
      0. 0. 1. 1. 0. 0. 1. 1. 0. 0. 0. 0. 0. 0. 0. 0. 0. 0. 3. 0. 0. 2.
      255. 255. 255. 254. 253. 255. 0. 1. 3. 0. 0. 2. 2. 0. 1. 0. 0.
      255. 0. 1. 0. 0. 2. 0. 0. 0. 0. 0. 0. 0. 0. 0. 0. 0. 1. 1. 0. 0.
      0. 0. 252. 255. 0. 255. 255. 255. 0. 0. 0. 2. 1. 1. 0. 0. 0. 1. 2.
      250. 255. 255. 2. 0. 0. 0. 2. 2. 0. 0. 0. 0. 0. 0. 0. 0. 0. 0. 0.
      0. 3. 0. 255. 255. 0. 255. 255. 254. 3. 0. 0. 0. 2. 0. 1. 1. 0. 0.
      0. 255. 255. 252. 0. 0. 2. 2. 0. 0. 0. 0. 0. 0. 0. 0. 0. 0. 0. 2.
      0. 3. 0. 1. 255. 254. 255. 255. 255. 255. 0. 1. 2. 1. 0. 0. 0. 0.
      0. 1. 255. 254. 255. 255. 3. 1. 0. 2. 0. 1. 0. 0. 0. 0. 0. 0. 0.
      0. 0. 0. 0. 0. 0. 1. 255. 254. 255. 254. 251. 255. 2. 0. 1. 0. 0.
      2. 0. 3. 0. 1. 255. 254. 254. 253. 0. 0. 0. 0. 3. 1. 0. 0. 0. 0.
      0. 0. 0. 0. 2. 0. 1. 1. 0. 0. 0. 255. 255. 254. 255. 255. 0. 1. 0.
      3. 0. 0. 0. 0. 3. 0. 255. 255. 255. 253. 2. 0. 0. 3. 0. 0. 0. 0.
      0. 0. 0. 0. 0. 0. 1. 1. 0. 0. 0. 1. 2. 250. 255. 254. 255. 254. 0.
      2. 0. 0. 1. 1. 0. 0. 0. 0. 252. 255. 255. 255. 0. 0. 0. 0. 2. 0.
      0. 0. 0. 0. 0. 0. 0. 0. 0. 2. 2. 0. 1. 0. 0. 255. 255. 255. 254.
      255. 1. 0. 1. 0. 0. 0. 3. 0. 0. 2. 255. 255. 255. 255. 0. 0. 2. 1.
      0. 0. 1. 0. 1. 0. 0. 0. 2. 0. 0. 0. 1. 0. 2. 0. 0. 255. 255. 253.
      255. 1. 0. 1. 1. 0. 0. 1. 0. 0. 0. 255. 255. 255. 254. 253. 5. 0.
      0. 0. 0. 2. 0. 1. 1. 3. 0. 3. 1. 0. 0. 1. 0. 0. 0. 1. 0. 254. 255.
      252. 255. 1. 0. 1. 0. 1. 0. 0. 0. 3. 2. 1. 252. 255. 255. 254. 0.
      4. 1. 0. 0. 0. 2. 0. 0. 0. 1. 0. 1. 0. 2. 0. 2. 0. 2. 254. 255.
      255. 252. 255. 0. 0. 3. 1. 0. 0. 2. 0. 0. 0. 0. 0. 255. 254. 255.
      254. 255. 0. 0. 0. 2. 0. 0. 0. 0. 1. 4. 3. 0. 1. 0. 2. 0. 255.
      255. 254. 254. 254. 255. 254. 0. 4. 1. 0. 2. 0. 0. 3. 0. 1. 3. 2.
      252. 255. 254. 255. 255. 0. 0. 1. 0. 1. 0. 2. 1. 0. 0. 0. 0. 2.
      255. 253. 1. 254. 255. 0. 255. 254. 255. 254. 3. 0. 1. 0. 0. 0. 0.
      3. 0. 1. 0. 0. 255. 255. 255. 252. 255. 0. 1. 0. 0. 0. 1. 0. 0. 0.
      0. 3. 255. 254. 255. 252. 1. 255. 251. 0. 255. 255. 253. 2. 0. 1.
      0. 0. 3. 2. 1. 0. 1. 1. 0. 0. 255. 251. 252. 255. 253. 0. 1. 1. 0.
      2. 0. 5. 0. 1. 1. 0. 255. 253. 254. 255. 0. 255. 255. 0. 254. 255.
      255. 0. 1. 1. 1. 2. 0. 0. 0. 1. 0. 0. 3. 0. 255. 255. 255. 254.
      255. 0. 0. 0. 6. 0. 1. 0. 1. 0. 0. 1. 0. 255. 255. 255. 255. 253.
      255. 0. 255. 0. 0. 2. 1. 0. 0. 0. 1. 1. 0. 1. 0. 1. 0. 0. 254.
      255. 255. 255. 255. 0. 0. 1. 0. 0. 0. 1. 0. 0. 0. 1. 0. 255. 255.
      0. 255. 255. 253. 255. 0. 0. 0. 3. 0. 0. 1. 1. 0. 0. 0. 0. 1. 0.
      0. 255. 255. 255. 255. 255. 255. 0. 0. 1. 0. 0. 0. 0. 2. 2. 1. 1.
      254. 253. 255. 2. 253. 253. 255. 253. 1. 2. 0. 3. 1. 0. 4. 0. 2.
      0. 0. 0. 1. 0. 0. 255. 255. 255. 255. 255. 255. 0. 0. 1. 0. 0. 0.
      2. 0. 0. 0. 0. 255. 255. 0. 255. 255. 255. 255. 255. 254. 0. 0. 0.
      0. 2. 0. 1. 0. 1. 0. 0. 1. 0. 0. 255. 255. 255. 255. 255. 255. 0.
      0. 1. 0. 0. 2. 0. 0. 5. 0. 0. 255. 254. 2. 252. 0. 255. 252. 255.
      255. 255. 0. 0. 1. 0. 0. 0. 3. 0. 0. 0. 1. 0. 0. 255. 255. 255.
      255. 255. 255. 0. 0. 1. 0. 0. 0. 1. 0. 0. 0. 0. 255. 254. 253. 3.
      1. 255. 253. 255. 2. 255. 2. 255. 254. 2. 0. 0. 2. 0. 0. 0. 1. 0.
      0. 255. 255. 255. 255. 255. 255. 0. 0. 1. 0. 0. 1. 0. 2. 0. 6. 1.
      0. 255. 255. 0. 254. 0. 255. 252. 2. 252. 253. 255. 253. 0. 0. 0.
      0. 3. 0. 0. 1. 0. 0. 255. 255. 255. 255. 255. 255. 0. 0. 1. 0. 0.
      0. 2. 0. 4. 0. 0. 3. 0. 1. 0. 255. 3. 255. 255. 251. 255. 255.
      253. 255. 1. 2. 4. 0. 0. 0. 0. 1. 0. 0. 255. 255. 255. 255. 255.
      255. 0. 0. 1. 0. 0. 0. 0. 0. 0. 4. 0. 0. 0. 0. 1. 2. 0. 255. 255.
      0. 255. 255. 255. 255. 0. 0. 0. 2. 0. 0. 0. 1. 0. 0. 255. 255.
      255. 253. 255. 0. 0. 2. 1. 0. 1. 0. 0. 0. 0. 0. 0. 0. 0. 1. 0. 0.
      2. 0. 0. 1. 255. 255. 254. 255. 254. 0. 0. 2. 0. 0. 0. 2. 0. 0.
      255. 255. 255. 255. 254. 253. 0. 0. 0. 1. 0. 0. 0. 0. 0. 0. 0. 0.
      0. 0. 3. 1. 0. 0. 0. 1. 1. 254. 253. 255. 253. 255. 3. 0. 0. 0. 1.
      0. 3. 2. 255. 249. 255. 251. 255. 255. 2. 0. 4. 0. 1. 0. 0. 0. 0.
      0. 0. 0. 0. 0. 2. 0. 0. 4. 0. 0. 0. 255. 253. 252. 255. 255. 0. 0.
      0. 0. 0. 1. 0. 0. 0. 255. 255. 255. 255. 255. 0. 0. 1. 1. 0. 0. 0.
      0. 0. 0. 0. 0. 0. 0. 0. 0. 1. 0. 2. 1. 1. 0. 255. 255. 252. 255.
      2. 0. 0. 3. 0. 1. 1. 0. 0. 255. 253. 255. 255. 255. 2. 2. 1. 0. 2.
      0. 0. 0. 0. 0. 0. 0. 0. 2. 0. 0. 0. 2. 0. 0. 0. 0. 0. 255. 255.
      255. 0. 0. 1. 0. 2. 0. 0. 2. 3. 253. 255. 252. 255. 0. 0. 3. 0. 3.
      0. 0. 0. 0. 0. 0. 0. 0. 0. 2. 0. 1. 0. 0. 1. 1. 2. 2. 0. 255. 251.
      255. 2. 0. 0. 0. 0. 1. 3. 0. 0. 255. 254. 255. 255. 0. 1. 0. 1. 0.
      1. 0. 0. 0. 0. 0. 0. 0. 0. 0. 5. 0. 3. 0. 0. 2. 0. 0. 0. 0. 255.
      254. 0. 2. 2. 1. 0. 2. 0. 0. 4. 254. 255. 254. 255. 0. 0. 1. 0. 2.
      0. 0. 0. 0. 0. 0. 0. 0. 0. 1. 0. 1. 0. 0. 0. 3. 0. 0. 2. 0. 250.
      255. 254. 0. 0. 0. 1. 0. 2. 0. 0. 255. 255. 255. 254. 3. 0. 0. 0.
      1. 0. 0. 0. 0. 0. 0. 0. 0. 0. 0. 1. 0. 0. 1. 0. 2. 0. 255. 254.
      255. 254. 253. 255. 0. 2. 0. 3. 0. 0. 1. 0. 253. 255. 255. 254. 0.
      1. 0. 6. 0. 1. 0. 0. 0. 0. 0. 0. 0. 0. 3. 0. 0. 0. 3. 0. 0. 255.
      253. 255. 252. 255. 255. 254. 0. 0. 2. 0. 0. 0. 0. 3. 252. 254.
      253. 255. 1. 0. 0. 0. 0. 0. 0. 0. 0. 0. 0. 0. 0. 0. 0. 1. 0. 3. 0.
      0. 2. 253. 1. 255. 253. 254. 253. 255. 3. 0. 0. 1. 1. 4. 0. 0.
      255. 255. 255. 255. 0. 0. 0. 0. 2. 0. 0. 0. 0. 0. 0. 0. 0. 0. 0.
      2. 0. 0. 2. 0. 1. 255. 0. 254. 255. 255. 255. 0. 0. 1. 0. 0. 1. 0.
      0. 1. 255. 255. 255. 250. 0. 4. 0. 0. 1. 0. 0. 0. 0. 0. 0. 0. 0.
      0. 1. 0. 0. 0. 0. 0. 3. 0. 0. 255. 250. 254. 253. 1. 2. 2. 0. 5.
